{"intercept": 0.47205586299831076, "weight_vector": [-0.44462643460393253, 2.450866930965233, -1.0123951490199397, 0.4980797921150498, 0.6214982701431911, -1.6687611540741705, 1.3223867328843493, 1.2641824942846376, -0.560890512122128, 3.354615015453451, 1.3751054284316067, -0.26028478232431573, -0.7248310686611888, 2.08815410617188, -1.0927423671090664, -1.2669457961158717, -1.1734449119806898, 1.061592190667412, -1.5605935354064822, 2.942998852437961, -0.895182135641719, 0.8825435061445492, 0.12137415249930072, 0.0, -0.6851242327879173, 0.02837539956840539, -1.2742230508476742, 3.865894527027896, -0.14418142765699524, -1.0082404726520688, 0.5446366637963685, -1.876571002038671, 1.4136058117025057, -1.0784211800573487, -0.9470726829837787, -0.6404351699700499, -3.2877180998796636, -1.731773062307931, 0.19901532011188963, 1.793200665052444, -1.8194724000053994, -0.6947985365398142, -1.353517691942455, 3.960452116916585, 1.3462513938060172, 0.19079236991025944, 1.136559026761062, 0.8121603693659791, 0.3958476948374736, 1.5633333516791954, 1.2404888283037676, -2.001410275443546, -0.8993317989805342, 1.2810920538057733, 0.7511237941664463, -0.32746167890421823, 0.5062027576093255, -1.7164392485696558, -0.3050331238289432, 0.18150415932435052, -1.0648327658223977, -0.6526372178323033, -0.5730833989038755, 2.729660784090036, -2.055529731961943, 0.0, -0.26775021948389366, -0.7815314361102685, -0.7199788003509147, 1.2659184298884991, -3.334828800605833, -0.2302156346588635, -0.8735987872669864, 0.5551328741708903, 1.6695132818782557, 0.16748823036858385, 0.8796153136889296, 1.2259743284338134, -1.2589459004855628, 0.01039803328003539, 0.9571314781857795, -0.15525952365399523, -0.13029619414638766, -1.1917080548469372, -0.8874817916646628, -0.407882909665752, 0.9424956830260905, 0.5384207610406484, 3.683068679808793, -1.348525328083444, -0.4505908774637447, 0.6417459426920029, -1.3013942582142213, -0.975726403467408, -1.4170464998738799, -0.0622153993765814, 0.5278896267239654, -1.296089583171239, 0.44853681142544255, -2.298046418206299, -0.7088014751819642, 0.21357073374939292, 2.8387575420779068, 0.32660651323918594, 0.0, -3.400787603044131, 0.0, 0.0, 0.5291942694037939, 1.6234255778539102, 1.6708676050781068, -5.3835547580385805, 0.0, -1.9486841764204796, -1.0698612164654133, 0.0, -2.6952376638279825, 1.730115275652948, 0.0, 1.306794078512675, 2.593451064115639, -0.6046054516741031, -1.3863331473296736, 0.0, -1.714713351252244, 1.079757904982535, 1.349419863649147, -0.2786151042343881, 0.0, 0.34328513668541033, 0.0, 0.261265130909322, 0.0, -0.6331937689495006, -0.23181287886142316, 0.0, 0.0, 2.7456139561569137, 0.0, 0.7673280099510548, 1.267806713558428, -0.3757559103050598, 2.9923216719478796, -0.5893238171243812, 0.0, 0.0, 0.0, 0.7105049477602885, -1.1772438227793796, -0.8531249458774522, 0.0, 0.0, 0.0, 0.0]}