/// The weights of individual elements of the FV.  These weights
// are output by data/ml/answer-train-gradboost.py as this:
//
// 270 answersets, 6286 answers
// + Cross-validation:
// (test) PERANS acc/prec/rcl/F1 = 0.976/0.665/0.867/0.752, @70 prec/rcl/F1 = 0.774/0.837/0.804, PERQ avail 1.000, any good = [0.937] MRR 0.924
// (test) PERANS acc/prec/rcl/F1 = 0.978/0.701/0.852/0.769, @70 prec/rcl/F1 = 0.784/0.807/0.796, PERQ avail 1.000, any good = [0.934] MRR 0.915
// (test) PERANS acc/prec/rcl/F1 = 0.975/0.657/0.867/0.748, @70 prec/rcl/F1 = 0.754/0.793/0.773, PERQ avail 1.000, any good = [0.940] MRR 0.912
// (test) PERANS acc/prec/rcl/F1 = 0.976/0.684/0.800/0.737, @70 prec/rcl/F1 = 0.821/0.748/0.783, PERQ avail 1.000, any good = [0.935] MRR 0.899
// (test) PERANS acc/prec/rcl/F1 = 0.976/0.688/0.785/0.734, @70 prec/rcl/F1 = 0.777/0.748/0.762, PERQ avail 1.000, any good = [0.930] MRR 0.910
// (test) PERANS acc/prec/rcl/F1 = 0.976/0.703/0.770/0.735, @70 prec/rcl/F1 = 0.792/0.733/0.762, PERQ avail 1.000, any good = [0.944] MRR 0.903
// (test) PERANS acc/prec/rcl/F1 = 0.977/0.678/0.859/0.758, @70 prec/rcl/F1 = 0.769/0.815/0.791, PERQ avail 1.000, any good = [0.935] MRR 0.886
// (test) PERANS acc/prec/rcl/F1 = 0.978/0.696/0.867/0.772, @70 prec/rcl/F1 = 0.760/0.822/0.790, PERQ avail 1.000, any good = [0.935] MRR 0.919
// (test) PERANS acc/prec/rcl/F1 = 0.975/0.665/0.837/0.741, @70 prec/rcl/F1 = 0.766/0.778/0.772, PERQ avail 1.000, any good = [0.933] MRR 0.887
// (test) PERANS acc/prec/rcl/F1 = 0.972/0.631/0.837/0.720, @70 prec/rcl/F1 = 0.745/0.756/0.750, PERQ avail 1.000, any good = [0.956] MRR 0.912
// (mean) PERANS acc/prec/rcl/F1 = 0.976/0.677/0.834/0.747, @70 prec/rcl/F1 = 0.774/0.784/0.778, PERQ avail 1.000, any good = [0.938] MRR 0.907
// (S.D.) PERANS acc/prec/rcl/F1 = 0.002/0.021/0.034/0.016, @70 prec/rcl/F1 = 0.021/0.034/0.016, PERQ avail 0.000, any good = [0.007] MRR 0.012
// + Full training set:
// training took 3 seconds
// (full) PERANS acc/prec/rcl/F1 = 0.973/0.622/0.970/0.758, @70 prec/rcl/F1 = 0.781/0.922/0.846, PERQ avail 1.000, any good = [0.937] MRR 0.973
// Full model is GradientBoostingClassifier(init=None, learning_rate=0.1, loss='deviance',               max_depth=3, max_features='sqrt', max_leaf_nodes=10,               min_samples_leaf=5, min_samples_split=10,               min_weight_fraction_leaf=0.0, n_estimators=200,               random_state=None, subsample=1.0, verbose=0,               warm_start=False)
//
{"prior": -0.64924482883210788, "learning_rate": 0.1, "labels": ["@occurences", "%occurences", "!occurences", "@resultRR", "%resultRR", "!resultRR", "@resultLogScore", "%resultLogScore", "!resultLogScore", "@passageLogScore", "%passageLogScore", "!passageLogScore", "@propertyScore", "%propertyScore", "!propertyScore", "@originPsg", "%originPsg", "!originPsg", "@originPsgFirst", "%originPsgFirst", "!originPsgFirst", "@originPsgByClueToken", "%originPsgByClueToken", "!originPsgByClueToken", "@originPsgByCluePhrase", "%originPsgByCluePhrase", "!originPsgByCluePhrase", "@originPsgByClueSV", "%originPsgByClueSV", "!originPsgByClueSV", "@originPsgByClueNE", "%originPsgByClueNE", "!originPsgByClueNE", "@originPsgByClueLAT", "%originPsgByClueLAT", "!originPsgByClueLAT", "@originPsgByClueSubject", "%originPsgByClueSubject", "!originPsgByClueSubject", "@originPsgByClueSubjectToken", "%originPsgByClueSubjectToken", "!originPsgByClueSubjectToken", "@originPsgByClueSubjectPhrase", "%originPsgByClueSubjectPhrase", "!originPsgByClueSubjectPhrase", "@originPsgByClueConcept", "%originPsgByClueConcept", "!originPsgByClueConcept", "@originPsgByConceptRR", "%originPsgByConceptRR", "!originPsgByConceptRR", "@originPsgByConceptScore", "%originPsgByConceptScore", "!originPsgByConceptScore", "@originPsgNP", "%originPsgNP", "!originPsgNP", "@originPsgNE", "%originPsgNE", "!originPsgNE", "@originPsgNPByLATSubj", "%originPsgNPByLATSubj", "!originPsgNPByLATSubj", "@originPsgBIO", "%originPsgBIO", "!originPsgBIO", "@originPsgSurprise", "%originPsgSurprise", "!originPsgSurprise", "@originDocTitle", "%originDocTitle", "!originDocTitle", "@originBingSnippet", "%originBingSnippet", "!originBingSnippet", "@originDBpOntology", "%originDBpOntology", "!originDBpOntology", "@originDBpONoClue", "%originDBpONoClue", "!originDBpONoClue", "@originDBpOClueLAT", "%originDBpOClueLAT", "!originDBpOClueLAT", "@originDBpOClueSubject", "%originDBpOClueSubject", "!originDBpOClueSubject", "@originDBpOClueSubjectToken", "%originDBpOClueSubjectToken", "!originDBpOClueSubjectToken", "@originDBpOClueConcept", "%originDBpOClueConcept", "!originDBpOClueConcept", "@originDBpOConceptRR", "%originDBpOConceptRR", "!originDBpOConceptRR", "@originDBpOConceptScore", "%originDBpOConceptScore", "!originDBpOConceptScore", "@originDBpProperty", "%originDBpProperty", "!originDBpProperty", "@originDBpPNoClue", "%originDBpPNoClue", "!originDBpPNoClue", "@originDBpPClueToken", "%originDBpPClueToken", "!originDBpPClueToken", "@originDBpPClueLAT", "%originDBpPClueLAT", "!originDBpPClueLAT", "@originDBpPClueSubject", "%originDBpPClueSubject", "!originDBpPClueSubject", "@originDBpPClueSubjectToken", "%originDBpPClueSubjectToken", "!originDBpPClueSubjectToken", "@originDBpPClueConcept", "%originDBpPClueConcept", "!originDBpPClueConcept", "@originDBpPConceptRR", "%originDBpPConceptRR", "!originDBpPConceptRR", "@originDBpPConceptScore", "%originDBpPConceptScore", "!originDBpPConceptScore", "@originFreebaseOntology", "%originFreebaseOntology", "!originFreebaseOntology", "@originFreebaseSpecific", "%originFreebaseSpecific", "!originFreebaseSpecific", "@originFBONoClue", "%originFBONoClue", "!originFBONoClue", "@originFBOClueToken", "%originFBOClueToken", "!originFBOClueToken", "@originFBOClueSV", "%originFBOClueSV", "!originFBOClueSV", "@originFBOClueLAT", "%originFBOClueLAT", "!originFBOClueLAT", "@originFBOClueSubject", "%originFBOClueSubject", "!originFBOClueSubject", "@originFBOClueSubjectToken", "%originFBOClueSubjectToken", "!originFBOClueSubjectToken", "@originFBOClueConcept", "%originFBOClueConcept", "!originFBOClueConcept", "@originFBOConceptRR", "%originFBOConceptRR", "!originFBOConceptRR", "@originFBOConceptScore", "%originFBOConceptScore", "!originFBOConceptScore", "@originConcept", "%originConcept", "!originConcept", "@originConceptBySubject", "%originConceptBySubject", "!originConceptBySubject", "@originConceptByLAT", "%originConceptByLAT", "!originConceptByLAT", "@originConceptByNE", "%originConceptByNE", "!originConceptByNE", "@originConceptRR", "%originConceptRR", "!originConceptRR", "@originConceptScore", "%originConceptScore", "!originConceptScore", "@originMultiple", "%originMultiple", "!originMultiple", "@psgDistClueToken", "%psgDistClueToken", "!psgDistClueToken", "@psgDistCluePhrase", "%psgDistCluePhrase", "!psgDistCluePhrase", "@psgDistClueSV", "%psgDistClueSV", "!psgDistClueSV", "@psgDistClueNE", "%psgDistClueNE", "!psgDistClueNE", "@psgDistClueLAT", "%psgDistClueLAT", "!psgDistClueLAT", "@psgDistClueSubject", "%psgDistClueSubject", "!psgDistClueSubject", "@psgDistClueSubjectToken", "%psgDistClueSubjectToken", "!psgDistClueSubjectToken", "@psgDistClueSubjectPhrase", "%psgDistClueSubjectPhrase", "!psgDistClueSubjectPhrase", "@psgDistClueConcept", "%psgDistClueConcept", "!psgDistClueConcept", "@psgDistConceptRR", "%psgDistConceptRR", "!psgDistConceptRR", "@psgDistConceptScore", "%psgDistConceptScore", "!psgDistConceptScore", "@bioScore", "%bioScore", "!bioScore", "@noTyCor", "%noTyCor", "!noTyCor", "@LATANone", "%LATANone", "!LATANone", "@spWordNet", "%spWordNet", "!spWordNet", "@LATQNoWordNet", "%LATQNoWordNet", "!LATQNoWordNet", "@LATANoWordNet", "%LATANoWordNet", "!LATANoWordNet", "@simpleScore", "%simpleScore", "!simpleScore", "@LATNE", "%LATNE", "!LATNE", "@LATDBpType", "%LATDBpType", "!LATDBpType", "@LATDBpWNType", "%LATDBpWNType", "!LATDBpWNType", "@LATQuantity", "%LATQuantity", "!LATQuantity", "@LATQuantityCD", "%LATQuantityCD", "!LATQuantityCD", "@LATWnInstance", "%LATWnInstance", "!LATWnInstance", "@LATDBpOntology", "%LATDBpOntology", "!LATDBpOntology", "@LATDBpProperty", "%LATDBpProperty", "!LATDBpProperty", "@LATFBOntology", "%LATFBOntology", "!LATFBOntology", "@tyCorSpQHit", "%tyCorSpQHit", "!tyCorSpQHit", "@tyCorSpAHit", "%tyCorSpAHit", "!tyCorSpAHit", "@tyCorSpNoHit", "%tyCorSpNoHit", "!tyCorSpNoHit", "@tyCorSpQAHit", "%tyCorSpQAHit", "!tyCorSpQAHit", "@tyCorSpMultiHit", "%tyCorSpMultiHit", "!tyCorSpMultiHit", "@tyCorANE", "%tyCorANE", "!tyCorANE", "@tyCorADBp", "%tyCorADBp", "!tyCorADBp", "@tyCorAQuantityCD", "%tyCorAQuantityCD", "!tyCorAQuantityCD", "@tyCorAWnInstance", "%tyCorAWnInstance", "!tyCorAWnInstance", "@tyCorADBpOntology", "%tyCorADBpOntology", "!tyCorADBpOntology", "@tyCorADBpProperty", "%tyCorADBpProperty", "!tyCorADBpProperty", "@tyCorAFBOntology", "%tyCorAFBOntology", "!tyCorAFBOntology", "@clOCMatchScore", "%clOCMatchScore", "!clOCMatchScore", "@clOCPrefixedScore", "%clOCPrefixedScore", "!clOCPrefixedScore", "@clOCPrefixingScore", "%clOCPrefixingScore", "!clOCPrefixingScore", "@clOCSuffixedScore", "%clOCSuffixedScore", "!clOCSuffixedScore", "@clOCSuffixingScore", "%clOCSuffixingScore", "!clOCSuffixingScore", "@clOCSubstredScore", "%clOCSubstredScore", "!clOCSubstredScore", "@clOCSubstringScore", "%clOCSubstringScore", "!clOCSubstringScore", "@clOCMetaMatchScore", "%clOCMetaMatchScore", "!clOCMetaMatchScore", "@clOMatchScore", "%clOMatchScore", "!clOMatchScore", "@clOPrefixedScore", "%clOPrefixedScore", "!clOPrefixedScore", "@clOPrefixingScore", "%clOPrefixingScore", "!clOPrefixingScore", "@clOSuffixedScore", "%clOSuffixedScore", "!clOSuffixedScore", "@clOSuffixingScore", "%clOSuffixingScore", "!clOSuffixingScore", "@clOSubstredScore", "%clOSubstredScore", "!clOSubstredScore", "@clOSubstringScore", "%clOSubstringScore", "!clOSubstringScore", "@clOMetaMatchScore", "%clOMetaMatchScore", "!clOMetaMatchScore", "@evdPrefixedScore", "%evdPrefixedScore", "!evdPrefixedScore", "@evdPrefixingScore", "%evdPrefixingScore", "!evdPrefixingScore", "@evdSuffixedScore", "%evdSuffixedScore", "!evdSuffixedScore", "@evdSuffixingScore", "%evdSuffixingScore", "!evdSuffixingScore", "@evdSubstredScore", "%evdSubstredScore", "!evdSubstredScore", "@evdSubstringScore", "%evdSubstringScore", "!evdSubstringScore", "@topAnswer", "%topAnswer", "!topAnswer", "@solrHitsEv", "%solrHitsEv", "!solrHitsEv", "@solrAHitsEv", "%solrAHitsEv", "!solrAHitsEv", "@solrHitsANormEv", "%solrHitsANormEv", "!solrHitsANormEv", "@solrMaxScoreEv", "%solrMaxScoreEv", "!solrMaxScoreEv", "@solrHitsMaxScoreEv", "%solrHitsMaxScoreEv", "!solrHitsMaxScoreEv", "@phase0Score", "%phase0Score", "!phase0Score", "@phase1Score", "%phase1Score", "!phase1Score", "@questionClassABBR", "%questionClassABBR", "!questionClassABBR", "@questionClassDESC", "%questionClassDESC", "!questionClassDESC", "@questionClassENTY", "%questionClassENTY", "!questionClassENTY", "@questionClassHUM", "%questionClassHUM", "!questionClassHUM", "@questionClassLOC", "%questionClassLOC", "!questionClassLOC", "@questionClassNUM", "%questionClassNUM", "!questionClassNUM"], "forest": [{"children_right": [2, 12, 4, -1, 6, 10, 8, -1, -1, -1, -1, 16, 14, -1, 18, -1, -1, -1, -1], "thresholds": [-0.3652160167694092, -0.10000000149011612, -0.3937795162200928, -2.0, 0.5, 0.5, 0.5496667623519897, -2.0, -2.0, -2.0, -2.0, 0.6138034462928772, 0.1778641790151596, -2.0, -0.4774986803531647, -2.0, -2.0, -2.0, -2.0], "values": [-1.8639479691736073e-16, -0.19874030612673158, 0.061941445031807686, -1.3788397618365753, 0.10474559322000561, 0.044946694047342341, 0.18396742435609034, -1.0588059915126717, 1.7428587670472762, 0.056683265053441893, 1.0857730426144798, -0.31668188552076465, -0.11878474251897073, -0.96166712170574009, 0.23073947341631534, -1.462293289105024, 0.97962864027167462, -0.073408732624187387, 1.3913680990280923], "features": [76, 271, 103, -2, 270, 288, 381, -2, -2, -2, -2, 229, 12, -2, 172, -2, -2, -2, -2], "children_left": [1, 11, 3, -1, 5, 9, 7, -1, -1, -1, -1, 15, 13, -1, 17, -1, -1, -1, -1]}, {"children_right": [2, 4, 12, 8, 6, -1, -1, 10, 16, -1, -1, -1, 14, -1, 18, -1, -1, -1, -1], "thresholds": [0.5844641923904419, 0.6312733888626099, 0.5, 0.5, 0.431541383266449, -2.0, -2.0, 1.0400617122650146, -0.3937795162200928, -2.0, -2.0, -2.0, 0.7890259027481079, -2.0, 0.5, -2.0, -2.0, -2.0, -2.0], "values": [-0.00044176907857028895, -0.023126538007658941, 0.14621062380401809, -0.085140722712264888, 0.18373547185364755, -1.5114948794491352, 2.4903010049726566, -0.0088216775673897602, -0.21148633947600953, -0.17974466436951886, 1.7316606141917708, -0.73639367353540397, 0.23438910508689165, -1.2381603803979937, 0.35847829388352942, -1.3112545994076408, -0.39021708142932782, 2.2235741003388045, 1.122704769026637], "features": [268, 76, 218, 14, 384, -2, -2, 271, 103, -2, -2, -2, 381, -2, 261, -2, -2, -2, -2], "children_left": [1, 3, 11, 7, 5, -1, -1, 9, 15, -1, -1, -1, 13, -1, 17, -1, -1, -1, -1]}, {"children_right": [2, 4, 12, -1, 6, 10, 8, -1, -1, -1, -1, -1, 14, 16, 18, -1, -1, -1, -1], "thresholds": [1.6390025615692139, -0.06384789943695068, 0.5, -2.0, -0.10000000149011612, 0.9111535549163818, 0.8713770508766174, -2.0, -2.0, -2.0, -2.0, -2.0, 0.7458726167678833, 0.6706572771072388, 0.8975485563278198, -2.0, -2.0, -2.0, -2.0], "values": [-0.00088510467275582832, -0.28032436950945183, 0.54861405475986791, -1.4484891434038147, -0.27208274437304081, -0.29417631480435991, -0.26000252130092627, -1.2907545772480988, -0.89509843880301476, -1.3773277201445113, -0.47800467896438426, 2.9624584666588083, 0.546427185936187, 0.32321511487228283, 0.5808131953936746, 1.9951957657591752, 0.38306679082297157, 2.5567176013812474, 2.3636341976640138], "features": [385, 172, 137, -2, 274, 381, 241, -2, -2, -2, -2, -2, 384, 381, 381, -2, -2, -2, -2], "children_left": [1, 3, 11, -1, 5, 9, 7, -1, -1, -1, -1, -1, 13, 15, 17, -1, -1, -1, -1]}, {"children_right": [2, 4, 6, -1, -1, 8, 10, 18, 14, 16, 12, -1, -1, -1, -1, -1, -1, -1, -1], "thresholds": [0.5454630851745605, 1.7308194637298584, 0.5, -2.0, -2.0, 0.8423354029655457, -0.5, -0.5, -0.7286180257797241, 2.409132480621338, 0.819783091545105, -2.0, -2.0, -2.0, -2.0, -2.0, -2.0, -2.0, -2.0], "values": [-0.0016584511758630477, -0.22220840737614581, 0.25465391328734327, -1.2864780899108474, 2.0502877891177778, 0.17070860274662378, 0.41934327621004996, -0.15465211000701715, 0.37643228283305946, -0.1131106669686209, 0.44413968597027281, 1.2744640010914257, 1.9355431967752632, 0.74543214282065207, 1.6055839903710498, -1.3647624844082837, 1.0326709223595429, -1.0010764408078074, -0.47438163229669544], "features": [381, 385, 255, -2, -2, 382, 102, 267, 268, 313, 1, -2, -2, -2, -2, -2, -2, -2, -2], "children_left": [1, 3, 5, -1, -1, 7, 9, 17, 13, 15, 11, -1, -1, -1, -1, -1, -1, -1, -1]}, {"children_right": [2, 6, 4, 16, -1, 8, 12, 10, -1, -1, -1, 14, -1, -1, -1, -1, 18, -1, -1], "thresholds": [0.06611847877502441, 0.5, 0.48754626512527466, 0.9245744943618774, -2.0, 3.080019950866699, 0.30348849296569824, -0.10000000149011612, -2.0, -2.0, -2.0, 1.19112229347229, -2.0, -2.0, -2.0, -2.0, 0.7286180257797241, -2.0, -2.0], "values": [-0.0020167439350296927, -0.13245543941968066, 0.13027075488546203, -0.24923708895176239, 1.8024827370407697, -0.032200219866891068, -0.17093639114737688, -0.051644253612629941, 1.7203175584561894, -0.63359362854156309, 0.14804900189622075, -0.16332406961922447, -1.3787190348178591, -1.1277268067113482, 1.0712846642707423, -1.2712279501834944, -0.16509906681389624, -0.59995432910144186, -1.7142280073709693], "features": [12, 128, 384, 12, -2, 271, 295, 292, -2, -2, -2, 382, -2, -2, -2, -2, 268, -2, -2], "children_left": [1, 5, 3, 15, -1, 7, 11, 9, -1, -1, -1, 13, -1, -1, -1, -1, 17, -1, -1]}, {"children_right": [2, 14, 4, 12, 6, 8, 10, -1, -1, -1, -1, -1, 16, -1, 18, -1, -1, -1, -1], "thresholds": [-0.3937795162200928, -0.2917795181274414, 0.5, 0.44635599851608276, 2.5, 0.851292073726654, 0.06604127585887909, -2.0, -2.0, -2.0, -2.0, -2.0, -0.10000000149011612, -2.0, 0.5, -2.0, -2.0, -2.0, -2.0], "values": [-0.0021682437434130809, -0.19214135928260581, 0.037543575951707646, 0.16298873869601105, 0.028184507013584228, -0.06348193019913434, 0.22359949366705548, -0.90999240531749992, 0.96981417527533897, -0.23420273021552776, 1.459433896185204, -1.3698150806225124, 0.40235593358902838, -1.2782248241859087, -0.17710137643246252, 1.164176760615093, 1.6870029100430641, -1.014644939193873, -1.278708186265439], "features": [103, 295, 293, 384, 0, 382, 12, -2, -2, -2, -2, -2, 361, -2, 402, -2, -2, -2, -2], "children_left": [1, 13, 3, 11, 5, 7, 9, -1, -1, -1, -1, -1, 15, -1, 17, -1, -1, -1, -1]}, {"children_right": [2, 4, 12, 6, -1, 8, 10, -1, -1, -1, -1, 14, 18, 16, -1, -1, -1, -1, -1], "thresholds": [-0.32491636276245117, 1.4847420454025269, 0.5, 0.5, -2.0, 0.8537949919700623, 0.47397029399871826, -2.0, -2.0, -2.0, -2.0, 1.1522769927978516, 0.5, 1.5737545490264893, -2.0, -2.0, -2.0, -2.0, -2.0], "values": [-0.0021779281783228604, -0.12122824326318073, 0.060664193997439504, -0.14097279734015503, 0.8034250728834248, -0.14881956190547938, 0.21587790510497107, -0.9361341989067048, 1.3643534049823172, -1.2563657967705557, 2.1781473049314322, 0.027308690075082954, 0.098203228915131655, -0.012320317732378652, 1.1735871149606758, -0.16169799680501501, 0.77225436315855556, 0.025692668238211022, 0.5889414211121573], "features": [178, 13, 396, 246, -2, 381, 381, -2, -2, -2, -2, 13, 177, 274, -2, -2, -2, -2, -2], "children_left": [1, 3, 11, 5, -1, 7, 9, -1, -1, -1, -1, 13, 17, 15, -1, -1, -1, -1, -1]}, {"children_right": [2, 16, 4, 10, 6, 8, -1, -1, -1, 14, 12, -1, -1, -1, -1, -1, 18, -1, -1], "thresholds": [0.6592699289321899, -0.010223287157714367, 0.8423354029655457, -0.3937795162200928, -0.5, -0.39783793687820435, -2.0, -2.0, -2.0, -0.45717573165893555, 0.5, -2.0, -2.0, -2.0, -2.0, -2.0, 0.5, -2.0, -2.0], "values": [-0.0020928243630784602, -0.14683005262543311, 0.20899843978411572, -0.090513917727479826, 0.30767734534993146, 0.26535043763743715, 1.451842331170039, 0.73605370481644927, 1.3279601832898862, 0.10362296559339869, -0.11043519107069596, -0.68339657391099184, 0.91037700824233414, -0.3954829948377136, 1.7506630614197669, -0.95486028161148306, -0.12953611596985187, 0.68964598606640637, -0.77597260215996799], "features": [381, 175, 382, 178, 132, 235, -2, -2, -2, 127, 14, -2, -2, -2, -2, -2, 80, -2, -2], "children_left": [1, 15, 3, 9, 5, 7, -1, -1, -1, 13, 11, -1, -1, -1, -1, -1, 17, -1, -1]}, {"children_right": [2, 10, 4, -1, 6, -1, 8, -1, -1, 12, 18, 14, 16, -1, -1, -1, -1, -1, -1], "thresholds": [0.06611847877502441, 2.1703391075134277, 0.10000000149011612, -2.0, 0.9321033954620361, -2.0, 2.328104257583618, -2.0, -2.0, 0.5494710803031921, -0.2463996410369873, 3.427633285522461, 0.5, -2.0, -2.0, -2.0, -2.0, -2.0, -2.0], "values": [-0.0020011541729698197, -0.094607735867847514, 0.091918008551042388, 0.11098079994608619, 0.16296370473272601, -1.2943036881384022, 0.30780640342281779, 0.52710411498800214, 1.4891291877208894, -0.099022881666161203, 0.23171887222043941, -0.15402619929363448, 0.22866234933573149, -0.95896237098410386, 1.8858453776704682, 1.2556435087187203, 0.63740034488681374, -1.5393711183777272, 1.3399347387403642], "features": [12, 262, 274, -2, 385, -2, 385, -2, -2, 381, 250, 235, 128, -2, -2, -2, -2, -2, -2], "children_left": [1, 9, 3, -1, 5, -1, 7, -1, -1, 11, 17, 13, 15, -1, -1, -1, -1, -1, -1]}, {"children_right": [2, 4, 10, 16, 6, 14, 8, -1, -1, -1, 12, -1, -1, -1, -1, 18, -1, -1, -1], "thresholds": [0.5, -0.4621928930282593, -0.1805787831544876, 0.9061126708984375, 0.5, -1.0836189985275269, 0.6874512434005737, -2.0, -2.0, -2.0, 1.634183645248413, -2.0, -2.0, -2.0, -2.0, -0.2443375587463379, -2.0, -2.0, -2.0], "values": [-0.0019261940018476483, 0.023390066405829447, -0.047541906853009519, -0.098942574461364147, 0.053004424400114381, -0.01652265159595041, 0.096647745302934712, -1.1377088516996796, 1.2052960309707565, -0.98143007984551811, -0.022237275591483599, -1.1006159706761114, 1.6584716495055634, -1.025582207394788, -0.011069021287556052, -0.11424075614918613, 0.43146214191304699, 0.51791728154257466, -0.81485378191569091], "features": [275, 253, 103, 103, 240, 241, 385, -2, -2, -2, 385, -2, -2, -2, -2, 310, -2, -2, -2], "children_left": [1, 3, 9, 15, 5, 13, 7, -1, -1, -1, 11, -1, -1, -1, -1, 17, -1, -1, -1]}, {"children_right": [2, 18, 4, 8, 6, 16, 14, 12, 10, -1, -1, -1, -1, -1, -1, -1, -1, -1, -1], "thresholds": [0.5, 0.5, 0.7608029842376709, -0.45717573165893555, 0.48754626512527466, 0.5, 0.5, -0.5, 0.3937795162200928, -2.0, -2.0, -2.0, -2.0, -2.0, -2.0, -2.0, -2.0, -2.0, -2.0], "values": [-0.0018859265843988386, -0.1248281692661151, 0.024457050231957086, -0.13474648780274981, 0.21073388036908461, -0.22789570596956796, 0.29633390159791745, 0.17837615701843001, -0.13874518193368329, -0.98908072158209759, -0.57270094310499287, 1.5137457326741572, -1.2401765858670648, 1.2638042337131477, 1.4286881094422539, -1.0064139132181205, -1.5421603178862573, -0.16154881285495179, -0.9806795918441904], "features": [104, 392, 382, 301, 384, 126, 263, 132, 241, -2, -2, -2, -2, -2, -2, -2, -2, -2, -2], "children_left": [1, 17, 3, 7, 5, 15, 13, 11, 9, -1, -1, -1, -1, -1, -1, -1, -1, -1, -1]}, {"children_right": [2, 4, 10, 6, 8, -1, -1, 12, -1, 16, 14, -1, -1, 18, -1, -1, -1, -1, -1], "thresholds": [0.5, 0.5, 0.40007537603378296, 1.634183645248413, 0.5796471834182739, -2.0, -2.0, 0.4111924171447754, -2.0, 5.659573554992676, -0.10000000149011612, -2.0, -2.0, 0.5, -2.0, -2.0, -2.0, -2.0, -2.0], "values": [-0.0017858618942405843, 0.025777487284076188, -0.086067105485210474, -0.0096197692197768046, 0.10113182115973816, -0.980223393121188, 1.3868417637589761, -0.1344122889858487, 1.0504310889453041, -0.12335224980518175, 0.098931403889419886, -1.2377344589242039, 0.09617001886401999, 0.2090469887163105, -0.25187931830365362, -1.1746598659000165, -0.3445961631260544, 2.0862444663456805, 0.77568295138692134], "features": [260, 177, 381, 385, 381, -2, -2, 381, -2, 174, 313, -2, -2, 302, -2, -2, -2, -2, -2], "children_left": [1, 3, 9, 5, 7, -1, -1, 11, -1, 15, 13, -1, -1, 17, -1, -1, -1, -1, -1]}, {"children_right": [2, 4, 6, 18, 14, 8, -1, 12, 10, -1, -1, -1, -1, 16, -1, -1, -1, -1, -1], "thresholds": [0.06611847877502441, 1.3173227310180664, 0.5, -0.5, 0.5, 0.5, -2.0, -0.2443375587463379, 1.8572802543640137, -2.0, -2.0, -2.0, -2.0, 0.5, -2.0, -2.0, -2.0, -2.0, -2.0], "values": [-0.0017557484978018277, -0.065074603318687654, 0.062460570910409602, -0.13988276023959761, 0.33432229660266272, 0.021784460233083339, 0.97736555812001891, -0.059568291827655044, 0.04279096778156944, -0.79113999528582934, 1.2336710157269437, -0.87807677237787485, 0.25185152386924681, 0.28189495190060637, 1.6001310644160383, 0.80590750420351165, 1.4739578701325127, -1.02644583841105, -1.1086444255499448], "features": [12, 385, 255, 102, 254, 269, -2, 271, 385, -2, -2, -2, -2, 131, -2, -2, -2, -2, -2], "children_left": [1, 3, 5, 17, 13, 7, -1, 11, 9, -1, -1, -1, -1, 15, -1, -1, -1, -1, -1]}, {"children_right": [2, 4, 10, -1, 6, 8, -1, -1, -1, 12, 16, -1, 14, -1, -1, 18, -1, -1, -1], "thresholds": [0.5, 0.5, 0.5, -2.0, 0.18564356863498688, 0.7451534271240234, -2.0, -2.0, -2.0, -0.10000000149011612, 0.5, -2.0, 0.5, -2.0, -2.0, 1.5, -2.0, -2.0, -2.0], "values": [-0.0017033215533180678, 0.052570807017995762, -0.0171184023006789, -0.066669065194170457, 0.096487738188339459, -0.017337157179283122, 0.98792003567405307, -1.0250819500286537, 1.2966791803077191, -0.036544782998466627, 0.017283046736400902, -0.6055195009035198, -0.015834969887691046, -0.60672436532020901, 0.002513327738985285, 0.030041547256454092, -0.23094921762099493, -0.12446626076238862, 0.71570606574825657], "features": [77, 129, 240, -2, 12, 384, -2, -2, -2, 292, 249, -2, 101, -2, -2, 0, -2, -2, -2], "children_left": [1, 3, 9, -1, 5, 7, -1, -1, -1, 11, 15, -1, 13, -1, -1, 17, -1, -1, -1]}, {"children_right": [2, 4, 6, -1, 12, 18, 8, 16, 10, -1, -1, -1, 14, -1, -1, -1, -1, -1, -1], "thresholds": [-0.3937795162200928, 0.060198523104190826, 0.5, -2.0, 0.75, -0.26864737272262573, -0.43141859769821167, 3.0427498817443848, 1.4291555881500244, -2.0, -2.0, -2.0, 5.065710067749023, -2.0, -2.0, -2.0, -2.0, -2.0, -2.0], "values": [-0.0015211363899898861, -0.090953110082010208, 0.017173647891228785, -1.1304438335070421, 0.35929097974808855, 0.045492858032183212, -0.0096563958541712441, -0.057030359466554145, 0.0072900149599706742, -0.014055421240649759, 0.53761146419581018, -1.3496088663543342, 0.40229912865224388, -1.2489044544648307, 2.6755660290460899, -0.46718506939790283, 0.54287565369508695, 0.74569026529120108, 0.25614358651135771], "features": [103, 385, 242, -2, 171, 346, 271, 289, 223, -2, -2, -2, 174, -2, -2, -2, -2, -2, -2], "children_left": [1, 3, 5, -1, 11, 17, 7, 15, 9, -1, -1, -1, 13, -1, -1, -1, -1, -1, -1]}, {"children_right": [2, 4, 6, 18, 8, 14, -1, 12, 10, -1, -1, -1, -1, -1, 16, -1, -1, -1, -1], "thresholds": [0.5, 0.5, -0.2917795181274414, 0.2917795181274414, -0.5, 0.5, -2.0, 0.19771918654441833, 0.8374724388122559, -2.0, -2.0, -2.0, -2.0, -2.0, 1.5, -2.0, -2.0, -2.0, -2.0], "values": [-0.0014720188974347555, 0.023999744595724421, -0.048177349242843122, 0.10004960871505623, -0.0032348748097977527, -0.094638353659797045, -0.20426522954980159, -0.060549471368036463, 0.0092718476303784731, -1.0648814194459622, 1.027153049927906, -1.1765873347356028, -0.2846547661362015, -1.1671451592694877, -0.081741749360883048, -1.123052495917209, -0.21287504813146854, 0.56918476529264284, 0.91760849598193628], "features": [131, 257, 292, 268, 267, 260, -2, 12, 385, -2, -2, -2, -2, -2, 0, -2, -2, -2, -2], "children_left": [1, 3, 5, 17, 7, 13, -1, 11, 9, -1, -1, -1, -1, -1, 15, -1, -1, -1, -1]}, {"children_right": [2, 12, 4, 18, 6, 10, 8, -1, -1, -1, -1, 14, -1, 16, -1, -1, -1, -1, -1], "thresholds": [0.06951816380023956, 0.7942777872085571, 0.24397501349449158, 1.5223290920257568, 0.20206207036972046, -0.10000000149011612, 0.5491553544998169, -2.0, -2.0, -2.0, -2.0, 0.3629704713821411, -2.0, 0.10000000149011612, -2.0, -2.0, -2.0, -2.0, -2.0], "values": [-0.0014192539621064853, -0.04929257315118292, 0.047722316799938068, 0.018318583249189026, 0.11767782832493186, -0.085398262844379957, 0.13301517809802763, -1.2722994620749879, 0.94270699874884778, -1.7757772044682021, -0.097787094669483807, -0.050689198657941165, 0.74349489593101337, -0.11840181080885612, 1.3408911702246007, -0.94436164282374724, -1.1767285387810951, 0.10047952292465086, 1.2964524646851707], "features": [12, 136, 178, 361, 103, 247, 381, -2, -2, -2, -2, 384, -2, 103, -2, -2, -2, -2, -2], "children_left": [1, 11, 3, 17, 5, 9, 7, -1, -1, -1, -1, 13, -1, 15, -1, -1, -1, -1, -1]}, {"children_right": [2, 6, 4, -1, -1, 14, 8, 10, 12, -1, -1, -1, -1, 16, 18, -1, -1, -1, -1], "thresholds": [1.4371843338012695, 0.5, -0.03248550742864609, -2.0, -2.0, 0.5, 1.6299803256988525, 0.08876091986894608, 0.8511949777603149, -2.0, -2.0, -2.0, -2.0, 5.5, 0.9110758304595947, -2.0, -2.0, -2.0, -2.0], "values": [-0.0013960541032795744, -0.009251149015183124, 0.071477545204354426, -1.1782309252357444, 0.79858742448187925, 0.044372602497013809, -0.032537154177511865, -0.037123674072707988, 0.090399178193319121, -0.621451354557221, 0.011326291023229266, -0.54378931783814555, 0.80545614273925581, 0.054402161604514811, -0.017320758214985438, 0.13371504224819866, 0.84401848708609661, -0.94235942959716679, 0.33039383561498026], "features": [235, 179, 382, -2, -2, 263, 262, 12, 381, -2, -2, -2, -2, 0, 1, -2, -2, -2, -2], "children_left": [1, 5, 3, -1, -1, 13, 7, 9, 11, -1, -1, -1, -1, 15, 17, -1, -1, -1, -1]}, {"children_right": [2, 4, 6, 10, -1, 8, 12, 18, 16, -1, -1, -1, 14, -1, -1, -1, -1, -1, -1], "thresholds": [-0.21009692549705505, 1.1414263248443604, 0.5, 0.5, -2.0, 0.32802075147628784, -0.20631927251815796, 0.5, 0.5, -2.0, -2.0, -2.0, 0.20532318949699402, -2.0, -2.0, -2.0, -2.0, -2.0, -2.0], "values": [-0.0012842880755307904, -0.037098372864449218, 0.022092948372780755, -0.055361491584572105, 0.40215577634232891, 0.03695548770557381, -0.011355667589114717, 0.015051652350346917, 0.094299438433027946, -0.10885320408319335, -0.60796642952810387, -1.1493867273964926, -0.0015439591785576733, -1.1366568380158442, 1.3596840550670419, -1.2426315493726621, 0.65796375893073178, -0.22188089824481907, 0.155446993818841], "features": [223, 130, 131, 236, -2, 133, 286, 251, 299, -2, -2, -2, 384, -2, -2, -2, -2, -2, -2], "children_left": [1, 3, 5, 9, -1, 7, 11, 17, 15, -1, -1, -1, 13, -1, -1, -1, -1, -1, -1]}, {"children_right": [2, 16, 4, 6, 10, -1, 8, -1, -1, 14, 12, -1, -1, -1, -1, 18, -1, -1, -1], "thresholds": [0.5, 1.9375660419464111, 0.8869746923446655, 5.32032585144043, 0.6839396953582764, -2.0, 0.1515716314315796, -2.0, -2.0, -0.2443375587463379, -1.0400617122650146, -2.0, -2.0, -2.0, -2.0, 0.48754626512527466, -2.0, -2.0, -2.0], "values": [-0.0012244621039998709, -0.017942747859112561, 0.014676563441734698, -0.063831483052583432, 0.11963777569351146, -0.81250492284399911, -0.0064243671946389051, -1.1244840503918672, 0.24163603318932741, 0.17358668750569034, 0.097152814501920551, -1.6422580732843786, 0.62279599186300594, -2.1335807259238031, 0.90114343527221574, -0.021368920243591341, 0.5475072507006129, -0.96306589575898816, 1.0919949949944483], "features": [234, 265, 382, 174, 222, -2, 381, -2, -2, 289, 241, -2, -2, -2, -2, 384, -2, -2, -2], "children_left": [1, 15, 3, 5, 9, -1, 7, -1, -1, 13, 11, -1, -1, -1, -1, 17, -1, -1, -1]}, {"children_right": [2, 10, 4, -1, 6, 18, 8, -1, -1, 12, 14, -1, -1, 16, -1, -1, -1, -1, -1], "thresholds": [0.3939405679702759, 0.5, 0.5, -2.0, 0.8362703323364258, -0.5, 0.24397501349449158, -2.0, -2.0, 0.5, 1.6255382299423218, -2.0, -2.0, 0.38159528374671936, -2.0, -2.0, -2.0, -2.0, -2.0], "values": [-0.0011896258995941086, -0.10131572342386472, 0.17658376371870113, 0.87931700680160496, 0.20706135364070599, 0.37973108740471379, 0.19145704185895832, 1.0978766059095959, 0.89610472427043419, -0.08703679822205565, -0.11173647343071612, -1.2768496398398521, -0.90406164071732364, -0.10736186947035546, -1.1899775801042773, -0.77334574661131794, -1.1209727330046091, 1.6969376319968823, 1.2254446383632642], "features": [384, 257, 272, -2, 382, 132, 76, -2, -2, 14, 250, -2, -2, 13, -2, -2, -2, -2, -2], "children_left": [1, 9, 3, -1, 5, 17, 7, -1, -1, 11, 13, -1, -1, 15, -1, -1, -1, -1, -1]}, {"children_right": [2, 14, 4, 8, 6, 12, 18, 10, -1, -1, -1, -1, -1, -1, 16, -1, -1, -1, -1], "thresholds": [-0.8035330176353455, -2.197299003601074, 0.7608029842376709, 0.10000000149011612, 2.441260814666748, -0.3937795162200928, 0.5923229455947876, 0.9245744943618774, -2.0, -2.0, -2.0, -2.0, -2.0, -2.0, 1.3280651569366455, -2.0, -2.0, -2.0, -2.0], "values": [-0.001164259368486957, -0.069523108239137335, 0.004209841092693874, -0.059761685008933495, 0.093132283676544997, 0.045047295260237909, 0.15974655057439732, -0.043943585925393644, -0.83450399300754863, -0.48181945707901724, 0.31399853444584375, -0.20819886514368827, 0.30411567934013489, 0.94009088459400902, -0.077045311255260651, -1.1286848172867456, 0.82594665690821034, 1.349610193674974, 1.0584642505321229], "features": [274, 241, 382, 217, 382, 76, 381, 12, -2, -2, -2, -2, -2, -2, 382, -2, -2, -2, -2], "children_left": [1, 13, 3, 7, 5, 11, 17, 9, -1, -1, -1, -1, -1, -1, 15, -1, -1, -1, -1]}, {"children_right": [2, 4, 12, 6, -1, 8, 10, -1, -1, -1, -1, -1, 14, 16, 18, -1, -1, -1, -1], "thresholds": [0.7608029842376709, 0.2463996410369873, -0.5955737829208374, 0.5, -2.0, 0.5, -0.2877194881439209, -2.0, -2.0, -2.0, -2.0, -2.0, 0.8035330176353455, -0.3637317419052124, 0.10503917932510376, -2.0, -2.0, -2.0, -2.0], "values": [-0.0010686000637107845, -0.055993085106057439, 0.083404070795467619, -0.036315621306655485, -0.85854583832627407, 0.015510145759853711, -0.053595147191733819, -0.57608993756140703, 0.48771443656830438, -0.89490482980436992, 0.0032895946430540278, 0.2764068027548654, 0.088452970037533579, 0.10398001030796895, 0.039821959263921423, -0.27379624830452032, 0.73851258189335267, -0.14763059883534521, 0.75864830943669903], "features": [382, 103, 172, 242, -2, 270, 1, -2, -2, -2, -2, -2, 262, 1, 1, -2, -2, -2, -2], "children_left": [1, 3, 11, 5, -1, 7, 9, -1, -1, -1, -1, -1, 13, 15, 17, -1, -1, -1, -1]}, {"children_right": [2, 4, 10, 6, -1, 14, 8, -1, -1, 18, 12, 16, -1, -1, -1, -1, -1, -1, -1], "thresholds": [1.6390025615692139, 1.2535158395767212, 0.5, 0.42847397923469543, -2.0, 5.418022632598877, -0.3566317558288574, -2.0, -2.0, 0.5, 0.5, 0.5078849792480469, -2.0, -2.0, -2.0, -2.0, -2.0, -2.0, -2.0], "values": [-0.001027002383883237, -0.077209589146787869, 0.14878110498457667, -0.072362140089047899, -1.3072758314392565, -0.059309675790439338, -0.10409317608166621, -0.27916507021600107, -1.0129066311193908, 0.17237997525584736, 0.12939481046063478, 0.11155697138134675, 1.1658708519175702, -0.9451091651106307, -0.30846234508594644, 1.1806061518611628, 0.85247129818582146, 1.0748777459170378, 0.86966450470779522], "features": [385, 223, 134, 381, -2, 174, 13, -2, -2, 273, 179, 381, -2, -2, -2, -2, -2, -2, -2], "children_left": [1, 3, 9, 5, -1, 13, 7, -1, -1, 17, 11, 15, -1, -1, -1, -1, -1, -1, -1]}, {"children_right": [2, 4, 10, 6, 14, 12, 8, -1, -1, -1, -1, -1, -1, 16, 18, -1, -1, -1, -1], "thresholds": [0.5, 1.1041377782821655, -0.32491636276245117, 1.907433271408081, 0.5, 0.6971367597579956, 0.7732471227645874, -2.0, -2.0, -2.0, -2.0, -2.0, -2.0, 0.600177526473999, 2.5, -2.0, -2.0, -2.0, -2.0], "values": [-0.00096374187931036936, -0.0033125611234212319, 0.1480520496374855, -0.011021961591391018, 0.03416254715519082, -0.032509229590555522, 0.11662872621488847, -2.0028189379565964, 1.1117780493847074, -1.0770523910119028, 1.1093288540656154, -0.23650710107443149, -0.95873334248932884, 0.037058032789062209, -0.12203473176459527, -0.29498685231281341, 0.61608830565543105, -1.1038852337139435, -1.8389741662369101], "features": [246, 130, 277, 382, 390, 256, 384, -2, -2, -2, -2, -2, -2, 1, 0, -2, -2, -2, -2], "children_left": [1, 3, 9, 5, 13, 11, 7, -1, -1, -1, -1, -1, -1, 15, 17, -1, -1, -1, -1]}, {"children_right": [2, 16, 4, 10, 6, 8, 14, -1, -1, 12, -1, -1, -1, -1, -1, 18, -1, -1, -1], "thresholds": [0.5, 0.5, -0.4939750134944916, -0.2443375587463379, 1.4105168581008911, -0.022297728806734085, -0.10000000149011612, -2.0, -2.0, 0.9629100561141968, -2.0, -2.0, -2.0, -2.0, -2.0, -0.20206207036972046, -2.0, -2.0, -2.0], "values": [-0.00082737306937465517, -0.035080371410229336, 0.0065120565806915361, -0.034515197106078269, 0.010997748573712959, -0.014069280567896131, 0.076628250210630314, -1.0338650286531059, 0.59933558539683429, 0.11240201685876791, -0.53297766504017863, 1.2858140768490967, -1.5724241513790922, -2.4666985373603283, 0.62273599028350812, -0.031613228586258077, -1.0586928354387417, -1.058648955920195, -0.21565388437351149], "features": [104, 291, 76, 310, 1, 385, 136, -2, -2, 241, -2, -2, -2, -2, -2, 292, -2, -2, -2], "children_left": [1, 15, 3, 9, 5, 7, 13, -1, -1, 11, -1, -1, -1, -1, -1, 17, -1, -1, -1]}, {"children_right": [2, -1, 4, 6, 8, 12, 10, 14, 16, -1, -1, -1, -1, -1, -1, -1, -1], "thresholds": [-4.949489593505859, -2.0, 0.5, -0.32491636276245117, 0.5, 0.5, 0.21899911761283875, -0.6672919392585754, 0.2443375587463379, -2.0, -2.0, -2.0, -2.0, -2.0, -2.0, -2.0, -2.0], "values": [-0.00085418561860549282, 1.7824445727542289, -0.0014798652843633323, -0.0035083304937339526, 0.12698852314752676, -0.024995771307323528, 0.007759483039613887, 0.16303089180004618, -0.050408900587574378, 0.061962282100674712, 1.0175416335763201, -0.55441638115903935, -0.12908881051812438, -1.0627938183196193, 1.0269301978751124, -1.0927955924260093, -1.0499896625903224], "features": [268, -2, 246, 178, 99, 264, 360, 100, 100, -2, -2, -2, -2, -2, -2, -2, -2], "children_left": [1, -1, 3, 5, 7, 11, 9, 13, 15, -1, -1, -1, -1, -1, -1, -1, -1]}, {"children_right": [2, 4, 18, 8, 6, 14, 10, 16, 12, -1, -1, -1, -1, -1, -1, -1, -1, -1, -1], "thresholds": [1.045454502105713, -0.3937795162200928, 0.5, 0.060198523104190826, 0.8443846702575684, 0.5, -0.517836332321167, 0.012161970138549805, 1.0, -2.0, -2.0, -2.0, -2.0, -2.0, -2.0, -2.0, -2.0, -2.0, -2.0], "values": [-0.00077566442075256963, -7.7158655909520459e-05, -0.083163058658474009, -0.031684083819380628, 0.0064756366171377262, -0.024848937797481343, 0.074762348608574683, -0.048025583165798739, 0.2848455095097252, -2.6394728247621582, 0.59490443446266206, 1.9316926667768799, -1.1502443729129952, -0.21286500614180326, -0.49015137695019029, -1.0482702127300441, -1.0677679880973863, -1.0539923989999709, -1.1440500925669486], "features": [298, 103, 258, 385, 381, 390, 178, 384, 312, -2, -2, -2, -2, -2, -2, -2, -2, -2, -2], "children_left": [1, 3, 17, 7, 5, 13, 9, 15, 11, -1, -1, -1, -1, -1, -1, -1, -1, -1, -1]}, {"children_right": [2, 4, 14, 8, 6, -1, -1, 10, 12, -1, -1, -1, -1, -1, 16, 18, -1, -1, -1], "thresholds": [1.4371843338012695, 0.5, -0.10000000149011612, -0.3652160167694092, -0.6235165596008301, -2.0, -2.0, 1.0279531478881836, 1.1414263248443604, -2.0, -2.0, -2.0, -2.0, -2.0, 0.5, 0.7977668046951294, -2.0, -2.0, -2.0], "values": [-0.00071993817258761135, -0.00230783533663093, 0.070160302814877423, -0.0039148974248465725, 0.10726818611106667, -1.1031545535358307, 0.97621127205350822, -0.022802726454755857, 9.885475073013802e-05, -0.6726491685208762, 0.33475616050699292, -0.061723564415884995, 0.28225718006285133, -0.015639502944543807, 0.080625855756931486, 0.10084435014847418, -1.0912010165902009, -0.16655007562277527, 1.1308659288152849], "features": [217, 246, 271, 295, 382, -2, -2, 1, 130, -2, -2, -2, -2, -2, 260, 381, -2, -2, -2], "children_left": [1, 3, 13, 7, 5, -1, -1, 9, 11, -1, -1, -1, -1, -1, 15, 17, -1, -1, -1]}, {"children_right": [2, 12, 4, 6, -1, 8, 10, -1, -1, -1, -1, 14, 16, -1, -1, -1, 18, -1, -1], "thresholds": [0.09256117045879364, 0.6197162866592407, 1.3237545490264893, -0.5, -2.0, 0.7014608383178711, 3.427633285522461, -2.0, -2.0, -2.0, -2.0, 0.39237457513809204, 0.5105841159820557, -2.0, -2.0, -2.0, 0.6484942436218262, -2.0, -2.0], "values": [-0.00064724987216793685, -0.015038869271888484, 0.0056021590031772144, 0.0043342916598408943, 0.79082510514988469, -0.029799413607061544, 0.0091467347828147784, -1.0524784578238717, 1.7577578107479557, 0.068613574156346252, 0.87442199188843794, -0.023136502175785598, 0.005919664352565847, -0.98646174925688979, 0.9600739333451207, -1.1548687383690661, 0.19196178405549633, 1.1467085142226352, -0.35597399124196633], "features": [222, 235, 139, 102, -2, 385, 247, -2, -2, -2, -2, 384, 384, -2, -2, -2, 12, -2, -2], "children_left": [1, 11, 3, 5, -1, 7, 9, -1, -1, -1, -1, 13, 15, -1, -1, -1, 17, -1, -1]}, {"children_right": [2, 4, 10, 6, -1, -1, 8, -1, -1, 12, 16, -1, 14, -1, -1, 18, -1, -1, -1], "thresholds": [-0.4939750134944916, 2.0602450370788574, 0.6368218660354614, 0.5, -2.0, -2.0, 0.6185609102249146, -2.0, -2.0, -0.022929511964321136, -0.2917795181274414, -2.0, 0.5, -2.0, -2.0, 2.167675256729126, -2.0, -2.0, -2.0], "values": [-0.00063359847283542183, -0.014793980057019833, 0.0067346382378728241, -0.039229800176173231, 0.94223922683586092, 0.58951482276917655, -0.042291939219571383, -0.874375992425515, -0.01964362242289884, 0.014025371958448, -0.0071032320122083213, -1.0251902168927574, 0.11201271636113887, 1.2572610839558187, 0.53761437603850315, -0.044473469851265934, 0.11283365473740183, -0.75512220678336406, 0.97609679293850604], "features": [235, 382, 277, 248, -2, -2, 382, -2, -2, 385, 100, -2, 129, -2, -2, 1, -2, -2, -2], "children_left": [1, 3, 9, 5, -1, -1, 7, -1, -1, 11, 15, -1, 13, -1, -1, 17, -1, -1, -1]}, {"children_right": [2, 12, 4, 6, -1, 8, 10, -1, -1, -1, -1, 14, 18, -1, 16, -1, -1, -1, -1], "thresholds": [-0.2877919673919678, 0.5, 0.41381779313087463, -0.8035330176353455, -2.0, 0.8035330176353455, 1.152872085571289, -2.0, -2.0, -2.0, -2.0, -1.558553695678711, 0.7165019512176514, -2.0, 1.0592288970947266, -2.0, -2.0, -2.0, -2.0], "values": [-0.00064152310453041575, -0.061018537351786251, 6.0573110895105765e-05, -0.00038495654021527474, 1.0411035275148004, -0.027990102688490913, 0.0038083288046322742, -0.65442608503446209, 0.028029577912674724, 0.035041615039422887, 0.89174764664043016, -0.038834884041116055, -0.14037957470280885, 0.82236351590762502, -0.094532750740264015, -1.0676060361965669, -3.299320171645026, -1.1311876450104414, -1.675003841355108], "features": [361, 390, 360, 265, -2, 178, 136, -2, -2, -2, -2, 175, 381, -2, 1, -2, -2, -2, -2], "children_left": [1, 11, 3, 5, -1, 7, 9, -1, -1, -1, -1, 13, 17, -1, 15, -1, -1, -1, -1]}, {"children_right": [2, 4, 6, -1, 14, 16, 8, 12, 10, -1, -1, -1, -1, -1, -1, 18, -1, -1, -1], "thresholds": [-0.7590881586074829, 2.5570411682128906, -0.4939750134944916, -2.0, 0.03405135124921799, 0.5, 0.7783521413803101, 0.8234591484069824, -0.10844069719314575, -2.0, -2.0, -2.0, -2.0, -2.0, -2.0, -0.2443375587463379, -2.0, -2.0, -2.0], "values": [-0.00058529879531516956, -0.026159930193384421, 0.0036448453284006923, -0.83984646788550943, 0.12849524334513229, -0.024093652530525991, 0.0066205115171700619, -0.054934022369643107, 0.11946101085641586, 1.1370320996042864, 0.99373491979465578, -0.53356886580568508, -0.71376562287995815, 1.2817164603628759, -1.0476356542154706, -0.0099998589758751987, -0.81194741028639705, 0.76189505291988602, -0.29533008120448501], "features": [103, 250, 253, -2, 222, 266, 384, 268, 1, -2, -2, -2, -2, -2, -2, 310, -2, -2, -2], "children_left": [1, 3, 5, -1, 13, 15, 7, 11, 9, -1, -1, -1, -1, -1, -1, 17, -1, -1, -1]}, {"children_right": [2, 4, 16, 6, 10, 14, 8, -1, -1, -1, 12, -1, -1, -1, -1, -1, 18, -1, -1], "thresholds": [3.427633285522461, -0.10000000149011612, 0.5, 0.17899176478385925, -0.6135753393173218, 0.5, 0.25160735845565796, -2.0, -2.0, -2.0, 0.45717573165893555, -2.0, -2.0, -2.0, -2.0, -2.0, -0.6971367597579956, -2.0, -2.0], "values": [-0.00046560191699603044, -0.0017706592502206649, 0.091520530870932634, -0.011263104079698679, 0.0070064490638150293, -0.063236527504574716, 0.08389147107799283, 0.92289646491900945, 0.32183994428200885, -1.2979235844730446, 0.010830708215338106, 0.24897326165298775, -0.018557229224861388, -1.1500604323253125, -1.0802866197689149, -1.0541783796053616, 0.11180172396985601, -1.1193145513303713, 0.95573676967161703], "features": [247, 235, 129, 384, 262, 266, 222, -2, -2, -2, 271, -2, -2, -2, -2, -2, 235, -2, -2], "children_left": [1, 3, 15, 5, 9, 13, 7, -1, -1, -1, 11, -1, -1, -1, -1, -1, 17, -1, -1]}, {"children_right": [2, 8, 4, -1, 6, 16, -1, 10, 18, 12, 14, -1, -1, -1, -1, -1, -1, -1, -1], "thresholds": [1.6104453802108765, 2.1427290439605713, 0.6839396953582764, -2.0, -0.2443375587463379, 1.8571659326553345, -2.0, 0.8927994966506958, -0.4478260576725006, 4.4126081466674805, -0.10000000149011612, -2.0, -2.0, -2.0, -2.0, -2.0, -2.0, -2.0, -2.0], "values": [-0.00049415849802939861, -0.0016481290226114753, 0.056067434632326177, -0.96124532968569076, 0.1279582400940236, 0.051030364429450435, 1.4592865981491576, -0.0030858738421515389, 0.049594033655775131, -0.01742381771723904, 0.058658095359544561, -0.20223949230079941, -2.0039704918314469, 0.8291762225450684, 0.5245417632826197, -1.0785814608979283, 1.1034491866102802, -1.1741237084070857, 0.51424760478592069], "features": [175, 235, 222, -2, 295, 382, -2, 381, 268, 289, 253, -2, -2, -2, -2, -2, -2, -2, -2], "children_left": [1, 7, 3, -1, 5, 15, -1, 9, 17, 11, 13, -1, -1, -1, -1, -1, -1, -1, -1]}, {"children_right": [2, 12, 4, 6, -1, 10, 8, -1, -1, -1, -1, 14, 18, 16, -1, -1, -1, -1, -1], "thresholds": [-0.7590881586074829, 0.5688326358795166, 3.7936034202575684, 2.3416616916656494, -2.0, 0.7388034462928772, 0.5, -2.0, -2.0, -2.0, -2.0, 0.42387425899505615, -0.7919778823852539, 0.3937795162200928, -2.0, -2.0, -2.0, -2.0, -2.0], "values": [-0.00043050504810728717, -0.021504877305251743, 0.0030552786012042706, 0.0024121919772781375, 1.0366534201741873, -0.047148293930627916, 0.10253437569194465, 0.79663158409749457, 1.0177843023685171, -0.4642162755237102, -0.69525513144872808, -0.019512659915520522, -0.085915933156780283, -0.014683694278128214, -1.0353742953196983, -0.71790384815482167, 1.7447268076560849, -1.0570130672702527, -1.1706700925846847], "features": [103, 381, 265, 385, -2, 241, 257, -2, -2, -2, -2, 223, 253, 271, -2, -2, -2, -2, -2], "children_left": [1, 11, 3, 5, -1, 9, 7, -1, -1, -1, -1, 13, 17, 15, -1, -1, -1, -1, -1]}, {"children_right": [2, 16, 4, 10, 6, 14, 8, -1, -1, 12, -1, -1, -1, -1, -1, -1, 18, -1, -1], "thresholds": [-0.4939750134944916, -0.3937795162200928, 0.17924344539642334, -0.002739520976319909, 0.5, 0.5, 0.14433756470680237, -2.0, -2.0, -0.402182936668396, -2.0, -2.0, -2.0, -2.0, -2.0, -2.0, -0.4675818085670471, -2.0, -2.0], "values": [-0.00034614568288167245, -0.023138447025387723, 0.0034558870796724751, -0.055976407160939323, 0.071303183162968145, 0.18177324363029698, 0.061413360659347063, 0.5516457562288074, 0.33534372320862454, -0.053181265064955158, -1.1762949462330439, -1.0434556142303228, -0.95725610427088648, 0.74281207749921263, 1.3533928969121825, 0.82098216715327588, -0.024860430309683434, -0.0065951538846875995, -0.74748911149455122], "features": [76, 286, 384, 385, 258, 99, 253, -2, -2, 259, -2, -2, -2, -2, -2, -2, 292, -2, -2], "children_left": [1, 15, 3, 9, 5, 13, 7, -1, -1, 11, -1, -1, -1, -1, -1, -1, 17, -1, -1]}, {"children_right": [2, 4, 10, 6, 18, 14, 8, -1, -1, 16, 12, -1, -1, -1, -1, -1, -1, -1, -1], "thresholds": [2.351270914077759, 3.427633285522461, -0.10000000149011612, -0.4312264323234558, 0.5, -0.4727228879928589, 1.6104453802108765, -2.0, -2.0, 2.4913482666015625, -0.5773497819900513, -2.0, -2.0, -2.0, -2.0, -2.0, -2.0, -2.0, -2.0], "values": [-0.00040118482333765756, -0.0056332217748173968, 0.048667773883199518, -0.0068344262837148409, 0.070759377966712361, -0.038965950319884188, -0.0021213112873292644, -0.041485513572268408, 0.52016224738626737, -0.014476564011497235, 0.052666972580998721, -0.75362499595627386, 0.72364808571582984, 0.0089057426744991088, -0.73068956904910942, -0.59336782919813524, 0.23289110938086655, 0.045172772386122051, 0.7980559740913552], "features": [13, 247, 358, 172, 269, 307, 175, -2, -2, 382, 262, -2, -2, -2, -2, -2, -2, -2, -2], "children_left": [1, 3, 9, 5, 17, 13, 7, -1, -1, 15, 11, -1, -1, -1, -1, -1, -1, -1, -1]}, {"children_right": [2, 4, 18, 6, 8, 12, 10, 16, 14, -1, -1, -1, -1, -1, -1, -1, -1, -1, -1], "thresholds": [3.427633285522461, 2.3416616916656494, 0.10000000149011612, -0.022297728806734085, 0.5, -0.3937795162200928, 0.5, 1.5, 0.5, -2.0, -2.0, -2.0, -2.0, -2.0, -2.0, -2.0, -2.0, -2.0, -2.0], "values": [-0.00035147358030709078, -0.0012619398821069573, 0.063822162323765627, -0.036058977444296307, 0.086623197314832368, -0.046004445901759047, 0.0033704641768932879, 0.12209015124669108, 0.059084038194574896, -0.42474508729118371, 0.1785758517343449, -1.0292309931603278, -0.9654609599709455, 0.68978709803199723, 1.0084677043234984, 1.0903943881607414, 0.92427295675791121, 0.70292846441998658, -1.0425654844866652], "features": [247, 385, 100, 385, 177, 103, 179, 0, 131, -2, -2, -2, -2, -2, -2, -2, -2, -2, -2], "children_left": [1, 3, 17, 5, 7, 11, 9, 15, 13, -1, -1, -1, -1, -1, -1, -1, -1, -1, -1]}, {"children_right": [2, 16, 4, 12, 6, 8, 10, -1, -1, -1, -1, 14, -1, -1, -1, 18, -1, -1, -1], "thresholds": [-0.4939750134944916, 0.8031743764877319, -0.8234591484069824, 0.8234591484069824, 2.810560703277588, 0.5, 0.5, -2.0, -2.0, -2.0, -2.0, -0.10000000149011612, -2.0, -2.0, -2.0, 0.7480804920196533, -2.0, -2.0, -2.0], "values": [-0.00035155657173119125, -0.018982460509211395, 0.0027563045477686367, -0.038814585704388907, 0.00538118362341656, -0.026837951448893352, 0.083569905336844483, -0.97710414495585185, -0.24401290500434661, 1.0157594649163464, 0.89671528608004658, -0.04475165662258785, 0.2952300717712889, -0.73400209335484934, -0.018666617770612466, -0.020179478921407583, 0.30718751751321904, -0.61731235333167411, 0.46401022479798548], "features": [253, 217, 268, 103, 385, 251, 99, -2, -2, -2, -2, 265, -2, -2, -2, 381, -2, -2, -2], "children_left": [1, 15, 3, 11, 5, 7, 9, -1, -1, -1, -1, 13, -1, -1, -1, 17, -1, -1, -1]}, {"children_right": [2, 4, 8, 6, 18, 10, 14, 16, 12, -1, -1, -1, -1, -1, -1, -1, -1, -1, -1], "thresholds": [2.3416616916656494, 0.7035602927207947, 1.5, 1.2305259704589844, 3.049588918685913, 0.9245744943618774, 0.5, 1.382455587387085, 0.5, -2.0, -2.0, -2.0, -2.0, -2.0, -2.0, -2.0, -2.0, -2.0, -2.0], "values": [-0.00027970580026910266, -0.030326806956480514, 0.073303640277014137, -0.021095302064465051, -0.067777951396392255, -0.014483521629917121, -0.11006079086470438, 0.12451831923858796, 0.061986129657316209, -0.31541523493127477, 0.44625442714158231, 0.8389705254101224, 0.67753233913619315, -0.87651492411401477, -1.6202512760496048, 1.0765302455651271, 0.54949387500377589, -0.81856318871693456, -3.092939945971148], "features": [385, 223, 0, 1, 217, 12, 273, 271, 99, -2, -2, -2, -2, -2, -2, -2, -2, -2, -2], "children_left": [1, 3, 7, 5, 17, 9, 13, 15, 11, -1, -1, -1, -1, -1, -1, -1, -1, -1, -1]}, {"children_right": [2, 4, 14, 8, 6, -1, 12, 10, -1, -1, -1, -1, -1, 16, -1, -1, 18, -1, -1], "thresholds": [-0.46225088834762573, 0.7027631998062134, 0.5, 2.348349094390869, 0.517836332321167, -2.0, -0.6748128533363342, 1.207801103591919, -2.0, -2.0, -2.0, -2.0, -2.0, -0.2061462700366974, -2.0, -2.0, -0.10000000149011612, -2.0, -2.0], "values": [-0.00022502412587043194, -0.017491617934581979, 0.0024884192971156671, -0.035501595802477512, 0.02975312145257053, 1.0112150897929248, 0.012534708875056847, -0.040681101679987494, 0.71576137764193792, -0.86396533261118003, -1.4823790264748422, 0.47953680927529568, -0.85344008371661995, -0.01095388297437508, 0.068353876912591635, -0.38590959350939857, 0.070760838573219298, 2.0161430083309928, 0.17117533677583155], "features": [172, 381, 218, 385, 241, -2, 172, 382, -2, -2, -2, -2, -2, 223, -2, -2, 139, -2, -2], "children_left": [1, 3, 13, 7, 5, -1, 11, 9, -1, -1, -1, -1, -1, 15, -1, -1, 17, -1, -1]}, {"children_right": [2, 6, 4, -1, 8, -1, 10, -1, 14, 16, 12, -1, -1, -1, -1, -1, -1], "thresholds": [3.1438722610473633, -0.34846171736717224, 0.047508470714092255, -2.0, 0.6955363750457764, -2.0, -0.2877919673919678, -2.0, 0.3767637610435486, 0.5, 0.5, -2.0, -2.0, -2.0, -2.0, -2.0, -2.0], "values": [-0.00021580235100057335, -0.0030839473487757185, 0.039445249879481156, -2.59377638152825, 0.041823638215927356, 0.74842098960101744, -0.0033552867184630181, -1.4283527553088748, 0.044401463761039761, -0.045351201574793484, -0.0028302057089807315, 0.017395218240243007, -0.18045866760383031, 0.00040393767613129379, 0.9061923377881077, -0.79450386411986162, -1.3863806858141585], "features": [13, 304, 12, -2, 381, -2, 361, -2, 1, 398, 255, -2, -2, -2, -2, -2, -2], "children_left": [1, 5, 3, -1, 7, -1, 9, -1, 13, 15, 11, -1, -1, -1, -1, -1, -1]}, {"children_right": [2, 10, 4, 14, 6, 12, 8, -1, -1, -1, 18, -1, -1, -1, 16, -1, -1, -1, -1], "thresholds": [0.15725257992744446, 0.49078449606895447, 0.8304523229598999, -0.5, 0.5, 0.5, 2.258976936340332, -2.0, -2.0, -2.0, 1.4371843338012695, -2.0, -2.0, -2.0, 0.5457833409309387, -2.0, -2.0, -2.0, -2.0], "values": [-0.0001854983339656209, -0.039817859989837889, 0.052892100034317512, 0.2133057948673012, 0.021985392629858786, 0.05424122248601284, 0.0026510903188980942, -0.67103023013616669, 0.59873698112314355, -0.96400736244030483, -0.069983781105830811, 0.92160710005784807, 0.42781494030633543, 0.75814211558498912, 0.21760253641316138, 1.6141891989919288, 0.4952400778058525, -1.083339880649, -1.206564202318138], "features": [384, 381, 382, 78, 240, 227, 385, -2, -2, -2, 127, -2, -2, -2, 223, -2, -2, -2, -2], "children_left": [1, 9, 3, 13, 5, 11, 7, -1, -1, -1, 17, -1, -1, -1, 15, -1, -1, -1, -1]}, {"children_right": [2, 4, 12, 6, -1, 10, 8, -1, -1, -1, -1, 14, -1, 16, 18, -1, -1, -1, -1], "thresholds": [3.0427498817443848, 0.8943321704864502, 1.5737545490264893, 3.5, -2.0, 0.3937795162200928, 2.4424118995666504, -2.0, -2.0, -2.0, -2.0, 0.5, -2.0, 0.5, 0.2443375587463379, -2.0, -2.0, -2.0, -2.0], "values": [-0.00026519762107262812, 0.00029132901981967699, -0.043303698572496142, -0.0076713665920812787, 0.44825145796033355, -0.0054962597654822426, -0.027752341431376587, -1.0521256562452748, 0.71572381890950254, 0.0064284420760633868, -0.26795213416421199, -0.068649455562192888, 0.67965516719741537, -0.040884115898336244, -0.11327059456664562, -1.1413163229172363, 0.63519708706007294, -2.1061973679772277, -1.1503587194907099], "features": [127, 381, 256, 0, -2, 130, 382, -2, -2, -2, -2, 134, -2, 165, 133, -2, -2, -2, -2], "children_left": [1, 3, 11, 5, -1, 9, 7, -1, -1, -1, -1, 13, -1, 15, 17, -1, -1, -1, -1]}, {"children_right": [2, 14, 4, 6, 10, 8, -1, -1, -1, 18, 12, -1, -1, -1, 16, -1, -1, -1, -1], "thresholds": [-0.022297728806734085, 0.5, -0.32491636276245117, 0.40123188495635986, -0.32802075147628784, 0.45717573165893555, -2.0, -2.0, -2.0, 0.5, 0.5, -2.0, -2.0, -2.0, -0.3050307631492615, -2.0, -2.0, -2.0, -2.0], "values": [-0.00023444885976169221, -0.033419995919152408, 0.043223473378437384, 0.10601035379412591, 0.034009304779524414, 0.21826324070438793, 0.60737116379996126, 1.4873063568731724, -1.0846482300163824, 0.074990948159044016, 0.021596192716647238, 0.12088375905174642, 0.29461144728391264, -1.0216078441393621, -0.039380486472942414, -1.0564772771930251, -0.70599840317904161, 0.83329034247331935, 0.58004620674677076], "features": [385, 104, 130, 381, 133, 271, -2, -2, -2, 227, 179, -2, -2, -2, 385, -2, -2, -2, -2], "children_left": [1, 13, 3, 5, 9, 7, -1, -1, -1, 17, 11, -1, -1, -1, 15, -1, -1, -1, -1]}, {"children_right": [2, 6, 4, 18, -1, 8, 14, 12, 10, -1, -1, -1, -1, 16, -1, -1, -1, -1, -1], "thresholds": [0.09256117045879364, -0.10000000149011612, 4.660800933837891, -0.2525177299976349, -2.0, -0.26590287685394287, -0.5, 0.8648463487625122, 0.6678887605667114, -2.0, -2.0, -2.0, -2.0, -0.6071946620941162, -2.0, -2.0, -2.0, -2.0, -2.0], "values": [-0.00028538310915432648, -0.0065175235930950842, 0.0024208581393804366, 0.00030759363980894041, 1.0467285897027123, -0.012490201345335449, 0.005209703608404421, -0.020217487921797579, 0.00048628460342339255, 0.15249528394421263, -1.6289455700647681, -0.97487146389929691, 0.61710905064162047, 0.034423386762462954, -0.020681674250268876, 0.013569220527458405, 0.94487593441734008, -2.2655613694383785, 0.0079481720691229746], "features": [222, 265, 13, 304, -2, 1, 102, 381, 12, -2, -2, -2, -2, 130, -2, -2, -2, -2, -2], "children_left": [1, 5, 3, 17, -1, 7, 13, 11, 9, -1, -1, -1, -1, 15, -1, -1, -1, -1, -1]}, {"children_right": [2, 12, 4, 14, 6, 8, 10, -1, -1, -1, -1, -1, 18, 16, -1, -1, -1, -1, -1], "thresholds": [0.5, -0.32491636276245117, -1.0836189985275269, 0.22772443294525146, 0.09256117045879364, 1.634183645248413, 3.116487979888916, -2.0, -2.0, -2.0, -2.0, -2.0, 5.583383560180664, -2.197299003601074, -2.0, -2.0, -2.0, -2.0, -2.0], "values": [-0.00026490141453044329, 0.035135073440212036, -0.0008228835004121753, -0.023777577522948321, 0.00033481138396950443, -0.0069863261506513995, 0.0034973714169569407, -0.7464464264383206, 0.61030208968347111, 0.063574974983865537, -1.2231598635250003, -1.034495277212012, 0.048874416057019227, -0.013738085008253654, -0.93327718975195328, 0.62384188644696514, -0.7570594245612644, 0.72493452338367592, -0.12256877706768197], "features": [248, 277, 241, 13, 222, 385, 178, -2, -2, -2, -2, -2, 174, 241, -2, -2, -2, -2, -2], "children_left": [1, 11, 3, 13, 5, 7, 9, -1, -1, -1, -1, -1, 17, 15, -1, -1, -1, -1, -1]}, {"children_right": [2, 4, 14, 6, 10, 8, -1, -1, -1, 12, -1, -1, -1, 16, -1, 18, -1, -1, -1], "thresholds": [1.7135109901428223, -0.10000000149011612, 0.5, 4.4126081466674805, 1.874845266342163, 3.1139888763427734, -2.0, -2.0, -2.0, -2.5570411682128906, -2.0, -2.0, -2.0, 0.5, -2.0, -0.10000000149011612, -2.0, -2.0, -2.0], "values": [-0.00025164933101057903, 0.00020322962553003039, -0.037574974901536294, -0.0064150312865322075, 0.0043368349762538064, -0.0060548162188869556, -2.7404412807387919, -0.29872778111194276, 0.98608229507632283, 0.0048828748017874174, -0.81742400095531786, 0.80257001041466935, 0.061552033754445373, -0.068705980191444221, -0.39088739276912726, -0.042313987153544896, -1.9950914531647712, -2.7017274284055324, -0.42201537982227744], "features": [133, 295, 242, 289, 172, 382, -2, -2, -2, 130, -2, -2, -2, 249, -2, 271, -2, -2, -2], "children_left": [1, 3, 13, 5, 9, 7, -1, -1, -1, 11, -1, -1, -1, 15, -1, 17, -1, -1, -1]}, {"children_right": [2, 16, 4, 12, 6, 10, 8, -1, -1, -1, -1, -1, 14, -1, -1, -1, 18, -1, -1], "thresholds": [-0.6135753393173218, 0.5, 0.15725257992744446, -0.10000000149011612, -0.32491636276245117, 0.523861289024353, 0.7904017567634583, -2.0, -2.0, -2.0, -2.0, -2.0, 0.5, -2.0, -2.0, -2.0, 2.8140249252319336, -2.0, -2.0], "values": [-0.00021953335849499224, -0.013921182100545442, 0.001245534426373072, -0.031559562661104761, 0.043889715517874482, 0.10356110561159039, 0.034837781816481804, 0.52676551521815596, 0.14424761093389982, 0.9221767817450125, 0.16355483556176292, -1.0291698410000309, -0.039510269393585408, -0.51810906867599615, -1.0578042386869448, 0.15521285152458411, -0.019253831300056937, -0.94894209410633912, 0.8354172184119224], "features": [127, 251, 384, 130, 130, 277, 13, -2, -2, -2, -2, -2, 251, -2, -2, -2, 385, -2, -2], "children_left": [1, 15, 3, 11, 5, 9, 7, -1, -1, -1, -1, -1, 13, -1, -1, -1, 17, -1, -1]}, {"children_right": [2, 4, -1, 8, 6, 16, 14, 10, 12, -1, -1, -1, -1, -1, -1, -1, -1], "thresholds": [0.325391948223114, 1.6255382299423218, -2.0, 3.116487979888916, 0.7552831172943115, 1.7788963317871094, 0.8581570386886597, 0.7783521413803101, -0.2443375587463379, -2.0, -2.0, -2.0, -2.0, -2.0, -2.0, -2.0, -2.0], "values": [-0.00026351914307567894, -0.00047655455026415663, 0.66586513322881569, -0.0011181648604545113, 0.025427620216400552, -0.10076353695913898, 0.06929466731008399, -0.00045107920564060021, -0.067864204233932829, -0.36812974822765104, 0.80025927340742486, 0.16018433793555156, -1.3883569593896972, 1.147234660330841, 0.88771241792940714, -1.5687232389632628, -2.6397014825579768], "features": [220, 259, -2, 178, 384, 265, 381, 384, 313, -2, -2, -2, -2, -2, -2, -2, -2], "children_left": [1, 3, -1, 7, 5, 15, 13, 9, 11, -1, -1, -1, -1, -1, -1, -1, -1]}, {"children_right": [2, 10, 4, -1, 6, 8, -1, -1, -1, 16, 12, 14, -1, -1, -1, -1, 18, -1, -1], "thresholds": [-0.6368218660354614, -0.9803844690322876, -0.20206207036972046, -2.0, 4.612996578216553, -0.26440054178237915, -2.0, -2.0, -2.0, 0.3937795162200928, 0.8789658546447754, 1.7162017822265625, -2.0, -2.0, -2.0, -2.0, 0.45717573165893555, -2.0, -2.0], "values": [-0.0002028262070428955, -0.013118686545465162, 0.0012629500454200769, -0.4216065843854897, 0.0024932716381706006, 0.0013237768587906428, 0.93756599717876188, -0.27748825788516007, 0.056637471192687472, 0.0061226289765132346, -0.020192134580640418, -0.026692032121274419, 0.83726885134119278, -1.0292731599562814, -2.5642841713035631, -1.0227574059581364, 0.022969540495216389, 1.2222401491821802, -0.17962685259218372], "features": [253, 253, 247, -2, 13, 301, -2, -2, -2, 271, 384, 382, -2, -2, -2, -2, 277, -2, -2], "children_left": [1, 9, 3, -1, 5, 7, -1, -1, -1, 15, 11, 13, -1, -1, -1, -1, 17, -1, -1]}, {"children_right": [2, 4, 8, -1, 6, -1, -1, 16, 10, 12, 14, -1, -1, -1, -1, -1, 18, -1, -1], "thresholds": [4.92722749710083, 0.9400594234466553, -0.6971367597579956, -2.0, -0.38831257820129395, -2.0, -2.0, 0.5, -0.45717573165893555, 0.6009666323661804, -0.5474635362625122, -2.0, -2.0, -2.0, -2.0, -2.0, 0.6971367597579956, -2.0, -2.0], "values": [-0.00018559896300867989, -0.0041991998478343156, 0.0055479853893274419, -0.19583520284475711, 0.029725320247963351, -1.3635432538363694, 0.62611314173105459, 0.024379690656179828, 0.0023909121209740713, 0.10979757918187548, 0.00018772486440885735, -1.0318758068413614, 1.2820853599108417, 0.51418472927254566, -0.061490246102091257, -0.36915727594634645, 0.033058666130783211, 0.84038481766528228, -0.33606447470035944], "features": [174, 381, 259, -2, 163, -2, -2, 167, 139, 13, 268, -2, -2, -2, -2, -2, 133, -2, -2], "children_left": [1, 3, 7, -1, 5, -1, -1, 15, 9, 11, 13, -1, -1, -1, -1, -1, 17, -1, -1]}, {"children_right": [2, 4, 18, 10, 6, 8, 14, -1, -1, 16, 12, -1, -1, -1, -1, -1, -1, -1, -1], "thresholds": [2.596935272216797, 0.3929157853126526, 0.5, 2.6749162673950195, 0.3872983455657959, -0.6368218660354614, 0.8364226818084717, -2.0, -2.0, 0.6672919392585754, -0.10000000149011612, -2.0, -2.0, -2.0, -2.0, -2.0, -2.0, -2.0, -2.0], "values": [-0.00016534654207921837, -0.0057356126679993895, 0.031376933533209687, -0.00060341951704433454, -0.017772445765473717, -0.010101888601983956, -0.075488543715896722, 0.63930875779346441, -0.19537379134141167, 0.00031289615486915061, -0.15289179863644675, -4.1437712597068197, -1.6832472778365031, -0.69757391880946462, -1.6883223099987561, 0.11077424839091225, -0.26080009684876015, 0.56472582080748701, 0.76073711734418115], "features": [382, 12, 242, 13, 178, 262, 241, -2, -2, 178, 298, -2, -2, -2, -2, -2, -2, -2, -2], "children_left": [1, 3, 17, 9, 5, 7, 13, -1, -1, 15, 11, -1, -1, -1, -1, -1, -1, -1, -1]}, {"children_right": [2, 4, 8, -1, 6, -1, -1, 14, 10, -1, 12, -1, -1, 16, 18, -1, -1, -1, -1], "thresholds": [-0.8234591484069824, 0.5, 0.9245744943618774, -2.0, -0.3652160167694092, -2.0, -2.0, -0.39996767044067383, -0.14207537472248077, -2.0, 0.5, -2.0, -2.0, 1.5, 0.4939750134944916, -2.0, -2.0, -2.0, -2.0], "values": [-0.00013541576540200968, -0.028767481344532116, 0.0015256062670418464, -2.1529143253038749, -0.025853598272933823, 0.32145847697473878, -0.94890316393566398, 0.0002107824949701847, 0.028914955898682693, -1.0907444083510869, 0.062828881967719116, 1.208016532862132, -0.02269116482773964, -0.01020844960141005, 0.0044374036110217596, -0.36014515774246253, 0.5320283041487035, 0.086511707794708723, -0.78249053222073439], "features": [268, 140, 12, -2, 277, -2, -2, 1, 385, -2, 270, -2, -2, 0, 229, -2, -2, -2, -2], "children_left": [1, 3, 7, -1, 5, -1, -1, 13, 9, -1, 11, -1, -1, 15, 17, -1, -1, -1, -1]}, {"children_right": [2, 4, 6, 8, 14, -1, -1, 12, 10, -1, -1, -1, -1, 16, 18, -1, -1, -1, -1], "thresholds": [2.810560703277588, 3.5, -0.5, 1.020416498184204, -0.6152932643890381, -2.0, -2.0, 1.7135109901428223, 0.3327640891075134, -2.0, -2.0, -2.0, -2.0, 0.660464882850647, 0.5, -2.0, -2.0, -2.0, -2.0], "values": [-0.0001312387769398048, -0.016914845157130952, 0.050280827162130955, -0.011323312402981648, -0.083848272021792847, 0.88817722949388289, 0.75489070447943663, -0.0090334333917952807, -0.038101698987276111, -0.60978200398189197, -2.1648464123475772, -0.080975855078766951, -1.3207829362361911, -0.15639909294730941, -0.075613680142066222, -1.3230854847324944, -2.7493736104587123, -1.1261490213435359, -2.5183090489793809], "features": [385, 0, 132, 253, 250, -2, -2, 250, 12, -2, -2, -2, -2, 13, 288, -2, -2, -2, -2], "children_left": [1, 3, 5, 7, 13, -1, -1, 11, 9, -1, -1, -1, -1, 15, 17, -1, -1, -1, -1]}, {"children_right": [2, 16, 4, 6, 12, 10, 8, -1, -1, -1, -1, -1, 14, -1, -1, -1, 18, -1, -1], "thresholds": [-0.20206207036972046, 1.5796834230422974, 0.7388034462928772, -0.10000000149011612, 0.5, 0.5, 0.01908816024661064, -2.0, -2.0, -2.0, -2.0, -2.0, 0.5, -2.0, -2.0, -2.0, 0.5, -2.0, -2.0], "values": [-0.00010205735146411495, -0.015877157529023883, 0.00088358776780377967, 0.0040470298557845202, -0.012461775697994884, -0.0031570852792713513, 0.0084107322714013933, -0.010957130174053364, 0.19450226826466019, 0.75780532233798947, -0.11297642382875707, 0.84628283727297748, -0.013198003482745401, -0.45208240901211139, -0.11621615380762523, -0.36494604859087798, -0.042810339686857594, -1.7564081691262745, -0.20263523572293715], "features": [247, 127, 271, 277, 356, 137, 382, -2, -2, -2, -2, -2, 395, -2, -2, -2, 255, -2, -2], "children_left": [1, 15, 3, 5, 11, 9, 7, -1, -1, -1, -1, -1, 13, -1, -1, -1, 17, -1, -1]}, {"children_right": [2, 12, 4, -1, 6, 10, 8, -1, -1, -1, -1, 14, -1, 16, 18, -1, -1, -1, -1], "thresholds": [-0.46225088834762573, 0.10000000149011612, 0.1515716314315796, -2.0, 0.7388034462928772, 0.5, 0.48754626512527466, -2.0, -2.0, -2.0, -2.0, 3.7726950645446777, -2.0, 2.0011978149414062, -0.4621928930282593, -2.0, -2.0, -2.0, -2.0], "values": [-9.050400867441149e-05, -0.01257943036940324, 0.0018721294712757744, -1.0265591468675719, 0.0076097712571654196, 0.011347950806099866, -0.0060659912920562331, -1.2753520368521678, 0.40039285476008069, 0.39923281096537694, 0.097316037776847095, -0.014129339861210084, 0.16959942314281368, -0.029774731731420354, -0.011697812263521998, -1.044001643439147, -1.223418045301776, 0.012369063695321718, -0.41603112201828307], "features": [172, 220, 381, -2, 271, 129, 384, -2, -2, -2, -2, 174, -2, 13, 292, -2, -2, -2, -2], "children_left": [1, 11, 3, -1, 5, 9, 7, -1, -1, -1, -1, 13, -1, 15, 17, -1, -1, -1, -1]}, {"children_right": [2, 4, -1, 10, 6, 16, 8, -1, -1, 12, 14, -1, -1, -1, -1, -1, -1], "thresholds": [2.197299003601074, 0.09545454382896423, -2.0, -0.10000000149011612, -0.022297728806734085, 0.5, 0.5, -2.0, -2.0, 0.023590464144945145, 0.5, -2.0, -2.0, -2.0, -2.0, -2.0, -2.0], "values": [-0.00011387883178906677, 3.1778737410172116e-05, -0.65503814467649113, -0.015158901034641459, 0.0008335134337910772, -0.02244875619832221, 0.030359729708948881, 0.34364373969887746, -0.062700508868946667, -0.026912334676273218, 0.0028621639898199582, -1.0238307216405158, -0.98615857777152538, 0.85156041949176831, -0.12513359204111177, -0.8893783485135458, -0.80746219086666082], "features": [163, 171, -2, 289, 385, 393, 288, -2, -2, 385, 137, -2, -2, -2, -2, -2, -2], "children_left": [1, 3, -1, 9, 5, 15, 7, -1, -1, 11, 13, -1, -1, -1, -1, -1, -1]}, {"children_right": [2, 4, 16, 12, 6, 10, 8, -1, -1, -1, -1, 14, 18, -1, -1, -1, -1, -1, -1], "thresholds": [0.24397501349449158, -0.4012775421142578, 0.2949311137199402, -0.4621928930282593, -0.39743149280548096, -0.6392596960067749, 0.7783521413803101, -2.0, -2.0, -2.0, -2.0, 5.6951751708984375, -0.3439750075340271, -2.0, -2.0, -2.0, -2.0, -2.0, -2.0], "values": [-0.00014380586834346275, -0.00038012564359895791, 0.068027021941859139, -0.011063659151361789, 0.0036999850829978237, 0.07905660638055878, 0.0020571241678120238, -0.3581906348496483, 0.74868504694116689, 2.9428917281115887, 0.32437392777873331, 0.0032245067254995001, -0.02041950221733339, -0.2669283022468753, 0.72077366926159625, -1.0530226262683504, 0.71354308953197609, 0.80817153499076422, -0.63783002410820222], "features": [148, 1, 381, 250, 1, 262, 384, -2, -2, -2, -2, 174, 139, -2, -2, -2, -2, -2, -2], "children_left": [1, 3, 15, 11, 5, 9, 7, -1, -1, -1, -1, 13, 17, -1, -1, -1, -1, -1, -1]}, {"children_right": [2, 14, 4, 12, 6, 8, 10, -1, -1, -1, -1, -1, -1, -1, 16, -1, 18, -1, -1], "thresholds": [4.695914268493652, -0.10000000149011612, -0.1275731325149536, -0.2463996410369873, 0.5772825479507446, 1.1239359378814697, 0.6803306341171265, -2.0, -2.0, -2.0, -2.0, -2.0, -2.0, -2.0, 1.6861207485198975, -2.0, 0.5083203911781311, -2.0, -2.0], "values": [-0.00011581397808599131, -0.0047014126831946227, 0.0033936046854823629, -0.025617720445016926, 0.034010297062387708, 0.05851087440307385, 0.019638093473118394, 0.49143992682941406, -0.93578789885828917, 0.48062479256156476, 0.089032856551028092, -1.0270891418503296, -1.0434209824489706, -0.33743967604769842, -0.0011802271227468592, -0.89197527501131824, 0.046638705997507919, 1.1200819624989924, 0.54172581287901544], "features": [174, 301, 385, 127, 384, 262, 13, -2, -2, -2, -2, -2, -2, -2, 385, -2, 381, -2, -2], "children_left": [1, 13, 3, 11, 5, 7, 9, -1, -1, -1, -1, -1, -1, -1, 15, -1, 17, -1, -1]}, {"children_right": [2, 4, 12, 18, 6, 8, 10, -1, -1, -1, -1, -1, 14, 16, -1, -1, -1, -1, -1], "thresholds": [2.965576171875, 0.18541768193244934, 0.018813075497746468, 0.5, 2.810560703277588, -0.26440054178237915, 0.5, -2.0, -2.0, -2.0, -2.0, -2.0, 1.5737545490264893, 0.6395195722579956, -2.0, -2.0, -2.0, -2.0, -2.0], "values": [-0.00014710697130132107, 0.00014090666883251842, -0.040267442990543661, -0.012996894729230945, 0.0050462380828646741, -0.011602807261013415, 0.037333407846906343, -0.88371648027945826, -0.10281311779345792, 0.61359279639064435, 0.86864090510234671, 0.037021754008295209, -0.093113441941334571, -0.070679329551319503, -2.2584886299427476, -0.83250023192299638, -1.197477183854782, -0.67793229305449976, -0.77875190848735565], "features": [253, 381, 12, 101, 385, 301, 242, -2, -2, -2, -2, -2, 133, 259, -2, -2, -2, -2, -2], "children_left": [1, 3, 11, 17, 5, 7, 9, -1, -1, -1, -1, -1, 13, 15, -1, -1, -1, -1, -1]}, {"children_right": [2, 6, 4, -1, 18, 14, 8, 10, 12, -1, -1, -1, -1, -1, 16, -1, -1, -1, -1], "thresholds": [0.8163431882858276, 0.5, 2.0546202659606934, -2.0, 0.6368218660354614, 5.560651779174805, 0.5, 2.4524855613708496, 1.147950291633606, -2.0, -2.0, -2.0, -2.0, -2.0, -0.017067011445760727, -2.0, -2.0, -2.0, -2.0], "values": [-0.00011716231062062818, -0.013721561976065449, 0.037269188082921338, 0.91808582887047929, 0.026134302899980286, -0.0025179198256473803, -0.018919187885110465, -0.053067297952315337, -0.010398438237451301, -0.68784180451630583, -4.0200914613001411, -0.075900500211697836, -0.7048113615533883, -0.73117013832697419, 0.026688985196556041, -1.0223439029968191, 0.65544810326274761, 0.83548759813470996, 0.56553856234562749], "features": [384, 258, 382, -2, 130, 174, 179, 13, 241, -2, -2, -2, -2, -2, 223, -2, -2, -2, -2], "children_left": [1, 5, 3, -1, 17, 13, 7, 9, 11, -1, -1, -1, -1, -1, 15, -1, -1, -1, -1]}, {"children_right": [2, 18, 4, 6, 12, 10, 8, -1, -1, -1, -1, 16, 14, -1, -1, -1, -1, -1, -1], "thresholds": [-0.20206207036972046, -0.20206207036972046, 1.4788689613342285, -0.022297728806734085, -0.10000000149011612, 0.09921233355998993, 1.416053295135498, -2.0, -2.0, -2.0, -2.0, -0.20425720512866974, -0.3937795162200928, -2.0, -2.0, -2.0, -2.0, -2.0, -2.0], "values": [-7.9338032957738879e-05, -0.014333676628420954, 0.00081128827729518471, 0.0030989092445988767, -0.011946540454614067, -0.015794189000080641, 0.027223045726727114, 0.26933101182354358, 5.6528142582594425, -0.76310441081908909, -0.76644686032966591, 0.00028682652404910382, -0.024706987333064565, 0.2179453360508718, -0.77505948073491504, -2.1603979459237612, 0.069951814561148018, -1.577855548409528, -0.37689134097353005], "features": [247, 346, 250, 385, 295, 12, 250, -2, -2, -2, -2, 298, 265, -2, -2, -2, -2, -2, -2], "children_left": [1, 17, 3, 5, 11, 9, 7, -1, -1, -1, -1, 15, 13, -1, -1, -1, -1, -1, -1]}, {"children_right": [2, 18, 4, 6, 10, 8, 16, -1, -1, 12, 14, -1, -1, -1, -1, -1, -1, -1, -1], "thresholds": [-0.4012775421142578, 0.5, 0.5, 0.32491636276245117, 0.7962920665740967, 0.15145376324653625, 0.6376647353172302, -2.0, -2.0, 3.5957956314086914, 0.5, -2.0, -2.0, -2.0, -2.0, -2.0, -2.0, -2.0, -2.0], "values": [-0.00011436851766469906, -0.0072406463787456606, 0.0026413415892304177, 0.0081281649833533729, -0.0056094152432212916, 0.014042764527005881, -0.0081279017496384328, -1.0194422337928251, 0.29994165060153094, 0.00022715500965729473, -0.02479950729000158, -0.36971251811424577, 1.0169114337016734, -0.42380575396442977, -1.3593993145558743, -0.099085451444038991, -2.2259647712567081, 0.055736066396926714, -0.60685911086638156], "features": [1, 242, 177, 274, 175, 381, 229, -2, -2, 385, 101, -2, -2, -2, -2, -2, -2, -2, -2], "children_left": [1, 17, 3, 5, 9, 7, 15, -1, -1, 11, 13, -1, -1, -1, -1, -1, -1, -1, -1]}, {"children_right": [2, 4, 16, 6, 12, 8, 10, -1, -1, -1, -1, 14, -1, -1, -1, -1, 18, -1, -1], "thresholds": [0.7783521413803101, 1.3135762214660645, 0.5, 0.09658248722553253, 1.3538509607315063, 2.307906150817871, 0.5961093902587891, -2.0, -2.0, -2.0, -2.0, -1.2448279857635498, -2.0, -2.0, -2.0, -2.0, 0.14433756470680237, -2.0, -2.0], "values": [-9.6564394201047123e-05, -0.012453006446041127, 0.030842424421319008, -0.0064254605135673163, -0.096101565465035232, -0.0027765878806736634, -0.028327919325638391, -0.017051886992629852, -2.2708017824555644, -1.4921209519158531, -0.042999896116484845, -0.10856403887313547, -1.371667262042179, 0.22908928423663022, -1.7470946460538745, 0.63162439394201908, 0.025104103240970232, 0.93366323637029336, 0.58989064880951414], "features": [384, 1, 252, 1, 76, 223, 1, -2, -2, -2, -2, 133, -2, -2, -2, -2, 130, -2, -2], "children_left": [1, 3, 15, 5, 11, 7, 9, -1, -1, -1, -1, 13, -1, -1, -1, -1, 17, -1, -1]}, {"children_right": [2, 4, 8, 10, 6, 16, 14, -1, -1, 18, 12, -1, -1, -1, -1, -1, -1, -1, -1], "thresholds": [2.810560703277588, 0.32491636276245117, 0.5, -0.10000000149011612, 0.8959227800369263, -0.10000000149011612, 2.5, -2.0, -2.0, -0.2485947608947754, 0.5, -2.0, -2.0, -2.0, -2.0, -2.0, -2.0, -2.0, -2.0], "values": [-8.6631334798625487e-05, -0.0096783081774539995, 0.028723401175788428, -0.0042992254501980605, -0.034446076065247813, -0.029319688751731757, -0.075656782150829313, 0.95921362181286596, 0.61508842523746188, -0.011673876896735259, 0.0018355295350678789, -0.0091225933747289614, 0.64600166478247001, -1.2200853241816372, -1.5788664762961331, -1.120293352314798, -0.29782523496808394, 0.42307316887414426, -0.28577022108125288], "features": [385, 178, 167, 256, 274, 301, 0, -2, -2, 358, 177, -2, -2, -2, -2, -2, -2, -2, -2], "children_left": [1, 3, 7, 9, 5, 15, 13, -1, -1, 17, 11, -1, -1, -1, -1, -1, -1, -1, -1]}, {"children_right": [2, 8, 4, 6, -1, -1, -1, 10, 14, -1, 12, -1, -1, 16, 18, -1, -1, -1, -1], "thresholds": [1.4788689613342285, 0.38657623529434204, -0.5838125348091125, -0.10000000149011612, -2.0, -2.0, -2.0, -0.1275731325149536, 0.4245538115501404, -2.0, -0.5971123576164246, -2.0, -2.0, 0.32802075147628784, 1.4934101104736328, -2.0, -2.0, -2.0, -2.0], "values": [-6.6983353980465673e-05, 0.0020173678619454872, -0.011832959294016156, -0.13395926276415399, -0.25656859995690384, -1.0533907962179574, -5.0011828465598445, 0.0066647136349196751, -0.0046425913990502977, -0.78309480239904616, 0.051390104663044445, 0.91730950306843695, 0.35460150513093436, -0.0085164939470201723, 0.0098096458387859006, -0.2772221130514107, 0.064083827446155719, 0.27366355844424084, -1.8650515850125537], "features": [250, 13, 313, 295, -2, -2, -2, 385, 295, -2, 223, -2, -2, 268, 274, -2, -2, -2, -2], "children_left": [1, 7, 3, 5, -1, -1, -1, 9, 13, -1, 11, -1, -1, 15, 17, -1, -1, -1, -1]}, {"children_right": [2, 12, 4, 16, 6, 10, 8, -1, -1, -1, -1, 18, 14, -1, -1, -1, -1, -1, -1], "thresholds": [0.5, -0.10000000149011612, -0.022297728806734085, -0.4796772599220276, -0.4621928930282593, 0.5, 0.5, -2.0, -2.0, -2.0, -2.0, -0.8234591484069824, -0.517836332321167, -2.0, -2.0, -2.0, -2.0, -2.0, -2.0], "values": [-7.3689703256174492e-05, -0.0045645182671118041, 0.0015870866612688725, -0.011405679641268093, 0.019635421984643971, 0.055135880702048459, 0.009665719004776703, 0.056229948636605451, 0.5164982835585652, 1.0674399758722679, 0.44638958358186703, 0.0048495608389559431, -0.014516806648959987, 0.29366583666413437, -0.38889682031803002, -0.12782102294814052, -1.0225854940003081, -1.082722220004058, 0.1283786421619246], "features": [395, 178, 385, 127, 100, 251, 260, -2, -2, -2, -2, 274, 250, -2, -2, -2, -2, -2, -2], "children_left": [1, 11, 3, 15, 5, 9, 7, -1, -1, -1, -1, 17, 13, -1, -1, -1, -1, -1, -1]}, {"children_right": [2, 4, 16, 6, 10, 8, 14, -1, -1, 12, -1, -1, -1, -1, -1, 18, -1, -1, -1], "thresholds": [2.965576171875, 0.3929157853126526, 4.192190647125244, 0.10000000149011612, 0.20631927251815796, 0.5, 1.802627444267273, -2.0, -2.0, -0.6368218660354614, -2.0, -2.0, -2.0, -2.0, -2.0, 0.5, -2.0, -2.0, -2.0], "values": [-8.6846228259062586e-05, 9.9669475061446436e-05, -0.026068506980879605, 0.0037735391141562849, -0.0068333715070779451, 0.010539704475941139, -0.0026587564729597616, 0.53731350308803572, 0.04627014733899118, -0.0062074152972720897, -2.611357730838864, 0.25573990218131187, -0.1790522371443678, -0.058427768493360815, -1.2302045736291765, -0.017823890533917166, -1.5065736698735941, -1.7095932186645275, 0.10735693531698867], "features": [76, 12, 1, 256, 220, 272, 235, -2, -2, 265, -2, -2, -2, -2, -2, 242, -2, -2, -2], "children_left": [1, 3, 15, 5, 9, 7, 13, -1, -1, 11, -1, -1, -1, -1, -1, 17, -1, -1, -1]}, {"children_right": [2, 4, 12, 6, -1, 8, 10, -1, -1, -1, -1, 18, 14, 16, -1, -1, -1, -1, -1], "thresholds": [0.32802075147628784, 0.5, 0.5, 0.09898611903190613, -2.0, -0.4939750134944916, 3.6902847290039062, -2.0, -2.0, -2.0, -2.0, -0.30348849296569824, 3.1139888763427734, 0.2917795181274414, -2.0, -2.0, -2.0, -2.0, -2.0], "values": [-7.6495814733689522e-05, 0.0021357726804722495, -0.002994880900856724, 0.010261935374790655, -0.076899290232080197, 0.016536709034628328, -0.01962017676794477, -1.0647526911937473, 0.62210374740222263, -1.1559221553129539, 0.66413492879360192, -0.080701460550446566, -0.0025667238762581818, -0.0080070565572923844, 0.80658969066978314, -0.24957007115025395, 0.24298671118367521, -1.982626767857008, -1.943780335544145], "features": [259, 398, 362, 1, -2, 235, 385, -2, -2, -2, -2, 277, 382, 268, -2, -2, -2, -2, -2], "children_left": [1, 3, 11, 5, -1, 7, 9, -1, -1, -1, -1, 17, 13, 15, -1, -1, -1, -1, -1]}, {"children_right": [2, -1, 4, 6, 8, 12, -1, 10, 14, -1, -1, -1, -1, -1, -1], "thresholds": [-0.34846171736717224, -2.0, 0.20631927251815796, 0.21595513820648193, 4.949489593505859, 0.5, -2.0, -0.44890296459198, 0.14433756470680237, -2.0, -2.0, -2.0, -2.0, -2.0, -2.0], "values": [-6.9781203783962959e-05, 0.61687909488708992, -0.00025340865995926719, 0.0024033287036901137, -0.0046433682326512508, 0.0025332295199442497, -2.9267471635388209, -0.0051345169838888588, 0.034311182305581896, -0.56681864491002243, -0.034330317844353725, 0.12561187837656929, -0.041780303714548689, -1.0277404895598863, 0.90391876974761687], "features": [304, -2, 274, 354, 247, 393, -2, 127, 268, -2, -2, -2, -2, -2, -2], "children_left": [1, -1, 3, 5, 7, 11, -1, 9, 13, -1, -1, -1, -1, -1, -1]}, {"children_right": [2, 4, 16, 6, 10, 12, 8, -1, -1, -1, 14, -1, -1, -1, -1, 18, -1, -1, -1], "thresholds": [2.810560703277588, 1.4788689613342285, 0.5, 0.42847397923469543, 0.6175062656402588, -0.10000000149011612, 0.14433756470680237, -2.0, -2.0, -2.0, 0.5, -2.0, -2.0, -2.0, -2.0, 3.608006238937378, -2.0, -2.0, -2.0], "values": [-6.1525350874410152e-05, -0.0084989837224388014, 0.025281639768124444, -0.0047614003453235769, -0.03178728224312443, 0.0057283345197006903, -0.022026692784999986, -0.16429797394585929, -1.1077713041403208, -0.74035047884205163, -0.09358232190016405, -0.53923290855907324, 0.4283679002159485, -0.92649174393202416, -1.9375226749196015, 0.021991594031219787, 0.94057381125337081, 0.17019367080700479, 0.93100562259893471], "features": [385, 250, 165, 381, 381, 277, 253, -2, -2, -2, 234, -2, -2, -2, -2, 385, -2, -2, -2], "children_left": [1, 3, 15, 5, 9, 11, 7, -1, -1, -1, 13, -1, -1, -1, -1, 17, -1, -1, -1]}, {"children_right": [2, 12, 4, -1, 6, 10, 8, -1, -1, -1, -1, 14, 18, -1, 16, -1, -1, -1, -1], "thresholds": [0.5, 0.5, -0.12725362181663513, -2.0, -0.20206207036972046, 0.5, -0.10000000149011612, -2.0, -2.0, -2.0, -2.0, 1.9375660419464111, 1.21632981300354, -2.0, 3.8645505905151367, -2.0, -2.0, -2.0, -2.0], "values": [-4.7054615472058593e-05, -0.0048125134397981727, 0.0036808762130476325, -0.78370442520708228, 0.035147757799545487, 0.0050141438500828309, 0.041179280012371623, 0.66592625004720896, 0.3855270673851916, -0.32968360461524737, 0.75328600340743523, -0.0025262423716727617, -0.014975105953709718, -0.0039483615800358493, -0.035422279304552232, -1.5709125793491154, 0.38060980920494769, -0.094183439396471738, -0.65308745426707837], "features": [242, 393, 385, -2, 301, 14, 268, -2, -2, -2, -2, 250, 265, -2, 385, -2, -2, -2, -2], "children_left": [1, 11, 3, -1, 5, 9, 7, -1, -1, -1, -1, 13, 17, -1, 15, -1, -1, -1, -1]}, {"children_right": [2, 4, 14, 6, 8, -1, 12, 10, 18, -1, -1, -1, -1, -1, 16, -1, -1, -1, -1], "thresholds": [2.810560703277588, 0.42847397923469543, 0.5, 0.11502988636493683, 0.5, -2.0, -0.5844641923904419, 0.6369968056678772, -0.10000000149011612, -2.0, -2.0, -2.0, -2.0, -2.0, 3.608006238937378, -2.0, -2.0, -2.0, -2.0], "values": [-5.7506603997867463e-05, -0.0075147146147750846, 0.022341330299396257, 0.0022330810243654875, -0.024230030370201803, -1.0161513841103014, 0.13051589060918156, -0.086855743386662049, -0.014142909991104633, -0.17168901622060528, -1.5412952153509825, 0.33095501511605435, 1.008052154921288, 0.82946014456840866, 0.0183020389221621, 0.11294385737138571, 0.92926108661575746, -1.2226199761487202, -0.17149369861322727], "features": [385, 381, 129, 384, 179, -2, 100, 1, 316, -2, -2, -2, -2, -2, 385, -2, -2, -2, -2], "children_left": [1, 3, 13, 5, 7, -1, 11, 9, 17, -1, -1, -1, -1, -1, 15, -1, -1, -1, -1]}, {"children_right": [2, -1, 4, 6, 12, 10, 8, -1, -1, -1, -1, 14, 16, -1, -1, -1, -1], "thresholds": [-0.34846171736717224, -2.0, 0.10000000149011612, -0.10000000149011612, 0.5, -0.2443375587463379, 0.5773497819900513, -2.0, -2.0, -2.0, -2.0, 2.8121066093444824, 0.04653679579496384, -2.0, -2.0, -2.0, -2.0], "values": [-6.4486656114775377e-05, 0.57875689332675839, -0.00023234008573527019, 0.0021947194310107439, -0.0036446421231712709, 0.027925213049684015, 0.0016442027313062259, 0.12010573763131842, -0.15175746029140144, -0.54866069470027545, 0.63363953524465344, 0.00012231002196005843, -0.0046189353047725156, -0.63073356053401841, 0.91582326903662592, -2.8666446200934979, -0.13480808009791073], "features": [304, -2, 256, 325, 293, 178, 235, -2, -2, -2, -2, 385, 171, -2, -2, -2, -2], "children_left": [1, -1, 3, 5, 11, 9, 7, -1, -1, -1, -1, 13, 15, -1, -1, -1, -1]}, {"children_right": [2, 4, 14, 6, 10, -1, 8, -1, -1, -1, 12, -1, -1, 16, -1, -1, -1], "thresholds": [0.517836332321167, -1.33268141746521, 0.5, 0.20849645137786865, -0.34846171736717224, -2.0, 0.047802459448575974, -2.0, -2.0, -2.0, -0.10000000149011612, -2.0, -2.0, -0.20206207036972046, -2.0, -2.0, -2.0], "values": [-5.6952022932572629e-05, -0.00032542391932602967, 0.037179502458952303, 0.075602448203681727, -0.00064102083163148922, -1.1019034350299617, 0.14776217132467845, -1.0168262225961495, 1.3922840992339092, 0.53622061374213748, -0.00079505183442544721, 0.38547344717780607, -0.026652644760793102, 0.013954169162095353, 0.92611603722192393, 0.43980966729910492, -1.0472334680304189], "features": [136, 178, 128, 381, 304, -2, 384, -2, -2, -2, 325, -2, -2, 178, -2, -2, -2], "children_left": [1, 3, 13, 5, 9, -1, 7, -1, -1, -1, 11, -1, -1, 15, -1, -1, -1]}, {"children_right": [2, 4, 16, 6, 12, 8, 10, -1, -1, -1, -1, 14, -1, -1, -1, 18, -1, -1, -1], "thresholds": [0.5, 0.813247561454773, 0.5, 0.20631927251815796, 0.5, -0.43141859769821167, -0.3652160167694092, -2.0, -2.0, -2.0, -2.0, -0.5, -2.0, -2.0, -2.0, -0.41486185789108276, -2.0, -2.0, -2.0], "values": [-5.008294639794213e-05, -0.0042918623044056929, 0.0032681830631151785, -0.018687436239598749, 0.018419645572394762, -0.010258573565617178, -0.031146278824036186, 0.058378056847750839, -0.60905304102163593, -2.1038121919057469, -0.36937712385478677, 0.015158525539473371, 1.0754473313767192, 0.75760171441859081, 0.35434989099356479, 0.0037608331655789979, -0.68218203532567245, 0.68068919518847548, 0.074930046565735112], "features": [242, 384, 138, 274, 224, 250, 301, -2, -2, -2, -2, 132, -2, -2, -2, 313, -2, -2, -2], "children_left": [1, 3, 15, 5, 11, 7, 9, -1, -1, -1, -1, 13, -1, -1, -1, 17, -1, -1, -1]}, {"children_right": [2, 16, 4, 6, 8, 14, 12, -1, 10, -1, -1, -1, -1, -1, -1, -1, 18, -1, -1], "thresholds": [0.6370722055435181, -0.10000000149011612, 1.8188711404800415, 0.7720770835876465, 1.8826484680175781, 0.508226215839386, -0.10000000149011612, -2.0, 9.5, -2.0, -2.0, -2.0, -2.0, -2.0, -2.0, -2.0, -0.8364226818084717, -2.0, -2.0], "values": [-3.9149327462060561e-05, 0.0034908971720590577, -0.0071779341957235732, -0.023719346900287805, 0.014442954895668275, -0.01267223578385082, -0.10118679353301374, 1.0811170927375706, 0.009897058591747358, 0.25464134412043532, -3.6861577510532695, -1.1325741036589871, -1.0035554249125203, -1.0528666592102514, 0.47398895732619895, -0.079902818168597817, 0.0054831683025819734, 0.54436533650514929, 0.098460260260595678], "features": [235, 307, 385, 382, 385, 382, 295, -2, 0, -2, -2, -2, -2, -2, -2, -2, 250, -2, -2], "children_left": [1, 15, 3, 5, 7, 13, 11, -1, 9, -1, -1, -1, -1, -1, -1, -1, 17, -1, -1]}, {"children_right": [2, 18, 4, 6, 12, 10, 8, -1, -1, -1, -1, 14, 16, -1, -1, -1, -1, -1, -1], "thresholds": [-0.12725362181663513, 0.20425720512866974, 0.8722515106201172, 0.9214870929718018, 0.10000000149011612, 0.8713770508766174, 1.5, -2.0, -2.0, -2.0, -2.0, 4.20543098449707, -0.8910844326019287, -2.0, -2.0, -2.0, -2.0, -2.0, -2.0], "values": [-4.0977606252439978e-05, -0.010462533546497758, 0.012332508614176972, 0.082078473135079807, -0.0064946219516791581, 0.066269899511004579, 0.17808003536922182, 1.3335359832356259, -0.72495654131034859, 0.41104021871484714, 0.85817709595146718, -0.026488161455085805, 0.00025635906448738625, -0.22623989631021563, -5.9977290924569706, 0.27797727929468996, -0.042448469633168576, -0.78768016939149132, -1.00910756405165], "features": [385, 256, 382, 12, 259, 241, 0, -2, -2, -2, -2, 1, 277, -2, -2, -2, -2, -2, -2], "children_left": [1, 17, 3, 5, 11, 9, 7, -1, -1, -1, -1, 13, 15, -1, -1, -1, -1, -1, -1]}, {"children_right": [2, 4, 16, 12, 6, 10, 8, -1, -1, -1, -1, -1, 14, -1, -1, -1, 18, -1, -1], "thresholds": [0.9530654549598694, 1.020416498184204, -0.6672919392585754, -0.2463996410369873, 1.850722312927246, 0.5, 0.10000000149011612, -2.0, -2.0, -2.0, -2.0, -2.0, 1.2959613800048828, -2.0, -2.0, -2.0, -0.38831257820129395, -2.0, -2.0], "values": [-5.9135807518689776e-05, -0.0017842212488474775, 0.013987097460856201, -0.00050357943284673576, -0.013145988924283406, -0.0068684527064737265, -0.044873516550862164, -0.1015108085704336, -1.768946980847282, -0.45324619056025856, 0.61865670510932824, -1.1652783364904571, 0.0002972067979296013, 0.11219205168689343, -0.32499551410274485, -0.74488741395200875, 0.016344003940783725, -1.6218763410376809, 0.60427065912253231], "features": [381, 259, 256, 247, 1, 291, 274, -2, -2, -2, -2, -2, 382, -2, -2, -2, 163, -2, -2], "children_left": [1, 3, 15, 11, 5, 9, 7, -1, -1, -1, -1, -1, 13, -1, -1, -1, 17, -1, -1]}, {"children_right": [2, 10, 4, 6, -1, 18, 8, -1, -1, 14, 12, -1, -1, -1, 16, -1, -1, -1, -1], "thresholds": [1.2448279857635498, 0.3929157853126526, 3.5477375984191895, 0.37875160574913025, -2.0, 1.6299803256988525, 2.566539764404297, -2.0, -2.0, 1.6794226169586182, 0.14433756470680237, -2.0, -2.0, -2.0, -0.487062007188797, -2.0, -2.0, -2.0, -2.0], "values": [-4.733372042662446e-05, 0.0011116891260508884, -0.0069667290245420694, -0.01254610933547084, 0.78514906258181294, -0.0049294761158234345, -0.032557979279793862, -1.1169006433412667, 0.19731835015932692, 0.0038788155570618175, -0.0045966232689716715, -0.094175764105428744, 0.32967521513848008, 0.0935431918673338, 0.040518699223688684, 0.86732236181619171, -0.22905488344474326, -0.072290863611814984, -2.150074382387662], "features": [130, 12, 382, 175, -2, 262, 382, -2, -2, 175, 166, -2, -2, -2, 178, -2, -2, -2, -2], "children_left": [1, 9, 3, 5, -1, 17, 7, -1, -1, 13, 11, -1, -1, -1, 15, -1, -1, -1, -1]}, {"children_right": [2, 4, -1, 6, 10, 8, -1, -1, -1, 12, 14, -1, -1, -1, -1], "thresholds": [4.926274299621582, -0.8035330176353455, -2.0, 1.4371843338012695, 0.5, -0.2463996410369873, -2.0, -2.0, -2.0, 0.24725596606731415, -0.10000000149011612, -2.0, -2.0, -2.0, -2.0], "values": [-3.8814854623365293e-05, 5.7626901300307534e-05, -4.4425044732926642, -0.0080976517010306667, 0.00069914016815195862, -0.0065093517598881776, -3.6441163828362479, -2.3844715453518139, -0.34556729327716473, 0.0026046206870095783, -0.0019254966628786832, 0.048474588770522999, -1.2365463644580708, -1.1927366861033559, -0.060532370200831756], "features": [223, 274, -2, 259, 255, 361, -2, -2, -2, 345, 154, -2, -2, -2, -2], "children_left": [1, 3, -1, 5, 9, 7, -1, -1, -1, 11, 13, -1, -1, -1, -1]}, {"children_right": [2, 4, 14, 10, 6, 8, -1, -1, -1, 12, 16, -1, -1, -1, 18, -1, -1, -1, -1], "thresholds": [3.608006238937378, 0.42847397923469543, 0.5, -0.1428816020488739, 3.3634536266326904, 0.6839396953582764, -2.0, -2.0, -2.0, 1.519496202468872, 0.5, -2.0, -2.0, -2.0, 0.10000000149011612, -2.0, -2.0, -2.0, -2.0], "values": [-3.5215165048721043e-05, -0.0049982846005235835, 0.026134503272059025, 0.0022252884482376408, -0.014395564456185015, -0.013056725310141131, -4.0036175246185701, -0.063154258842440719, -0.30714141618759061, -0.0040179156954969547, 0.015560653756551397, -0.22727344273297176, -2.1864765445089751, 0.79541724706030015, 0.044039536373571039, 0.079920964794138252, 0.53123243682183008, 1.0673868888572382, 1.0394141167407229], "features": [385, 381, 242, 13, 382, 222, -2, -2, -2, 382, 264, -2, -2, -2, 262, -2, -2, -2, -2], "children_left": [1, 3, 13, 9, 5, 7, -1, -1, -1, 11, 15, -1, -1, -1, 17, -1, -1, -1, -1]}, {"children_right": [2, 4, 14, 6, 10, -1, 8, -1, -1, -1, 12, -1, -1, -1, 16, 18, -1, -1, -1], "thresholds": [0.8245087265968323, 1.9128708839416504, -0.2066003680229187, 1.3135762214660645, -0.2463996410369873, -2.0, -0.817861795425415, -2.0, -2.0, -2.0, -0.10000000149011612, -2.0, -2.0, -2.0, 0.517261266708374, 0.8616033792495728, -2.0, -2.0, -2.0], "values": [-1.6795577280926821e-05, -0.0079917910777965312, 0.022383160595908811, -0.006022485370202362, -0.072223523326657074, -0.011115050655508723, -0.074364714112748725, -0.20465467027306306, -1.558900800861488, -1.0206687073354554, -0.090354797432357747, -2.0767889253782879, -0.97617855214591842, 0.43732361297915734, 0.026374560910192444, 0.030870064271103694, 0.49979668663375504, 0.8677478680211923, 0.77201621138331777], "features": [384, 235, 295, 1, 295, -2, 235, -2, -2, -2, 301, -2, -2, -2, 100, 384, -2, -2, -2], "children_left": [1, 3, 13, 5, 9, -1, 7, -1, -1, -1, 11, -1, -1, -1, 15, 17, -1, -1, -1]}, {"children_right": [2, 4, 16, 6, 10, -1, 8, -1, -1, 12, 14, -1, -1, -1, -1, 18, -1, -1, -1], "thresholds": [-0.645138144493103, 0.28264087438583374, 0.517836332321167, 0.19393840432167053, 0.5, -2.0, 5.985921859741211, -2.0, -2.0, -0.45717573165893555, -0.6971367597579956, -2.0, -2.0, -2.0, -2.0, -0.45717573165893555, -2.0, -2.0, -2.0], "values": [-1.6596565066082533e-06, 0.0088891258881660679, -0.0024649541093692798, 0.0018278591931771813, 0.023592167398082689, -1.0360498756625052, 0.043779556479485421, 0.54643292958662848, -1.267225460431844, 0.052328844679992492, 0.010520826996256508, 5.1304234992122826, 0.12950962403985869, -0.016648790207178729, 1.1358256018438886, -0.0027795321546296449, 0.6647574079374281, 0.69280692374056674, -0.081098502460405689], "features": [241, 277, 136, 384, 134, -2, 174, -2, -2, 127, 241, -2, -2, -2, -2, 139, -2, -2, -2], "children_left": [1, 3, 15, 5, 9, -1, 7, -1, -1, 11, 13, -1, -1, -1, -1, 17, -1, -1, -1]}, {"children_right": [2, 4, 12, 6, -1, 10, 8, -1, -1, -1, -1, -1, 14, 18, 16, -1, -1, -1, -1], "thresholds": [-0.5, 0.5773497819900513, -0.9629100561141968, 0.7315334677696228, -2.0, 0.5, 0.5, -2.0, -2.0, -2.0, -2.0, -2.0, -1.0029717683792114, 0.10000000149011612, 0.5, -2.0, -2.0, -2.0, -2.0], "values": [-3.3624667701686261e-05, 0.0022630459636317508, -0.00233052934952967, 0.006573812509517574, -0.1220559339975386, 0.01153282574222912, -0.01506085694999605, -1.2622807372128484, -0.072463450252552727, 0.083590886450872953, 0.44954546859562827, -0.67116355332654087, -0.0017059821275819994, -0.046837620900867676, -0.0013672964148496434, 0.37757899247779164, -0.069543079316030473, -2.0097073210620637, -1.0106563836689555], "features": [132, 235, 100, 1, -2, 396, 272, -2, -2, -2, -2, -2, 268, 79, 80, -2, -2, -2, -2], "children_left": [1, 3, 11, 5, -1, 9, 7, -1, -1, -1, -1, -1, 13, 17, 15, -1, -1, -1, -1]}, {"children_right": [2, 4, 18, 6, 12, 8, 10, -1, -1, -1, -1, 14, 16, -1, -1, -1, -1, -1, -1], "thresholds": [0.2463996410369873, 0.6370722055435181, 0.5, -0.5249507427215576, 4.949489593505859, 0.20206207036972046, -0.5474635362625122, -2.0, -2.0, -2.0, -2.0, 0.6368218660354614, -0.14433756470680237, -2.0, -2.0, -2.0, -2.0, -2.0, -2.0], "values": [-3.1192255920551775e-05, 0.0027650982368511027, -0.0025524790259274215, 0.0067091627960082579, -0.0071466270910147374, 0.07105510743387411, 0.0038102352925126256, 0.40771195393500498, 2.4713854003205071, 0.98548517196462859, 0.047605700152297953, -0.0063878619991167137, -0.078537342998205681, -0.45958288446266438, 0.26914921454801372, -1.0033368879877544, -4.0649553738486803, -0.045114207201621258, -0.16358514347516676], "features": [103, 235, 393, 100, 301, 103, 133, -2, -2, -2, -2, 262, 262, -2, -2, -2, -2, -2, -2], "children_left": [1, 3, 17, 5, 11, 7, 9, -1, -1, -1, -1, 13, 15, -1, -1, -1, -1, -1, -1]}, {"children_right": [2, 4, 8, -1, 6, -1, -1, 16, 10, 12, 14, -1, -1, -1, -1, 18, -1, -1, -1], "thresholds": [-0.6135753393173218, 1.5059289932250977, -0.6368218660354614, -2.0, 1.8663156032562256, -2.0, -2.0, -0.10000000149011612, 0.38657623529434204, -0.1275731325149536, -0.8910844326019287, -2.0, -2.0, -2.0, -2.0, 1.5, -2.0, -2.0, -2.0], "values": [-3.5169237959766571e-05, -0.010131393391568159, 0.0010443835249761904, -0.32235761993688489, -0.06202807665784478, -8.0701037923156864, 0.44810863058379546, -0.0059159319365622879, 0.001839683994511376, 0.0049639136030260851, -0.0026610988995608075, -0.66882511819605917, 0.28816559905128719, 0.39642362705003253, -0.073241784187775258, 0.029389080993344328, -0.71652497531854753, -1.0187410298539232, 0.85165033560953307], "features": [127, 262, 253, -2, 223, -2, -2, 304, 13, 385, 250, -2, -2, -2, -2, 0, -2, -2, -2], "children_left": [1, 3, 7, -1, 5, -1, -1, 15, 9, 11, 13, -1, -1, -1, -1, 17, -1, -1, -1]}, {"children_right": [2, 4, 10, 6, -1, -1, 8, -1, -1, 16, 12, 14, 18, -1, -1, -1, -1, -1, -1], "thresholds": [0.10000000149011612, 0.38657623529434204, 0.6368218660354614, 0.1142413392663002, -2.0, -2.0, 0.5, -2.0, -2.0, 0.14433756470680237, 0.7850379943847656, 4.916317939758301, 0.5, -2.0, -2.0, -2.0, -2.0, -2.0, -2.0], "values": [-3.6130927880759716e-05, 0.0021464604873945949, -0.0027789032195954886, 0.0085122099001499474, -0.09091703439783784, -1.0178639956243736, 0.045009317819900717, 0.5400122901754919, 0.2156353491446264, -0.0050416278132378407, 0.0019412480746207595, -0.011625698236655994, 0.015372705878255089, -1.427845704132181, 0.30599214237347422, 0.072804454034419624, -0.35832445671647684, 0.84977917368361999, 0.46788797673814747], "features": [133, 13, 265, 384, -2, -2, 236, -2, -2, 178, 384, 174, 270, -2, -2, -2, -2, -2, -2], "children_left": [1, 3, 9, 5, -1, -1, 7, -1, -1, 15, 11, 13, 17, -1, -1, -1, -1, -1, -1]}, {"children_right": [2, 4, 18, 10, 6, 16, 8, -1, -1, 14, 12, -1, -1, -1, -1, -1, -1, -1, -1], "thresholds": [0.8245087265968323, 1.4166667461395264, 0.10000000149011612, 0.2463996410369873, 0.15029087662696838, 0.9228431582450867, 0.20425720512866974, -2.0, -2.0, 0.2917795181274414, 0.4323599934577942, -2.0, -2.0, -2.0, -2.0, -2.0, -2.0, -2.0, -2.0], "values": [-4.452145773956039e-05, -0.0073776076252694443, 0.020552456779586573, -0.0062535742566196236, -0.035919017244292764, -0.016544295196298794, -0.34710575662699888, -1.0779748334497268, -2.4835702163364979, -0.0015766704956983945, -0.012489429352090372, -0.86551892272396713, 0.086197533996094519, -0.10197680347598581, 0.28304679487201007, -0.10489198331130326, -1.5374037502609914, 0.76555698124547378, 0.48755901673154284], "features": [384, 289, 256, 103, 12, 241, 217, -2, -2, 130, 384, -2, -2, -2, -2, -2, -2, -2, -2], "children_left": [1, 3, 17, 9, 5, 15, 7, -1, -1, 13, 11, -1, -1, -1, -1, -1, -1, -1, -1]}, {"children_right": [2, 10, 4, -1, 6, 8, -1, -1, -1, 16, 12, -1, 14, -1, -1, 18, -1, -1, -1], "thresholds": [0.14433756470680237, 0.5, 0.9378199577331543, -2.0, 0.8582290410995483, -0.10000000149011612, -2.0, -2.0, -2.0, 0.22786816954612732, -0.33869266510009766, -2.0, 0.5, -2.0, -2.0, -0.12725362181663513, -2.0, -2.0, -2.0], "values": [-4.1188991896063378e-05, 0.0037927343499331266, -0.0050224849976713559, -0.12952608393626061, 0.041070176092517716, 0.2161679879604716, -0.44099988577590821, -1.1468189624283605, 2.110737975447488, 0.0012233297266758796, 0.011191786464031205, 0.52250201454130518, -0.0024094356607031204, -0.01834479927870215, -2.3166660015006131, 0.00072581072547012822, 0.81451679368733676, -1.0163976502980427, 0.26680862852336173], "features": [241, 276, 12, -2, 382, 346, -2, -2, -2, 220, 250, -2, 240, -2, -2, 385, -2, -2, -2], "children_left": [1, 9, 3, -1, 5, 7, -1, -1, -1, 15, 11, -1, 13, -1, -1, 17, -1, -1, -1]}, {"children_right": [2, 4, -1, 6, 12, 8, 10, -1, -1, -1, -1, 16, 14, -1, -1, -1, -1], "thresholds": [4.926274299621582, 3.608006238937378, -2.0, 2.197299003601074, 0.8234591484069824, 1.2682650089263916, 3.1594157218933105, -2.0, -2.0, -2.0, -2.0, 0.5, -0.1168019250035286, -2.0, -2.0, -2.0, -2.0], "values": [-5.2836540419069128e-05, 2.2805288915368107e-05, -2.7595546167103291, -0.0040073596353236238, 0.021259619940934976, -0.0029377309189342498, -0.03986763655207818, 0.027960476308876159, -0.6693299485862958, -1.5365988481867956, 0.68589915851630801, 0.030683088810019733, 0.0097369402578544352, 0.65679836739522746, 0.55708986408151362, 1.0396051829531314, 1.0595178848388229], "features": [223, 385, -2, 241, 241, 1, 223, -2, -2, -2, -2, 165, 1, -2, -2, -2, -2], "children_left": [1, 3, -1, 5, 11, 7, 9, -1, -1, -1, -1, 15, 13, -1, -1, -1, -1]}, {"children_right": [2, 12, 4, -1, 6, 10, 8, -1, -1, -1, -1, 14, -1, 18, 16, -1, -1, -1, -1], "thresholds": [0.9980682730674744, 0.6971367597579956, -0.2656053900718689, -2.0, 0.10000000149011612, 0.44784003496170044, 0.744653046131134, -2.0, -2.0, -2.0, -2.0, 0.15725257992744446, -2.0, -0.4939750134944916, 4.241300582885742, -2.0, -2.0, -2.0, -2.0], "values": [-3.0338238245183032e-05, 0.0042146332119949682, -0.0083120127889027614, 0.080200828461408316, -0.012470700297111087, -0.033351939870190729, -0.004508148028665942, -0.51054251997964595, 0.33641095245429509, -0.58219181972697942, -0.086609165282442307, 0.0063011013325785384, -1.010520393615379, -0.0091908818509276197, 0.070644932124399484, 1.7464857391147259, 0.44981488624499716, -0.12875802400079536, -1.0195186847904951], "features": [382, 256, 277, -2, 103, 175, 384, -2, -2, -2, -2, 384, -2, 178, 174, -2, -2, -2, -2], "children_left": [1, 11, 3, -1, 5, 9, 7, -1, -1, -1, -1, 13, -1, 17, 15, -1, -1, -1, -1]}, {"children_right": [2, 10, 4, 6, 18, 8, -1, -1, -1, 12, 14, -1, -1, -1, 16, -1, -1, -1, -1], "thresholds": [8.5, -0.42653170228004456, 0.5, 1.551783800125122, -0.35805007815361023, 0.2443375587463379, -2.0, -2.0, -2.0, 3.3131895065307617, -0.3298701345920563, -2.0, -2.0, -2.0, 1.4166667461395264, -2.0, -2.0, -2.0, -2.0], "values": [-4.6418785769713899e-05, 0.00064863467955882342, -0.015987561975572624, -0.031658698091492854, 0.013975756283497176, -0.065181439234346758, 0.77215401423882346, -1.588791001329275, -6.15456356419228, -0.0056436913942484205, 0.0027450146687651848, -0.24680048924897369, -2.1213214164556864, -0.20200512229009429, 0.0042380112867578014, 0.10339214877668465, -0.43098020723098901, -1.5141907168102751, 0.88037386968926523], "features": [0, 1, 294, 130, 313, 229, -2, -2, -2, 277, 172, -2, -2, -2, 289, -2, -2, -2, -2], "children_left": [1, 9, 3, 5, 17, 7, -1, -1, -1, 11, 13, -1, -1, -1, 15, -1, -1, -1, -1]}, {"children_right": [2, 16, 4, 12, 6, 8, 10, -1, -1, -1, -1, 14, -1, -1, -1, 18, -1, -1, -1], "thresholds": [1.4788689613342285, 0.5, 0.8234591484069824, 0.5, 0.5773497819900513, 0.75, 0.20425720512866974, -2.0, -2.0, -2.0, -2.0, 4.520687580108643, -2.0, -2.0, -2.0, 0.8379449844360352, -2.0, -2.0, -2.0], "values": [-3.316263931490543e-05, 0.0010029106008093986, -0.0058817032894097161, -0.013974538143781782, 0.015289634562321084, 0.039661024973102539, -0.0042813434029730438, -0.044306878146323302, 1.1395590346111384, 