/// The weights of individual elements of the FV.  These weights
// are output by data/ml/answer-train-gradboost.py as this:
//
// 388 answersets, 9242 answers
// + Cross-validation:
// (test) PERANS acc/prec/rcl/F1 = 0.946/0.402/0.634/0.492, @70 prec/rcl/F1 = 0.556/0.536/0.546, PERQ avail 1.000, any good = [0.801] MRR 0.727
// (test) PERANS acc/prec/rcl/F1 = 0.952/0.457/0.624/0.527, @70 prec/rcl/F1 = 0.591/0.536/0.562, PERQ avail 1.000, any good = [0.819] MRR 0.746
// (test) PERANS acc/prec/rcl/F1 = 0.945/0.405/0.670/0.505, @70 prec/rcl/F1 = 0.577/0.562/0.569, PERQ avail 1.000, any good = [0.819] MRR 0.729
// (test) PERANS acc/prec/rcl/F1 = 0.953/0.457/0.691/0.550, @70 prec/rcl/F1 = 0.600/0.603/0.602, PERQ avail 1.000, any good = [0.820] MRR 0.757
// (test) PERANS acc/prec/rcl/F1 = 0.944/0.401/0.665/0.500, @70 prec/rcl/F1 = 0.561/0.541/0.551, PERQ avail 1.000, any good = [0.815] MRR 0.731
// (test) PERANS acc/prec/rcl/F1 = 0.944/0.399/0.706/0.510, @70 prec/rcl/F1 = 0.546/0.577/0.561, PERQ avail 1.000, any good = [0.832] MRR 0.738
// (test) PERANS acc/prec/rcl/F1 = 0.947/0.419/0.629/0.503, @70 prec/rcl/F1 = 0.540/0.521/0.530, PERQ avail 1.000, any good = [0.815] MRR 0.714
// (test) PERANS acc/prec/rcl/F1 = 0.946/0.407/0.608/0.488, @70 prec/rcl/F1 = 0.549/0.490/0.518, PERQ avail 1.000, any good = [0.810] MRR 0.704
// (test) PERANS acc/prec/rcl/F1 = 0.947/0.422/0.727/0.534, @70 prec/rcl/F1 = 0.545/0.598/0.570, PERQ avail 1.000, any good = [0.844] MRR 0.745
// (test) PERANS acc/prec/rcl/F1 = 0.946/0.408/0.649/0.501, @70 prec/rcl/F1 = 0.594/0.521/0.555, PERQ avail 1.000, any good = [0.823] MRR 0.727
// (mean) PERANS acc/prec/rcl/F1 = 0.947/0.418/0.660/0.511, @70 prec/rcl/F1 = 0.566/0.548/0.556, PERQ avail 1.000, any good = [0.820] MRR 0.732
// (S.D.) PERANS acc/prec/rcl/F1 = 0.003/0.021/0.037/0.019, @70 prec/rcl/F1 = 0.021/0.034/0.022, PERQ avail 0.000, any good = [0.011] MRR 0.015
// + Full training set:
// training took 5 seconds
// (full) PERANS acc/prec/rcl/F1 = 0.952/0.465/0.899/0.613, @70 prec/rcl/F1 = 0.640/0.773/0.700, PERQ avail 1.000, any good = [0.915] MRR 0.869
// Full model is GradientBoostingClassifier(init=None, learning_rate=0.1, loss='deviance',               max_depth=3, max_features='sqrt', max_leaf_nodes=10,               min_samples_leaf=5, min_samples_split=10,               min_weight_fraction_leaf=0.0, n_estimators=200,               random_state=None, subsample=1.0, verbose=0,               warm_start=False)
//
{"prior": -0.65025820242181998, "learning_rate": 0.1, "labels": ["@occurences", "%occurences", "!occurences", "@resultRR", "%resultRR", "!resultRR", "@resultLogScore", "%resultLogScore", "!resultLogScore", "@passageLogScore", "%passageLogScore", "!passageLogScore", "@propertyScore", "%propertyScore", "!propertyScore", "@originPsg", "%originPsg", "!originPsg", "@originPsgFirst", "%originPsgFirst", "!originPsgFirst", "@originPsgByClueToken", "%originPsgByClueToken", "!originPsgByClueToken", "@originPsgByCluePhrase", "%originPsgByCluePhrase", "!originPsgByCluePhrase", "@originPsgByClueSV", "%originPsgByClueSV", "!originPsgByClueSV", "@originPsgByClueNE", "%originPsgByClueNE", "!originPsgByClueNE", "@originPsgByClueLAT", "%originPsgByClueLAT", "!originPsgByClueLAT", "@originPsgByClueSubject", "%originPsgByClueSubject", "!originPsgByClueSubject", "@originPsgByClueSubjectToken", "%originPsgByClueSubjectToken", "!originPsgByClueSubjectToken", "@originPsgByClueSubjectPhrase", "%originPsgByClueSubjectPhrase", "!originPsgByClueSubjectPhrase", "@originPsgByClueConcept", "%originPsgByClueConcept", "!originPsgByClueConcept", "@originPsgByConceptRR", "%originPsgByConceptRR", "!originPsgByConceptRR", "@originPsgByConceptScore", "%originPsgByConceptScore", "!originPsgByConceptScore", "@originPsgNP", "%originPsgNP", "!originPsgNP", "@originPsgNE", "%originPsgNE", "!originPsgNE", "@originPsgNPByLATSubj", "%originPsgNPByLATSubj", "!originPsgNPByLATSubj", "@originPsgBIO", "%originPsgBIO", "!originPsgBIO", "@originPsgSurprise", "%originPsgSurprise", "!originPsgSurprise", "@originDocTitle", "%originDocTitle", "!originDocTitle", "@originBingSnippet", "%originBingSnippet", "!originBingSnippet", "@originDBpOntology", "%originDBpOntology", "!originDBpOntology", "@originDBpONoClue", "%originDBpONoClue", "!originDBpONoClue", "@originDBpOClueLAT", "%originDBpOClueLAT", "!originDBpOClueLAT", "@originDBpOClueSubject", "%originDBpOClueSubject", "!originDBpOClueSubject", "@originDBpOClueSubjectToken", "%originDBpOClueSubjectToken", "!originDBpOClueSubjectToken", "@originDBpOClueConcept", "%originDBpOClueConcept", "!originDBpOClueConcept", "@originDBpOConceptRR", "%originDBpOConceptRR", "!originDBpOConceptRR", "@originDBpOConceptScore", "%originDBpOConceptScore", "!originDBpOConceptScore", "@originDBpProperty", "%originDBpProperty", "!originDBpProperty", "@originDBpPNoClue", "%originDBpPNoClue", "!originDBpPNoClue", "@originDBpPClueToken", "%originDBpPClueToken", "!originDBpPClueToken", "@originDBpPClueLAT", "%originDBpPClueLAT", "!originDBpPClueLAT", "@originDBpPClueSubject", "%originDBpPClueSubject", "!originDBpPClueSubject", "@originDBpPClueSubjectToken", "%originDBpPClueSubjectToken", "!originDBpPClueSubjectToken", "@originDBpPClueConcept", "%originDBpPClueConcept", "!originDBpPClueConcept", "@originDBpPConceptRR", "%originDBpPConceptRR", "!originDBpPConceptRR", "@originDBpPConceptScore", "%originDBpPConceptScore", "!originDBpPConceptScore", "@originFreebaseOntology", "%originFreebaseOntology", "!originFreebaseOntology", "@originFreebaseSpecific", "%originFreebaseSpecific", "!originFreebaseSpecific", "@originFBONoClue", "%originFBONoClue", "!originFBONoClue", "@originFBOClueToken", "%originFBOClueToken", "!originFBOClueToken", "@originFBOClueSV", "%originFBOClueSV", "!originFBOClueSV", "@originFBOClueLAT", "%originFBOClueLAT", "!originFBOClueLAT", "@originFBOClueSubject", "%originFBOClueSubject", "!originFBOClueSubject", "@originFBOClueSubjectToken", "%originFBOClueSubjectToken", "!originFBOClueSubjectToken", "@originFBOClueConcept", "%originFBOClueConcept", "!originFBOClueConcept", "@originFBOConceptRR", "%originFBOConceptRR", "!originFBOConceptRR", "@originFBOConceptScore", "%originFBOConceptScore", "!originFBOConceptScore", "@originConcept", "%originConcept", "!originConcept", "@originConceptBySubject", "%originConceptBySubject", "!originConceptBySubject", "@originConceptByLAT", "%originConceptByLAT", "!originConceptByLAT", "@originConceptByNE", "%originConceptByNE", "!originConceptByNE", "@originConceptRR", "%originConceptRR", "!originConceptRR", "@originConceptScore", "%originConceptScore", "!originConceptScore", "@originMultiple", "%originMultiple", "!originMultiple", "@psgDistClueToken", "%psgDistClueToken", "!psgDistClueToken", "@psgDistCluePhrase", "%psgDistCluePhrase", "!psgDistCluePhrase", "@psgDistClueSV", "%psgDistClueSV", "!psgDistClueSV", "@psgDistClueNE", "%psgDistClueNE", "!psgDistClueNE", "@psgDistClueLAT", "%psgDistClueLAT", "!psgDistClueLAT", "@psgDistClueSubject", "%psgDistClueSubject", "!psgDistClueSubject", "@psgDistClueSubjectToken", "%psgDistClueSubjectToken", "!psgDistClueSubjectToken", "@psgDistClueSubjectPhrase", "%psgDistClueSubjectPhrase", "!psgDistClueSubjectPhrase", "@psgDistClueConcept", "%psgDistClueConcept", "!psgDistClueConcept", "@psgDistConceptRR", "%psgDistConceptRR", "!psgDistConceptRR", "@psgDistConceptScore", "%psgDistConceptScore", "!psgDistConceptScore", "@bioScore", "%bioScore", "!bioScore", "@noTyCor", "%noTyCor", "!noTyCor", "@LATANone", "%LATANone", "!LATANone", "@spWordNet", "%spWordNet", "!spWordNet", "@LATQNoWordNet", "%LATQNoWordNet", "!LATQNoWordNet", "@LATANoWordNet", "%LATANoWordNet", "!LATANoWordNet", "@simpleScore", "%simpleScore", "!simpleScore", "@LATNE", "%LATNE", "!LATNE", "@LATDBpType", "%LATDBpType", "!LATDBpType", "@LATDBpWNType", "%LATDBpWNType", "!LATDBpWNType", "@LATQuantity", "%LATQuantity", "!LATQuantity", "@LATQuantityCD", "%LATQuantityCD", "!LATQuantityCD", "@LATWnInstance", "%LATWnInstance", "!LATWnInstance", "@LATDBpOntology", "%LATDBpOntology", "!LATDBpOntology", "@LATDBpProperty", "%LATDBpProperty", "!LATDBpProperty", "@LATFBOntology", "%LATFBOntology", "!LATFBOntology", "@tyCorSpQHit", "%tyCorSpQHit", "!tyCorSpQHit", "@tyCorSpAHit", "%tyCorSpAHit", "!tyCorSpAHit", "@tyCorSpNoHit", "%tyCorSpNoHit", "!tyCorSpNoHit", "@tyCorSpQAHit", "%tyCorSpQAHit", "!tyCorSpQAHit", "@tyCorSpMultiHit", "%tyCorSpMultiHit", "!tyCorSpMultiHit", "@tyCorANE", "%tyCorANE", "!tyCorANE", "@tyCorADBp", "%tyCorADBp", "!tyCorADBp", "@tyCorAQuantityCD", "%tyCorAQuantityCD", "!tyCorAQuantityCD", "@tyCorAWnInstance", "%tyCorAWnInstance", "!tyCorAWnInstance", "@tyCorADBpOntology", "%tyCorADBpOntology", "!tyCorADBpOntology", "@tyCorADBpProperty", "%tyCorADBpProperty", "!tyCorADBpProperty", "@tyCorAFBOntology", "%tyCorAFBOntology", "!tyCorAFBOntology", "@clOCMatchScore", "%clOCMatchScore", "!clOCMatchScore", "@clOCPrefixedScore", "%clOCPrefixedScore", "!clOCPrefixedScore", "@clOCPrefixingScore", "%clOCPrefixingScore", "!clOCPrefixingScore", "@clOCSuffixedScore", "%clOCSuffixedScore", "!clOCSuffixedScore", "@clOCSuffixingScore", "%clOCSuffixingScore", "!clOCSuffixingScore", "@clOCSubstredScore", "%clOCSubstredScore", "!clOCSubstredScore", "@clOCSubstringScore", "%clOCSubstringScore", "!clOCSubstringScore", "@clOCMetaMatchScore", "%clOCMetaMatchScore", "!clOCMetaMatchScore", "@clOMatchScore", "%clOMatchScore", "!clOMatchScore", "@clOPrefixedScore", "%clOPrefixedScore", "!clOPrefixedScore", "@clOPrefixingScore", "%clOPrefixingScore", "!clOPrefixingScore", "@clOSuffixedScore", "%clOSuffixedScore", "!clOSuffixedScore", "@clOSuffixingScore", "%clOSuffixingScore", "!clOSuffixingScore", "@clOSubstredScore", "%clOSubstredScore", "!clOSubstredScore", "@clOSubstringScore", "%clOSubstringScore", "!clOSubstringScore", "@clOMetaMatchScore", "%clOMetaMatchScore", "!clOMetaMatchScore", "@evdPrefixedScore", "%evdPrefixedScore", "!evdPrefixedScore", "@evdPrefixingScore", "%evdPrefixingScore", "!evdPrefixingScore", "@evdSuffixedScore", "%evdSuffixedScore", "!evdSuffixedScore", "@evdSuffixingScore", "%evdSuffixingScore", "!evdSuffixingScore", "@evdSubstredScore", "%evdSubstredScore", "!evdSubstredScore", "@evdSubstringScore", "%evdSubstringScore", "!evdSubstringScore", "@topAnswer", "%topAnswer", "!topAnswer", "@solrHitsEv", "%solrHitsEv", "!solrHitsEv", "@solrAHitsEv", "%solrAHitsEv", "!solrAHitsEv", "@solrHitsANormEv", "%solrHitsANormEv", "!solrHitsANormEv", "@solrMaxScoreEv", "%solrMaxScoreEv", "!solrMaxScoreEv", "@solrHitsMaxScoreEv", "%solrHitsMaxScoreEv", "!solrHitsMaxScoreEv", "@phase0Score", "%phase0Score", "!phase0Score", "@phase1Score", "%phase1Score", "!phase1Score", "@questionClassABBR", "%questionClassABBR", "!questionClassABBR", "@questionClassDESC", "%questionClassDESC", "!questionClassDESC", "@questionClassENTY", "%questionClassENTY", "!questionClassENTY", "@questionClassHUM", "%questionClassHUM", "!questionClassHUM", "@questionClassLOC", "%questionClassLOC", "!questionClassLOC", "@questionClassNUM", "%questionClassNUM", "!questionClassNUM"], "forest": [{"children_right": [2, 10, 4, 16, 6, -1, 8, -1, -1, -1, 12, 14, -1, -1, -1, -1, 18, -1, -1], "thresholds": [-0.3937795162200928, 0.5, 0.42620134353637695, 0.5, 0.06611847877502441, -2.0, 0.5, -2.0, -2.0, -2.0, 2.162182092666626, 0.5, -2.0, -2.0, -2.0, -2.0, 0.5, -2.0, -2.0], "values": [-3.1602838260146124e-16, -0.16691994306756225, 0.054475196616712171, -0.033307393847425072, 0.21567605586172109, 0.20638240258411483, 0.38163794662904865, 1.1505422494568782, 2.4429555874525657, -1.0213770783011089, -0.10122311989376177, -0.15298691410206403, 2.4033512567644042, 1.1107755585415799, -0.83467696917296952, 0.42554408996500626, -0.048833329731964671, 0.46209465174064029, -0.42631395317709175], "features": [76, 270, 223, 293, 12, -2, 255, -2, -2, -2, 13, 276, -2, -2, -2, -2, 179, -2, -2], "children_left": [1, 9, 3, 15, 5, -1, 7, -1, -1, -1, 11, 13, -1, -1, -1, -1, 17, -1, -1]}, {"children_right": [2, 4, 10, 6, 16, 8, -1, -1, -1, 18, 12, -1, 14, -1, -1, -1, -1, -1, -1], "thresholds": [0.5, 1.6420435905456543, 0.5, 0.5, -1.0604782104492188, 1.5593165159225464, -2.0, -2.0, -2.0, -0.10000000149011612, -0.5, -2.0, 3.5, -2.0, -2.0, -2.0, -2.0, -2.0, -2.0], "values": [-0.00027114826700169048, 0.10457294437052547, -0.034817596747053189, 0.042983036036771373, 0.43265920406603081, 0.48229862357013609, -0.16379497502056523, -1.5125497296321804, 2.6663430697482751, -0.17630112585675792, -0.0066055203363515561, -1.3146940078483931, 0.053644277086708117, -0.24944683296085368, 1.7592761550286657, -1.5156327068781423, 2.0674727550202112, -1.1366564349012509, -0.23384025717184725], "features": [128, 223, 218, 140, 130, 382, -2, -2, -2, 271, 102, -2, 0, -2, -2, -2, -2, -2, -2], "children_left": [1, 3, 9, 5, 15, 7, -1, -1, -1, 17, 11, -1, 13, -1, -1, -1, -1, -1, -1]}, {"children_right": [2, 12, 4, 6, -1, 10, 8, -1, -1, -1, -1, -1, 14, 16, 18, -1, -1, -1, -1], "thresholds": [-0.2917795181274414, 4.3630781173706055, 0.5, 0.5, -2.0, 0.10000000149011612, 2.5, -2.0, -2.0, -2.0, -2.0, -2.0, 0.5, 0.10000000149011612, 0.5, -2.0, -2.0, -2.0, -2.0], "values": [-0.00059051383034159732, -0.15892335676255043, 0.091340750916160382, 0.073978565149433975, 2.0056318090504792, 0.14623310230748615, 0.013121121513544276, -0.50646719528432149, 1.1010646343536397, 0.50514182694147891, 1.564932137504107, -1.1641827465622216, -0.12077936104651785, -0.12736979493451214, 0.24732544259038752, -0.28374078908522915, -1.3257121158042331, -1.4449664351200984, 2.1988803363956753], "features": [178, 174, 138, 272, -2, 229, 0, -2, -2, -2, -2, -2, 246, 100, 264, -2, -2, -2, -2], "children_left": [1, 11, 3, 5, -1, 9, 7, -1, -1, -1, -1, -1, 13, 15, 17, -1, -1, -1, -1]}, {"children_right": [2, 12, 4, 6, 10, 18, 8, -1, -1, -1, -1, -1, 14, 16, -1, -1, -1, -1, -1], "thresholds": [0.6616445779800415, 0.5, 0.5, -0.5, 0.5474635362625122, 0.21320071816444397, -0.20206207036972046, -2.0, -2.0, -2.0, -2.0, -2.0, 0.10000000149011612, -0.06722240149974823, -2.0, -2.0, -2.0, -2.0, -2.0], "values": [-0.00077668730826365665, -0.21492670609622094, 0.31316726407248868, 0.23311254908550597, 0.45184335430905115, -0.086568729170808684, 0.30762083943587393, 1.7238914674094377, 0.89078141436271807, 0.19186956687368747, 1.996501727143811, 0.12254839290666938, -0.22242900650766151, -0.22955033398131511, -0.22540628635493909, -1.1778444537988979, -0.8592971889133254, -0.50401159512944904, 1.3686612704702446], "features": [381, 80, 255, 267, 178, 163, 100, -2, -2, -2, -2, -2, 166, 13, -2, -2, -2, -2, -2], "children_left": [1, 11, 3, 5, 9, 17, 7, -1, -1, -1, -1, -1, 13, 15, -1, -1, -1, -1, -1]}, {"children_right": [2, 6, 4, 18, -1, 12, 8, 16, 10, -1, -1, 14, -1, -1, -1, -1, -1, -1, -1], "thresholds": [0.5, 0.2443375587463379, 0.7910724878311157, 0.7030065059661865, -2.0, -0.10000000149011612, -0.10000000149011612, 0.5, 0.5, -2.0, -2.0, 0.5, -2.0, -2.0, -2.0, -2.0, -2.0, -2.0, -2.0], "values": [-0.0011522447286337755, -0.10710404074649997, 0.069606891328923823, -0.2070569929201658, 1.5061222109731593, -0.17638559470067872, -0.0046171665148797168, -0.089889609483121316, 0.073285995730104303, 1.1034173587459417, -0.36002739918848087, -0.22293738928947299, -0.49404771799993491, -1.214556345060313, 1.0981182539737773, -0.21330547906698666, -1.4111318091695944, -0.79708827347983446, -1.2406168035291965], "features": [129, 127, 382, 13, -2, 241, 292, 275, 266, -2, -2, 246, -2, -2, -2, -2, -2, -2, -2], "children_left": [1, 5, 3, 17, -1, 11, 7, 15, 9, -1, -1, 13, -1, -1, -1, -1, -1, -1, -1]}, {"children_right": [2, 16, 4, 12, 6, 8, 10, -1, -1, -1, -1, -1, 14, -1, -1, 18, -1, -1, -1], "thresholds": [-0.3937795162200928, 0.5, -0.9454571008682251, 1.5774827003479004, 2.5, 1.9375660419464111, -0.21320071816444397, -2.0, -2.0, -2.0, -2.0, -2.0, 0.5, -2.0, -2.0, -0.2805787920951843, -2.0, -2.0, -2.0], "values": [-0.0013949839151143968, -0.20461586819673913, 0.037535574214761482, -0.11322589267398087, 0.043945324349844668, -0.056358023008175641, 0.20747361446694512, -0.35981181213042135, 1.7402638214084762, -1.5331429963485492, 0.92512304863195693, -0.90940935609475604, 0.26649468634179335, 1.3194397222102707, -1.607964066868024, 0.027688754654154067, -1.1383057557495189, -1.3928397051551884, 1.8719365189447552], "features": [103, 248, 172, 1, 0, 217, 259, -2, -2, -2, -2, -2, 275, -2, -2, 235, -2, -2, -2], "children_left": [1, 15, 3, 11, 5, 7, 9, -1, -1, -1, -1, -1, 13, -1, -1, 17, -1, -1, -1]}, {"children_right": [2, 4, 10, 16, 6, -1, 8, -1, -1, -1, 12, 14, -1, -1, -1, -1, 18, -1, -1], "thresholds": [-0.2917795181274414, 1.2990598678588867, 0.5, 0.5, 0.09921233355998993, -2.0, 1.4504408836364746, -2.0, -2.0, -2.0, 1.6255382299423218, 1.659485101699829, -2.0, -2.0, -2.0, -2.0, 0.4281744062900543, -2.0, -2.0], "values": [-0.0014321375863405965, -0.11279618675508093, 0.063228091446223739, -0.13724295425579983, 0.12390166129551428, -0.78278169555716359, 0.30371902476209961, -0.32404359063770033, 2.171023273948542, 1.5098548282898294, 0.059493144408939193, 0.045970598991214869, 1.5617572352715692, -0.22043907885898281, 1.3192611885534211, -0.73622890593732659, 0.13730375152154711, -1.3367437966658571, 1.6336624951404279], "features": [178, 13, 158, 246, 12, -2, 382, -2, -2, -2, 139, 1, -2, -2, -2, -2, 223, -2, -2], "children_left": [1, 3, 9, 15, 5, -1, 7, -1, -1, -1, 11, 13, -1, -1, -1, -1, 17, -1, -1]}, {"children_right": [2, 6, 4, -1, -1, 8, 14, 10, 12, -1, -1, -1, -1, 16, 18, -1, -1, -1, -1], "thresholds": [0.5, 0.4939750134944916, 1.1234346628189087, -2.0, -2.0, 0.5, 1.9375660419464111, 0.5, 0.5773497819900513, -2.0, -2.0, -2.0, -2.0, 1.319639801979065, -0.6071946620941162, -2.0, -2.0, -2.0, -2.0], "values": [-0.001397260265427999, 0.053634492016523233, -0.08379952401749298, -0.96301956046549531, 1.4878526821370219, 0.018882898280999975, 0.1900767556775011, -0.0061058405391472767, 0.11978713106293185, -0.11599925288404178, 0.71594871166914542, -1.656601890241826, 0.54231815022429819, 0.16834729212754124, 0.35608457035430197, 0.40538206177372643, 1.3944434670825339, -1.7983301862218819, 1.5975047255477435], "features": [14, 274, 382, -2, -2, 252, 274, 126, 76, -2, -2, -2, -2, 241, 256, -2, -2, -2, -2], "children_left": [1, 5, 3, -1, -1, 7, 13, 9, 11, -1, -1, -1, -1, 15, 17, -1, -1, -1, -1]}, {"children_right": [2, 4, 8, 14, 6, -1, -1, 12, 10, -1, -1, -1, -1, 18, 16, -1, -1, -1, -1], "thresholds": [0.06918078660964966, 1.9375660419464111, 0.5, 0.71735680103302, 0.7741097211837769, -2.0, -2.0, 1.743896245956421, 0.5, -2.0, -2.0, -2.0, -2.0, 3.116487979888916, 0.5, -2.0, -2.0, -2.0, -2.0], "values": [-0.0014212505673117501, -0.081436400337273951, 0.124854454787482, -0.097752640939219482, 0.30527926825931723, -1.6399795640019779, 1.6145051507866306, 0.33018655957302528, 0.10708885285315838, 0.23741105998059392, 1.2374566680338859, -0.83235206275623697, 1.622601829966589, -0.12306141189020937, -0.040863321876063952, 1.264340127814177, -0.49536258051762444, -0.66042938017976216, 1.4273684095990782], "features": [12, 262, 290, 133, 381, -2, -2, 382, 255, -2, -2, -2, -2, 139, 140, -2, -2, -2, -2], "children_left": [1, 3, 7, 13, 5, -1, -1, 11, 9, -1, -1, -1, -1, 17, 15, -1, -1, -1, -1]}, {"children_right": [2, 4, 6, 16, 14, -1, 8, 12, 10, -1, -1, -1, -1, -1, -1, 18, -1, -1, -1], "thresholds": [0.5, 1.6255382299423218, -0.21320071816444397, 0.8237544894218445, -0.10000000149011612, -2.0, -0.10000000149011612, 0.5, 1.6287641525268555, -2.0, -2.0, -2.0, -2.0, -2.0, -2.0, 0.517836332321167, -2.0, -2.0, -2.0], "values": [-0.0013289468192228143, 0.037757325885151863, -0.042334933694844097, 0.0090757640559590083, 0.21739505791933667, -0.97254869948030809, -0.012790706275047112, -0.078549706664655911, 0.028644084294757562, -0.2293966352151261, 1.3066890038901038, -0.90813059678053931, -0.208220942866264, -0.51467277391536603, 1.0034817371200668, 0.0074073136363641216, 1.1417644193846173, -0.18547911323637539, 0.40448759983195992], "features": [266, 265, 103, 109, 139, -2, 262, 129, 13, -2, -2, -2, -2, -2, -2, 133, -2, -2, -2], "children_left": [1, 3, 5, 15, 13, -1, 7, 11, 9, -1, -1, -1, -1, -1, -1, 17, -1, -1, -1]}, {"children_right": [2, 16, 4, 6, 12, 8, 10, -1, -1, -1, -1, -1, 14, -1, -1, 18, -1, -1, -1], "thresholds": [0.5, 0.5, 0.6377416849136353, 0.5, -0.5, 2.0249693393707275, 0.1639232337474823, -2.0, -2.0, -2.0, -2.0, -2.0, 0.5, -2.0, -2.0, -0.10000000149011612, -2.0, -2.0, -2.0], "values": [-0.0012631838158425315, -0.14035928941239845, 0.025866880510772072, -0.18060137413274976, 0.26167361884129425, -0.16506571040224799, -0.23464279304476002, -0.90547670935141233, 0.06754012789067082, -1.275618638229302, -0.48629465843613695, 2.1893586742773379, 0.25814933897553288, 1.2462671894715653, 1.0036676912145741, 0.026902997754959176, -1.0009502774296388, -1.2475948174693767, 2.1585351273147766], "features": [104, 392, 382, 99, 79, 1, 382, -2, -2, -2, -2, -2, 240, -2, -2, 235, -2, -2, -2], "children_left": [1, 15, 3, 5, 11, 7, 9, -1, -1, -1, -1, -1, 13, -1, -1, 17, -1, -1, -1]}, {"children_right": [2, 6, 4, -1, 10, 8, 12, 16, -1, -1, 18, 14, -1, -1, -1, -1, -1, -1, -1], "thresholds": [0.5, 0.5, 0.42966100573539734, -2.0, 0.5, 1.5723276138305664, 0.5, 0.3847029209136963, -2.0, -2.0, -0.20206207036972046, 1.020416498184204, -2.0, -2.0, -2.0, -2.0, -2.0, -2.0, -2.0], "values": [-0.0014066827356446641, 0.027844930917946761, -0.095317005725507983, -1.0384720221539225, 0.094894170120137969, -0.01321201981728074, 0.1049353868763819, -0.036728396120961335, 0.98345711871710151, -0.24966232511980402, 0.25449595715488638, 0.13735051061708234, -0.066967182699766134, 0.43426142066260104, 1.0479462099112995, -0.22624944607660405, 0.55045241000962553, -1.4669998053516498, 1.2731264733827388], "features": [260, 177, 381, -2, 75, 223, 14, 163, -2, -2, 247, 259, -2, -2, -2, -2, -2, -2, -2], "children_left": [1, 5, 3, -1, 9, 7, 11, 15, -1, -1, 17, 13, -1, -1, -1, -1, -1, -1, -1]}, {"children_right": [2, 6, 4, -1, 12, 14, 8, 10, 18, -1, -1, -1, -1, 16, -1, -1, -1, -1, -1], "thresholds": [0.09921233355998993, -0.8996381163597107, 0.5, -2.0, -1.0400617122650146, 0.5, 2.5266103744506836, 0.6546132564544678, 0.5064945816993713, -2.0, -2.0, -2.0, -2.0, 2.5, -2.0, -2.0, -2.0, -2.0, -2.0], "values": [-0.0013621689959889948, -0.055500258905728309, 0.11342279713759509, 0.26663497450838847, 0.28494845289939275, -0.12467784578864266, -0.042018878180245092, -0.047556211512378981, 0.22796715019963171, -0.52071553357100286, 0.34014168524353772, -0.060215148999943624, 1.3647401098030341, -0.06846891710074865, -1.0706501841159084, -0.59078810259431391, 1.4098471877840932, 1.1604310457617417, -1.5308387308568685], "features": [12, 133, 255, -2, 175, 272, 274, 1, 100, -2, -2, -2, -2, 295, -2, -2, -2, -2, -2], "children_left": [1, 5, 3, -1, 11, 13, 7, 9, 17, -1, -1, -1, -1, 15, -1, -1, -1, -1, -1]}, {"children_right": [2, 4, 16, 6, 12, 8, 10, -1, -1, -1, -1, -1, 14, -1, -1, -1, -1], "thresholds": [0.5, 0.8234591484069824, -0.10000000149011612, -0.2463996410369873, -1.8482853174209595, 0.4245538115501404, 0.5, -2.0, -2.0, -2.0, -2.0, -2.0, 0.6871842741966248, -2.0, -2.0, -2.0, -2.0], "values": [-0.0012550187123253787, -0.0025455971520378156, 0.36181161740320616, -0.019354528298947175, 0.12089661461501451, -0.074329369505966802, 0.013158812814859651, -0.49887408450033577, 0.86378332234249078, 0.015751626423260653, 0.4206761568182793, -1.6151100191698788, 0.12349668802331626, 0.60591703530902297, -1.2876366663594931, 2.4960701356907338, 1.4102250554260527], "features": [330, 262, 301, 130, 100, 136, 165, -2, -2, -2, -2, -2, 286, -2, -2, -2, -2], "children_left": [1, 3, 15, 5, 11, 7, 9, -1, -1, -1, -1, -1, 13, -1, -1, -1, -1]}, {"children_right": [2, 12, 4, 6, -1, 8, 10, -1, -1, -1, -1, -1, 14, 18, 16, -1, -1, -1, -1], "thresholds": [-0.3937795162200928, -0.20206207036972046, 1.8648217916488647, 4.5, -2.0, 1.6653798818588257, 0.7243602275848389, -2.0, -2.0, -2.0, -2.0, -2.0, 0.5, 0.6839396953582764, 0.6507556438446045, -2.0, -2.0, -2.0, -2.0], "values": [-0.0011694953360327355, -0.10674346602063671, 0.019055067790279854, 0.017105617991711751, 1.5418648549902731, -0.02196507397365326, 0.18618696146203056, -0.17436310958858114, 0.70259699971097489, -0.44171433825331891, 0.95128258792590881, -1.158099630464023, -0.095615334081418327, -0.13083984907340701, -0.047050433151812253, 1.668275839406419, -0.57765343927653812, -1.164697860425733, -0.92274630619487452], "features": [103, 289, 154, 0, -2, 271, 1, -2, -2, -2, -2, -2, 162, 222, 7, -2, -2, -2, -2], "children_left": [1, 11, 3, 5, -1, 7, 9, -1, -1, -1, -1, -1, 13, 17, 15, -1, -1, -1, -1]}, {"children_right": [2, 4, 6, -1, 8, 14, 12, 10, 16, -1, -1, -1, -1, -1, 18, -1, -1, -1, -1], "thresholds": [0.5, 0.5, -0.20206207036972046, -2.0, 0.5, 0.3937795162200928, 0.5, 3.116487979888916, -0.7388034462928772, -2.0, -2.0, -2.0, -2.0, -2.0, 2.5, -2.0, -2.0, -2.0, -2.0], "values": [-0.0010953322898777514, 0.024470723205799464, -0.039376883588866533, 0.46094608525390107, -0.0037025715410163411, -0.094142307275522419, -0.0077567429620047021, -0.016183272197538089, 0.12231700776124028, -0.1053108596170164, 1.4192215701800908, 0.75167798572448541, -0.14849901172608385, -1.0305300674833691, -0.015577946377339323, -1.6104406389164707, 0.6399715917399218, -0.53274168041948344, 0.48493610226616918], "features": [131, 257, 292, -2, 126, 241, 296, 247, 262, -2, -2, -2, -2, -2, 0, -2, -2, -2, -2], "children_left": [1, 3, 5, -1, 7, 13, 11, 9, 15, -1, -1, -1, -1, -1, 17, -1, -1, -1, -1]}, {"children_right": [2, 14, 4, 10, 6, 8, -1, -1, -1, 18, 12, -1, -1, -1, 16, -1, -1, -1, -1], "thresholds": [0.09921233355998993, 0.4245538115501404, 0.30348849296569824, 0.0920945480465889, 0.29509323835372925, 0.24397501349449158, -2.0, -2.0, -2.0, -0.35879093408584595, 0.7542657852172852, -2.0, -2.0, -2.0, -0.487062007188797, -2.0, -2.0, -2.0, -2.0], "values": [-0.0010256977168884673, -0.045577626971842713, 0.093434444841553763, 0.046097286763265501, 0.20211032239285362, 0.046054449695891495, 1.1421294998862979, -0.61702817074127581, 0.87041166187872387, 0.033590305368726106, 0.1661927098707911, -0.65623294759660866, 1.7604803787665368, -0.27681842796332479, 0.16222411448503607, -1.5278448051110829, 1.0081171040556023, -0.31516094886643314, 0.18996282563797517], "features": [12, 136, 178, 172, 103, 235, -2, -2, -2, 172, 381, -2, -2, -2, 274, -2, -2, -2, -2], "children_left": [1, 13, 3, 9, 5, 7, -1, -1, -1, 17, 11, -1, -1, -1, 15, -1, -1, -1, -1]}, {"children_right": [2, 6, 4, 10, -1, 8, -1, 14, 18, 16, 12, -1, -1, -1, -1, -1, -1, -1, -1], "thresholds": [0.6152932643890381, 3.36696720123291, 0.9386877417564392, -0.20631927251815796, -2.0, 0.7853906154632568, -2.0, 0.5, 0.5, 2.5, -0.43141859769821167, -2.0, -2.0, -2.0, -2.0, -2.0, -2.0, -2.0, -2.0], "values": [-0.00089955557592994459, -0.026299686553065055, 0.045780722910648004, -0.11731318784165537, 0.93160961625975691, -0.03236181051616998, 1.083463002865837, -0.12965759384221234, 0.2299934828775389, -0.18438728578422384, -0.083240345781344094, -1.0971195345523883, -0.19428883454486706, -0.89863796052953948, -0.61320080489131701, -0.99120914067412935, -1.4999292751891129, 1.1051583355528998, 0.78831084987310185], "features": [241, 223, 382, 292, -2, 382, -2, 224, 75, 0, 235, -2, -2, -2, -2, -2, -2, -2, -2], "children_left": [1, 5, 3, 9, -1, 7, -1, 13, 17, 15, 11, -1, -1, -1, -1, -1, -1, -1, -1]}, {"children_right": [2, 4, 6, -1, 16, 12, 8, -1, 10, -1, -1, 14, -1, -1, -1, -1, 18, -1, -1], "thresholds": [-0.17676670849323273, 1.194521427154541, 0.5, -2.0, -1.1239359378814697, 0.5773497819900513, 0.6619537472724915, -2.0, 0.5, -2.0, -2.0, -0.03672225400805473, -2.0, -2.0, -2.0, -2.0, 1.0400617122650146, -2.0, -2.0], "values": [-0.00094953103931355088, -0.051005204156996428, 0.029387872848438783, -0.72377551355217395, 0.26151612124058948, 0.22440462012898801, 0.024959727426368171, -0.29090195672639924, 0.17230236703212942, 1.1338353206346854, 0.6463250274918324, 0.30930231417383941, -1.3965955753387356, -1.260375234896959, 1.9964405674057735, -2.2548588088670223, 0.27023071037986296, 1.0671207910123413, 2.0199534293404287], "features": [223, 382, 80, -2, 127, 271, 1, -2, 177, -2, -2, 175, -2, -2, -2, -2, 235, -2, -2], "children_left": [1, 3, 5, -1, 15, 11, 7, -1, 9, -1, -1, 13, -1, -1, -1, -1, 17, -1, -1]}, {"children_right": [2, 8, 4, 10, 6, 18, -1, -1, 12, -1, 16, 14, -1, -1, -1, -1, -1, -1, -1], "thresholds": [-0.20206207036972046, -0.43141859769821167, 1.3097038269042969, -0.71735680103302, 3.427633285522461, 0.5, -2.0, -2.0, 3.427633285522461, -2.0, 1.8875503540039062, -3.080019950866699, -2.0, -2.0, -2.0, -2.0, -2.0, -2.0, -2.0], "values": [-0.00091866041044522844, -0.03952375561597507, 0.010735940479484809, -0.080925099530219369, 0.22334957253072135, 0.22718710345497115, -2.7793244717844132, -1.1137382906561044, -0.010862624521179169, -0.86903296325396584, -0.067043449966231919, -0.016075426408083286, 1.8542839877401605, 2.0818826402532919, -0.12890920771682815, -0.37571501621839037, -1.5277030986864442, 0.95352727995872411, 1.2068294140869293], "features": [289, 265, 382, 133, 76, 242, -2, -2, 250, -2, 241, 259, -2, -2, -2, -2, -2, -2, -2], "children_left": [1, 7, 3, 9, 5, 17, -1, -1, 11, -1, 15, 13, -1, -1, -1, -1, -1, -1, -1]}, {"children_right": [2, 10, 4, 8, 6, -1, -1, -1, -1, 12, 14, 16, -1, 18, -1, -1, -1, -1, -1], "thresholds": [0.5937435030937195, 0.5, 1.5, 0.08712121844291687, 0.5, -2.0, -2.0, -2.0, -2.0, 0.9045016765594482, 0.20631927251815796, 10.5, -2.0, 0.7388034462928772, -2.0, -2.0, -2.0, -2.0, -2.0], "values": [-0.00085017561379892911, -0.111598211282885, 0.15289423541252392, 0.099882124177271756, 0.17460779868908533, 0.57650165428228439, 1.0133564434780726, -1.0522498169123871, 0.52477909598982952, -0.08531149665984944, -0.13155872217906256, -0.095148634885508454, 2.1313879164100027, -0.093431773461267298, -1.0319765155863327, -0.73124113299843585, 0.77671265476294205, -0.86415262011644134, -0.015292591345169996], "features": [382, 273, 0, 171, 77, -2, -2, -2, -2, 381, 103, 0, -2, 241, -2, -2, -2, -2, -2], "children_left": [1, 9, 3, 7, 5, -1, -1, -1, -1, 11, 13, 15, -1, 17, -1, -1, -1, -1, -1]}, {"children_right": [2, 16, 4, 8, 6, 14, 18, 10, 12, -1, -1, -1, -1, -1, -1, -1, -1, -1, -1], "thresholds": [-1.4371843338012695, 0.5, 1.3098169565200806, 0.5, 3.427633285522461, 0.5, 0.5, 0.9044276475906372, 5.499196529388428, -2.0, -2.0, -2.0, -2.0, -2.0, -2.0, -2.0, -2.0, -2.0, -2.0], "values": [-0.00090880763133686612, 0.29869621993561912, -0.0017297025165100423, -0.077613301757327974, 0.18226376004833802, 0.18498089692399619, -0.57657874680310306, -0.064757388021922449, -0.12745301214884663, -0.59666737121094759, 0.85211252915603986, -0.88243178818429258, -0.059303024465631737, -0.20806767127328427, 0.93545035440923574, 1.123723900149578, 1.7550918127588073, -2.5985869155674788, -2.1823531403098286], "features": [169, 162, 382, 177, 253, 104, 128, 381, 174, -2, -2, -2, -2, -2, -2, -2, -2, -2, -2], "children_left": [1, 15, 3, 7, 5, 13, 17, 9, 11, -1, -1, -1, -1, -1, -1, -1, -1, -1, -1]}, {"children_right": [2, 4, 6, 14, 18, -1, 8, 12, 10, -1, -1, -1, -1, -1, 16, -1, -1, -1, -1], "thresholds": [0.5787106156349182, 0.3736194670200348, -0.5511747002601624, 0.2917795181274414, -1.1005306243896484, -2.0, 1.965958833694458, 0.5, 4.232050895690918, -2.0, -2.0, -2.0, -2.0, -2.0, 0.43141859769821167, -2.0, -2.0, -2.0, -2.0], "values": [-0.00085006398884716558, -0.093246327153560668, 0.12579077761148538, -0.071218512210786775, -0.12991216956901869, 0.22811264764662298, 0.1350971877864286, 0.10042563345539592, 0.19510354483933146, 1.0424729616292345, -2.3733270924015972, 0.33346064893682792, 0.80657200078579017, -0.6437402156041615, 0.020979699506633386, 0.41397312901344085, -1.2523570327759723, -0.1051477842752495, -0.94887386103469595], "features": [382, 259, 172, 259, 382, -2, 1, 14, 127, -2, -2, -2, -2, -2, 235, -2, -2, -2, -2], "children_left": [1, 3, 5, 13, 17, -1, 7, 11, 9, -1, -1, -1, -1, -1, 15, -1, -1, -1, -1]}, {"children_right": [2, 10, 4, 6, -1, 18, 8, -1, -1, 14, 12, 16, -1, -1, -1, -1, -1, -1, -1], "thresholds": [-0.9803844690322876, -0.2718721032142639, 1.658312439918518, -0.3652160167694092, -2.0, 9.960935592651367, -0.45717573165893555, -2.0, -2.0, 0.5, 0.5, 0.5, -2.0, -2.0, -2.0, -2.0, -2.0, -2.0, -2.0], "values": [-0.00085088734336226618, -0.060981032874079751, 0.006181491259461042, 0.0053148186906724461, 1.6005830973063664, -0.065381317888494148, 0.014846754924076371, -0.74110723108389709, 0.11089591579266107, 0.16642886749020924, -0.069131690934012807, -0.044966584332009583, -1.0719126755880826, -0.11669748954421384, 3.7205026146964406, 0.15847007450037101, -0.67825337650455186, -0.5715672893019641, 1.3772707305461507], "features": [241, 310, 106, 217, -2, 174, 289, -2, -2, 224, 75, 164, -2, -2, -2, -2, -2, -2, -2], "children_left": [1, 9, 3, 5, -1, 17, 7, -1, -1, 13, 11, 15, -1, -1, -1, -1, -1, -1, -1]}, {"children_right": [2, 8, 4, 6, -1, 18, 14, 16, 10, 12, -1, -1, -1, -1, -1, -1, -1, -1, -1], "thresholds": [0.6152932643890381, -1.0069681406021118, 0.5, 0.7445250749588013, -2.0, -0.33869266510009766, 0.5, 0.5, 0.2720234990119934, 1.5, -2.0, -2.0, -2.0, -2.0, -2.0, -2.0, -2.0, -2.0, -2.0], "values": [-0.00080090127767605036, -0.015226384661768712, 0.025710205388628841, 0.017161632266009808, 1.0979697244933411, -0.084776909806845976, 0.13434259950865718, -0.1107554564856999, -0.0093002858864689279, -0.011799489501424775, 1.4259003666662546, -0.44129707893461034, 0.24123146423087449, 0.66233765372492315, 1.7003707049839318, 1.6232121498553724, -1.059142539972558, -0.26346069727697957, -0.67867229400008855], "features": [241, 175, 138, 381, -2, 253, 246, 248, 220, 0, -2, -2, -2, -2, -2, -2, -2, -2, -2], "children_left": [1, 7, 3, 5, -1, 17, 13, 15, 9, 11, -1, -1, -1, -1, -1, -1, -1, -1, -1]}, {"children_right": [2, 4, 12, 18, 6, 10, 8, -1, -1, -1, -1, -1, 14, -1, 16, -1, -1, -1, -1], "thresholds": [3.116487979888916, -1.2039804458618164, -0.45717573165893555, 2.95876407623291, 1.3098169565200806, 0.5, 0.20425720512866974, -2.0, -2.0, -2.0, -2.0, -2.0, 4.129966735839844, -2.0, 0.12553222477436066, -2.0, -2.0, -2.0, -2.0], "values": [-0.00075194171744247934, -0.0049860666548075042, 0.20399416000455114, -0.089254816846971119, 0.0026962666174401373, -0.059436179107951174, 0.14732839384286844, 0.96505664775528599, 0.60886527276853664, -0.32647789416540907, -0.78551478924134643, 1.4720902663011191, 0.17999079186649811, 0.33394228855933938, 0.19925860760312133, 0.87910756285388048, 1.2423256141198999, -1.1158360432192296, -1.1906791105543859], "features": [139, 103, 76, 346, 382, 249, 271, -2, -2, -2, -2, -2, 139, -2, 223, -2, -2, -2, -2], "children_left": [1, 3, 11, 17, 5, 9, 7, -1, -1, -1, -1, -1, 13, -1, 15, -1, -1, -1, -1]}, {"children_right": [2, 4, 8, 6, -1, 18, 14, 10, -1, 16, 12, -1, -1, -1, -1, -1, -1, -1, -1], "thresholds": [1.3513199090957642, 0.5649797916412354, 0.3952847123146057, -1.2039804458618164, -2.0, 0.5, -0.4629100561141968, 0.5, -2.0, 0.5, 1.5, -2.0, -2.0, -2.0, -2.0, -2.0, -2.0, -2.0, -2.0], "values": [-0.00068806732835883448, -0.0088238929240692758, 0.072038206319811685, -0.0095119275081074033, 3.165024382140309, -0.078628213137842851, -0.0031238944289033342, 0.063557106842713193, 2.134018589323941, -0.023507785811304652, 0.10419050573276202, 0.21260765901439904, 0.82353786820709829, -1.2660363727812955, -0.010912070167134027, -0.60695584345643228, 0.17930512048969396, -1.0898148005118125, -1.1253242123454807], "features": [235, 360, 313, 103, -2, 398, 229, 129, -2, 278, 0, -2, -2, -2, -2, -2, -2, -2, -2], "children_left": [1, 3, 7, 5, -1, 17, 13, 9, -1, 15, 11, -1, -1, -1, -1, -1, -1, -1, -1]}, {"children_right": [2, 4, 12, -1, 6, 8, 10, -1, -1, -1, -1, -1, 14, 16, 18, -1, -1, -1, -1], "thresholds": [0.5, -1.2039804458618164, -0.5, -2.0, 0.6909608840942383, -0.5, -0.9803844690322876, -2.0, -2.0, -2.0, -2.0, -2.0, 3.116487979888916, 0.5, 0.6971367597579956, -2.0, -2.0, -2.0, -2.0], "values": [-0.00065188145883129868, -0.0046011928632545933, 0.10312041134241078, -1.0978829998709481, 0.0018175064484290686, -0.061089916327952132, 0.094481789638117389, 0.79158521553791616, -0.49384443366583813, -0.4025616139088351, 0.55146667953896245, -2.0897968644945073, 0.11411026633916364, 0.019721352369018553, 0.18767659703471776, -2.3085614396681118, 0.20393766998608695, 1.2483584920768724, 0.59756036501304799], "features": [138, 103, 225, -2, 381, 78, 241, -2, -2, -2, -2, -2, 139, 269, 259, -2, -2, -2, -2], "children_left": [1, 3, 11, -1, 5, 7, 9, -1, -1, -1, -1, -1, 13, 15, 17, -1, -1, -1, -1]}, {"children_right": [2, 4, 14, 8, 6, -1, -1, 12, 10, -1, -1, -1, -1, 16, -1, -1, 18, -1, -1], "thresholds": [1.9128708839416504, 0.5, 3.427633285522461, -1.0400617122650146, 2.4141082763671875, -2.0, -2.0, 3.3357057571411133, 1.551783800125122, -2.0, -2.0, -2.0, -2.0, 0.5, -2.0, -2.0, 1.0246950387954712, -2.0, -2.0], "values": [-0.00063421223958922703, -0.0036698944492971211, 0.1181006983664825, -0.0074513458779094264, 0.093120395225592012, -0.97828044293131855, 1.1420598235842492, -0.064545301270131639, -0.0018866253833338047, -0.059227771394140816, 0.51696719099776833, -0.68089104005537138, 0.99494312214854597, 0.12826237203055016, -2.6801837220555051, 1.2278791373409623, 0.099327169822894704, -1.3204686910254857, 0.79897679627509222], "features": [217, 138, 178, 241, 382, -2, -2, 1, 130, -2, -2, -2, -2, 14, -2, -2, 271, -2, -2], "children_left": [1, 3, 13, 7, 5, -1, -1, 11, 9, -1, -1, -1, -1, 15, -1, -1, 17, -1, -1]}, {"children_right": [2, 6, 4, 12, 8, -1, 14, -1, 10, -1, -1, 18, 16, -1, -1, -1, -1, -1, -1], "thresholds": [-1.0069681406021118, 0.8364226818084717, -0.10000000149011612, 0.5, 0.5, -2.0, -0.6672919392585754, -2.0, -0.10000000149011612, -2.0, -2.0, -0.3439750075340271, 0.7590881586074829, -2.0, -2.0, -2.0, -2.0, -2.0, -2.0], "values": [-0.00055849475737329481, -0.062909631490519438, 0.0032568576475896604, -0.074056991008531511, 0.010595650978667465, -1.0282711815667225, 0.14171602162193592, -0.57359511751114289, 0.019893386925370373, -0.082174891904650785, 0.21609458203772697, 0.034679006475044405, -0.10478572146623778, -1.1910634353445619, 1.1400833535371677, -1.2463699993290045, -0.24453557129893008, -0.57403935173897314, 1.0801160126209011], "features": [175, 235, 139, 273, 104, -2, 100, -2, 265, -2, -2, 262, 130, -2, -2, -2, -2, -2, -2], "children_left": [1, 5, 3, 11, 7, -1, 13, -1, 9, -1, -1, 17, 15, -1, -1, -1, -1, -1, -1]}, {"children_right": [2, 4, 10, 6, -1, 18, 8, -1, -1, 12, 14, -1, 16, -1, -1, -1, -1, -1, -1], "thresholds": [-0.30886954069137573, 1.7029060125350952, 0.5, 0.2463996410369873, -2.0, 0.5, 1.5, -2.0, -2.0, 0.25048378109931946, 0.7919655442237854, -2.0, 0.8234591484069824, -2.0, -2.0, -2.0, -2.0, -2.0, -2.0], "values": [-0.00055515938900621911, -0.027287874067150057, 0.01637939324114504, -0.071737696745276497, 0.97856249230437475, -0.091494810346386915, 0.0049477186242897851, -0.38345174079637873, 0.6075293686944766, 0.047831803144898752, 0.00019144105909703216, -0.31749725266748507, 0.14287438928186411, -0.2724858935856182, 0.47715040759804267, 0.26255916363275889, 1.0778215674142824, -0.66786244578140275, -0.8141361393534734], "features": [235, 382, 276, 268, -2, 104, 0, -2, -2, 382, 1, -2, 235, -2, -2, -2, -2, -2, -2], "children_left": [1, 3, 9, 5, -1, 17, 7, -1, -1, 11, 13, -1, 15, -1, -1, -1, -1, -1, -1]}, {"children_right": [2, 4, 12, -1, 6, 10, 8, -1, -1, -1, -1, -1, 14, 18, 16, -1, -1, -1, -1], "thresholds": [0.06918078660964966, -0.20206207036972046, 0.5, -2.0, 4.757882118225098, 0.5, -0.32491636276245117, -2.0, -2.0, -2.0, -2.0, -2.0, -0.3132007122039795, 4.548585891723633, -0.10000000149011612, -2.0, -2.0, -2.0, -2.0], "values": [-0.00051926576024757462, -0.019533732157680877, 0.029488366084269444, -0.39597839010967911, -0.0021165498256699028, -0.025355060886976546, 0.021827768652853883, -0.25918444593386758, 0.45647698042064699, 0.85468334094141152, -0.26995969434325362, -1.3439469767790464, 0.031231747791455964, -0.070577419053940563, 0.047345523691055102, 0.57449893265977603, 0.16576844612813402, -1.4868462174745005, -0.29464966425816036], "features": [12, 292, 230, -2, 174, 80, 235, -2, -2, -2, -2, -2, 268, 174, 298, -2, -2, -2, -2], "children_left": [1, 3, 11, -1, 5, 9, 7, -1, -1, -1, -1, -1, 13, 17, 15, -1, -1, -1, -1]}, {"children_right": [2, 16, 4, 6, 12, 8, 10, -1, -1, -1, -1, 14, -1, -1, -1, 18, -1, -1, -1], "thresholds": [-1.2039804458618164, -0.3937795162200928, 2.5266103744506836, 0.09921233355998993, 4.232050895690918, 0.5, -0.2656053900718689, -2.0, -2.0, -2.0, -2.0, 0.5, -2.0, -2.0, -2.0, 0.5, -2.0, -2.0, -2.0], "values": [-0.00048869309876733351, -0.058632394948431275, 0.0046949880473835708, 0.0020476402544546504, 0.10772791663400386, -0.012584044640198072, 0.029108058902291737, -0.13478375848212412, 0.59575430086236214, 0.61069972652955617, 0.084815908099509646, 0.072150218108782235, 1.1817081124607334, 0.8942278998915556, 0.35531131796928189, -0.053012528612991626, -1.0916075840293618, -1.0649917808464926, -1.0914453399682977], "features": [103, 253, 274, 12, 271, 138, 292, -2, -2, -2, -2, 167, -2, -2, -2, 240, -2, -2, -2], "children_left": [1, 15, 3, 5, 11, 7, 9, -1, -1, -1, -1, 13, -1, -1, -1, 17, -1, -1, -1]}, {"children_right": [2, 4, 16, 12, 6, 8, 10, -1, -1, -1, -1, 18, 14, -1, -1, -1, -1, -1, -1], "thresholds": [3.427633285522461, -0.30886954069137573, 0.9626553058624268, 0.5, 0.5, 0.24651595950126648, 4.452395439147949, -2.0, -2.0, -2.0, -2.0, 0.5, 1.9375660419464111, -2.0, -2.0, -2.0, -2.0, -2.0, -2.0], "values": [-0.00044767012883817987, 0.0012775786261761371, -0.2690448280461229, -0.022478774917176359, 0.016356769379500296, 0.053824941539739719, 0.0026772749457603323, -0.19843803383948511, 0.84673822956070854, 0.01020110344147712, 2.1931991871125902, 0.022444829622187919, -0.034774323828380783, -0.37306024993660253, 0.72022721982922411, -1.2845478097606007, -2.4868502880935091, 0.39141870089367725, 0.08831579391944179], "features": [76, 235, 382, 179, 264, 382, 313, -2, -2, -2, -2, 255, 271, -2, -2, -2, -2, -2, -2], "children_left": [1, 3, 15, 11, 5, 7, 9, -1, -1, -1, -1, 17, 13, -1, -1, -1, -1, -1, -1]}, {"children_right": [2, 4, 16, 6, 12, 10, 8, -1, -1, -1, -1, 14, -1, -1, -1, -1, 18, -1, -1], "thresholds": [-0.003155891317874193, 1.4371843338012695, 0.5, 0.5, 3.116487979888916, 2.016132354736328, 0.75, -2.0, -2.0, -2.0, -2.0, 0.6914370059967041, -2.0, -2.0, -2.0, -2.0, 1.7135109901428223, -2.0, -2.0], "values": [-0.00041333461256996465, -0.01643520293473472, 0.01087474052935971, -0.025020461189497675, 0.06293405214968778, -0.030107687635180871, 0.085822910457167362, -1.120491231027164, 1.4528978658080867, -0.28795061028784447, 0.63437890107422701, 0.069561170503907102, -2.1862268320750564, -1.0550848276058364, 0.94303169957225641, -0.254560446559916, 0.01588451764366387, 0.14699428035963957, -0.43553517088277255], "features": [175, 235, 104, 300, 127, 223, 171, -2, -2, -2, -2, 381, -2, -2, -2, -2, 250, -2, -2], "children_left": [1, 3, 15, 5, 11, 9, 7, -1, -1, -1, -1, 13, -1, -1, -1, -1, 17, -1, -1]}, {"children_right": [2, 12, 4, 6, 14, 10, 8, -1, -1, -1, -1, 18, 16, -1, -1, -1, -1, -1, -1], "thresholds": [-1.2039804458618164, 0.6093337535858154, 3.7936034202575684, -1.21632981300354, 0.017898131161928177, 0.7590881586074829, -0.10000000149011612, -2.0, -2.0, -2.0, -2.0, -0.3937795162200928, 1.7366254329681396, -2.0, -2.0, -2.0, -2.0, -2.0, -2.0], "values": [-0.00038415871403699035, -0.051052393614461199, 0.0041330626806581599, 0.002507051621056116, 0.13759530751938898, -0.088166713067467775, 0.0050059149444080424, -0.53345208922565768, 0.076450246028275992, -1.1937080740419801, 0.26383019769966842, -0.04661471748940138, -0.1372583613031246, 0.98465931355817116, 1.1601639095020431, -1.1882947751046828, -1.2761784069782169, -1.0514200170046182, -1.0618712625885125], "features": [103, 381, 265, 217, 12, 103, 139, -2, -2, -2, -2, 253, 241, -2, -2, -2, -2, -2, -2], "children_left": [1, 11, 3, 5, 13, 9, 7, -1, -1, -1, -1, 17, 15, -1, -1, -1, -1, -1, -1]}, {"children_right": [2, 4, 12, 6, 14, 8, 10, -1, -1, -1, -1, 16, 18, -1, -1, -1, -1, -1, -1], "thresholds": [3.427633285522461, 4.949489593505859, 0.5, 4.226807117462158, 0.5, 0.14351844787597656, 0.5, -2.0, -2.0, -2.0, -2.0, 0.2916429340839386, 0.5, -2.0, -2.0, -2.0, -2.0, -2.0, -2.0], "values": [-0.00037562456620279322, 0.0011751958808195167, -0.24181672881250219, 0.0018721416985332355, -0.44248059893809744, -0.022808929582908127, 0.0069276166827442831, -0.50892526100283941, 0.41002243284179346, -0.2751496020285854, 0.080672103427822384, -0.1752384870898466, -0.43549888655113622, -1.8429676827788875, -3.0184288242416857, -1.1851591879545447, -1.5264631611779804, -2.2290806842069184, -1.6424321325724562], "features": [76, 178, 129, 174, 261, 12, 269, -2, -2, -2, -2, 382, 224, -2, -2, -2, -2, -2, -2], "children_left": [1, 3, 11, 5, 13, 7, 9, -1, -1, -1, -1, 15, 17, -1, -1, -1, -1, -1, -1]}, {"children_right": [2, 4, 12, 6, 18, 10, 8, -1, -1, -1, -1, 14, -1, 16, -1, -1, -1, -1, -1], "thresholds": [2.2528414726257324, 3.116487979888916, 1.4096719026565552, -0.618937611579895, 0.6368218660354614, -0.3496096134185791, 2.1703391075134277, -2.0, -2.0, -2.0, -2.0, 1.4392099380493164, -2.0, 0.5, -2.0, -2.0, -2.0, -2.0, -2.0], "values": [-0.00034903554961728721, -0.0105224490532407, 0.10308211698903758, -0.014050913510670086, 0.15366433601560889, -0.078865842052206259, -0.0069225453664170091, -0.026882168685553511, -1.1221498587893732, 0.79178301936847928, -0.89347408859281108, 0.098661913121438335, 1.1106597974271744, -0.22399141978006903, 0.91403739241763737, -1.3439834309870728, -1.8393013105730451, 1.0412811153340242, 1.2409206168250222], "features": [13, 139, 175, 172, 271, 307, 253, -2, -2, -2, -2, 382, -2, 255, -2, -2, -2, -2, -2], "children_left": [1, 3, 11, 5, 17, 9, 7, -1, -1, -1, -1, 13, -1, 15, -1, -1, -1, -1, -1]}, {"children_right": [2, 4, 10, 6, -1, 8, 18, -1, -1, -1, 12, 16, 14, -1, -1, -1, -1, -1, -1], "thresholds": [-0.10000000149011612, 0.8604292273521423, -0.3652160167694092, 1.802627444267273, -2.0, -0.10000000149011612, 0.7771660089492798, -2.0, -2.0, -2.0, 0.5, 0.5, 2.3182477951049805, -2.0, -2.0, -2.0, -2.0, -2.0, -2.0], "values": [-0.00029807052981935511, -0.018012216583206574, 0.012561264292759479, -0.05101158554389662, 0.95284386075902028, -0.046211543830122069, -0.27484292808958932, 4.6393951973586187, -0.42756346408766893, -1.3027000006119944, 0.015318845260848299, 0.21805146887551594, 0.011804081066605489, 0.097057061237980635, -0.93549868999460584, 1.6899389639499072, 0.63868570568585448, -1.4069515537195245, -2.0182851468844749], "features": [295, 381, 289, 271, -2, 340, 274, -2, -2, -2, 80, 266, 253, -2, -2, -2, -2, -2, -2], "children_left": [1, 3, 9, 5, -1, 7, 17, -1, -1, -1, 11, 15, 13, -1, -1, -1, -1, -1, -1]}, {"children_right": [2, 10, 4, 8, 6, 14, 18, 16, 12, -1, -1, -1, -1, -1, -1, -1, -1, -1, -1], "thresholds": [-0.5548369884490967, 2.732050895690918, -0.8910844326019287, -0.10000000149011612, 2.2528414726257324, -1.4371843338012695, -0.32491636276245117, 4.735813140869141, 0.8577355146408081, -2.0, -2.0, -2.0, -2.0, -2.0, -2.0, -2.0, -2.0, -2.0, -2.0], "values": [-0.000282547361529938, -0.040053075335553509, 0.0067463434888463594, 0.12074991293532314, 0.00480969745543157, -0.0042785850433758885, 0.088807931279697758, -0.026022413132101675, 0.18123157201611545, -0.47878893066048422, 1.1531783985572222, 1.0831727796156727, -1.3653902415700432, 0.87926569718848213, -0.034245104241946066, 0.63203741417027659, -1.6404316994114527, 0.8810229720747047, 0.73517748989734244], "features": [253, 217, 250, 307, 13, 169, 217, 174, 256, -2, -2, -2, -2, -2, -2, -2, -2, -2, -2], "children_left": [1, 9, 3, 7, 5, 13, 17, 15, 11, -1, -1, -1, -1, -1, -1, -1, -1, -1, -1]}, {"children_right": [2, 12, 4, 6, -1, 8, 10, -1, -1, -1, -1, 14, 18, 16, -1, -1, -1, -1, -1], "thresholds": [-0.8713770508766174, 0.5, 3.427633285522461, 1.8408453464508057, -2.0, 0.5, 0.5, -2.0, -2.0, -2.0, -2.0, 1.5716737508773804, -0.10000000149011612, 0.2443375587463379, -2.0, -2.0, -2.0, -2.0, -2.0], "values": [-0.00024675338798771997, -0.030162608713428393, 0.004801772024371459, 0.0062965008608877387, -1.4288942254728063, -0.013452885324829812, 0.091153515663618637, -0.31613334186562408, -0.026945770781129877, 0.46214608187146911, 0.79459077864786876, -0.042704944048051759, 0.079141225764681813, -0.076781308591199776, 0.69159994744229392, -1.1831735370959253, -0.41684490411133285, 2.1586758025083674, 0.3114739443124096], "features": [133, 393, 253, 1, -2, 395, 162, -2, -2, -2, -2, 382, 358, 277, -2, -2, -2, -2, -2], "children_left": [1, 11, 3, 5, -1, 7, 9, -1, -1, -1, -1, 13, 17, 15, -1, -1, -1, -1, -1]}, {"children_right": [2, 12, 4, 6, -1, 10, 8, -1, -1, -1, -1, -1, 14, -1, -1], "thresholds": [0.5, 3.427633285522461, 1.8648217916488647, 0.5, -2.0, -0.5400617122650146, 0.2720234990119934, -2.0, -2.0, -2.0, -2.0, -2.0, 0.6262161731719971, -2.0, -2.0], "values": [-0.00024022198622849204, 0.23388540150620499, -0.0010724589692142077, -0.0019683737849735773, 1.0731989515388347, 0.05882358982051035, -0.0043019669342020299, -0.042711679395767858, 1.2318183010673611, -2.172424366766279, 0.49119177564521455, -1.106541253884989, 0.27226796647514001, -1.2614908181888411, 1.6165096226338733], "features": [332, 331, 157, 140, -2, 268, 220, -2, -2, -2, -2, -2, 382, -2, -2], "children_left": [1, 11, 3, 5, -1, 9, 7, -1, -1, -1, -1, -1, 13, -1, -1]}, {"children_right": [2, 4, 18, 6, 8, 14, 16, 10, 12, -1, -1, -1, -1, -1, -1, -1, -1, -1, -1], "thresholds": [2.34486722946167, -0.30886954069137573, -1.3790619373321533, 0.8846246004104614, 0.5, 1.1557228565216064, 0.5, 0.4214743375778198, 0.43141859769821167, -2.0, -2.0, -2.0, -2.0, -2.0, -2.0, -2.0, -2.0, -2.0, -2.0], "values": [-0.00021166066449522706, -0.0075679530618516615, 0.082676032083433645, -0.027410271062122828, 0.0051115500967360587, -0.054617341895724821, 0.096465696736513562, 0.18426606388683797, 0.00038054037541962698, -1.1533691908244159, 1.6425531779093026, 0.15559032972460696, -0.21836415353787042, -0.47402901111179674, -1.165286920639852, 0.60304327776574163, -0.62608208417563349, -1.3849622419539047, 0.76249688214064382], "features": [13, 235, 223, 381, 80, 223, 249, 381, 271, -2, -2, -2, -2, -2, -2, -2, -2, -2, -2], "children_left": [1, 3, 17, 5, 7, 13, 15, 9, 11, -1, -1, -1, -1, -1, -1, -1, -1, -1, -1]}, {"children_right": [2, 4, 8, 14, 6, -1, -1, 18, 10, 12, -1, -1, -1, -1, 16, -1, -1, -1, -1], "thresholds": [0.5937435030937195, 0.9049021005630493, -0.5, -0.6971367597579956, -0.10000000149011612, -2.0, -2.0, -0.10000000149011612, 3.427633285522461, 0.7746146321296692, -2.0, -2.0, -2.0, -2.0, -0.2718721032142639, -2.0, -2.0, -2.0, -2.0], "values": [-0.00019621372792599884, -0.050768649913975054, 0.070010263241315693, -0.053319563513947781, 0.21801284519832517, 1.4374958587662232, -1.4910194448956422, 0.27068180299742939, 0.066667096627415878, 0.068449266196614414, -1.6646434582379992, 0.088591739571345432, 0.58872893883634103, -0.36682057085764408, -0.063134288334886907, 1.8137737783084296, -0.5761106773287501, 0.70587241158662795, 1.404457555568589], "features": [382, 381, 79, 103, 265, -2, -2, 298, 253, 381, -2, -2, -2, -2, 310, -2, -2, -2, -2], "children_left": [1, 3, 7, 13, 5, -1, -1, 17, 9, 11, -1, -1, -1, -1, 15, -1, -1, -1, -1]}, {"children_right": [2, 4, 18, 12, 6, 8, 10, -1, -1, -1, -1, 14, 16, -1, -1, -1, -1, -1, -1], "thresholds": [4.232050895690918, 0.6909608840942383, -0.37386128306388855, 0.5548369884490967, -0.10000000149011612, 1.5, 0.5, -2.0, -2.0, -2.0, -2.0, 0.5, 2.0246949195861816, -2.0, -2.0, -2.0, -2.0, -2.0, -2.0], "values": [-0.00021757149932974477, 0.00066472866264678397, -0.29656013840320428, -0.036492165734537743, 0.058793086813372183, 0.027497760943137568, 0.090128220191948452, -0.23721246036159668, 0.60469526318421218, 0.40802873423734964, 1.1575937321759542, -0.02202162901154886, -0.076284738234386681, -0.35275291584022556, -0.0074222441587234733, -0.62136613571741495, -1.6334635655720222, -1.1228181699657103, -1.9093693668129055], "features": [127, 381, 256, 235, 235, 0, 14, -2, -2, -2, -2, 14, 265, -2, -2, -2, -2, -2, -2], "children_left": [1, 3, 17, 11, 5, 7, 9, -1, -1, -1, -1, 13, 15, -1, -1, -1, -1, -1, -1]}, {"children_right": [2, 18, 4, 6, 8, 14, 16, 12, 10, -1, -1, -1, -1, -1, -1, -1, -1, -1, -1], "thresholds": [-0.10000000149011612, -0.7590881586074829, -0.645138144493103, 0.1639232337474823, 0.25160735845565796, 0.5, 0.5, -0.20631927251815796, 0.6844946146011353, -2.0, -2.0, -2.0, -2.0, -2.0, -2.0, -2.0, -2.0, -2.0, -2.0], "values": [-0.000202539027823729, -0.018701327575782148, 0.0096061309943312814, 0.03566405316821486, 0.0011315194813822621, -0.036771649164118611, 0.11937594470969549, 0.038355907620656222, -0.013811986276948093, -0.3267509624884683, 0.31637372072246689, -0.028201242563614903, 0.55759500991274902, -0.04083165629505342, -0.89032559015572132, 0.67081033192104622, 1.4850304638100909, -0.76360531206791482, -0.1035012695219759], "features": [271, 133, 130, 382, 222, 126, 390, 235, 1, -2, -2, -2, -2, -2, -2, -2, -2, -2, -2], "children_left": [1, 17, 3, 5, 7, 13, 15, 11, 9, -1, -1, -1, -1, -1, -1, -1, -1, -1, -1]}, {"children_right": [2, 12, 4, 6, -1, 8, 10, -1, -1, -1, -1, 14, 16, 18, -1, -1, -1, -1, -1], "thresholds": [-0.10000000149011612, 0.5, 0.5649797916412354, 4.232050895690918, -2.0, 0.8841660022735596, 0.1805787831544876, -2.0, -2.0, -2.0, -2.0, 0.5, -0.5, -0.10000000149011612, -2.0, -2.0, -2.0, -2.0, -2.0], "values": [-0.00020527838141609568, -0.14863226918892691, 0.00034752232922639946, -0.00023560823914380881, 2.9409155961639928, 0.00056616079618578073, -0.26820867218533273, -0.18859641190760176, 0.57678492522436164, -1.5161836181117123, -1.8852715249162117, -0.18984319544212802, -0.10398709908129235, -0.10693935143042757, -1.5259956496982023, -1.1975323351137526, -1.0923875091959465, -1.1030272705424993, -1.1589470156200281], "features": [91, 101, 360, 127, -2, 381, 241, -2, -2, -2, -2, 270, 267, 154, -2, -2, -2, -2, -2], "children_left": [1, 11, 3, 5, -1, 7, 9, -1, -1, -1, -1, 13, 15, 17, -1, -1, -1, -1, -1]}, {"children_right": [2, 12, 4, 6, -1, 10, 8, -1, -1, -1, -1, -1, 14, 18, 16, -1, -1, -1, -1], "thresholds": [-1.21632981300354, -2.3182477951049805, 0.47066110372543335, -0.9629100561141968, -2.0, -0.10000000149011612, -1.21632981300354, -2.0, -2.0, -2.0, -2.0, -2.0, -0.2443375587463379, 0.5, 0.5, -2.0, -2.0, -2.0, -2.0], "values": [-0.00017774722689927708, -0.056997687623543306, 0.0020929997387904948, 0.0015485879828277948, 2.3777465566361475, 0.10515211787271402, -0.00041970367214551834, -0.6309546455437145, 0.021612405756715788, -1.1396812342321254, 0.77661591979005262, 0.9036723000044995, -0.062612731621731726, -0.047026018143209378, -0.092592981425622861, -1.0544599134117265, -1.198848161277948, -0.11812860906614037, -1.118194450270344], "features": [217, 100, 360, 79, -2, 310, 259, -2, -2, -2, -2, -2, 277, 77, 129, -2, -2, -2, -2], "children_left": [1, 11, 3, 5, -1, 9, 7, -1, -1, -1, -1, -1, 13, 17, 15, -1, -1, -1, -1]}, {"children_right": [2, 4, 12, 6, -1, 10, 8, -1, -1, -1, -1, 14, 16, -1, 18, -1, -1, -1, -1], "thresholds": [0.10000000149011612, 3.427633285522461, 0.5, 0.8841660022735596, -2.0, -0.30886954069137573, 0.4747481048107147, -2.0, -2.0, -2.0, -2.0, -0.4629100561141968, -0.32491636276245117, -2.0, -0.2443375587463379, -2.0, -2.0, -2.0, -2.0], "values": [-0.0001798401901680298, -0.0019489657921369704, 0.057083611575031154, -0.0027346678075136485, 1.2890493031091301, -0.024185526434941779, 0.068947168685803514, 0.88326215365017424, 0.21550714104830973, -0.45584292780599317, -0.088094862833501347, 0.084597462947952423, -0.07664006565907798, -0.3898460339336744, 0.11369622319996307, 0.43999337925902032, -1.3732444873497469, 0.49910008190493421, 0.96155027959882788], "features": [166, 331, 249, 381, -2, 235, 12, -2, -2, -2, -2, 268, 253, -2, 250, -2, -2, -2, -2], "children_left": [1, 3, 11, 5, -1, 9, 7, -1, -1, -1, -1, 13, 15, -1, 17, -1, -1, -1, -1]}, {"children_right": [2, 4, 16, 6, 12, 10, 8, -1, -1, -1, -1, 14, -1, -1, -1, -1, 18, -1, -1], "thresholds": [4.232050895690918, 0.5, -0.37386128306388855, 1.965958833694458, 0.6839396953582764, 4.949489593505859, 0.06546369940042496, -2.0, -2.0, -2.0, -2.0, -0.2443375587463379, -2.0, -2.0, -2.0, -2.0, 0.5, -2.0, -2.0], "values": [-0.0001456344971230444, 0.00057042792805427598, -0.2406531015535513, -0.00042899808321148316, 0.092578016520124193, -0.014960863828774392, 0.069240940562609668, 0.039860552059872364, 0.84975985541435606, -0.14065405451628685, 1.1510565876111922, 0.12239014149990085, -0.28099620682462773, 0.18090571683884218, 1.2051686012265119, -1.0853236263763284, -0.29633535007095779, -1.2139590079121936, -1.838045610757598], "features": [127, 135, 256, 1, 222, 247, 12, -2, -2, -2, -2, 253, -2, -2, -2, -2, 129, -2, -2], "children_left": [1, 3, 15, 5, 11, 9, 7, -1, -1, -1, -1, 13, -1, -1, -1, -1, 17, -1, -1]}, {"children_right": [2, 4, 14, 8, 6, 12, 10, -1, 16, -1, -1, -1, -1, -1, 18, -1, -1, -1, -1], "thresholds": [0.2720234990119934, 0.5, -0.4225771129131317, -0.20850017666816711, 1.1672296524047852, 0.24397501349449158, 0.5, -2.0, -0.7702847123146057, -2.0, -2.0, -2.0, -2.0, -2.0, -0.15075567364692688, -2.0, -2.0, -2.0, -2.0], "values": [-0.00011017969449828399, -0.001097731092533485, 0.192774864820183, 0.085902638921403193, -0.0028067492786819992, -0.035300544129328745, 0.067300075255929862, -1.1018004056235327, 0.19373500153586998, 0.85583204173078553, 0.40741421999551108, -0.34122998710747043, 2.3092662400188759, -1.6823662284190899, 0.23627186612905735, 0.30848375859919497, 1.1715763605856591, 1.6233412996532914, 0.96611641409352322], "features": [220, 80, 100, 382, 382, 148, 167, -2, 100, -2, -2, -2, -2, -2, 298, -2, -2, -2, -2], "children_left": [1, 3, 13, 7, 5, 11, 9, -1, 15, -1, -1, -1, -1, -1, 17, -1, -1, -1, -1]}, {"children_right": [2, 4, 8, 12, 6, -1, 10, 18, -1, -1, -1, 14, 16, -1, -1, -1, -1, -1, -1], "thresholds": [2.3182477951049805, 1.3942910432815552, 0.9061126708984375, 0.10000000149011612, -0.8364226818084717, -2.0, 1.551783800125122, 0.2443375587463379, -2.0, -2.0, -2.0, 2.2129788398742676, 0.3937795162200928, -2.0, -2.0, -2.0, -2.0, -2.0, -2.0], "values": [-0.00011342698799736673, 0.0018080860343262335, -0.087418122829588427, -0.0017233244289902505, 0.050473276710138779, -1.4563650059854358, 0.058683324380259215, -0.14190802790061494, 0.062627828528824078, 0.58351869930875289, -0.2919048972031788, -0.0035079240887963712, 0.052337714867565402, -0.17826897659863858, 0.79859582989837452, 0.41984450765795589, -1.4025450228444649, -1.6325989132958005, -0.68374216685706102], "features": [253, 253, 250, 166, 127, -2, 250, 271, -2, -2, -2, 382, 268, -2, -2, -2, -2, -2, -2], "children_left": [1, 3, 7, 11, 5, -1, 9, 17, -1, -1, -1, 13, 15, -1, -1, -1, -1, -1, -1]}, {"children_right": [2, 4, 10, -1, 6, 8, 16, -1, -1, 12, -1, 14, 18, -1, -1, -1, -1, -1, -1], "thresholds": [4.757882118225098, 0.621487021446228, 4.847405433654785, -2.0, -0.5166891813278198, 1.0246950387954712, 0.10000000149011612, -2.0, -2.0, 2.3349385261535645, -2.0, -0.10000000149011612, 0.5, -2.0, -2.0, -2.0, -2.0, -2.0, -2.0], "values": [-8.3424898124754207e-05, -0.0099785485228141377, 0.010020282057966807, -0.55313144298483008, 0.050017630121776138, -0.11473715804689874, 0.059158944923519287, -1.4242051119725101, 1.3933172897649369, 0.01123968231525722, -1.8686079008763452, 0.0027646965123508051, 0.059177883123116476, 1.7478229130440455, 0.0048568454984491503, 0.4013268636303936, 1.0694222243648064, 1.0896208589504801, 0.3556925471997649], "features": [174, 381, 178, -2, 268, 250, 166, -2, -2, 1, -2, 145, 170, -2, -2, -2, -2, -2, -2], "children_left": [1, 3, 9, -1, 5, 7, 15, -1, -1, 11, -1, 13, 17, -1, -1, -1, -1, -1, -1]}, {"children_right": [2, 4, 10, 6, -1, -1, 8, -1, -1, 12, 18, 14, 16, -1, -1, -1, -1, -1, -1], "thresholds": [0.25980907678604126, 0.7068182229995728, 0.5, -0.8234591484069824, -2.0, -2.0, 0.6152932643890381, -2.0, -2.0, 0.5, -0.25169914960861206, 0.6866351366043091, 0.5, -2.0, -2.0, -2.0, -2.0, -2.0, -2.0], "values": [-0.00010018476746095204, -0.036817355739090743, 0.040175909044635291, -0.025940871987936213, -0.9456666730252058, 1.2064507128468176, -0.029673721708607131, -0.17328305546995493, -1.0330790915447583, 0.027038476978857827, 0.076996067437567386, -0.0088873164122280131, 0.042789901470967028, -0.59372122610497846, 0.18547370928634271, 0.46532899798781352, 0.061461181467817601, 2.2251560088115863, 0.49922849969575311], "features": [382, 13, 131, 250, -2, -2, 235, -2, -2, 77, 331, 1, 236, -2, -2, -2, -2, -2, -2], "children_left": [1, 3, 9, 5, -1, -1, 7, -1, -1, 11, 17, 13, 15, -1, -1, -1, -1, -1, -1]}, {"children_right": [2, 4, 6, -1, 10, 8, 14, 12, 16, -1, 18, -1, -1, -1, -1, -1, -1, -1, -1], "thresholds": [-2.197299003601074, -0.1805787831544876, 2.34486722946167, -2.0, 0.001695317099802196, 1.8875503540039062, -1.006467342376709, -4.907580375671387, 0.5, -2.0, 0.32491636276245117, -2.0, -2.0, -2.0, -2.0, -2.0, -2.0, -2.0, -2.0], "values": [-0.00015531237272468828, 0.17116528481619889, -0.0012393747223083842, 8.31727504118337, 0.05947156233972712, -0.0054459688060783324, 0.045834320802429225, -0.002822882056046735, -0.084617791222482877, 1.915057200783959, -0.047463881772491605, 1.4868031535415558, -0.028106846786754437, -1.4488663040754579, 0.59366881030081176, -0.11599551174405147, -0.89200104885426545, 0.42307393196882148, -1.4468603626262055], "features": [268, 166, 13, -2, 222, 76, 241, 13, 251, -2, 130, -2, -2, -2, -2, -2, -2, -2, -2], "children_left": [1, 3, 5, -1, 9, 7, 13, 11, 15, -1, 17, -1, -1, -1, -1, -1, -1, -1, -1]}, {"children_right": [2, 4, 8, -1, 6, -1, -1, 10, 12, 16, -1, 18, 14, -1, -1, -1, -1, -1, -1], "thresholds": [-0.8234591484069824, -1.9375660419464111, -0.2917795181274414, -2.0, 0.5, -2.0, -2.0, -0.5, -0.33869266510009766, 0.9432026147842407, -2.0, 0.5, 0.4257962703704834, -2.0, -2.0, -2.0, -2.0, -2.0, -2.0], "values": [-0.00016918326924094057, 0.092437861338214994, -0.0023067031327084955, 5.1463573889196228, 0.06401623589101442, 0.69917891778553209, -0.34564247657053287, -0.023966695628640563, 0.0039323251086312997, 0.26514957481672602, -0.3299125540628659, -0.014863818452358013, 0.018025132580219351, -0.25766226029514266, 0.26952946161828778, 0.8026628855296577, 4.6908134134051469, 1.9713149675501276, -0.15624596675401956], "features": [250, 133, 295, -2, 255, -2, -2, 267, 235, 133, -2, 362, 381, -2, -2, -2, -2, -2, -2], "children_left": [1, 3, 7, -1, 5, -1, -1, 9, 11, 15, -1, 17, 13, -1, -1, -1, -1, -1, -1]}, {"children_right": [2, 8, 4, -1, 6, 18, -1, 10, 14, -1, 12, -1, -1, -1, 16, -1, -1, -1, -1], "thresholds": [4.949489593505859, 4.232050895690918, -0.10000000149011612, -2.0, 0.34568294882774353, 0.08219155669212341, -2.0, -0.8713770508766174, 1.5, -2.0, 3.427633285522461, -2.0, -2.0, -2.0, 0.5, -2.0, -2.0, -2.0, -2.0], "values": [-0.00018834062089932276, -0.0013035815959057215, 0.16466045192318057, -1.3468832573407672, 0.25415014167372402, -0.0096823716380930701, 1.7152497435761616, -0.00070746268277777416, -0.20529013964100393, -0.69661553006569776, 0.0014050851972499147, 0.0068663208724658231, 1.0688242883414136, -1.0707150534072285, -0.24284193596470577, -1.4601786851974634, -1.8226313203945517, -1.2685223067861879, 0.46402204919739976], "features": [247, 127, 271, -2, 12, 175, -2, 262, 0, -2, 331, -2, -2, -2, 270, -2, -2, -2, -2], "children_left": [1, 7, 3, -1, 5, 17, -1, 9, 13, -1, 11, -1, -1, -1, 15, -1, -1, -1, -1]}, {"children_right": [2, 6, 4, 10, 8, 14, -1, 18, -1, -1, 12, -1, -1, 16, -1, -1, -1, -1, -1], "thresholds": [1.5, 3.581696033477783, 0.5438990592956543, 0.2917795181274414, 4.847405433654785, 0.5, -2.0, 5.488929271697998, -2.0, -2.0, 0.3313344717025757, -2.0, -2.0, 0.9432945251464844, -2.0, -2.0, -2.0, -2.0, -2.0], "values": [-0.00017273844849343629, -0.01350896437402609, 0.013822981833104117, -0.044513389171537576, 0.052690322737179156, -0.017491147361550247, 1.1866235339005449, 0.054820860624452149, -1.9271274791652329, -0.0691163089064942, -0.077458897274167576, -0.20842543583835232, -1.0473264616225693, -0.015907664573803437, -1.6278396371174246, -0.20737452489625113, 0.7651871022324046, 0.46361617898295687, 0.08541338783340105], "features": [0, 382, 381, 100, 178, 139, -2, 174, -2, -2, 259, -2, -2, 253, -2, -2, -2, -2, -2], "children_left": [1, 5, 3, 9, 7, 13, -1, 17, -1, -1, 11, -1, -1, 15, -1, -1, -1, -1, -1]}, {"children_right": [2, 10, 4, 14, 6, 8, 12, -1, -1, -1, -1, -1, -1, 18, 16, -1, -1, -1, -1], "thresholds": [-0.10000000149011612, 0.5, -0.8234591484069824, 0.5, 0.8841660022735596, 0.5, 0.5, -2.0, -2.0, -2.0, -2.0, -2.0, -2.0, 0.0717829018831253, -0.9682360887527466, -2.0, -2.0, -2.0, -2.0], "values": [-0.00016730854658270392, 0.13021266202260706, -0.00086593644184703789, 0.08309994880149367, -0.0028146303752362924, -0.018205289296684031, 0.048735367117074602, -0.2386030336545914, -0.045893114357447112, 1.3727630469592069, -1.4811835316737467, 1.1885872649525826, 0.38972986923148872, 0.023478210065771256, 0.14816452449181478, 3.5821112532374171, 0.56311434045564024, -1.1664243150272005, 0.57071841912828092], "features": [340, 129, 250, 270, 381, 14, 248, -2, -2, -2, -2, -2, -2, 12, 253, -2, -2, -2, -2], "children_left": [1, 9, 3, 13, 5, 7, 11, -1, -1, -1, -1, -1, -1, 17, 15, -1, -1, -1, -1]}, {"children_right": [2, 4, 12, 18, 6, 10, 8, -1, -1, -1, -1, 14, -1, -1, 16, -1, -1, -1, -1], "thresholds": [4.949489593505859, -0.30886954069137573, 0.5, 0.5, 0.25160735845565796, -0.10000000149011612, 0.5, -2.0, -2.0, -2.0, -2.0, 0.5, -2.0, -2.0, 0.033139824867248535, -2.0, -2.0, -2.0, -2.0], "values": [-0.00015803041012105434, -0.0011461266509618952, 0.14589692620499584, -0.016791864736856617, 0.0087009506757226227, 0.040512866977258366, -0.0064341662336971422, -0.48269045976527097, -0.011213524006835209, 2.4847870468193576, 0.29553785581009429, 0.21075512577949124, -0.17849504361328655, 0.41078690312382415, 0.27413208984140414, -1.0929180331748367, 1.6255599012775863, -0.10652510317422632, -0.24728763144599519], "features": [247, 235, 255, 275, 222, 154, 395, -2, -2, -2, -2, 261, -2, -2, 12, -2, -2, -2, -2], "children_left": [1, 3, 11, 17, 5, 9, 7, -1, -1, -1, -1, 13, -1, -1, 15, -1, -1, -1, -1]}, {"children_right": [2, 10, 4, 6, 18, 8, -1, -1, -1, -1, 12, 14, 16, -1, -1, -1, -1, -1, -1], "thresholds": [-0.2917795181274414, -0.7071629166603088, 2.3182477951049805, 0.47066110372543335, 0.5, 0.5, -2.0, -2.0, -2.0, -2.0, 0.020638253539800644, 3.208991765975952, 0.5, -2.0, -2.0, -2.0, -2.0, -2.0, -2.0], "values": [-0.00015132528162263125, -0.018158823296145928, 0.0050284086538299388, 0.0069398211423783458, -0.095349932230395201, 0.0063318052939146732, 1.9672543384095627, 0.64552888352288051, 0.036876148626331436, -2.9637147219521549, -0.016824142427149563, -0.029015237766141042, 0.00076806365097289249, -0.67189079922307027, 1.1755101352399773, 0.084394050510127952, -0.63695847710798592, -0.20542623395203166, -1.110114946491886], "features": [295, 301, 253, 360, 401, 80, -2, -2, -2, -2, 12, 382, 272, -2, -2, -2, -2, -2, -2], "children_left": [1, 9, 3, 5, 17, 7, -1, -1, -1, -1, 11, 13, 15, -1, -1, -1, -1, -1, -1]}, {"children_right": [2, 4, 8, -1, 6, -1, 14, 10, 16, 12, -1, -1, -1, -1, -1, -1, 18, -1, -1], "thresholds": [-0.5548369884490967, -0.35971319675445557, 0.01921900548040867, -2.0, 0.5623480677604675, -2.0, -0.6326092481613159, 2.0246949195861816, 0.5, -0.10000000149011612, -2.0, -2.0, -2.0, -2.0, -2.0, -2.0, 0.5, -2.0, -2.0], "values": [-0.00014557789266552936, -0.026227848732765801, 0.004464102798140435, 2.5162373242732143, -0.03034733454429682, -0.96376388945266911, 0.060771593460579906, 0.018149033462415136, -0.0076794608911666092, 0.021296558997896075, -1.4180230046437994, 1.3518184218977836, 0.20537202415740236, -0.6007241642700778, 0.56151620406056446, -0.061895148913720749, 0.13791623931395713, -1.4973179264098262, 1.8199060520124823], "features": [253, 346, 12, -2, 381, -2, 1, 277, 147, 325, -2, -2, -2, -2, -2, -2, 278, -2, -2], "children_left": [1, 3, 7, -1, 5, -1, 13, 9, 15, 11, -1, -1, -1, -1, -1, -1, 17, -1, -1]}, {"children_right": [2, 14, 4, 6, 10, 8, -1, -1, -1, 12, -1, -1, -1, 16, -1, 18, -1, -1, -1], "thresholds": [0.18458157777786255, -0.7825830578804016, 2.3697562217712402, 2.3348755836486816, 4.949489593505859, 0.25160735845565796, -2.0, -2.0, -2.0, 0.5, -2.0, -2.0, -2.0, -1.1315968036651611, -2.0, -1.319639801979065, -2.0, -2.0, -2.0], "values": [-0.00016693914110968653, -0.047474226704601885, 0.012577534840100969, -0.0033659211534025108, 0.072632466432145104, -0.0024753396982850062, -3.5792135481694154, 0.1594088394903343, -0.17973435922020373, 0.073989965380033079, -2.3681109880210389, 0.77132475363963715, 0.99372431939845518, -0.023025896684473871, -1.0845378547405538, 0.45596968533832327, -0.60343707190421847, -1.0837874688830538, 7.8629880593854589], "features": [381, 100, 382, 382, 178, 222, -2, -2, -2, 165, -2, -2, -2, 130, -2, 133, -2, -2, -2], "children_left": [1, 13, 3, 5, 9, 7, -1, -1, -1, 11, -1, -1, -1, 15, -1, 17, -1, -1, -1]}, {"children_right": [2, 10, 4, 6, 18, 8, -1, -1, -1, -1, 12, 14, 16, -1, -1, -1, -1, -1, -1], "thresholds": [4.949489593505859, 0.5, -0.10000000149011612, -0.5, -0.10000000149011612, -0.13636364042758942, -2.0, -2.0, -2.0, -2.0, 4.847405433654785, -0.8234591484069824, 0.3461382985115051, -2.0, -2.0, -2.0, -2.0, -2.0, -2.0], "values": [-0.00019114683419229144, -0.0010951011726663977, 0.13342641614279446, 0.20686109310894379, -0.060079466213531656, 0.24483734852559735, -1.0915098121254616, -1.0514626037089643, 1.4028662670157148, 1.1648006990204014, -0.0014107382652041429, -0.00084713930157701294, -0.21575099331602191, -0.49046817255321479, 0.020930391559701854, -1.1035609935071133, -1.7864768310260748, -0.067857890169173748, -1.5620801864363194], "features": [247, 107, 127, 132, 13, 313, -2, -2, -2, -2, 178, 268, 382, -2, -2, -2, -2, -2, -2], "children_left": [1, 9, 3, 5, 17, 7, -1, -1, -1, -1, 11, 13, 15, -1, -1, -1, -1, -1, -1]}, {"children_right": [2, 6, 4, 18, -1, 12, 8, 16, 10, -1, -1, -1, 14, -1, -1, -1, -1, -1, -1], "thresholds": [1.965958833694458, 0.5, 0.5, 0.5, -2.0, -0.2917795181274414, 1.21632981300354, -0.10000000149011612, 0.5, -2.0, -2.0, -2.0, 1.7045350074768066, -2.0, -2.0, -2.0, -2.0, -2.0, -2.0], "values": [-0.00017381812639768996, -0.0087725906191060757, 0.041219249822786165, 0.087090396319871713, 0.16597889516201622, 0.031488163568879457, -0.010132492360693992, -0.0084494421061400756, -0.1818932484654891, -2.1350426610858508, 0.15968250078342788, 2.0428631959917078, 0.012214941337191674, -0.5302210204628317, 1.5226494977892706, 1.0029326363045252, -0.087782721122776824, 0.14509179428968114, 0.64678524194596365], "features": [1, 302, 177, 128, -2, 331, 268, 340, 390, -2, -2, -2, 382, -2, -2, -2, -2, -2, -2], "children_left": [1, 5, 3, 17, -1, 11, 7, 15, 9, -1, -1, -1, 13, -1, -1, -1, -1, -1, -1]}, {"children_right": [2, 4, 12, 6, -1, 10, 8, -1, -1, -1, -1, 14, -1, 16, 18, -1, -1, -1, -1], "thresholds": [0.8841660022735596, 4.880525588989258, 0.5, 1.1720093488693237, -2.0, 0.958052396774292, 2.181946277618408, -2.0, -2.0, -2.0, -2.0, -0.3333333432674408, -2.0, -0.8234591484069824, 0.10000000149011612, -2.0, -2.0, -2.0, -2.0], "values": [-0.00015757178394043458, -0.012188737367158108, 0.041201392918791747, -0.012805779609922269, 1.1724219346188784, -0.0067445575856496633, -0.11240432493455621, -0.84346161579563705, -2.4424931152150271, -0.087872726832569706, 0.3541335761674162, 0.038997833088655315, 1.0565990001713061, -0.068414239367467211, 0.04566680627526775, 0.73871446993354939, -1.0437385945194861, 0.64788454968358633, 0.27851355776960979], "features": [381, 1, 246, 223, -2, 223, 1, -2, -2, -2, -2, 268, -2, 274, 265, -2, -2, -2, -2], "children_left": [1, 3, 11, 5, -1, 9, 7, -1, -1, -1, -1, 13, -1, 15, 17, -1, -1, -1, -1]}, {"children_right": [2, 6, 4, -1, -1, 8, 14, 10, 12, -1, -1, -1, -1, 18, 16, -1, -1, -1, -1], "thresholds": [2.3697562217712402, 0.5, 0.20206207036972046, -2.0, -2.0, 0.8035330176353455, 0.5, 0.5534884929656982, 0.10000000149011612, -2.0, -2.0, -2.0, -2.0, -0.10000000149011612, 0.655457615852356, -2.0, -2.0, -2.0, -2.0], "values": [-0.00013821277639951992, -0.0126837380175043, 0.063227917524936894, 0.87480641769346423, 0.61608157333222535, -0.02873278369023036, -0.0074561736043542133, 0.011778595695418666, -0.053484148432492711, 0.13357969028720212, -3.1769465689061431, -0.25745710828582341, -1.0835514674131115, 0.10673442189000959, -0.0094328340430675003, -0.012589276458464537, -0.34314718780726294, -1.2733224415756064, 0.99290170122743016], "features": [382, 179, 133, -2, -2, 76, 248, 229, 79, -2, -2, -2, -2, 271, 223, -2, -2, -2, -2], "children_left": [1, 5, 3, -1, -1, 7, 13, 9, 11, -1, -1, -1, -1, 17, 15, -1, -1, -1, -1]}, {"children_right": [2, 10, 4, 6, 16, 8, -1, -1, -1, 12, -1, -1, 14, -1, -1, -1, 18, -1, -1], "thresholds": [-0.8234591484069824, 0.9334069490432739, -0.618937611579895, 0.5, -0.4629100561141968, -0.32491636276245117, -2.0, -2.0, -2.0, 0.5, -2.0, -2.0, 0.5, -2.0, -2.0, -2.0, 0.18458157777786255, -2.0, -2.0], "values": [-0.00010504897260486896, 0.070007622703592787, -0.0017233624499857476, -0.035746822005239251, 0.0023183328889440111, 0.13359733737652935, -0.56976880895574755, 3.3096488467420606, -1.3998949560353164, 0.081050201236287478, -1.6027562124803449, -0.19430718493304086, 0.13226470505104371, 0.30155761134413239, 1.2364511127192319, -1.2108471858433278, 0.0032439131430915817, -0.8776131078196252, 0.12309341095108221], "features": [250, 172, 172, 170, 229, 178, -2, -2, -2, 257, -2, -2, 396, -2, -2, -2, 381, -2, -2], "children_left": [1, 9, 3, 5, 15, 7, -1, -1, -1, 11, -1, -1, 13, -1, -1, -1, 17, -1, -1]}, {"children_right": [2, 8, 4, 14, 6, -1, -1, -1, 10, 12, -1, -1, -1, 18, 16, -1, -1, -1, -1], "thresholds": [-1.083874225616455, -0.7702847123146057, 4.949489593505859, 0.5, 0.5, -2.0, -2.0, -2.0, 2.0648698806762695, 0.5, -2.0, -2.0, -2.0, 1.1041377782821655, -0.5773497819900513, -2.0, -2.0, -2.0, -2.0], "values": [-0.00014101596048525072, 0.069920553206588409, -0.0013058440391537558, -0.0020457098339716311, 0.10746586276617363, 0.99009636082347408, -1.2873090491958115, -1.0919058238964787, 0.085651781040772312, 0.099328129502946019, -2.2026673114053197, 1.2272929028271389, 0.47747809032242, -0.0055025683103799234, 0.0081573435112659784, 1.2352912955704718, 0.016021849740371585, -0.02937431489161901, -0.34386634228564011], "features": [79, 178, 247, 126, 177, -2, -2, -2, 223, 251, -2, -2, -2, 262, 292, -2, -2, -2, -2], "children_left": [1, 7, 3, 13, 5, -1, -1, -1, 9, 11, -1, -1, -1, 17, 15, -1, -1, -1, -1]}, {"children_right": [2, 4, 18, 10, 6, 14, 8, -1, -1, 16, 12, -1, -1, -1, -1, -1, -1, -1, -1], "thresholds": [2.3182477951049805, 0.01921900548040867, 4.170768737792969, 5.50124979019165, -0.6971367597579956, -0.24397501349449158, 0.6295682191848755, -2.0, -2.0, 0.71735680103302, 5.507359981536865, -2.0, -2.0, -2.0, -2.0, -2.0, -2.0, -2.0, -2.0], "values": [-0.00012905493261147478, 0.0013099141807062654, -0.065509179503265347, 0.011572345899954428, -0.0086481531393447393, 0.29745822239959335, -0.0098379938436759101, -0.25814868694106896, 0.24726362270259208, 0.0032485168236719431, 0.049168118277179033, 3.3215171344786789, 0.3961668346537216, -1.1105330717800597, 2.9491463251400059, 0.097057978613182119, -0.34942620884428061, -0.62735723841165159, -1.6780624080170936], "features": [76, 12, 1, 174, 139, 292, 1, -2, -2, 130, 174, -2, -2, -2, -2, -2, -2, -2, -2], "children_left": [1, 3, 17, 9, 5, 13, 7, -1, -1, 15, 11, -1, -1, -1, -1, -1, -1, -1, -1]}, {"children_right": [2, 4, 18, 10, 6, 8, 14, -1, -1, 16, 12, -1, -1, -1, -1, -1, -1, -1, -1], "thresholds": [4.232050895690918, -0.8234591484069824, 0.24976137280464172, -0.7986873388290405, 0.5548369884490967, -0.30886954069137573, 0.5, -2.0, -2.0, -2.197299003601074, -0.9516074061393738, -2.0, -2.0, -2.0, -2.0, -2.0, -2.0, -2.0, -2.0], "values": [-0.00013874816192442513, 0.00033857481126225357, -0.16045960178100421, 0.064002827033913412, -0.0011353751028020521, 0.0031691246963708466, -0.015960460693123058, -0.16530590159539801, 0.17057294532396763, -0.052596541832173438, 0.085277413644291311, 2.3753809303540123, 0.37925836973124727, -0.074756172158536027, -0.39971626710509195, -1.8274280615677405, -0.076791094238667743, -1.3320688180062135, -1.5453402398267315], "features": [127, 250, 175, 223, 277, 235, 249, -2, -2, 265, 382, -2, -2, -2, -2, -2, -2, -2, -2], "children_left": [1, 3, 17, 9, 5, 7, 13, -1, -1, 15, 11, -1, -1, -1, -1, -1, -1, -1, -1]}, {"children_right": [2, 18, 4, 12, 6, 10, 8, -1, -1, -1, -1, 14, 16, -1, -1, -1, -1, -1, -1], "thresholds": [-0.5, -0.6971367597579956, 1.965958833694458, 0.5, 0.5, 0.4166666865348816, 0.5, -2.0, -2.0, -2.0, -2.0, 0.5, -0.31336840987205505, -2.0, -2.0, -2.0, -2.0, -2.0, -2.0], "values": [-0.00013200283982257318, 0.0505228116245885, -0.0011218884008947071, -0.007965829583474195, 0.031061056914360598, 0.014106179526626425, 0.08423055802889827, -0.079835272692176745, 0.79282848910234138, -0.71211784262619848, 0.2396695725745395, -0.0089620271973787791, 0.060032264587205446, 0.56267400389436417, -0.10033819246517275, -3.4882875056939233, 0.558341421207176, 0.67361668245048034, -0.048197501525847099], "features": [78, 130, 1, 246, 393, 171, 179, -2, -2, -2, -2, 137, 301, -2, -2, -2, -2, -2, -2], "children_left": [1, 17, 3, 11, 5, 9, 7, -1, -1, -1, -1, 13, 15, -1, -1, -1, -1, -1, -1]}, {"children_right": [2, 12, 4, 14, 6, 8, 10, -1, -1, -1, -1, -1, -1, 18, 16, -1, -1, -1, -1], "thresholds": [-0.7488296031951904, -0.10206207633018494, -0.794146716594696, 0.5, -0.7875756025314331, -0.10000000149011612, -0.2981976270675659, -2.0, -2.0, -2.0, -2.0, -2.0, -2.0, 0.7919778823852539, -0.10000000149011612, -2.0, -2.0, -2.0, -2.0], "values": [-0.0001119633287343033, -0.22899629031318619, 0.00031347222328139633, -0.030752414092970169, 0.0024551997808580921, 0.024743371834177578, -0.0023060088440488838, -0.70990968883813321, 0.29416035717644978, 0.17866236234590235, -0.069659749292868681, -1.3754310683980837, -3.2650700979747178, -0.052722361973784465, -0.029093264993723739, -1.0439010683111434, 0.1407583817290424, -1.2255800021197361, -0.29863742881074379], "features": [301, 241, 217, 77, 13, 346, 277, -2, -2, -2, -2, -2, -2, 175, 262, -2, -2, -2, -2], "children_left": [1, 11, 3, 13, 5, 7, 9, -1, -1, -1, -1, -1, -1, 17, 15, -1, -1, -1, -1]}, {"children_right": [2, 4, 6, 10, 16, 8, -1, -1, -1, 14, 12, -1, -1, -1, -1, -1, 18, -1, -1], "thresholds": [0.24397501349449158, 1.965958833694458, 0.5, -3.3538949489593506, 0.5, 0.1778641790151596, -2.0, -2.0, -2.0, -1.641739845275879, 0.01921900548040867, -2.0, -2.0, -2.0, -2.0, -2.0, 0.6406103372573853, -2.0, -2.0], "values": [-0.00011405811009423474, -0.00038187380268776963, 0.11271244697807828, -0.0062822504681851465, 0.027940329174692032, 0.19438974010363852, -1.4863538205498481, -1.3696706387643904, 1.9902895618990708, 0.11801625408958857, -0.0071011915990355466, 0.094578151568546945, -0.18171346392381424, -1.0411027007744149, 1.4508034968399417, 1.0533932076728156, 0.024015484923328084, -0.47401705986641951, 0.4942808590737503], "features": [148, 1, 240, 259, 143, 12, -2, -2, -2, 130, 12, -2, -2, -2, -2, -2, 381, -2, -2], "children_left": [1, 3, 5, 9, 15, 7, -1, -1, -1, 13, 11, -1, -1, -1, -1, -1, 17, -1, -1]}, {"children_right": [2, 4, 12, 6, -1, 8, 10, -1, -1, -1, -1, 14, 18, -1, 16, -1, -1, -1, -1], "thresholds": [0.6844946146011353, 0.5, 0.6570419073104858, 0.5, -2.0, -0.10000000149011612, 0.7388034462928772, -2.0, -2.0, -2.0, -2.0, 0.5, 0.5, -2.0, 4.181540489196777, -2.0, -2.0, -2.0, -2.0], "values": [-9.7441803163829434e-05, -0.007673211333018775, 0.018587879857815435, -0.0060879124785427176, -1.3000485092326504, -0.017910833785929461, 0.0063913663939462462, 0.18708242737743325, -0.34403071055809209, 0.16906102183526056, -0.77116450582967, 0.015558896419666684, 0.11419813611569654, -1.0979861141418035, 0.019740975391364012, 0.18570539435380459, -2.1437692657784333, -0.23031065132434728, 0.87174554740287069], "features": [1, 139, 163, 14, -2, 253, 259, -2, -2, -2, -2, 404, 254, -2, 250, -2, -2, -2, -2], "children_left": [1, 3, 11, 5, -1, 7, 9, -1, -1, -1, -1, 13, 17, -1, 15, -1, -1, -1, -1]}, {"children_right": [2, 4, 14, 10, 6, 8, -1, -1, -1, 12, 16, -1, -1, -1, 18, -1, -1, -1, -1], "thresholds": [0.5548369884490967, -0.592163622379303, 0.5, 0.5, 0.5649797916412354, 0.5, -2.0, -2.0, -2.0, -1.0669581890106201, 1.1871843338012695, -2.0, -2.0, -2.0, 0.5, -2.0, -2.0, -2.0, -2.0], "values": [-0.0001012017621252282, 0.0040906848490969558, -0.014828567899865142, 0.062515731015684264, 0.002416054714736042, 0.0018582478925177645, 1.6851782221840057, 0.17775739227236656, -0.1054487519542418, 0.10833481394830208, 0.0058240168979037023, 5.1246847827512392, -0.2347257167200662, -1.3616933868508054, -0.014130013713046386, -0.70982760401763356, 1.0661870244395926, -0.42874770375934718, -0.082339032004247706], "features": [277, 292, 149, 296, 360, 236, -2, -2, -2, 223, 259, -2, -2, -2, 258, -2, -2, -2, -2], "children_left": [1, 3, 13, 9, 5, 7, -1, -1, -1, 11, 15, -1, -1, -1, 17, -1, -1, -1, -1]}, {"children_right": [2, 16, 4, 6, 10, 8, 14, -1, -1, 18, 12, -1, -1, -1, -1, -1, -1, -1, -1], "thresholds": [0.5, 0.6262161731719971, -0.5064945816993713, -0.10000000149011612, 0.5, -0.4792967438697815, 0.2785939574241638, -2.0, -2.0, 0.5, 0.5003194808959961, -2.0, -2.0, -2.0, -2.0, -2.0, -2.0, -2.0, -2.0], "values": [-0.00012104119315691635, 0.11505624726435539, -0.00053045729048317551, 0.012673991049982559, -0.0059039018779435378, 0.03745564183909144, -0.0027094879562088135, 0.64227177996342599, -1.0848460290950235, 0.092790671715494349, -0.0070076389695136812, -0.42199496516583762, 0.14810720442430525, -0.023566685730281412, -1.6361197442588669, -1.1809077129947669, 1.0789370698483383, 0.15139662491973807, 0.73407830229027815], "features": [332, 382, 130, 313, 137, 13, 360, -2, -2, 396, 382, -2, -2, -2, -2, -2, -2, -2, -2], "children_left": [1, 15, 3, 5, 9, 7, 13, -1, -1, 17, 11, -1, -1, -1, -1, -1, -1, -1, -1]}, {"children_right": [2, 4, 18, 12, 6, 10, 8, -1, -1, -1, -1, 14, 16, -1, -1, -1, -1, -1, -1], "thresholds": [0.20206207036972046, 0.1639232337474823, -0.14433756470680237, 0.5, 0.5, -0.20631927251815796, 0.5, -2.0, -2.0, -2.0, -2.0, 0.4181988537311554, 0.2372930645942688, -2.0, -2.0, -2.0, -2.0, -2.0, -2.0], "values": [-0.00013540836113917038, 0.0021158666570067659, -0.024892532040047557, -0.02064936058813311, 0.025367009794415137, 0.012794898998948683, 0.058494905024189789, 0.16477584819704247, 0.74586986828868307, 0.19300039640957875, -0.13578357232027971, -0.045228443802144677, -0.015264792076448987, 0.19343692152383962, -0.927783598750891, -0.12993323990357766, -0.47617919681175502, -1.1814359948134205, -0.35866176333792527], "features": [79, 382, 157, 179, 14, 250, 75, -2, -2, -2, -2, 76, 12, -2, -2, -2, -2, -2, -2], "children_left": [1, 3, 17, 11, 5, 9, 7, -1, -1, -1, -1, 13, 15, -1, -1, -1, -1, -1, -1]}, {"children_right": [2, 4, -1, 8, 6, 10, 16, 14, 12, -1, -1, -1, -1, -1, -1, -1, -1], "thresholds": [0.5649797916412354, -0.6368218660354614, -2.0, 0.5, 2.2129788398742676, 0.01921900548040867, 0.5, -0.24744194746017456, 0.5, -2.0, -2.0, -2.0, -2.0, -2.0, -2.0, -2.0, -2.0], "values": [-0.00014481741526558417, -0.00054756758455476689, 1.566778757334307, 0.1306054335319724, -0.001329125671703107, -0.012646368016138687, 0.049622287065722838, -0.12502593096236367, 0.29245671398707607, 0.015889837153287182, -0.21089343065011742, 3.1950589802873375, 1.3692829949947205, -0.21721180819907812, -1.9805192970299919, 0.65741593110370233, 0.54802511277378563], "features": [360, 307, -2, 179, 382, 12, 99, 298, 401, -2, -2, -2, -2, -2, -2, -2, -2], "children_left": [1, 3, -1, 7, 5, 9, 15, 13, 11, -1, -1, -1, -1, -1, -1, -1, -1]}, {"children_right": [2, 6, 4, 14, -1, 8, 18, 10, 12, -1, -1, -1, -1, 16, -1, -1, -1, -1, -1], "thresholds": [2.3182477951049805, -0.2776719927787781, 3.152709484100342, 2.1703391075134277, -2.0, 0.6751194000244141, 0.5, -1.1911317110061646, 0.5, -2.0, -2.0, -2.0, -2.0, 1.21632981300354, -2.0, -2.0, -2.0, -2.0, -2.0], "values": [-0.00012182838719155607, 0.0012218370793846433, -0.061171794486525946, -0.12033943768307528, 1.1014962903733418, 0.018539970446538788, -0.0027237479864063536, 0.035176877826412212, -0.035911766475240026, 3.9077950856669132, 0.30543480815024288, -0.18003919441705846, -1.5029728816857755, -0.11249842794922113, -2.1581374275332497, -1.2144727516718432, -1.5303406841964193, -0.68357238047826718, -0.018995696337578874], "features": [76, 313, 382, 235, -2, 175, 287, 382, 263, -2, -2, -2, -2, 130, -2, -2, -2, -2, -2], "children_left": [1, 5, 3, 13, -1, 7, 17, 9, 11, -1, -1, -1, -1, 15, -1, -1, -1, -1, -1]}, {"children_right": [2, 14, 4, 6, 8, -1, -1, 12, 10, -1, -1, -1, -1, -1, 16, -1, 18, -1, -1], "thresholds": [0.18458157777786255, 1.2797808647155762, -2.197299003601074, 0.35753828287124634, -0.458932101726532, -2.0, -2.0, 0.5, 0.18506309390068054, -2.0, -2.0, -2.0, -2.0, -2.0, 0.5, -2.0, 0.3098997473716736, -2.0, -2.0], "values": [-0.00012717814167083075, -0.03478666804929792, 0.0092100083697508814, 0.17153341916145556, 0.0080281583751850571, 1.7694146642156339, -1.3688990975812962, -0.017360780984860828, 0.014577363832658816, 3.3411807696391289, 0.10917232813530985, -1.2612863747003609, -0.10972322682250908, -0.88057717306541472, 0.062888187005468763, -1.0642850623307896, 0.25829628948261935, -1.1256064370524008, 9.0503463848112382], "features": [381, 175, 268, 259, 1, -2, -2, 227, 381, -2, -2, -2, -2, -2, 129, -2, 223, -2, -2], "children_left": [1, 13, 3, 5, 7, -1, -1, 11, 9, -1, -1, -1, -1, -1, 15, -1, 17, -1, -1]}, {"children_right": [2, 10, 4, 6, -1, 8, -1, -1, -1, 14, 12, 18, -1, -1, 16, -1, -1, -1, -1], "thresholds": [0.5548369884490967, 0.6152932643890381, 0.8428120613098145, 11.5, -2.0, 5.5, -2.0, -2.0, -2.0, -1.0984019041061401, 0.25735604763031006, -0.10000000149011612, -2.0, -2.0, 0.5649797916412354, -2.0, -2.0, -2.0, -2.0], "values": [-0.00019458269957718614, 0.0040094645086577261, -0.01496467269444199, -0.041710429345644083, 0.54129892705940341, -0.039334136449987456, -2.2182474837554955, -0.53094832510015866, 0.32124062577661033, 0.0095603247572322407, -0.016569392087479921, -0.01857739736602473, 1.0644766439690836, -0.95447924320937427, 0.011803841068831164, 0.098794042079845712, 1.3637103426795547, 0.73084177767649761, -0.30210039034168695], "features": [277, 100, 381, 0, -2, 0, -2, -2, -2, 175, 220, 334, -2, -2, 360, -2, -2, -2, -2], "children_left": [1, 9, 3, 5, -1, 7, -1, -1, -1, 13, 11, 17, -1, -1, 15, -1, -1, -1, -1]}, {"children_right": [2, 4, 12, 6, 14, 10, 8, -1, -1, -1, -1, -1, -1, 18, 16, -1, -1, -1, -1], "thresholds": [4.949489593505859, 1.2039804458618164, 4.4600300788879395, 0.6368218660354614, -0.20206207036972046, 0.5, 0.042774368077516556, -2.0, -2.0, -2.0, -2.0, -2.0, -2.0, -0.10000000149011612, 0.8136883974075317, -2.0, -2.0, -2.0, -2.0], "values": [-0.00018084076852973127, 0.00028317658635115806, -0.20141468976911828, 0.0026666242242884526, -0.025189236166590655, 0.0010748742799295261, 0.071694198789709854, -0.61983616372060701, 0.65918618119394812, -0.0095750223680335766, 0.2643655147124177, -1.3948825825884457, -2.1430644721929037, 0.0063107695645685837, -0.037092201082526068, -0.666616056814887, 0.3836143952241533, 0.66263057134304804, -0.2136804594357142], "features": [178, 274, 1, 163, 76, 168, 13, -2, -2, -2, -2, -2, -2, 307, 1, -2, -2, -2, -2], "children_left": [1, 3, 11, 5, 13, 9, 7, -1, -1, -1, -1, -1, -1, 17, 15, -1, -1, -1, -1]}, {"children_right": [2, 18, 4, 8, 6, 12, 16, 10, 14, -1, -1, -1, -1, -1, -1, -1, -1, -1, -1], "thresholds": [-0.5, -0.10000000149011612, 0.2917795181274414, 4.949489593505859, 1.8890119791030884, 0.15275456011295319, 0.10000000149011612, -0.20206207036972046, -0.5, -2.0, -2.0, -2.0, -2.0, -2.0, -2.0, -2.0, -2.0, -2.0, -2.0], "values": [-0.00016242119260872316, 0.036448230226443591, -0.0008778587202030152, 0.0007039329979922161, -0.028523674471357841, -0.062221745805336542, 0.051225607147711807, 1.8682555792314692e-06, 0.098013238258868984, 0.17622662851035109, -0.051879628239207061, -0.78508665846830328, -1.4970925544251739, -1.6436724149804813, 0.92693574016318714, 0.62949837764404337, 0.94807480793350984, -1.2707106467083531, 0.28382920046324372], "features": [78, 358, 79, 247, 382, 76, 268, 313, 267, -2, -2, -2, -2, -2, -2, -2, -2, -2, -2], "children_left": [1, 17, 3, 7, 5, 11, 15, 9, 13, -1, -1, -1, -1, -1, -1, -1, -1, -1, -1]}, {"children_right": [2, 12, 4, 10, 6, -1, 8, -1, -1, -1, -1, -1, 14, 18, 16, -1, -1, -1, -1], "thresholds": [-0.003155891317874193, 0.5, -0.5, -0.21397073566913605, -1.104048252105713, -2.0, 2.7769782543182373, -2.0, -2.0, -2.0, -2.0, -2.0, -0.6971367597579956, -0.4166666567325592, -0.10000000149011612, -2.0, -2.0, -2.0, -2.0], "values": [-0.00015145484320616551, -0.012041543486558165, 0.0082256090142396893, 0.10778142997016586, 0.0061128698868476135, 0.57404172906147422, 0.0021728646429941202, -0.051831910074602354, 0.85448782251865329, -1.1152271192196241, 0.75059232091554551, -0.27528871681831313, -0.00046863574248472004, 0.25507899727614108, -0.0027523276412075894, -0.6170214861055463, 0.12247268166627964, -1.0727907972936608, 2.3821167999526853], "features": [175, 242, 78, 382, 13, -2, 382, -2, -2, -2, -2, -2, 139, 259, 295, -2, -2, -2, -2], "children_left": [1, 11, 3, 9, 5, -1, 7, -1, -1, -1, -1, -1, 13, 17, 15, -1, -1, -1, -1]}, {"children_right": [2, 8, 4, -1, 6, 14, -1, 10, 16, -1, 12, -1, -1, -1, -1, -1, 18, -1, -1], "thresholds": [0.6368218660354614, -0.10000000149011612, 0.5018340349197388, -2.0, 0.5, 0.5, -2.0, 0.5, -0.10000000149011612, -2.0, -0.10000000149011612, -2.0, -2.0, -2.0, -2.0, -2.0, 0.10555555671453476, -2.0, -2.0], "values": [-0.00013424864604262481, -0.0014285896363451999, 0.056707394827963643, -1.1796242707902598, 0.1634001638211792, 0.19791315795993444, 0.092009071866519576, 0.091363683673922377, -0.0019870618629980702, -1.1781292738644782, 0.2077401535162767, 2.0004202455025561, -1.2762831356001869, 1.3868921694289802, 0.6669714142989247, -1.2510990320348083, -0.001585495845661416, -0.19624354926142287, -0.0018569006180093345], "features": [163, 145, 381, -2, 255, 236, -2, 234, 118, -2, 301, -2, -2, -2, -2, -2, 171, -2, -2], "children_left": [1, 7, 3, -1, 5, 13, -1, 9, 15, -1, 11, -1, -1, -1, -1, -1, 17, -1, -1]}, {"children_right": [2, 4, 6, -1, 12, 8, 18, 10, -1, -1, -1, 16, 14, -1, -1, -1, -1, -1, -1], "thresholds": [0.5, -0.4939750134944916, 2.3182477951049805, -2.0, -0.5, 0.5, 4.170768737792969, 0.7771660089492798, -2.0, -2.0, -2.0, 0.24465544521808624, 0.5, -2.0, -2.0, -2.0, -2.0, -2.0, -2.0], "values": [-0.00012704405253605478, 0.037378348142146529, -0.0012548423749452733, -1.1623680885232399, 0.076355382314333906, -7.2304272968029505e-05, -0.053937785572066646, -0.015789551674621212, 0.032428353617011144, -0.054312209609046418, -0.93139356714779431, 0.10906699136332772, 0.022618594031749494, -0.48896058212094062, 1.1149372756501734, -1.0442020046814255, 1.0121458190292514, -0.60315728928796775, -1.536636992508726], "features": [302, 76, 253, -2, 216, 251, 1, 262, -2, -2, -2, 381, 249, -2, -2, -2, -2, -2, -2], "children_left": [1, 3, 5, -1, 11, 7, 17, 9, -1, -1, -1, 15, 13, -1, -1, -1, -1, -1, -1]}, {"children_right": [2, 16, 4, 12, 6, 8, 10, -1, -1, -1, -1, -1, 14, -1, -1, 18, -1, -1, -1], "thresholds": [-1.2039804458618164, -0.3132007122039795, -2.3182477951049805, 0.6371593475341797, 0.01921900548040867, 2.0246949195861816, 0.5, -2.0, -2.0, -2.0, -2.0, -2.0, 0.9502626657485962, -2.0, -2.0, 1.5737545490264893, -2.0, -2.0, -2.0], "values": [-0.00012065494809913207, -0.02907179720574523, 0.0024604240941077638, -0.11454325642778579, 0.0033745424075045036, 0.014046366043961173, -0.005370621951541343, 0.17978592345827871, -1.1984447330505053, -0.081527683907097317, 0.19678587854067006, -1.1021421142001697, -0.2247566175022899, -1.1487226954008729, -3.0531196161523293, -0.028558432926524314, -1.1783264114985401, -1.0728817715014258, -1.2970467127413716], "features": [103, 259, 235, 175, 12, 277, 165, -2, -2, -2, -2, -2, 1, -2, -2, 262, -2, -2, -2], "children_left": [1, 15, 3, 11, 5, 7, 9, -1, -1, -1, -1, -1, 13, -1, -1, 17, -1, -1, -1]}, {"children_right": [2, 18, 4, 6, 10, 8, 16, -1, -1, 14, 12, -1, -1, -1, -1, -1, -1, -1, -1], "thresholds": [-0.7488296031951904, 0.3952847123146057, -0.5548369884490967, -0.71735680103302, -0.10000000149011612, -0.10000000149011612, 3.884437322616577, -2.0, -2.0, -0.3333333432674408, -0.20206207036972046, -2.0, -2.0, -2.0, -2.0, -2.0, -2.0, -2.0, -2.0], "values": [-0.00012347860748360888, -0.20357647320664096, 0.00025468680998689766, -0.01800789763322205, 0.0034894080567683308, 0.068974919540653018, -0.027575411189592221, 2.292367838776038, 0.41494619785576281, 0.10488621314804875, 0.0029019350807259676, 0.19426027140439484, -0.017965379013395184, 1.5870076949453464, 0.11633231996618888, -0.63371818241080646, 1.1091442100366793, -1.3894473652792967, -2.6595524195142737], "features": [301, 274, 253, 250, 145, 304, 271, -2, -2, 133, 313, -2, -2, -2, -2, -2, -2, -2, -2], "children_left": [1, 17, 3, 5, 9, 7, 15, -1, -1, 13, 11, -1, -1, -1, -1, -1, -1, -1, -1]}, {"children_right": [2, 4, 14, 6, 10, 8, 12, -1, -1, -1, 16, -1, -1, 18, -1, -1, -1, -1, -1], "thresholds": [0.5, -0.618937611579895, 0.9682360887527466, -0.10000000149011612, -2.7384438514709473, 0.5, 1.2991222143173218, -2.0, -2.0, -2.0, 0.24397501349449158, -2.0, -2.0, -0.2443375587463379, -2.0, -2.0, -2.0, -2.0, -2.0], "values": [-0.00012174294501024859, 0.00065143832840631154, -0.040766412429309777, -0.028500714580159143, 0.0040850743335131053, 0.026360738616214133, -0.04706415419430135, 0.83691131096043236, -1.2349653101741556, -1.5126243079857513, 0.0044332849719551943, -0.82898708483618355, 0.36151111565814359, -0.033854466737978539, -2.0640071302833958, 0.039860650650875837, 0.62624599180649221, -0.24322611058842639, -0.94841775965669584], "features": [285, 172, 268, 346, 100, 177, 259, -2, -2, -2, 148, -2, -2, 127, -2, -2, -2, -2, -2], "children_left": [1, 3, 13, 5, 9, 7, 11, -1, -1, -1, 15, -1, -1, 17, -1, -1, -1, -1, -1]}, {"children_right": [2, 18, 4, 6, 12, 8, 10, -1, -1, -1, -1, 16, 14, -1, -1, -1, -1, -1, -1], "thresholds": [-0.7488296031951904, 0.4946596324443817, -0.30886954069137573, 1.4371843338012695, 0.5, -0.10000000149011612, 0.5, -2.0, -2.0, -2.0, -2.0, -1.802627444267273, -2.409132480621338, -2.0, -2.0, -2.0, -2.0, -2.0, -2.0], "values": [-0.0001181554686608607, -0.18437549458790412, 0.00022433029178377137, -0.010916500818598969, 0.0072921705838974163, -0.013984528444281186, 0.07963042874118692, 1.349966851450856, -0.19159424273342157, 1.4468814452065206, 0.23367704395043004, -0.0049830984512158824, 0.017929742480140037, 1.2082208514514625, 0.13289309577465702, 1.6753168431865948, -0.083014214522232371, -1.1477591107534222, -3.0283775004097429], "features": [301, 381, 235, 103, 257, 340, 398, -2, -2, -2, -2, 271, 268, -2, -2, -2, -2, -2, -2], "children_left": [1, 17, 3, 5, 11, 7, 9, -1, -1, -1, -1, 15, 13, -1, -1, -1, -1, -1, -1]}, {"children_right": [2, 4, 16, 6, 10, 8, -1, -1, -1, 14, 12, -1, -1, -1, -1, 18, -1, -1, -1], "thresholds": [0.5937435030937195, 0.10000000149011612, -0.5, 0.6077784299850464, -0.10000000149011612, 0.7068182229995728, -2.0, -2.0, -2.0, 0.5, 0.8010097742080688, -2.0, -2.0, -2.0, -2.0, -0.10000000149011612, -2.0, -2.0, -2.0], "values": [-0.00011210559254452058, -0.01705571054549921, 0.023409616923044031, -0.0070519741781791198, -0.037036100877492893, -0.0087093100940276169, 2.9643865907983158, 0.065694035090305067, -0.97016291087693396, 0.16499362700748166, -0.039930436620422671, -0.58097509664359615, -1.2919945670785244, -1.0723490571350303, 1.8393037242571344, 0.037146407681470026, 0.11288361339951324, 0.80862670595137343, 0.12097360804295396], "features": [382, 274, 132, 136, 145, 13, -2, -2, -2, 179, 381, -2, -2, -2, -2, 289, -2, -2, -2], "children_left": [1, 3, 15, 5, 9, 7, -1, -1, -1, 13, 11, -1, -1, -1, -1, 17, -1, -1, -1]}, {"children_right": [2, 4, 18, 6, 12, 8, 10, -1, -1, -1, -1, 14, 16, -1, -1, -1, -1, -1, -1], "thresholds": [4.847405433654785, -0.8234591484069824, 4.4600300788879395, 0.5, 0.6152932643890381, 1.21632981300354, 0.5, -2.0, -2.0, -2.0, -2.0, 0.25160735845565796, 0.5, -2.0, -2.0, -2.0, -2.0, -2.0, -2.0], "values": [-0.0001460206267091802, 0.00030410296825400724, -0.16817965931310877, -0.049223095045717084, 0.0029567286801943488, 0.072402334651610611, -0.063753653100634231, -1.0340426429668939, 1.7805065997751721, -0.79543857388114902, 0.12489769961957101, 0.0074429403427171267, -0.010836853622746806, 0.21984396738757525, -0.04219290992497151, -0.4269945266169039, 0.072132625881546092, -1.3384806576032544, -1.8747039484824011], "features": [178, 268, 1, 104, 100, 241, 165, -2, -2, -2, -2, 222, 270, -2, -2, -2, -2, -2, -2], "children_left": [1, 3, 17, 5, 11, 7, 9, -1, -1, -1, -1, 13, 15, -1, -1, -1, -1, -1, -1]}, {"children_right": [2, 4, 18, 6, 12, 10, 8, -1, -1, -1, -1, 14, 16, -1, -1, -1, -1, -1, -1], "thresholds": [2.7015604972839355, 0.5844641923904419, 0.5, -0.8234591484069824, 0.8364226818084717, -0.10000000149011612, 2.3182477951049805, -2.0, -2.0, -2.0, -2.0, 0.5, 7.488226890563965, -2.0, -2.0, -2.0, -2.0, -2.0, -2.0], "values": [-0.00014364750743307416, -0.0078271803814339447, 0.049414669293382049, -0.0034532006221012147, -0.022287570139901638, -0.0627504443287807, 0.00080001533422435463, -0.0068950891020629519, 1.1868639442023345, -1.0553364937456655, 0.13996464438320527, -0.016999765472540569, -0.12743162911755801, -0.77551137736708875, -0.15525217255669921, -1.5937828569892376, 0.13643987233097432, 0.77102093025131413, 0.73459352845569681], "features": [382, 256, 258, 268, 103, 271, 292, -2, -2, -2, -2, 290, 174, -2, -2, -2, -2, -2, -2], "children_left": [1, 3, 17, 5, 11, 9, 7, -1, -1, -1, -1, 13, 15, -1, -1, -1, -1, -1, -1]}, {"children_right": [2, 12, 4, 8, 6, 14, -1, -1, 10, -1, -1, 16, 18, -1, -1, -1, -1, -1, -1], "thresholds": [-0.003155891317874193, -0.5, -0.5, 2.0246949195861816, 0.3379770517349243, 0.5, -2.0, -2.0, 0.3333333432674408, -2.0, -2.0, -0.10000000149011612, 1.658312439918518, -2.0, -2.0, -2.0, -2.0, -2.0, -2.0], "values": [-0.00012796614790373071, -0.010344940547256981, 0.0070703188725468906, -0.034804057411703233, 0.010142640896167581, 0.0094207527867105987, 1.5220517554841189, -0.458190159777212, 0.20213655407577044, 1.4121351635507622, -1.3537202401875668, 0.030487051444949766, -0.014400270865639548, 0.081532183497482452, 0.66468250705306853, -1.2438003900286971, 0.38862665581090805, -0.17528061564643427, 1.1245573100747159], "features": [175, 267, 267, 241, 360, 135, -2, -2, 217, -2, -2, 298, 106, -2, -2, -2, -2, -2, -2], "children_left": [1, 11, 3, 7, 5, 13, -1, -1, 9, -1, -1, 15, 17, -1, -1, -1, -1, -1, -1]}, {"children_right": [2, 4, 8, -1, 6, 14, -1, 16, 10, 18, 12, -1, -1, -1, -1, -1, -1, -1, -1], "thresholds": [-0.8234591484069824, -0.9682360887527466, 0.5, -2.0, 0.5, 0.6368218660354614, -2.0, 0.5, -0.2443375587463379, 0.10000000149011612, 1.7050063610076904, -2.0, -2.0, -2.0, -2.0, -2.0, -2.0, -2.0, -2.0], "values": [-0.00012090167861021739, 0.0462990448128828, -0.0011923488682625734, 1.6418396592831115, 0.028236429699065389, 0.01057950648186733, 1.1065345025798579, -0.061414014456727707, -0.00054535031213097124, -0.079324297295768564, -4.0356760676592934e-05, -0.10283715908306944, 0.35223035120472695, 0.01034599376139513, 0.49096985298092988, -1.2259880893605239, -1.1062152837439685, -1.1294999088286952, -1.3607471277957266], "features": [250, 253, 230, -2, 147, 166, -2, 99, 157, 271, 382, -2, -2, -2, -2, -2, -2, -2, -2], "children_left": [1, 3, 7, -1, 5, 13, -1, 15, 9, 17, 11, -1, -1, -1, -1, -1, -1, -1, -1]}, {"children_right": [2, 4, 6, -1, 8, -1, 12, 16, 10, -1, -1, 