/// The weights of individual elements of the FV.  These weights
// are output by data/ml/answer-train-gradboost.py as this:
//
// 267 answersets, 6221 answers
// + Cross-validation:
// (test) PERANS acc/prec/rcl/F1 = 0.952/0.453/0.687/0.546, @70 prec/rcl/F1 = 0.578/0.500/0.536, PERQ avail 1.000, any good = [0.835] MRR 0.780
// (test) PERANS acc/prec/rcl/F1 = 0.957/0.509/0.627/0.562, @70 prec/rcl/F1 = 0.610/0.560/0.584, PERQ avail 1.000, any good = [0.823] MRR 0.759
// (test) PERANS acc/prec/rcl/F1 = 0.956/0.490/0.701/0.577, @70 prec/rcl/F1 = 0.592/0.575/0.583, PERQ avail 1.000, any good = [0.833] MRR 0.771
// (test) PERANS acc/prec/rcl/F1 = 0.956/0.489/0.664/0.563, @70 prec/rcl/F1 = 0.667/0.552/0.604, PERQ avail 1.000, any good = [0.827] MRR 0.772
// (test) PERANS acc/prec/rcl/F1 = 0.956/0.491/0.642/0.557, @70 prec/rcl/F1 = 0.673/0.507/0.579, PERQ avail 1.000, any good = [0.830] MRR 0.764
// (test) PERANS acc/prec/rcl/F1 = 0.958/0.508/0.739/0.602, @70 prec/rcl/F1 = 0.611/0.597/0.604, PERQ avail 1.000, any good = [0.852] MRR 0.793
// (test) PERANS acc/prec/rcl/F1 = 0.948/0.429/0.679/0.526, @70 prec/rcl/F1 = 0.555/0.530/0.542, PERQ avail 1.000, any good = [0.839] MRR 0.756
// (test) PERANS acc/prec/rcl/F1 = 0.954/0.476/0.657/0.552, @70 prec/rcl/F1 = 0.573/0.560/0.566, PERQ avail 1.000, any good = [0.844] MRR 0.767
// (test) PERANS acc/prec/rcl/F1 = 0.960/0.534/0.649/0.586, @70 prec/rcl/F1 = 0.767/0.590/0.667, PERQ avail 1.000, any good = [0.814] MRR 0.767
// (test) PERANS acc/prec/rcl/F1 = 0.958/0.506/0.642/0.566, @70 prec/rcl/F1 = 0.673/0.552/0.607, PERQ avail 1.000, any good = [0.843] MRR 0.805
// (mean) PERANS acc/prec/rcl/F1 = 0.956/0.488/0.669/0.564, @70 prec/rcl/F1 = 0.630/0.552/0.587, PERQ avail 1.000, any good = [0.834] MRR 0.773
// (S.D.) PERANS acc/prec/rcl/F1 = 0.003/0.028/0.032/0.020, @70 prec/rcl/F1 = 0.061/0.030/0.035, PERQ avail 0.000, any good = [0.010] MRR 0.014
// + Full training set:
// training took 2 seconds
// (full) PERANS acc/prec/rcl/F1 = 0.960/0.522/0.940/0.671, @70 prec/rcl/F1 = 0.743/0.843/0.789, PERQ avail 1.000, any good = [0.917] MRR 0.916
// Full model is GradientBoostingClassifier(init=None, learning_rate=0.1, loss='deviance',               max_depth=3, max_features='sqrt', max_leaf_nodes=10,               min_samples_leaf=5, min_samples_split=10,               min_weight_fraction_leaf=0.0, n_estimators=200,               random_state=None, subsample=1.0, verbose=0,               warm_start=False)
//
{"prior": -0.64927977762064704, "learning_rate": 0.1, "labels": ["@occurences", "%occurences", "!occurences", "@resultRR", "%resultRR", "!resultRR", "@resultLogScore", "%resultLogScore", "!resultLogScore", "@passageLogScore", "%passageLogScore", "!passageLogScore", "@propertyScore", "%propertyScore", "!propertyScore", "@originPsg", "%originPsg", "!originPsg", "@originPsgFirst", "%originPsgFirst", "!originPsgFirst", "@originPsgByClueToken", "%originPsgByClueToken", "!originPsgByClueToken", "@originPsgByCluePhrase", "%originPsgByCluePhrase", "!originPsgByCluePhrase", "@originPsgByClueSV", "%originPsgByClueSV", "!originPsgByClueSV", "@originPsgByClueNE", "%originPsgByClueNE", "!originPsgByClueNE", "@originPsgByClueLAT", "%originPsgByClueLAT", "!originPsgByClueLAT", "@originPsgByClueSubject", "%originPsgByClueSubject", "!originPsgByClueSubject", "@originPsgByClueSubjectToken", "%originPsgByClueSubjectToken", "!originPsgByClueSubjectToken", "@originPsgByClueSubjectPhrase", "%originPsgByClueSubjectPhrase", "!originPsgByClueSubjectPhrase", "@originPsgByClueConcept", "%originPsgByClueConcept", "!originPsgByClueConcept", "@originPsgNP", "%originPsgNP", "!originPsgNP", "@originPsgNE", "%originPsgNE", "!originPsgNE", "@originPsgNPByLATSubj", "%originPsgNPByLATSubj", "!originPsgNPByLATSubj", "@originPsgBIO", "%originPsgBIO", "!originPsgBIO", "@originPsgSurprise", "%originPsgSurprise", "!originPsgSurprise", "@originDocTitle", "%originDocTitle", "!originDocTitle", "@originBingSnippet", "%originBingSnippet", "!originBingSnippet", "@originDBpOntology", "%originDBpOntology", "!originDBpOntology", "@originDBpONoClue", "%originDBpONoClue", "!originDBpONoClue", "@originDBpOClueLAT", "%originDBpOClueLAT", "!originDBpOClueLAT", "@originDBpOClueSubject", "%originDBpOClueSubject", "!originDBpOClueSubject", "@originDBpOClueSubjectToken", "%originDBpOClueSubjectToken", "!originDBpOClueSubjectToken", "@originDBpOClueConcept", "%originDBpOClueConcept", "!originDBpOClueConcept", "@originDBpProperty", "%originDBpProperty", "!originDBpProperty", "@originDBpPNoClue", "%originDBpPNoClue", "!originDBpPNoClue", "@originDBpPClueToken", "%originDBpPClueToken", "!originDBpPClueToken", "@originDBpPClueLAT", "%originDBpPClueLAT", "!originDBpPClueLAT", "@originDBpPClueSubject", "%originDBpPClueSubject", "!originDBpPClueSubject", "@originDBpPClueSubjectToken", "%originDBpPClueSubjectToken", "!originDBpPClueSubjectToken", "@originDBpPClueConcept", "%originDBpPClueConcept", "!originDBpPClueConcept", "@originFreebaseOntology", "%originFreebaseOntology", "!originFreebaseOntology", "@originFreebaseSpecific", "%originFreebaseSpecific", "!originFreebaseSpecific", "@originFBONoClue", "%originFBONoClue", "!originFBONoClue", "@originFBOClueToken", "%originFBOClueToken", "!originFBOClueToken", "@originFBOClueSV", "%originFBOClueSV", "!originFBOClueSV", "@originFBOClueLAT", "%originFBOClueLAT", "!originFBOClueLAT", "@originFBOClueSubject", "%originFBOClueSubject", "!originFBOClueSubject", "@originFBOClueSubjectToken", "%originFBOClueSubjectToken", "!originFBOClueSubjectToken", "@originFBOClueConcept", "%originFBOClueConcept", "!originFBOClueConcept", "@originConcept", "%originConcept", "!originConcept", "@originConceptBySubject", "%originConceptBySubject", "!originConceptBySubject", "@originConceptByLAT", "%originConceptByLAT", "!originConceptByLAT", "@originConceptByNE", "%originConceptByNE", "!originConceptByNE", "@originMultiple", "%originMultiple", "!originMultiple", "@AF_PsgDistClueToken", "%AF_PsgDistClueToken", "!AF_PsgDistClueToken", "@AF_PsgDistCluePhrase", "%AF_PsgDistCluePhrase", "!AF_PsgDistCluePhrase", "@AF_PsgDistClueSV", "%AF_PsgDistClueSV", "!AF_PsgDistClueSV", "@AF_PsgDistClueNE", "%AF_PsgDistClueNE", "!AF_PsgDistClueNE", "@AF_PsgDistClueLAT", "%AF_PsgDistClueLAT", "!AF_PsgDistClueLAT", "@AF_PsgDistClueSubject", "%AF_PsgDistClueSubject", "!AF_PsgDistClueSubject", "@AF_PsgDistClueSubjectToken", "%AF_PsgDistClueSubjectToken", "!AF_PsgDistClueSubjectToken", "@AF_PsgDistClueSubjectPhrase", "%AF_PsgDistClueSubjectPhrase", "!AF_PsgDistClueSubjectPhrase", "@AF_PsgDistClueConcept", "%AF_PsgDistClueConcept", "!AF_PsgDistClueConcept", "@bioScore", "%bioScore", "!bioScore", "@noTyCor", "%noTyCor", "!noTyCor", "@LATANone", "%LATANone", "!LATANone", "@spWordNet", "%spWordNet", "!spWordNet", "@LATQNoWordNet", "%LATQNoWordNet", "!LATQNoWordNet", "@LATANoWordNet", "%LATANoWordNet", "!LATANoWordNet", "@simpleScore", "%simpleScore", "!simpleScore", "@LATNE", "%LATNE", "!LATNE", "@LATDBpType", "%LATDBpType", "!LATDBpType", "@LATDBpWNType", "%LATDBpWNType", "!LATDBpWNType", "@LATQuantity", "%LATQuantity", "!LATQuantity", "@LATQuantityCD", "%LATQuantityCD", "!LATQuantityCD", "@LATWnInstance", "%LATWnInstance", "!LATWnInstance", "@LATDBpOntology", "%LATDBpOntology", "!LATDBpOntology", "@LATDBpProperty", "%LATDBpProperty", "!LATDBpProperty", "@LATFBOntology", "%LATFBOntology", "!LATFBOntology", "@tyCorSpQHit", "%tyCorSpQHit", "!tyCorSpQHit", "@tyCorSpAHit", "%tyCorSpAHit", "!tyCorSpAHit", "@tyCorSpNoHit", "%tyCorSpNoHit", "!tyCorSpNoHit", "@tyCorSpQAHit", "%tyCorSpQAHit", "!tyCorSpQAHit", "@tyCorSpMultiHit", "%tyCorSpMultiHit", "!tyCorSpMultiHit", "@tyCorANE", "%tyCorANE", "!tyCorANE", "@tyCorADBp", "%tyCorADBp", "!tyCorADBp", "@tyCorAQuantityCD", "%tyCorAQuantityCD", "!tyCorAQuantityCD", "@tyCorAWnInstance", "%tyCorAWnInstance", "!tyCorAWnInstance", "@tyCorADBpOntology", "%tyCorADBpOntology", "!tyCorADBpOntology", "@tyCorADBpProperty", "%tyCorADBpProperty", "!tyCorADBpProperty", "@tyCorAFBOntology", "%tyCorAFBOntology", "!tyCorAFBOntology", "@clOCMatchScore", "%clOCMatchScore", "!clOCMatchScore", "@clOCPrefixedScore", "%clOCPrefixedScore", "!clOCPrefixedScore", "@clOCPrefixingScore", "%clOCPrefixingScore", "!clOCPrefixingScore", "@clOCSuffixedScore", "%clOCSuffixedScore", "!clOCSuffixedScore", "@clOCSuffixingScore", "%clOCSuffixingScore", "!clOCSuffixingScore", "@clOCSubstredScore", "%clOCSubstredScore", "!clOCSubstredScore", "@clOCSubstringScore", "%clOCSubstringScore", "!clOCSubstringScore", "@clOCMetaMatchScore", "%clOCMetaMatchScore", "!clOCMetaMatchScore", "@clOMatchScore", "%clOMatchScore", "!clOMatchScore", "@clOPrefixedScore", "%clOPrefixedScore", "!clOPrefixedScore", "@clOPrefixingScore", "%clOPrefixingScore", "!clOPrefixingScore", "@clOSuffixedScore", "%clOSuffixedScore", "!clOSuffixedScore", "@clOSuffixingScore", "%clOSuffixingScore", "!clOSuffixingScore", "@clOSubstredScore", "%clOSubstredScore", "!clOSubstredScore", "@clOSubstringScore", "%clOSubstringScore", "!clOSubstringScore", "@clOMetaMatchScore", "%clOMetaMatchScore", "!clOMetaMatchScore", "@evdPrefixedScore", "%evdPrefixedScore", "!evdPrefixedScore", "@evdPrefixingScore", "%evdPrefixingScore", "!evdPrefixingScore", "@evdSuffixedScore", "%evdSuffixedScore", "!evdSuffixedScore", "@evdSuffixingScore", "%evdSuffixingScore", "!evdSuffixingScore", "@evdSubstredScore", "%evdSubstredScore", "!evdSubstredScore", "@evdSubstringScore", "%evdSubstringScore", "!evdSubstringScore", "@topAnswer", "%topAnswer", "!topAnswer", "@solrHitsEv", "%solrHitsEv", "!solrHitsEv", "@solrAHitsEv", "%solrAHitsEv", "!solrAHitsEv", "@solrHitsANormEv", "%solrHitsANormEv", "!solrHitsANormEv", "@solrMaxScoreEv", "%solrMaxScoreEv", "!solrMaxScoreEv", "@solrHitsMaxScoreEv", "%solrHitsMaxScoreEv", "!solrHitsMaxScoreEv", "@phase0Score", "%phase0Score", "!phase0Score", "@phase1Score", "%phase1Score", "!phase1Score"], "forest": [{"children_right": [2, 12, 4, 6, 18, 10, 8, -1, -1, -1, -1, 14, -1, 16, -1, -1, -1, -1, -1], "thresholds": [0.5, 2.195582389831543, 1.21632981300354, 0.24397501349449158, -0.9754526615142822, -0.3937795162200928, 1.6113756895065308, -2.0, -2.0, -2.0, -2.0, 0.8325220346450806, -2.0, 0.5, -2.0, -2.0, -2.0, -2.0, -2.0], "values": [-1.0960765455756501e-16, -0.10940674164417734, 0.13363035145159005, 0.091152825432755227, 0.41228750851652307, -0.047181001986595021, 0.28067301963944552, 0.16831034836519662, 2.3730702208255772, -1.3612324471986292, 0.004657648866465686, -0.11472562545482196, 2.674018215471726, -0.10439752814445546, -1.5224219012428626, -1.0607900628871452, -0.099228653801422484, -1.5224219012428621, 1.8668241934635073], "features": [204, 124, 238, 148, 277, 91, 1, -2, -2, -2, -2, 277, -2, 111, -2, -2, -2, -2, -2], "children_left": [1, 11, 3, 5, 17, 9, 7, -1, -1, -1, -1, 13, -1, 15, -1, -1, -1, -1, -1]}, {"children_right": [2, 16, 4, 6, 10, 12, 8, -1, -1, 14, -1, -1, -1, -1, -1, -1, 18, -1, -1], "thresholds": [-0.5, 0.5, 1.802627444267273, 0.5, 0.5, -0.10000000149011612, 0.5, -2.0, -2.0, 0.5, -2.0, -2.0, -2.0, -2.0, -2.0, -2.0, 0.030542492866516113, -2.0, -2.0], "values": [-0.0003499378349722936, -0.3259705815260347, 0.0042031781627213825, -0.019412311552518921, 0.37585671485369565, -0.23420612333247992, 0.045807013814757727, -0.23942478240451867, 1.1346328561487984, 0.42924753876206334, -1.4740392038564336, -1.4126867673618444, -0.77040601019512744, 2.2218465720783662, 1.6768356541014113, -1.4687992893586488, -0.3380835524142986, -1.4698420127323939, -1.5172636138658873], "features": [192, 89, 235, 222, 224, 229, 116, -2, -2, 218, -2, -2, -2, -2, -2, -2, 12, -2, -2], "children_left": [1, 15, 3, 5, 9, 11, 7, -1, -1, 13, -1, -1, -1, -1, -1, -1, 17, -1, -1]}, {"children_right": [2, 6, 4, -1, 10, 18, 8, 16, -1, 12, 14, -1, -1, -1, -1, -1, -1, -1, -1], "thresholds": [0.5, 0.6763305068016052, 0.4124549925327301, -2.0, -0.2981976270675659, 1.7320507764816284, 0.5, 0.517836332321167, -2.0, 0.5, -0.28790396451950073, -2.0, -2.0, -2.0, -2.0, -2.0, -2.0, -2.0, -2.0], "values": [-0.00058738552622592042, 0.096093853583228278, -0.18356116830828173, -1.3413109408905213, 0.20962164606103822, -0.0021814280665397126, 0.26092189055640785, 0.13784364981938158, 1.7914695091766868, -0.095136792072857607, 0.31508515317847346, 2.222560521057185, -1.0356284189040779, 1.1598342976179246, 2.4834233152299574, 0.81133355161275467, 0.22184345477029352, -0.024547040374643468, 1.814035713452232], "features": [113, 205, 345, -2, 109, 325, 87, 112, -2, 219, 13, -2, -2, -2, -2, -2, -2, -2, -2], "children_left": [1, 5, 3, -1, 9, 17, 7, 15, -1, 11, 13, -1, -1, -1, -1, -1, -1, -1, -1]}, {"children_right": [2, 10, 4, 6, 18, -1, 8, -1, -1, 16, 12, -1, 14, -1, -1, -1, -1, -1, -1], "thresholds": [0.8343468904495239, -0.5474635362625122, 2.2263221740722656, -0.20206207036972046, -3.116487979888916, -2.0, -0.10000000149011612, -2.0, -2.0, 0.5, 0.5, -2.0, 0.5, -2.0, -2.0, -2.0, -2.0, -2.0, -2.0], "values": [-0.00086622723739923711, -0.24335692057193115, 0.40635857989401386, 0.36022399088257956, 0.51916555936666764, -1.5319607070842582, 0.36464776881264443, 1.9155747927019664, 1.3698379043560642, 0.053129021197042214, -0.24648413730848645, -1.1708549545067706, 0.10548341181488766, 1.2922488797334064, -1.3774272677188357, -1.5089537531137172, 1.0974303728312551, -1.5181876458673846, 2.1553699932349102], "features": [346, 265, 13, 325, 220, -2, 220, -2, -2, 221, 210, -2, 113, -2, -2, -2, -2, -2, -2], "children_left": [1, 9, 3, 5, 17, -1, 7, -1, -1, 15, 11, -1, 13, -1, -1, -1, -1, -1, -1]}, {"children_right": [2, 6, 4, 10, 14, 8, 16, 12, -1, 18, -1, -1, -1, -1, -1, -1, -1, -1, -1], "thresholds": [1.0356647968292236, 1.9993743896484375, -0.10000000149011612, -1.583718180656433, 2.5, 1.634572982788086, 0.14433756470680237, 0.5, -2.0, 0.45444005727767944, -2.0, -2.0, -2.0, -2.0, -2.0, -2.0, -2.0, -2.0, -2.0], "values": [-0.0013735265483941184, -0.12005459399116157, 0.34698307439812826, -0.04241651568998582, 0.38224170719973294, -0.1330268119369066, 0.20547983911910833, -0.15667484118837127, 1.1399236898039546, 0.39734883551152705, -0.79360986090509944, -0.76040583306777776, 1.9689780731853146, 0.91395071150483997, 1.6803287793494062, 1.1113661038893197, -1.474125651057923, 2.0570796502264908, -1.5781301720453493], "features": [1, 229, 112, 13, 0, 13, 115, 294, -2, 241, -2, -2, -2, -2, -2, -2, -2, -2, -2], "children_left": [1, 5, 3, 9, 13, 7, 15, 11, -1, 17, -1, -1, -1, -1, -1, -1, -1, -1, -1]}, {"children_right": [2, 18, 4, 10, 6, 8, 12, -1, -1, 16, 14, -1, -1, -1, -1, -1, -1, -1, -1], "thresholds": [0.5, 0.5, 0.6152932643890381, -0.7590881586074829, 1.4847420454025269, 0.6573691368103027, -0.5474635362625122, -2.0, -2.0, 0.8711583614349365, 0.5, -2.0, -2.0, -2.0, -2.0, -2.0, -2.0, -2.0, -2.0], "values": [-0.0014853351287546701, -0.20148820236328346, 0.039969629217083365, -0.024444178036072215, 0.13616396445198092, 0.026823299237178674, 0.39018418739409871, -0.94750913803897074, 1.0183729530095542, -0.14253746747191523, 0.0030318031022879745, -1.5845613926770286, 1.6464031373468675, 0.35177240343421096, -0.077891878290708969, -0.78446760901605528, 0.12133767199636683, -1.1638055199415318, -1.0576982417717407], "features": [92, 227, 205, 115, 13, 345, 148, -2, -2, 238, 260, -2, -2, -2, -2, -2, -2, -2, -2], "children_left": [1, 17, 3, 9, 5, 7, 11, -1, -1, 15, 13, -1, -1, -1, -1, -1, -1, -1, -1]}, {"children_right": [2, 4, 8, 16, 6, -1, 12, -1, 10, -1, 14, -1, -1, -1, -1, -1, 18, -1, -1], "thresholds": [0.5, 0.5, -0.3937795162200928, 0.5, 0.3706808388233185, -2.0, 1.75924551486969, -2.0, -0.44182467460632324, -2.0, -0.20206207036972046, -2.0, -2.0, -2.0, -2.0, -2.0, 0.9096231460571289, -2.0, -2.0], "values": [-0.0014997564870056978, 0.064239396851326347, -0.1259141896697149, -0.002665373862309047, 0.20745422357227716, -0.63241643603568409, 0.30488595215849634, -1.0994899874084934, -0.070046415436156279, -1.3309035326227894, -0.028479716435993823, 0.8138425367519917, 1.4685313332327199, -1.0586327861910119, -0.010948155122614711, 0.52578729392009294, -0.013356140860210291, -0.43249508635237338, 1.4614400671381789], "features": [113, 116, 91, 149, 1, -2, 1, -2, 148, -2, 250, -2, -2, -2, -2, -2, 1, -2, -2], "children_left": [1, 3, 7, 15, 5, -1, 11, -1, 9, -1, 13, -1, -1, -1, -1, -1, 17, -1, -1]}, {"children_right": [2, 4, 10, 6, 8, 18, -1, -1, 16, 12, -1, -1, 14, -1, -1, -1, -1, -1, -1], "thresholds": [0.5, 1.529193639755249, 2.197299003601074, 1.229727029800415, 0.5645941495895386, -0.10000000149011612, -2.0, -2.0, -3.116487979888916, -0.10000000149011612, -2.0, -2.0, 0.1688554733991623, -2.0, -2.0, -2.0, -2.0, -2.0, -2.0], "values": [-0.0015092417682297356, 0.057775178753362903, -0.11370779014014305, 0.027205653182263225, 0.24284958442768867, -0.03088318829679625, 1.1702388021599981, -1.2385421357083863, 0.35948755992052389, -0.1208577637458591, 1.9809485808847529, -1.0555585680300665, -0.07155362781403983, -0.53974208724797146, 0.1839313950290363, -1.6872969462730665, 1.5321059307494276, 1.8446473404981356, -0.14792723029394803], "features": [113, 112, 121, 13, 345, 106, -2, -2, 220, 235, -2, -2, 1, -2, -2, -2, -2, -2, -2], "children_left": [1, 3, 9, 5, 7, 17, -1, -1, 15, 11, -1, -1, 13, -1, -1, -1, -1, -1, -1]}, {"children_right": [2, 4, 8, 6, -1, -1, -1, 16, 10, 14, 12, -1, -1, -1, -1, -1, 18, -1, -1], "thresholds": [0.09256117045879364, 1.319639801979065, -0.2843465507030487, -0.10000000149011612, -2.0, -2.0, -2.0, -0.2443375587463379, 0.5, -0.10000000149011612, 0.4124549925327301, -2.0, -2.0, -2.0, -2.0, -2.0, 0.5, -2.0, -2.0], "values": [-0.001443427052502892, -0.078993156879926626, 0.03351460121502392, -0.090270600271908391, 0.9726060635662942, -0.88337720073239256, -0.09680144912056611, 0.21010793382262699, 0.028609732542724003, 0.063741774996998221, -0.12297296796465307, -1.0971936076122375, 0.5812398676821553, -0.021860073825144617, 0.42078971396249476, 2.3065005854101175, 0.11781419998363324, -0.65390047732021439, 1.0086436983116902], "features": [186, 91, 310, 235, -2, -2, -2, 70, 224, 253, 345, -2, -2, -2, -2, -2, 230, -2, -2], "children_left": [1, 3, 7, 5, -1, -1, -1, 15, 9, 13, 11, -1, -1, -1, -1, -1, 17, -1, -1]}, {"children_right": [2, 14, 4, 6, 10, -1, 8, -1, -1, -1, 12, -1, -1, -1, 16, -1, 18, -1, -1], "thresholds": [-0.10000000149011612, 0.45717573165893555, 0.5, 0.5, -0.7526923418045044, -2.0, 1.5737545490264893, -2.0, -2.0, -2.0, 2.197299003601074, -2.0, -2.0, -2.0, 0.5, -2.0, -0.014877747744321823, -2.0, -2.0], "values": [-0.0014283952168253596, -0.1014511559940152, 0.047734829510170156, -0.014554561549448179, 0.17904715001447488, -0.33963685157762064, 0.01628250980788137, -0.026562080409755134, 1.154486880965601, -1.5615585565525743, 0.18422062223518373, 0.8047047704481427, -1.875777789601234, -0.80937796204234103, -0.051033500880386037, 1.2816132897005621, -0.068437728111387069, -1.0902603550464152, 0.046559268514034177], "features": [112, 205, 147, 138, 265, -2, 229, -2, -2, -2, 88, -2, -2, -2, 119, -2, 187, -2, -2], "children_left": [1, 13, 3, 5, 9, -1, 7, -1, -1, -1, 11, -1, -1, -1, 15, -1, 17, -1, -1]}, {"children_right": [2, 4, 12, 6, 16, 10, 8, -1, -1, -1, -1, 14, -1, -1, -1, -1, 18, -1, -1], "thresholds": [1.634572982788086, 1.5059289932250977, -0.8234591484069824, -0.32491636276245117, -0.273861289024353, 1.1073675155639648, 5.5, -2.0, -2.0, -2.0, -2.0, 0.7698154449462891, -2.0, -2.0, -2.0, -2.0, 0.6165652871131897, -2.0, -2.0], "values": [-0.001370575704538186, -0.050584031865962373, 0.28391280013696346, -0.063139973464956034, 0.20233078430339926, -0.12620311308294266, -0.02024777443797348, -0.2772816391958392, 1.0727825165578559, -0.99544929656103587, 1.0705857142449418, -0.2316412142405801, 1.3485393750418144, -1.6285651587329615, 0.897744948328137, -1.2334918993174635, 0.23041321649480517, -1.5119325894451565, 1.3580797254813364], "features": [13, 238, 205, 148, 91, 346, 0, -2, -2, -2, -2, 345, -2, -2, -2, -2, 345, -2, -2], "children_left": [1, 3, 11, 5, 15, 9, 7, -1, -1, -1, -1, 13, -1, -1, -1, -1, 17, -1, -1]}, {"children_right": [2, 10, 4, 6, -1, 8, 18, -1, -1, 12, -1, 14, 16, -1, -1, -1, -1, -1, -1], "thresholds": [0.1327219158411026, 0.06611847877502441, 0.5, 0.2917795181274414, -2.0, 2.5, -1.5737545490264893, -2.0, -2.0, 0.5, -2.0, 2.3182477951049805, 2.1849141120910645, -2.0, -2.0, -2.0, -2.0, -2.0, -2.0], "values": [-0.0013278165707699956, -0.080517702870655364, 0.11119323330794957, 0.10020522014870005, 1.2301639147015977, 0.035264780477611529, 0.2091679536634368, -0.18454844540445978, 1.2879908833627365, -0.095825178168019373, -0.034600005837110252, -0.10122486509068061, 0.27831377876810026, -0.61976521691498188, 1.1882898428705568, -1.4376758954676907, 1.8696311039331339, -0.38097574053529532, 0.96987749199407702], "features": [12, 12, 255, 91, -2, 0, 199, -2, -2, 120, -2, 181, 346, -2, -2, -2, -2, -2, -2], "children_left": [1, 9, 3, 5, -1, 7, 17, -1, -1, 11, -1, 13, 15, -1, -1, -1, -1, -1, -1]}, {"children_right": [2, 10, 4, 6, -1, 8, -1, -1, -1, 12, 14, 18, -1, -1, 16, -1, -1, -1, -1], "thresholds": [1.0671906471252441, 0.5, -0.32491636276245117, 0.4070790410041809, -2.0, 0.5316401720046997, -2.0, -2.0, -2.0, 1.9375660419464111, 0.8154727220535278, 0.5, -2.0, -2.0, 0.4124549925327301, -2.0, -2.0, -2.0, -2.0], "values": [-0.0012398784230434928, -0.052663725899774576, 0.19178392909988318, 0.048938942515586566, 1.0635328526020886, -0.1202811805933461, 1.1030661973152527, -1.4170172710004811, 0.56805052585532012, -0.034380861213058854, -0.084930214810305465, -0.04307301858037476, 1.523033088484598, -0.83747775128487012, -0.02071805473278332, -1.1448098831086295, 1.1972980515908791, 0.74252062810349673, -0.23342911574083816], "features": [13, 219, 217, 1, -2, 345, -2, -2, -2, 181, 70, 119, -2, -2, 345, -2, -2, -2, -2], "children_left": [1, 9, 3, 5, -1, 7, -1, -1, -1, 11, 13, 17, -1, -1, 15, -1, -1, -1, -1]}, {"children_right": [2, 4, 6, 14, -1, 16, 8, 12, 10, -1, -1, -1, -1, -1, -1, -1, 18, -1, -1], "thresholds": [-0.43141859769821167, 0.82696533203125, 0.5, -0.4127224385738373, -2.0, 1.1754822731018066, -0.10000000149011612, 0.5, 0.5, -2.0, -2.0, -2.0, -2.0, -2.0, -2.0, -2.0, -0.4245538115501404, -2.0, -2.0], "values": [-0.0011774295371634893, -0.11582323123424561, 0.024513354226997082, -0.14076963311835883, 1.1444548700806019, 0.10828872961488543, 0.017121006552060038, -0.065806627446696686, 0.045351182136787391, 1.6968712262792858, 0.19529537514311851, -0.74811598376970789, -0.13139444313957266, 0.98963716145904412, -0.95893596718580498, 0.37309711574665977, 0.21946363726299625, 1.7266420699753695, 0.64800439769271068], "features": [70, 345, 254, 265, -2, 238, 226, 233, 212, -2, -2, -2, -2, -2, -2, -2, 229, -2, -2], "children_left": [1, 3, 5, 13, -1, 15, 7, 11, 9, -1, -1, -1, -1, -1, -1, -1, 17, -1, -1]}, {"children_right": [2, 16, 4, 12, 6, 10, 8, -1, -1, -1, -1, -1, 14, -1, -1, -1, 18, -1, -1], "thresholds": [-0.5773497819900513, -0.2108575701713562, 0.6977094411849976, -1.3844373226165771, -0.8234591484069824, 0.5, 0.8326350450515747, -2.0, -2.0, -2.0, -2.0, -2.0, 0.523861289024353, -2.0, -2.0, -2.0, -0.23701995611190796, -2.0, -2.0], "values": [-0.0011387493790326905, -0.058707941496246287, 0.013308102506053222, -0.055048161768627348, 0.1554630793013311, -0.26170214858722224, 0.18767280052815888, -0.85423595228423688, 1.2211475715657345, -1.4923575550586112, 0.76671937585188232, 1.8611287385508279, -0.056590283159214619, -0.20931946290933789, -0.7527475471314774, 1.5320374245278343, -0.06228692501182069, 0.76538606104161766, -0.41042501476035437], "features": [220, 292, 13, 73, 205, 252, 346, -2, -2, -2, -2, -2, 241, -2, -2, -2, 310, -2, -2], "children_left": [1, 15, 3, 11, 5, 9, 7, -1, -1, -1, -1, -1, 13, -1, -1, -1, 17, -1, -1]}, {"children_right": [2, 16, 4, 10, 6, 8, 18, -1, -1, 12, 14, -1, -1, -1, -1, -1, -1, -1, -1], "thresholds": [-0.43141859769821167, 4.181540489196777, 0.06951816380023956, -0.20425720512866974, 0.5, 0.5, 0.5, -2.0, -2.0, 0.587327241897583, 0.5, -2.0, -2.0, -2.0, -2.0, -2.0, -2.0, -2.0, -2.0], "values": [-0.0010187312772884807, -0.10046687055149599, 0.021266434023333541, -0.057329610263931428, 0.081553381274346512, 0.12475816698942645, 0.036097749126254672, 0.33506158901037641, 0.9679183393658386, -0.13322428705647371, -0.032990196093924153, -1.0998443743451451, 1.2094663741092337, -0.4183014917687744, 0.026526096554444073, -0.71486530961387929, 1.1431394708266647, 0.12569880192653565, 0.63272220680673652], "features": [70, 259, 12, 115, 206, 116, 219, -2, -2, 346, 204, -2, -2, -2, -2, -2, -2, -2, -2], "children_left": [1, 15, 3, 9, 5, 7, 17, -1, -1, 11, 13, -1, -1, -1, -1, -1, -1, -1, -1]}, {"children_right": [2, 6, 4, 16, 14, 10, 8, -1, -1, 12, -1, -1, -1, -1, -1, -1, 18, -1, -1], "thresholds": [0.5, 0.6977094411849976, 1.4554321765899658, 0.5, 0.5, 0.5, 0.8096646070480347, -2.0, -2.0, 0.608925461769104, -2.0, -2.0, -2.0, -2.0, -2.0, -2.0, 0.20425720512866974, -2.0, -2.0], "values": [-0.00096867446704918968, -0.027408198436224194, 0.067064611239913682, -0.17753549405050068, 0.22776625391258767, -0.058039363021457749, 0.05659870674219377, -0.51284317533854884, 0.97509042033621218, -0.061141836650534909, 2.1574081638547566, -0.86934584220615896, 0.96614244639551539, 1.4185773697587889, 1.0388194823958135, -0.73705645672429265, -0.24213925402535186, -1.1818063760763486, 0.80916237116140588], "features": [147, 13, 346, 111, 204, 294, 345, -2, -2, 346, -2, -2, -2, -2, -2, -2, 184, -2, -2], "children_left": [1, 5, 3, 15, 13, 9, 7, -1, -1, 11, -1, -1, -1, -1, -1, -1, 17, -1, -1]}, {"children_right": [2, 10, 4, 18, 6, 8, -1, -1, -1, -1, 12, 16, 14, -1, -1, -1, -1, -1, -1], "thresholds": [-0.32491636276245117, -0.5, -0.3994332551956177, -0.6572908163070679, 0.5, -0.5, -2.0, -2.0, -2.0, -2.0, -0.3763839602470398, 0.37386128306388855, -0.6598269939422607, -2.0, -2.0, -2.0, -2.0, -2.0, -2.0], "values": [-0.0010075488555442032, -0.067741916008932437, 0.03524916375735155, -0.045957988741728878, 0.064755582628071545, 0.066924182573134497, -1.4679269708106049, -0.30288888886099347, 0.37990377939048542, -1.0388559824337016, -0.046234213923105262, 0.17801468614355381, -0.054252123537081004, 1.9027167286057662, -0.36130965368188239, 2.1822444751302319, -0.13411431852839009, 1.1676091506917794, -0.28226370490553887], "features": [148, 90, 187, 277, 261, 231, -2, -2, -2, -2, 265, 223, 271, -2, -2, -2, -2, -2, -2], "children_left": [1, 9, 3, 17, 5, 7, -1, -1, -1, -1, 11, 15, 13, -1, -1, -1, -1, -1, -1]}, {"children_right": [2, 16, 4, 6, 12, 8, 10, -1, -1, -1, -1, 14, -1, -1, -1, 18, -1, -1, -1], "thresholds": [-0.4621928930282593, 1.9128708839416504, 0.5, 2.5, 0.5, -1.9375660419464111, 0.5, -2.0, -2.0, -2.0, -2.0, -0.8237544894218445, -2.0, -2.0, -2.0, -1.7366254329681396, -2.0, -2.0, -2.0], "values": [-0.00098335778975715098, -0.084317176846250175, 0.015529379987173367, -0.0060595723881951653, 0.04129698107394527, -0.061716387638921712, 0.15471354567651002, 1.7487130292082291, -0.44534727886148806, 1.0573124220145611, 0.21554474355198966, 0.036103157095702422, 1.6227991099724366, 1.2056991612091985, 0.16617444528514166, -0.077630157110884015, -1.4238664718014706, -1.2503011760793383, -0.56566393197510956], "features": [217, 259, 228, 0, 210, 232, 69, -2, -2, -2, -2, 73, -2, -2, -2, 88, -2, -2, -2], "children_left": [1, 15, 3, 5, 11, 7, 9, -1, -1, -1, -1, 13, -1, -1, -1, 17, -1, -1, -1]}, {"children_right": [2, 16, 4, 10, 6, -1, 8, -1, -1, 12, 14, -1, -1, -1, -1, 18, -1, -1, -1], "thresholds": [-0.32969754934310913, 0.5, 0.5, 0.2443375587463379, 5.5, -2.0, -0.20874640345573425, -2.0, -2.0, 0.8038951754570007, 1.5, -2.0, -2.0, -2.0, -2.0, 0.5, -2.0, -2.0, -2.0], "values": [-0.00094438195700688237, -0.046460387109019598, 0.025174133911582842, -0.0071214286071694406, 0.052726777394224551, 0.11277980746478404, 0.16446217257989265, -0.89382887038000658, 1.0801307318974862, 0.028448416613406958, -0.052623543901129423, -1.0729945988387322, 1.3938607546447217, -1.0142916212732165, 0.38257455231529064, -0.055145579273224596, 0.19642597495628833, 0.063826177518068516, -0.52581745749195297], "features": [187, 252, 204, 241, 0, -2, 13, -2, -2, 346, 0, -2, -2, -2, -2, 200, -2, -2, -2], "children_left": [1, 15, 3, 9, 5, -1, 7, -1, -1, 11, 13, -1, -1, -1, -1, 17, -1, -1, -1]}, {"children_right": [2, 16, 4, 6, 10, 8, -1, -1, -1, 14, 12, -1, -1, -1, -1, -1, 18, -1, -1], "thresholds": [0.09921233355998993, -0.5, -0.5, 1.9375660419464111, 0.10000000149011612, 1.5, -2.0, -2.0, -2.0, -0.5, 0.5, -2.0, -2.0, -2.0, -2.0, -2.0, -0.645138144493103, -2.0, -2.0], "values": [-0.00091025211963475204, -0.04990820486632544, 0.060699659199962237, 0.033729926117334892, 0.11751902922908762, 0.017031619877646304, 0.81268334347420745, -0.39268231525543407, 0.85608812110935906, 0.13771914177580957, -0.037211972518871504, -1.4800985918802152, 0.3494952812565536, -1.5193438749745711, 0.85546226179534834, 0.55504132412527118, -0.054248065652640599, -0.71088795578974939, -0.26954611425289615], "features": [12, 72, 114, 214, 139, 0, -2, -2, -2, 231, 242, -2, -2, -2, -2, -2, 115, -2, -2], "children_left": [1, 15, 3, 5, 9, 7, -1, -1, -1, 13, 11, -1, -1, -1, -1, -1, 17, -1, -1]}, {"children_right": [2, 16, 4, 6, 10, -1, 8, -1, -1, 12, 14, -1, -1, -1, -1, 18, -1, -1, -1], "thresholds": [-0.794146716594696, -0.5368821024894714, 0.5747016668319702, -1.4571068286895752, 0.2443375587463379, -2.0, 0.9848747849464417, -2.0, -2.0, 0.5, -0.517836332321167, -2.0, -2.0, -2.0, -2.0, 0.5, -2.0, -2.0, -2.0], "values": [-0.00083775298183221306, -0.089296657164366036, 0.0080891312562936125, -0.10079670315807142, 0.12243223456936557, 1.6295686915317433, -0.10471630121524796, -0.90980112538759617, 0.55473001276263834, 0.079879779109479715, 0.15698662233770858, 0.32824492876717404, 1.7908339059764011, 1.0266899564308785, 0.76775524097410575, -0.12223884601539198, -0.094140413319352204, -1.3493054228028392, -0.90968599682578688], "features": [181, 187, 345, 109, 112, -2, 346, -2, -2, 210, 88, -2, -2, -2, -2, 14, -2, -2, -2], "children_left": [1, 15, 3, 5, 9, -1, 7, -1, -1, 11, 13, -1, -1, -1, -1, 17, -1, -1, -1]}, {"children_right": [2, 4, 14, 6, 10, 12, 8, -1, -1, 16, -1, -1, -1, -1, -1, -1, -1], "thresholds": [3.427633285522461, 0.5, -0.10000000149011612, 0.8343468904495239, 0.9762144088745117, -1.76914644241333, -0.3836362063884735, -2.0, -2.0, 0.5, -2.0, -2.0, -2.0, -2.0, -2.0, -2.0, -2.0], "values": [-0.00089588031578656838, -0.0020204598831254105, 0.29517670623767289, -0.0037342441686705353, 0.15540163758794684, -0.10704735771901808, 0.17183842121096515, 0.11729346253541298, 0.96328733869441219, -0.11506668768350667, 1.7963752411242038, 1.4061915507525968, -0.7924680498867398, -1.2534631257842488, 2.1794850760393061, 0.41331197015920967, -1.4983163250286873], "features": [199, 117, 148, 346, 346, 346, 1, -2, -2, 14, -2, -2, -2, -2, -2, -2, -2], "children_left": [1, 3, 13, 5, 9, 11, 7, -1, -1, 15, -1, -1, -1, -1, -1, -1, -1]}, {"children_right": [2, 4, 8, 6, -1, -1, 14, 12, 10, -1, 16, 18, -1, -1, -1, -1, -1, -1, -1], "thresholds": [0.16547417640686035, 2.197299003601074, 1.9375660419464111, -1.4571068286895752, -2.0, -2.0, 1.6255382299423218, 1.8811168670654297, -0.10000000149011612, -2.0, 0.5, -0.10000000149011612, -2.0, -2.0, -2.0, -2.0, -2.0, -2.0, -2.0], "values": [-0.00089808790424009263, -0.033481000595854592, 0.045943119497217091, -0.036791011760598201, 1.3774334386616187, 1.3717913146438436, -0.039163435578295894, 0.036336873661904641, 0.14265335776786514, 1.8431814301221405, 0.047562101334632838, 0.028938025157697091, 1.1583526065039487, -0.3204662970301097, 0.61904939195602859, 0.67132201999594165, -0.46993929273953189, 0.59587463833494347, 0.090522422245257694], "features": [12, 121, 214, 109, -2, -2, 223, 241, 250, -2, 200, 262, -2, -2, -2, -2, -2, -2, -2], "children_left": [1, 3, 7, 5, -1, -1, 13, 11, 9, -1, 15, 17, -1, -1, -1, -1, -1, -1, -1]}, {"children_right": [2, 10, 4, -1, 6, 18, 8, -1, -1, 12, -1, 16, 14, -1, -1, -1, -1, -1, -1], "thresholds": [-0.10000000149011612, 1.7366254329681396, -3.116487979888916, -2.0, -0.3652160167694092, 0.402182936668396, 1.5, -2.0, -2.0, -0.7590881586074829, -2.0, 1.4699504375457764, 0.4281744062900543, -2.0, -2.0, -2.0, -2.0, -2.0, -2.0], "values": [-0.00081035808580298338, -0.05015160106573769, 0.014087244161733143, 2.3056210111717217, 0.012133312527766262, -0.064762174178678342, 0.017866867640519649, -0.23230656253262158, 0.45072761545528101, -0.05234495310010355, 0.97290482392743094, -0.096777979971533645, -0.029704030729670775, -0.13316737723056118, -1.445595876265398, -1.1522265435985672, 0.85765152347186291, -0.64162098881007479, 0.18334945483384185], "features": [226, 91, 232, -2, 253, 73, 0, -2, -2, 181, -2, 346, 217, -2, -2, -2, -2, -2, -2], "children_left": [1, 9, 3, -1, 5, 17, 7, -1, -1, 11, -1, 15, 13, -1, -1, -1, -1, -1, -1]}, {"children_right": [2, 16, 4, 12, 6, 10, 8, -1, -1, -1, -1, -1, 14, -1, -1, -1, 18, -1, -1], "thresholds": [0.5, -1.4571068286895752, -0.7590881586074829, -0.5233232975006104, 0.8527335524559021, 0.5, 0.5, -2.0, -2.0, -2.0, -2.0, -2.0, 0.5933889150619507, -2.0, -2.0, -2.0, 2.7384438514709473, -2.0, -2.0], "values": [-0.0007775170292184853, -0.051242177788042804, 0.0096823865782063503, -0.038508289127326498, 0.018731105594766272, -0.053983616811231656, 0.15122089411309864, 0.78096038828193559, 1.9017476083879699, -0.39974332726149764, 0.054793968102163047, -1.2238039967177303, -0.014297005030313278, -0.67220951939133045, 0.93255872288087172, 1.2128580858910312, -0.055487356286276705, -0.81054525685116952, 1.2707407213046877], "features": [92, 109, 88, 187, 345, 141, 14, -2, -2, -2, -2, -2, 345, -2, -2, -2, 214, -2, -2], "children_left": [1, 15, 3, 11, 5, 9, 7, -1, -1, -1, -1, -1, 13, -1, -1, -1, 17, -1, -1]}, {"children_right": [2, 4, 6, -1, 12, 18, 8, 10, -1, -1, -1, 14, 16, -1, -1, -1, -1, -1, -1], "thresholds": [0.5, 0.5, -0.10000000149011612, -2.0, 0.10000000149011612, 0.5, 0.21320071816444397, 4.181540489196777, -2.0, -2.0, -2.0, 0.06611847877502441, 1.5, -2.0, -2.0, -2.0, -2.0, -2.0, -2.0], "values": [-0.00073259794362337289, -0.010225901373275502, 0.0060907935341740996, 1.6782709218162162, -0.013153829410170891, -0.024695398008781691, 0.034386689452870198, 0.031761532446392189, 1.2907835890146402, 0.2027126440488457, -2.2068621475262193, -0.018632769500462332, 0.064230469463661038, -0.47276351643377157, 0.069006377055107704, 0.14185164380656459, 1.1020478476238673, 0.042194942822172593, -0.35330755613746984], "features": [225, 296, 259, -2, 265, 71, 118, 109, -2, -2, -2, 12, 0, -2, -2, -2, -2, -2, -2], "children_left": [1, 3, 5, -1, 11, 17, 7, 9, -1, -1, -1, 13, 15, -1, -1, -1, -1, -1, -1]}, {"children_right": [2, 12, 4, 6, 10, 18, 8, -1, -1, -1, -1, 16, 14, -1, -1, -1, -1, -1, -1], "thresholds": [-1.020416498184204, 0.007980952970683575, 1.3844373226165771, -0.3652160167694092, -0.10000000149011612, 1.848449468612671, -0.5, -2.0, -2.0, -2.0, -2.0, 1.2364177703857422, -1.9375660419464111, -2.0, -2.0, -2.0, -2.0, -2.0, -2.0], "values": [-0.00067984130142499394, -0.11053451686439027, 0.0070737717116413383, 0.004598960576998188, 0.19019850697662555, -0.039617589201792411, 0.021605725984201053, 1.5926325448798324, 0.11059149472730323, -1.3485364647552511, 1.4689050425198176, -0.027849977064388728, -0.18657878688606722, 1.2147666946548987, -1.3906147091486274, -1.10081769225323, 1.7814331443164324, -0.39956410462795666, 0.72652795155166738], "features": [205, 12, 211, 148, 229, 226, 72, -2, -2, -2, -2, 346, 229, -2, -2, -2, -2, -2, -2], "children_left": [1, 11, 3, 5, 9, 17, 7, -1, -1, -1, -1, 15, 13, -1, -1, -1, -1, -1, -1]}, {"children_right": [2, 4, 8, 14, 6, 10, 12, -1, 18, -1, -1, -1, -1, -1, 16, -1, -1, -1, -1], "thresholds": [1.9375660419464111, -0.6368218660354614, 0.6666673421859741, -0.850751519203186, 1.802627444267273, 0.5, -3.427633285522461, -2.0, 3.427633285522461, -2.0, -2.0, -2.0, -2.0, -2.0, 0.00479662511497736, -2.0, -2.0, -2.0, -2.0], "values": [-0.00066758375094239867, -0.0030591212800123355, 0.17148478710369058, -0.070157614059908321, 0.00389211717879642, -0.0027905743496763392, 0.081241311733879426, -1.4451908464314005, 0.25268842382407958, -0.39132573640387736, 0.035088469850438113, -1.7686284007801676, 0.60463116989472476, -0.38480544743802425, -0.094233069027485655, -1.0816099866455335, -1.1865630955407562, 1.252154749702006, 0.90095734579153941], "features": [181, 70, 345, 217, 112, 233, 115, -2, 235, -2, -2, -2, -2, -2, 12, -2, -2, -2, -2], "children_left": [1, 3, 7, 13, 5, 9, 11, -1, 17, -1, -1, -1, -1, -1, 15, -1, -1, -1, -1]}, {"children_right": [2, 4, 10, 8, 6, -1, 14, 12, 18, 16, -1, -1, -1, -1, -1, -1, -1, -1, -1], "thresholds": [1.5924851894378662, 0.950666606426239, 0.8910844326019287, 0.41732487082481384, 0.5, -2.0, -0.4621928930282593, 0.3605794608592987, 3.427633285522461, 0.5, -2.0, -2.0, -2.0, -2.0, -2.0, -2.0, -2.0, -2.0, -2.0], "values": [-0.00061881640014659187, -0.035702063887136877, 0.13368530497477862, -0.084528904411645123, 0.12793465400382634, 1.1827502057301951, 0.10382188059359157, -0.066191745421208301, -0.13047713911306497, 0.17280398614217429, 0.5050897190520206, -0.72136168888224839, -0.15673774380870961, -0.16619728415010954, 0.56771098545956244, 0.98356866485195626, 0.7303998485669897, -1.1003558084774452, 0.6002723888626833], "features": [1, 346, 70, 223, 143, -2, 256, 187, 259, 87, -2, -2, -2, -2, -2, -2, -2, -2, -2], "children_left": [1, 3, 9, 7, 5, -1, 13, 11, 17, 15, -1, -1, -1, -1, -1, -1, -1, -1, -1]}, {"children_right": [2, 4, 6, 12, 18, 8, -1, 10, 16, -1, -1, -1, 14, -1, -1, -1, -1, -1, -1], "thresholds": [0.8343468904495239, 1.0400617122650146, 0.5, 0.5, 0.10000000149011612, 0.5, -2.0, 0.030483439564704895, 0.33606263995170593, -2.0, -2.0, -2.0, 0.8910844326019287, -2.0, -2.0, -2.0, -2.0, -2.0, -2.0], "values": [-0.00066394545247366421, -0.078344283868956199, 0.12978790981075183, -0.070333996798398607, -0.1569117713133702, 0.15921734848177485, 0.63200388185558354, 0.22968726615204477, 0.10312831068067806, 1.6104044609444028, 0.93494905233499659, -1.2998822897206739, -0.066411687105804251, -0.61275526506892475, 0.85302046893688233, 1.7747973024834083, 0.44021286169453916, -0.80956430071572971, -1.3483902923695539], "features": [346, 70, 87, 125, 223, 228, -2, 12, 345, -2, -2, -2, 70, -2, -2, -2, -2, -2, -2], "children_left": [1, 3, 5, 11, 17, 7, -1, 9, 15, -1, -1, -1, 13, -1, -1, -1, -1, -1, -1]}, {"children_right": [2, 12, 4, -1, 6, 8, 10, -1, -1, -1, -1, 14, 18, 16, -1, -1, -1, -1, -1], "thresholds": [-0.6368218660354614, -0.10000000149011612, -1.7135109901428223, -2.0, 0.5, -0.5773497819900513, 0.10000000149011612, -2.0, -2.0, -2.0, -2.0, 2.4961776733398438, 0.08057878166437149, -0.8517355918884277, -2.0, -2.0, -2.0, -2.0, -2.0], "values": [-0.00067392093520406355, -0.057240022346700101, 0.005105281829213007, -0.96262397497581609, 0.0067429664312423443, 0.0043006160768781299, 0.18483640253843892, -0.47209960725384575, 0.056332747989286995, 1.1724610347754476, -1.1198945420655657, -0.022988525426489922, -0.079458257186271641, -0.049893248721331662, 1.1724879240706194, 1.8377767455309511, -1.1945233957067942, -0.93452973487252577, -1.2872927300406587], "features": [70, 271, 115, -2, 210, 259, 88, -2, -2, -2, -2, 13, 205, 346, -2, -2, -2, -2, -2], "children_left": [1, 11, 3, -1, 5, 7, 9, -1, -1, -1, -1, 13, 17, 15, -1, -1, -1, -1, -1]}, {"children_right": [2, 4, 6, 16, 12, 8, -1, 14, 10, -1, -1, -1, 18, -1, -1, -1, -1, -1, -1], "thresholds": [0.5, 1.0400617122650146, 0.10000000149011612, 0.5, -0.6368218660354614, -0.5, -2.0, -0.3469691872596741, -0.10000000149011612, -2.0, -2.0, -2.0, 0.5, -2.0, -2.0, -2.0, -2.0, -2.0, -2.0], "values": [-0.00063893790918802186, -0.013514489952809275, 0.015087374006013175, -0.018127412322806607, 0.16646480512054493, 0.012787279861587496, 2.6985248170267297, 0.20148058691487106, 0.0091365734220322861, -0.71911441605178561, 0.11112259910500302, 1.7016242421277219, 0.097942619942361614, 0.44290075483065117, 1.9039513586968251, 1.4054390751250041, -0.14971496650117408, 0.68252737059381918, -1.7853215854996838], "features": [204, 232, 133, 326, 226, 73, -2, 1, 226, -2, -2, -2, 219, -2, -2, -2, -2, -2, -2], "children_left": [1, 3, 5, 15, 11, 7, -1, 13, 9, -1, -1, -1, 17, -1, -1, -1, -1, -1, -1]}, {"children_right": [2, 4, 12, 18, 6, 10, 8, -1, -1, -1, -1, 14, -1, 16, -1, -1, -1, -1, -1], "thresholds": [0.06951816380023956, -0.10000000149011612, 0.2917795181274414, 0.5, 0.5, -0.45717573165893555, 0.523861289024353, -2.0, -2.0, -2.0, -2.0, 1.3418455123901367, -2.0, 1.3844373226165771, -2.0, -2.0, -2.0, -2.0, -2.0], "values": [-0.00059153893328856835, -0.024814337179251824, 0.02256946014585021, -0.056864661296660318, 0.0012735691012406144, 0.18410471601986172, -0.0068246096023026172, 0.30163571056904243, -0.46583297225171949, -1.2266845867710274, 1.4571358054663239, 0.0016788450116794712, 0.33395556925790143, 0.0045163331049388224, -1.8824165570749583, -0.00097852194255115127, 0.98529093135533785, -0.99881389562038791, -0.4218460795746482], "features": [12, 229, 91, 116, 74, 148, 241, -2, -2, -2, -2, 220, -2, 211, -2, -2, -2, -2, -2], "children_left": [1, 3, 11, 17, 5, 9, 7, -1, -1, -1, -1, 13, -1, 15, -1, -1, -1, -1, -1]}, {"children_right": [2, 6, 4, 12, -1, 8, 18, 10, -1, -1, -1, 16, 14, -1, -1, -1, -1, -1, -1], "thresholds": [-0.5773497819900513, 0.5, 2.2263221740722656, -0.6322021484375, -2.0, 1.21632981300354, -0.8364226818084717, 0.5, -2.0, -2.0, -2.0, 0.09447939693927765, 2.197299003601074, -2.0, -2.0, -2.0, -2.0, -2.0, -2.0], "values": [-0.00057761700047635745, -0.04076297394353022, 0.0062046997384109228, -0.0064546951476938865, 0.76201043105674693, 0.050668966716244726, -0.050101299129071679, -0.011681858258351625, 2.3978433571311539, 1.336539968333015, -1.2110627518906458, 0.19923772859449559, -0.007208425375530467, -0.059438925411805961, 1.1927547363522384, 2.1834664076167596, -1.4812381802099115, -1.0891334386803764, -0.56427314747492752], "features": [91, 266, 13, 310, -2, 241, 223, 215, -2, -2, -2, 1, 121, -2, -2, -2, -2, -2, -2], "children_left": [1, 5, 3, 11, -1, 7, 17, 9, -1, -1, -1, 15, 13, -1, -1, -1, -1, -1, -1]}, {"children_right": [2, 4, 14, 6, 8, -1, -1, 10, 12, -1, -1, -1, -1, 16, -1, -1, 18, -1, -1], "thresholds": [0.06951816380023956, 0.9848747849464417, 0.5, 0.5, 0.5, -2.0, -2.0, 0.6495213508605957, 0.1805787831544876, -2.0, -2.0, -2.0, -2.0, -1.0400617122650146, -2.0, -2.0, -0.32802075147628784, -2.0, -2.0], "values": [-0.00053173028481256557, -0.021173125295913153, 0.019204855306569707, -0.057534066837800622, 0.17529475547146647, -0.57121009744668316, -0.78590908014144589, 0.22299278920502014, 0.10747070395150435, 1.2861971750346028, 0.36831373410275114, 1.585264368306651, 0.30389963075927173, 0.0077125737110474235, 0.456482622021052, -0.94565530344347704, 0.016951506107072994, 0.59899913650762315, -0.014301223996734013], "features": [12, 346, 219, 111, 111, -2, -2, 187, 112, -2, -2, -2, -2, 205, -2, -2, 241, -2, -2], "children_left": [1, 3, 13, 5, 7, -1, -1, 9, 11, -1, -1, -1, -1, 15, -1, -1, 17, -1, -1]}, {"children_right": [2, 4, 12, 10, 6, 8, 18, -1, -1, 16, -1, 14, -1, -1, -1, -1, -1, -1, -1], "thresholds": [2.6893014907836914, 0.5, 1.7135109901428223, 1.7146546840667725, 0.7643915414810181, 2.197299003601074, -0.360642671585083, -2.0, -2.0, -0.4181988537311554, -2.0, 0.5, -2.0, -2.0, -2.0, -2.0, -2.0, -2.0, -2.0], "values": [-0.0005321732918769596, -0.0094252400338154154, 0.086978049956307632, 0.099431042136677958, -0.011093502200119653, -0.012187329382834152, 0.1850231540748061, -0.11021480386578346, 0.50567008129099078, 0.027867440412281258, 1.1575733152605066, 0.11373128583387523, 0.57884053076811559, 0.94949402236617875, 1.2008665870610835, -0.21627821435342912, 0.61085784007092747, 0.60352647461190245, 1.1109862129274655], "features": [13, 122, 112, 109, 118, 238, 199, -2, -2, 220, -2, 138, -2, -2, -2, -2, -2, -2, -2], "children_left": [1, 3, 11, 9, 5, 7, 17, -1, -1, 15, -1, 13, -1, -1, -1, -1, -1, -1, -1]}, {"children_right": [2, 4, 12, 6, 8, -1, -1, 10, -1, -1, -1, -1, 14, 16, 18, -1, -1, -1, -1], "thresholds": [-0.5, 0.001695317099802196, -0.4629100561141968, -0.3447834849357605, 0.5, -2.0, -2.0, -0.35795432329177856, -2.0, -2.0, -2.0, -2.0, 0.2722432613372803, 2.5570411682128906, 0.5, -2.0, -2.0, -2.0, -2.0], "values": [-0.00045293915544453612, -0.04161287164676071, 0.0040157803111889219, 0.1976095532542885, -0.05955878488954857, -1.2795467479704117, 1.8893380587504962, -0.042209666782234541, -1.4796846384602513, 0.98485491300623351, -0.39081635422736782, -1.2160172470996911, 0.005516319173961501, -0.011549939278830941, 0.037614557153986962, -0.072378962277909117, -1.5279264602814289, 0.10061948961789503, 0.51127452362563841], "features": [231, 186, 193, 1, 204, -2, -2, 277, -2, -2, -2, -2, 12, 70, 230, -2, -2, -2, -2], "children_left": [1, 3, 11, 5, 7, -1, -1, 9, -1, -1, -1, -1, 13, 15, 17, -1, -1, -1, -1]}, {"children_right": [2, -1, 4, 12, 6, 8, 10, -1, -1, -1, -1, 16, 14, -1, -1, -1, -1], "thresholds": [0.5, -2.0, 1.0792906284332275, 0.6152932643890381, 0.9629100561141968, 0.5, 0.9381604194641113, -2.0, -2.0, -2.0, -2.0, 0.5, 0.5, -2.0, -2.0, -2.0, -2.0], "values": [-0.000428765363042045, 1.3763986508815529, -0.0013927246166074302, -0.056189855014430995, 0.11281690809912878, 0.13970240176398058, 0.049503777460816398, 0.54864130371247022, 0.86087088590046823, -0.10621950112807098, 1.0210519027050426, -0.047029099019488894, -0.10158792548362854, -0.94616706288506969, -1.0743163739282731, -0.4077290193424048, -0.34819534748297437], "features": [296, -2, 346, 241, 229, 71, 345, -2, -2, -2, -2, 224, 111, -2, -2, -2, -2], "children_left": [1, -1, 3, 11, 5, 7, 9, -1, -1, -1, -1, 15, 13, -1, -1, -1, -1]}, {"children_right": [2, -1, 4, 6, 10, 8, 12, -1, -1, -1, -1, -1, -1], "thresholds": [0.5, -2.0, 0.5844888687133789, 2.6893014907836914, 0.6839396953582764, -0.71735680103302, -0.20206207036972046, -2.0, -2.0, -2.0, -2.0, -2.0, -2.0], "values": [-0.00039645177845912879, 1.256866273364359, -0.0012646513519341605, -0.001890775722327296, 0.2479031336876264, -0.0091753306234054321, 0.069347395800809244, 0.40502326007799394, -0.10665377072663637, 1.8788068946735497, -1.2100598165636369, 0.91568692916448657, 0.63698143110473227], "features": [296, -2, 324, 13, 186, 214, 217, -2, -2, -2, -2, -2, -2], "children_left": [1, -1, 3, 5, 9, 7, 11, -1, -1, -1, -1, -1, -1]}, {"children_right": [2, 10, 4, 16, 6, 8, -1, -1, -1, -1, 12, 14, -1, -1, -1, 18, -1, -1, -1], "thresholds": [0.6089791059494019, -1.0604782104492188, -0.39783793687820435, 1.7135109901428223, 0.10000000149011612, -0.2917795181274414, -2.0, -2.0, -2.0, -2.0, 1.0400617122650146, 3.352235794067383, -2.0, -2.0, -2.0, -1.319639801979065, -2.0, -2.0, -2.0], "values": [-0.0003464209076519928, -0.06244837332683164, 0.084865321938539393, 0.22975662808575129, 0.074778997542328168, 0.1431293188215518, 0.25495675894258912, 0.39392393002397647, 0.93709947826171014, 1.1827739065521612, -0.065315307336551762, -0.058000094145872025, -1.2045172447579742, -0.65984853177768299, 1.0267633464081092, 0.26684172670213141, -0.29109448390796977, -1.7450597655141511, 1.3402745232178139], "features": [346, 214, 226, 112, 205, 109, -2, -2, -2, -2, 70, 211, -2, -2, -2, 205, -2, -2, -2], "children_left": [1, 9, 3, 15, 5, 7, -1, -1, -1, -1, 11, 13, -1, -1, -1, 17, -1, -1, -1]}, {"children_right": [2, 4, 10, 16, 6, -1, 8, -1, -1, -1, 12, -1, 14, -1, -1, -1, 18, -1, -1], "thresholds": [1.3844373226165771, -0.2981976270675659, -0.10000000149011612, -1.7135109901428223, -0.10000000149011612, -2.0, 0.37783265113830566, -2.0, -2.0, -2.0, 0.6746178865432739, -2.0, 0.10000000149011612, -2.0, -2.0, -2.0, 0.6366353034973145, -2.0, -2.0], "values": [-0.0003908270113738989, -0.0022527929282033605, 0.14212661064022861, -0.017043802857271115, 0.0090370774386841768, -1.1631950462198251, 0.012749522783968594, -0.15005079223169318, 0.45620745623713632, -1.2442358500744868, 0.1929443906654352, -1.2813151899435726, 0.27165453446771437, 1.654196489388996, 0.62496822296408661, 0.63347043892162302, -0.019150566838100763, -0.93752263656607004, 0.34619546676842322], "features": [211, 109, 181, 241, 121, -2, 1, -2, -2, -2, 345, -2, 91, -2, -2, -2, 346, -2, -2], "children_left": [1, 3, 9, 15, 5, -1, 7, -1, -1, -1, 11, -1, 13, -1, -1, -1, 17, -1, -1]}, {"children_right": [2, 10, 4, 12, 6, 8, 18, -1, -1, 16, -1, 14, -1, -1, -1, -1, -1, -1, -1], "thresholds": [-0.6368218660354614, -0.8910844326019287, 0.8343468904495239, 1.4788689613342285, 0.5, 0.6763305068016052, 1.551783800125122, -2.0, -2.0, -0.6794168949127197, -2.0, -0.8447362184524536, -2.0, -2.0, -2.0, -2.0, -2.0, -2.0, -2.0], "values": [-0.00041116151797025285, -0.042812099191726079, 0.0039208254866749028, -0.05047735438480766, 0.085857632818241922, 0.05739185165427995, 0.15748495905118406, 0.70059209878016204, 0.14598607486124976, 0.29658106222933089, -0.91509722957719131, -0.046911570278814256, -1.3615783529774099, 3.5774305874281733, -0.46643112648604751, -1.3580495241993951, 2.7610430176684195, 0.84136596052033819, 0.32199122684284792], "features": [217, 109, 346, 229, 227, 205, 148, -2, -2, 199, -2, 1, -2, -2, -2, -2, -2, -2, -2], "children_left": [1, 9, 3, 11, 5, 7, 17, -1, -1, 15, -1, 13, -1, -1, -1, -1, -1, -1, -1]}, {"children_right": [2, 10, 4, 6, 18, 8, -1, -1, -1, -1, 12, 14, 16, -1, -1, -1, -1, -1, -1], "thresholds": [0.8527335524559021, -0.10000000149011612, 0.22434186935424805, 0.5, 0.5, 0.5, -2.0, -2.0, -2.0, -2.0, 2.279998540878296, -0.402182936668396, -0.7316628694534302, -2.0, -2.0, -2.0, -2.0, -2.0, -2.0], "values": [-0.00042157512675687587, -0.030185427724192034, 0.084906314760774981, 0.14952971582688232, 0.069713996000556638, 0.09955279298247352, 1.5857047241607007, -0.47848124197617153, 0.56654998105405285, -1.0039349151196857, -0.027281067317108772, -0.044053961712240269, 0.20204939937313907, -0.1132194143456678, -0.50231952125394519, -2.3501580333006586, 1.0908000094267232, 0.67195339297871459, 0.23157893090343065], "features": [345, 121, 13, 113, 239, 149, -2, -2, -2, -2, 346, 112, 109, -2, -2, -2, -2, -2, -2], "children_left": [1, 9, 3, 5, 17, 7, -1, -1, -1, -1, 11, 13, 15, -1, -1, -1, -1, -1, -1]}, {"children_right": [2, 4, 14, 6, 10, 8, 12, -1, -1, -1, -1, -1, -1, -1, 16, 18, -1, -1, -1], "thresholds": [3.1223907470703125, 0.10000000149011612, 1.5, 0.5, 0.5, -0.10000000149011612, 0.5, -2.0, -2.0, -2.0, -2.0, -2.0, -2.0, -2.0, 1.3213202953338623, 0.39310574531555176, -2.0, -2.0, -2.0], "values": [-0.000362178143437596, -0.004787512956142154, 0.059108743209029285, -0.0057595975135345014, 0.18364608816321154, 0.13493714654868444, -0.0077468226650201887, -1.3815715599361238, 1.2778913670722725, 2.8600274694434016, -0.036107008609010366, -0.070300194452152714, 1.0278125209849487, -0.52090482494885681, 0.063852917563663847, 0.10216767443099097, 0.74672214461061237, 0.47146720539953074, 1.1160266045115923], "features": [13, 133, 0, 212, 200, 235, 294, -2, -2, -2, -2, -2, -2, -2, 148, 187, -2, -2, -2], "children_left": [1, 3, 13, 5, 9, 7, 11, -1, -1, -1, -1, -1, -1, -1, 15, 17, -1, -1, -1]}, {"children_right": [2, 18, 4, 10, 6, 8, 14, -1, -1, 12, 16, -1, -1, -1, -1, -1, -1, -1, -1], "thresholds": [-0.5, 0.5, 1.7649147510528564, 3.427633285522461, 0.8910844326019287, 1.9375660419464111, -0.39783793687820435, -2.0, -2.0, 3.3910160064697266, 0.08060747385025024, -2.0, -2.0, -2.0, -2.0, -2.0, -2.0, -2.0, -2.0], "values": [-0.00031750400956775206, -0.021723616976677379, 0.0041193806316603679, -0.019245012650441529, 0.078331584354075182, 0.10882189992314591, 0.032063501312377486, 0.83562142726750821, 0.015648326511847332, -0.018187069437690672, -0.16202767585984584, -0.15256855084474885, 0.65281973945028093, 0.68234142320146729, 0.0521011268791274, -1.18944170095396, -1.6655403389516463, -0.58163482089114138, 0.22593676638585658], "features": [90, 264, 1, 109, 217, 109, 256, -2, -2, 187, 12, -2, -2, -2, -2, -2, -2, -2, -2], "children_left": [1, 17, 3, 9, 5, 7, 13, -1, -1, 11, 15, -1, -1, -1, -1, -1, -1, -1, -1]}, {"children_right": [2, 8, 4, 6, -1, 16, -1, -1, 10, 12, 14, -1, -1, -1, -1, -1, -1], "thresholds": [1.3844373226165771, 0.5, 0.5, -0.04516888037323952, -2.0, 0.5, -2.0, -2.0, 0.5, 1.3357329368591309, 0.5, -2.0, -2.0, -2.0, -2.0, -2.0, -2.0], "values": [-0.00027343940099872912, -0.0018951149884232511, 0.12385184524193887, 0.14761041751620757, -1.8374859246843418, -0.079366711623508737, 1.3308090210600549, 0.96631938557250407, -0.0024877773255687833, -0.0021501655204048615, -0.14554356931012732, -0.34091386769020354, 0.56337828828886571, -1.313104993238317, -1.1081340332410836, -1.2457353829360993, -1.0584178086503357], "features": [211, 296, 213, 187, -2, 116, -2, -2, 267, 346, 113, -2, -2, -2, -2, -2, -2], "children_left": [1, 7, 3, 5, -1, 15, -1, -1, 9, 11, 13, -1, -1, -1, -1, -1, -1]}, {"children_right": [2, 4, 10, 6, -1, -1, 8, -1, -1, 12, 18, 14, 16, -1, -1, -1, -1, -1, -1], "thresholds": [-0.5, 1.416053295135498, 2.3182477951049805, -0.2990836799144745, -2.0, -2.0, -0.10000000149011612, -2.0, -2.0, 1.5, 0.6839396953582764, 0.10000000149011612, -0.3652160167694092, -2.0, -2.0, -2.0, -2.0, -2.0, -2.0], "values": [-0.00023758646853497069, 0.10656280588859188, -0.0021029188499987182, 0.14065166123652204, -1.3418494691508749, 2.446995267543727, 0.097526895423103332, -1.0764735843479178, 1.1949303353142029, -0.0012051983666348412, -0.11076276941718745, -0.021140935718949188, 0.023532498779775542, -0.16085429405953777, -1.3057133325569303, -0.40690874108274594, 0.22784158599176912, -1.2223834411987748, -1.7288535179023932], "features": [72, 214, 88, 265, -2, -2, 229, -2, -2, 0, 186, 124, 253, -2, -2, -2, -2, -2, -2], "children_left": [1, 3, 9, 5, -1, -1, 7, -1, -1, 11, 17, 13, 15, -1, -1, -1, -1, -1, -1]}, {"children_right": [2, -1, 4, 6, -1, 10, 8, -1, -1, -1, -1], "thresholds": [-3.116487979888916, -2.0, 0.5, -0.10000000149011612, -2.0, 0.5, 0.6089791059494019, -2.0, -2.0, -2.0, -2.0], "values": [-0.00023719797888068671, 2.2070716373492436, -0.0017283692306196384, -0.0026126987980614035, 1.1675613058110368, -0.054997148601375487, -0.00063738973655655829, -0.54270402821497588, 0.35848617615762157, 0.050603800879924804, -0.81331669766891557], "features": [232, -2, 132, 121, -2, 143, 346, -2, -2, -2, -2], "children_left": [1, -1, 3, 5, -1, 9, 7, -1, -1, -1, -1]}, {"children_right": [2, 4, 10, 6, 14, 8, 12, -1, -1, -1, 18, -1, -1, 16, -1, -1, -1, -1, -1], "thresholds": [5.5, 1.3844373226165771, 0.10000000149011612, 2.5570411682128906, 0.5, -1.0604782104492188, 3.5, -2.0, -2.0, -2.0, -2.197299003601074, -2.0, -2.0, 0.5, -2.0, -2.0, -2.0, -2.0, -2.0], "values": [-0.00025768722006980715, -0.0074077019746766112, 0.047182466639991948, -0.0093028609410198068, 0.11840299554949814, -0.0077406221501427211, -0.14605861787690752, 1.2657625735075595, -0.0888077501287622, 0.62410012029606476, 0.021884900661877801, -1.1634476235586602, -2.3879832244295902, 0.16943550237668389, -1.1178854597730992, 1.1827833205595795, -1.6993404146072473, -1.8412121877738825, 0.28154783975752579], "features": [0, 211, 88, 70, 113, 214, 0, -2, -2, -2, 241, -2, -2, 213, -2, -2, -2, -2, -2], "children_left": [1, 3, 9, 5, 13, 7, 11, -1, -1, -1, 17, -1, -1, 15, -1, -1, -1, -1, -1]}, {"children_right": [2, 6, 4, -1, 10, 18, 8, -1, 14, 16, 12, -1, -1, -1, -1, -1, -1, -1, -1], "thresholds": [-0.10000000149011612, 1.7821235656738281, -2.5570411682128906, -2.0, 0.5, 2.7537426948547363, -0.8059072494506836, -2.0, 1.6618636846542358, 0.8035330176353455, 0.7828685641288757, -2.0, -2.0, -2.0, -2.0, -2.0, -2.0, -2.0, -2.0], "values": [-0.00023068455688002334, -0.016587143565000042, 0.0097791101346810516, 1.7152209303447759, 0.0078755694559564052, -0.031707975441776469, 0.050510060251464893, 1.4491109552274439, 0.032750774266338697, 0.0060400277429707161, 0.12513160170645835, -1.3211219359855095, 1.2169658363637272, 0.38835219138382954, -5.1631846638344054, 0.081801262037402817, -0.39409313109008537, -0.41937870530161753, 1.0676492995067792], "features": [259, 1, 205, -2, 117, 199, 115, -2, 256, 220, 345, -2, -2, -2, -2, -2, -2, -2, -2], "children_left": [1, 5, 3, -1, 9, 17, 7, -1, 13, 15, 11, -1, -1, -1, -1, -1, -1, -1, -1]}, {"children_right": [2, 4, 6, -1, 12, 8, 18, -1, 10, -1, -1, 14, 16, -1, -1, -1, -1, -1, -1], "thresholds": [5.5, -0.5, 0.517836332321167, -2.0, -0.6322021484375, -0.20206207036972046, -0.18898223340511322, -2.0, 0.3258058428764343, -2.0, -2.0, 0.5727043747901917, 0.5, -2.0, -2.0, -2.0, -2.0, -2.0, -2.0], "values": [-0.00021142247171198857, -0.006456176031568203, 0.041222347928114057, 0.82230749188615671, -0.0085771529266812745, 0.092568973209724389, 0.020875105220650024, -2.1952036482571597, 0.11730482522672989, -1.940716038647335, 0.87798863836591456, 0.20193979105422266, -0.0092239021345575985, 1.9243154424376792, -2.1625091732683894, -0.10021070285419477, 0.76714716634727664, -1.2672744065534278, 0.28185594524517826], "features": [0, 72, 148, -2, 310, 277, 223, -2, 1, -2, -2, 13, 210, -2, -2, -2, -2, -2, -2], "children_left": [1, 3, 5, -1, 11, 7, 17, -1, 9, -1, -1, 13, 15, -1, -1, -1, -1, -1, -1]}, {"children_right": [2, 4, 12, 18, 6, 8, 10, -1, -1, -1, -1, -1, 14, 16, -1, -1, -1, -1, -1], "thresholds": [0.8611322641372681, 3.5, -0.2900954782962799, -1.3718374967575073, -0.0018081548623740673, 0.44532179832458496, -0.10000000149011612, -2.0, -2.0, -2.0, -2.0, -2.0, 3.3131895065307617, 0.6136360764503479, -2.0, -2.0, -2.0, -2.0, -2.0], "values": [-0.00018869235409795846, -0.021258705770961842, 0.065098421382238855, -0.015792887576224428, -0.073449816306977903, -0.15299299237878236, -0.031117124480835423, -0.9829756834398663, -1.9109308853567444, 0.22244174634198788, -0.53713047195627872, 0.86332613096760602, 0.05363182664076948, 0.05506346550840352, -2.8769552137586225, -1.4391784866190904, 0.477366501597356, -0.83977322643562136, -0.13042128842771206], "features": [345, 0, 187, 220, 13, 345, 265, -2, -2, -2, -2, -2, 214, 346, -2, -2, -2, -2, -2], "children_left": [1, 3, 11, 17, 5, 7, 9, -1, -1, -1, -1, -1, 13, 15, -1, -1, -1, -1, -1]}, {"children_right": [2, 4, 12, 6, 10, -1, 8, -1, -1, -1, -1, 16, 14, -1, -1, -1, 18, -1, -1], "thresholds": [1.7649147510528564, 0.10000000149011612, 0.5, 0.30802637338638306, -0.523861289024353, -2.0, 0.5, -2.0, -2.0, -2.0, -2.0, -0.6720008850097656, 1.5504238605499268, -2.0, -2.0, -2.0, 0.5, -2.0, -2.0], "values": [-0.00016685254627555088, -0.013701394045334261, 0.054349467281742142, 0.0038170303271758484, -0.037927960046909848, -0.716625382177141, 0.041845575529080421, 1.2764164051854594, 0.14471728311775497, 0.53347755298060617, -0.39691428750394947, 0.087602602723104328, 0.028810339618492536, -1.6360317396056916, 0.67052239840370442, -0.35907367450800387, 0.103917308291242, 0.18069765582186531, 0.827889659717714], "features": [1, 112, 204, 345, 148, -2, 71, -2, -2, -2, -2, 187, 346, -2, -2, -2, 221, -2, -2], "children_left": [1, 3, 11, 5, 9, -1, 7, -1, -1, -1, -1, 15, 13, -1, -1, -1, 17, -1, -1]}, {"children_right": [2, 16, 4, 12, 6, 8, 10, -1, -1, -1, -1, 14, -1, -1, -1, -1, 18, -1, -1], "thresholds": [-0.2463996410369873, 0.5, -1.3718374967575073, 1.382455587387085, -0.5773497819900513, 2.7384438514709473, 2.5570411682128906, -2.0, -2.0, -2.0, -2.0, 0.5, -2.0, -2.0, -2.0, -2.0, 0.5, -2.0, -2.0], "values": [-0.00016854751269265866, -0.10672140580826098, 0.0010837937233601331, -0.043873364021324288, 0.0030488280377146157, -0.020232914524091757, 0.0071436726365704667, -0.83862650338123257, 1.4142312227269811, 0.073220787556478095, -0.79492734976484891, -0.056940035389434589, 0.63756642708782729, 0.69145360387960997, -0.94297964207991525, -1.0428279487261591, -0.13189144949156048, -0.93197381613461905, -1.4941114762335863], "features": [325, 92, 220, 199, 91, 214, 70, -2, -2, -2, -2, 143, -2, -2, -2, -2, 7, -2, -2], "children_left": [1, 15, 3, 11, 5, 7, 9, -1, -1, -1, -1, 13, -1, -1, -1, -1, 17, -1, -1]}, {"children_right": [2, 18, 4, 10, 6, 16, 8, -1, -1, 14, 12, -1, -1, -1, -1, -1, -1, -1, -1], "thresholds": [-0.2463996410369873, 0.5, -0.71735680103302, 0.5, 0.5, -0.10000000149011612, -0.10000000149011612, -2.0, -2.0, 2.271695613861084, 0.7590881586074829, -2.0, -2.0, -2.0, -2.0, -2.0, -2.0, -2.0, -2.0], "values": [-0.00017154983108284868, -0.096342372652705788, 0.00095876885816862409, 0.055207648368664611, -0.0027295365596039481, -0.004256994235905481, 0.10726384683471148, -1.3122418182242053, 1.1666052531960369, -0.0423580383659325, 0.08018449314211154, 0.42628142328671109, 1.3743965813123751, -0.98177468458809747, 0.82626656993156022, -0.59385554038197763, -0.022901853164599431, -1.2493482722541165, -1.2389795993635915], "features": [325, 108, 214, 149, 210, 121, 235, -2, -2, 13, 232, -2, -2, -2, -2, -2, -2, -2, -2], "children_left": [1, 17, 3, 9, 5, 15, 7, -1, -1, 13, 11, -1, -1, -1, -1, -1, -1, -1, -1]}, {"children_right": [2, 4, 6, 16, -1, 8, 12, 18, 10, -1, -1, -1, 14, -1, -1, -1, -1, -1, -1], "thresholds": [-0.5773497819900513, 2.8097119331359863, 0.5, -0.5, -2.0, 1.5, -0.5, 0.5, 0.5000095367431641, -2.0, -2.0, -2.0, -0.10000000149011612, -2.0, -2.0, -2.0, -2.0, -2.0, -2.0], "values": [-0.00015950641503646178, -0.03881059990463058, 0.002544813176437091, -0.071141238293491046, 0.91152846381491071, 0.0013187404929800061, 0.093321292076290294, -0.012401347140486085, 0.018760160059316584, -0.38321719646376629, 0.42626120431952835, -1.1626358402677976, 0.12946068752037876, -1.4914913700560526, 1.0231371464219972, -1.0519712443804838, -1.076843964188791, -0.1373233830092335, 0.40783721845292148], "features": [259, 346, 210, 90, -2, 0, 180, 276, 345, -2, -2, -2, 238, -2, -2, -2, -2, -2, -2], "children_left": [1, 3, 5, 15, -1, 7, 11, 17, 9, -1, -1, -1, 13, -1, -1, -1, -1, -1, -1]}, {"children_right": [2, 16, 4, 6, 8, -1, 12, 14, 10, -1, -1, -1, -1, -1, -1, -1, 18, -1, -1], "thresholds": [-0.5773497819900513, 0.5, 0.5, -0.20206207036972046, -0.45717573165893555, -2.0, -0.32802075147628784, 0.766398549079895, -0.9281743764877319, -2.0, -2.0, -2.0, -2.0, -2.0, -2.0, -2.0, -0.2463996410369873, -2.0, -2.0], "values": [-0.00014330023485207275, -0.017740656049521745, 0.0028267079965322729, 0.026955635663593488, -0.0045973570803004068, -0.87092816729692579, 0.040682123989496694, 0.10680218219858593, -0.0068050221234420925, 0.84235961877801513, -0.075574066962302219, -0.15665868909112823, 0.55825064656726542, 0.64053044150966221, -1.5480599663204742, 0.32993303219612391, -0.022543739902030173, -1.0699679748056072, 0.21510485225295797], "features": [91, 266, 111, 250, 250, -2, 109, 229, 214, -2, -2, -2, -2, -2, -2, -2, 109, -2, -2], "children_left": [1, 15, 3, 5, 7, -1, 11, 13, 9, -1, -1, -1, -1, -1, -1, -1, 17, -1, -1]}, {"children_right": [2, 4, 6, 14, 18, -1, 8, 12, 10, -1, -1, -1, -1, -1, 16, -1, -1, -1, -1], "thresholds": [-0.6368218660354614, 0.14978036284446716, -0.7526923418045044, 0.9629100561141968, 0.5, -2.0, 2.124100923538208, 1.0400617122650146, 0.5, -2.0, -2.0, -2.0, -2.0, -2.0, -0.10000000149011612, -2.0, -2.0, -2.0, -2.0], "values": [-0.00015555189517969133, -0.031603669587500945, 0.0030574156625639689, -0.022044494117861437, -0.16136998117321114, -1.5690005302508834, 0.0036408845433781685, -0.017451903433891854, 0.083333471790840857, 0.98355091411242601, 0.69228652998461782, -0.10220972960236997, -0.54226962623197295, -1.0658117001607812, 0.0053118040818130379, 0.9309440322103808, -0.60357343829152343, -1.3843647411969644, -1.9143427446100667], "features": [70, 12, 265, 112, 147, -2, 346, 217, 147, -2, -2, -2, -2, -2, 259, -2, -2, -2, -2], "children_left": [1, 3, 5, 13, 17, -1, 7, 11, 9, -1, -1, -1, -1, -1, 15, -1, -1, -1, -1]}, {"children_right": [2, 4, 18, 10, 6, 16, 8, -1, -1, 12, 14, -1, -1, -1, -1, -1, -1, -1, -1], "thresholds": [1.5, -0.7868008613586426, -2.5570411682128906, 0.5, 1.319639801979065, 0.5, -1.0246950387954712, -2.0, -2.0, -0.8294289112091064, -0.37204548716545105, -2.0, -2.0, -2.0, -2.0, -2.0, -2.0, -2.0, -2.0], "values": [-0.00011951827537517664, -0.010868558724059309, 0.013655255951428674, 0.044562446717444824, -0.026672983333896338, -0.030176861393129958, 0.11061332722857775, 2.2002330997153723, -0.64690776845912079, 0.03720573093233915, 0.26613682814854395, 0.21522935291034359, 2.9808899868766097, -1.0944064655406036, 1.6628666967444965, 0.7071777937847471, -0.35431372711482967, 1.394356023290062, 0.11172465327813713], "features": [0, 13, 238, 216, 181, 212, 232, -2, -2, 13, 1, -2, -2, -2, -2, -2, -2, -2, -2], "children_left": [1, 3, 17, 9, 5, 15, 7, -1, -1, 11, 13, -1, -1, -1, -1, -1, -1, -1, -1]}, {"children_right": [2, 16, 4, 6, 10, 8, 14, -1, -1, 12, -1, -1, -1, -1, -1, -1, 18, -1, -1], "thresholds": [-0.3652160167694092, -0.32491636276245117, 3.116487979888916, 0.8527335524559021, 1.6628708839416504, 1.224063515663147, 0.5, -2.0, -2.0, 0.5, -2.0, -2.0, -2.0, -2.0, -2.0, -2.0, 6.5, -2.0, -2.0], "values": [-0.00013986712352289524, -0.030562464949443081, 0.0023070731900521331, 0.0038065191256183364, -0.084227097734685424, -0.014384959287323135, 0.055443775943373082, -0.094774796515188039, -0.82719703197755901, -0.056345353939321871, -2.8237446178158927, 0.89173531672306761, -0.97319503542240615, 0.43007158602617973, 0.52710430955411303, 0.75904739451061209, -0.034011380867356965, -1.0844194490094965, 0.26766617617755351], "features": [253, 250, 148, 345, 112, 229, 87, -2, -2, 143, -2, -2, -2, -2, -2, -2, 0, -2, -2], "children_left": [1, 15, 3, 5, 9, 7, 13, -1, -1, 11, -1, -1, -1, -1, -1, -1, 17, -1, -1]}, {"children_right": [2, 6, 4, 16, -1, 8, 10, -1, -1, 12, 14, -1, -1, -1, -1, -1, 18, -1, -1], "thresholds": [2.513364315032959, 1.1754822731018066, 0.5, 0.10000000149011612, -2.0, 0.10000000149011612, 0.15179654955863953, -2.0, -2.0, 0.9345453977584839, 1.9375660419464111, -2.0, -2.0, -2.0, -2.0, -2.0, 0.5, -2.0, -2.0], "values": [-0.00012467650318752241, -0.01529371246723381, 0.083646281939181458, 0.059033786337944323, 1.0350137853405583, -0.011087625424300271, -0.068191804398197525, -0.084313097499217685, -1.0919038821267002, -0.11227965572911104, -0.0084772697936276765, -1.5684928765677157, 0.55007771401567063, 0.19168399852161508, -1.9037661719052177, 1.1019625774294728, 0.049566794980812928, 0.65703455381815901, 1.2106329136178695], "features": [346, 235, 221, 91, -2, 124, 1, -2, -2, 345, 214, -2, -2, -2, -2, -2, 14, -2, -2], "children_left": [1, 5, 3, 15, -1, 7, 9, -1, -1, 11, 13, -1, -1, -1, -1, -1, 17, -1, -1]}, {"children_right": [2, 4, 6, 14, -1, 8, 10, -1, -1, 18, 12, -1, -1, -1, 16, -1, -1, -1, -1], "thresholds": [0.34835925698280334, 1.0640760660171509, -1.5737545490264893, 0.5, -2.0, 0.10000000149011612, -0.2981976270675659, -2.0, -2.0, -0.523861289024353, -1.1251165866851807, -2.0, -2.0, -2.0, -3.116487979888916, -2.0, -2.0, -2.0, -2.0], "values": [-9.1772153221719046e-05, -0.030813771429939768, 0.035762677791599071, -0.023735835707061261, -1.1464984663833284, -0.10566250326433167, 0.039413072659192, -2.1183952318933623, -0.3131943685038186, 0.017444625479693287, 0.055814257035739036, 1.4349826051535266, 0.32261232946909651, 1.2616340895547502, -0.025046073846442155, 1.7733430148468676, -0.43513262121973256, 0.50661391719180571, 0.058856344321137698], "features": [346, 148, 199, 326, -2, 226, 109, -2, -2, 205, 187, -2, -2, -2, 232, -2, -2, -2, -2], "children_left": [1, 3, 5, 13, -1, 7, 9, -1, -1, 17, 11, -1, -1, -1, 15, -1, -1, -1, -1]}, {"children_right": [2, 8, 4, 12, 6, -1, 10, 14, -1, -1, -1, -1, 16, 18, -1, -1, -1, -1, -1], "thresholds": [1.5, 0.5, 0.6414283514022827, -2.5570411682128906, 0.5, -2.0, 0.5, 0.10000000149011612, -2.0, -2.0, -2.0, -2.0, 3.5, 1.319639801979065, -2.0, -2.0, -2.0, -2.0, -2.0], "values": [-0.00012229654347722154, -0.0086694368173915199, 0.010830767417911493, -0.053313926210676141, 0.046738866802565865, 0.18240488356007917, 0.086007596191886956, -0.012353039935094132, 0.88804411351705015, 0.98553712565293394, 0.47265794391473626, 1.4806836757863442, -0.057887198912639264, -0.009198523394809404, -1.2489371354627297, -0.51751900771311932, -1.1912520829872504, -0.13260335317721578, 0.59308832599713801], "features": [0, 216, 346, 226, 221, -2, 143, 124, -2, -2, -2, -2, 0, 181, -2, -2, -2, -2, -2], "children_left": [1, 7, 3, 11, 5, -1, 9, 13, -1, -1, -1, -1, 15, 17, -1, -1, -1, -1, -1]}, {"children_right": [2, 4, -1, 10, 6, 12, 8, -1, -1, 16, 14, -1, -1, -1, -1, -1, -1], "thresholds": [0.325391948223114, -1.1041377782821655, -2.0, -3.427633285522461, 0.5, 0.5, -0.5474635362625122, -2.0, -2.0, -0.7286180257797241, 2.519453525543213, -2.0, -2.0, -2.0, -2.0, -2.0, -2.0], "values": [-0.00013125506202114166, -0.00037209083533153723, 0.7208417072957326, -0.033008356455037774, 0.0021407896200185731, 0.075925479610569599, 0.00074839642591885977, 0.9192251872107231, -0.0033047304689729829, -0.23653081465134437, -0.02817675874025289, 0.21397669882376019, 0.8326771418967791, -0.55541216416144423, 0.5009029845176618, -1.5189452627967692, -1.6978807563866638], "features": [184, 115, -2, 220, 74, 204, 265, -2, -2, 256, 1, -2, -2, -2, -2, -2, -2], "children_left": [1, 3, -1, 9, 5, 11, 7, -1, -1, 15, 13, -1, -1, -1, -1, -1, -1]}, {"children_right": [2, 18, 4, 6, 8, 16, 14, 12, 10, -1, -1, -1, -1, -1, -1, -1, -1, -1, -1], "thresholds": [-0.10000000149011612, 0.10176816582679749, -0.6541777849197388, -0.10000000149011612, 1.1754822731018066, 0.5, -0.10000000149011612, 1.319639801979065, 1.6429846286773682, -2.0, -2.0, -2.0, -2.0, -2.0, -2.0, -2.0, -2.0, -2.0, -2.0], "values": [-0.00012305560180278545, -0.017482143057539552, 0.0051181739391905484, 0.036857819554164901, -0.0016250904688005722, -0.027570058402140392, 0.054791824399427619, 0.0020405620024373451, -0.022747140880353716, -0.74489728324208937, 0.086288543003698759, 0.0048313012187955872, 0.88139782503141861, -1.1419385883358277, 0.69272562048670239, 0.73716990383768344, -1.0755617031629676, -0.21838951077553159, -1.4014925032213466], "features": [226, 318, 112, 250, 229, 260, 106, 181, 187, -2, -2, -2, -2, -2, -2, -2, -2, -2, -2], "children_left": [1, 17, 3, 5, 7, 15, 13, 11, 9, -1, -1, -1, -1, -1, -1, -1, -1, -1, -1]}, {"children_right": [2, 4, 16, 6, 8, 12, 14, 10, 18, -1, -1, -1, -1, -1, -1, -1, -1, -1, -1], "thresholds": [0.5844888687133789, 0.9103841185569763, -0.10000000149011612, 1.1239359378814697, 1.81480073928833, 0.5, 0.5, 4.230340480804443, 2.728888511657715, -2.0, -2.0, -2.0, -2.0, -2.0, -2.0, -2.0, -2.0, -2.0, -2.0], "values": [-0.00012283444014046145, -0.00064760425212000876, 0.20936631579812418, -0.012612401838371624, 0.055092401231225975, -0.0044265907810650366, -0.067204327122743837, 0.09240058130804879, 0.022277905330776424, 0.69198395311176353, -4.7628011953659879, -0.12687857281784265, 0.21773511428147677, -0.30920055163090082, -0.68175095109805706, -1.0858884088906695, 1.5951571276747061, -0.15663104433292716, 0.88785222591454593], "features": [324, 345, 241, 205, 13, 113, 237, 1, 346, -2, -2, -2, -2, -2, -2, -2, -2, -2, -2], "children_left": [1, 3, 15, 5, 7, 11, 13, 9, 17, -1, -1, -1, -1, -1, -1, -1, -1, -1, -1]}, {"children_right": [2, 12, 4, 8, 6, -1, -1, -1, 10, -1, -1, 14, -1, 18, 16, -1, -1, -1, -1], "thresholds": [-0.794146716594696, 1.2710585594177246, 3.116487979888916, -0.2108575701713562, 1.21632981300354, -2.0, -2.0, -2.0, -1.2991222143173218, -2.0, -2.0, -0.32491636276245117, -2.0, 0.5, -0.10000000149011612, -2.0, -2.0, -2.0, -2.0], "values": [-8.9922643009263155e-05, -0.028705910716458439, 0.0027978772370813969, 0.0043062656656546704, -0.086413753274630106, -0.38966440717641188, -2.1506735905055314, 0.84490051447648551, 0.0040221610288150231, -0.78700307551561166, 0.061587404654472516, -0.031181474188136514, 0.38168519469005513, 0.10855725827813024, -0.03543502621099668, -0.84742949714694904, -0.81093875331479637, 0.59274266317975999, -1.0454468845703278], "features": [181, 91, 148, 292, 199, -2, -2, -2, 115, -2, -2, 271, -2, 113, 112, -2, -2, -2, -2], "children_left": [1, 11, 3, 7, 5, -1, -1, -1, 9, -1, -1, 13, -1, 17, 15, -1, -1, -1, -1]}, {"children_right": [2, 4, 6, -1, -1, 10, 8, 14, 12, 18, 16, -1, -1, -1, -1, -1, -1, -1, -1], "thresholds": [-3.116487979888916, -0.10000000149011612, -0.5, -2.0, -2.0, 0.7340232729911804, 0.8077940940856934, 0.6152932643890381, 0.5, 0.5, 1.7366254329681396, -2.0, -2.0, -2.0, -2.0, -2.0, -2.0, -2.0, -2.0], "values": [-9.2408411442656258e-05, 0.30168165658595752, -0.0011380417217646908, -1.1537263900519776, 1.6572380885524962, -0.029587480002837251, 0.001841802811398512, -0.017268559728673475, 0.045444768932327663, 0.023974932904995343, -0.080152940518539759, 1.0783005270841617, 0.33689587405364319, -0.11674947608505737, -0.57495134787482338, -0.79389096052367758, 0.31526705974208169, -1.1042418299304784, 0.3218041524856643], "features": [232, 262, 231, -2, -2, 345, 345, 235, 111, 134, 199, -2, -2, -2, -2, -2, -2, -2, -2], "children_left": [1, 3, 5, -1, -1, 9, 7, 13, 11, 17, 15, -1, -1, -1, -1, -1, -1, -1, -1]}, {"children_right": [2, 16, 4, 6, 10, 8, -1, -1, -1, 14, 12, -1, -1, -1, -1, -1, 18, -1, -1], "thresholds": [-0.5, 0.5, -0.794146716594696, 0.8953628540039062, 0.5, -0.10000000149011612, -2.0, -2.0, -2.0, 0.5, -1.020416498184204, -2.0, -2.0, -2.0, -2.0, -2.0, -0.35753828287124634, -2.0, -2.0], "values": [-8.7781116777366631e-05, -0.01619969283896585, 0.0016614835005252277, -0.025827589976663307, 0.0047708075457912448, -0.033275307545983165, 1.0954945075721834, -0.39728744834201979, -1.1647539229801198, -0.082225291981450815, 0.0054030419656173473, -0.70623700165350245, 0.092717588003617749, -1.0949449674885667, -2.5288316627482201, -0.2373434696223867, 0.013712427665761121, -0.38453313518824178, 1.4865636737364398], "features": [231, 198, 181, 345, 263, 259, -2, -2, -2, 69, 205, -2, -2, -2, -2, -2, 232, -2, -2], "children_left": [1, 15, 3, 5, 9, 7, -1, -1, -1, 13, 11, -1, -1, -1, -1, -1, 17, -1, -1]}, {"children_right": [2, 4, 14, 10, 6, 12, 8, -1, -1, -1, -1, -1, -1, -1, 16, -1, 18, -1, -1], "thresholds": [3.352235794067383, -2.5570411682128906, -0.10000000149011612, -0.10000000149011612, 0.9103841185569763, 0.6672919392585754, -0.5041080117225647, -2.0, -2.0, -2.0, -2.0, -2.0, -2.0, -2.0, 0.5, -2.0, 0.34936627745628357, -2.0, -2.0], "values": [-9.6632687764601868e-05, -0.0010569554304137357, 0.084917622360050835, 0.23094479894891798, -0.001922085738503143, -0.012466419719059065, 0.046932274159313683, -2.239429141049277, 0.58805674778683259, -2.0634560038123513, 1.4955107457515646, -0.141272855394421, 0.91456544539136075, 0.12668942198430957, 0.10501898441854689, -1.3653428003156551, 0.19756442369439833, 1.4679412879071161, 0.87407084384002287], "features": [211, 205, 262, 262, 345, 193, 1, -2, -2, -2, -2, -2, -2, -2, 204, -2, 12, -2, -2], "children_left": [1, 3, 13, 9, 5, 11, 7, -1, -1, -1, -1, -1, -1, -1, 15, -1, 17, -1, -1]}, {"children_right": [2, 4, -1, 6, 8, 12, -1, 14, 10, -1, -1, -1, -1, -1, -1], "thresholds": [1.7320507764816284, 3.352235794067383, -2.0, 0.5, -0.10000000149011612, -0.3265496790409088, -2.0, 0.5, 0.10000000149011612, -2.0, -2.0, -2.0, -2.0, -2.0, -2.0], "values": [-7.4681721305365953e-05, -0.0004766889207854994, 0.79916774422484593, -0.0013480203175179676, 0.076415909619901051, -0.0021579431697563291, 1.2924584591241912, -0.06779732877198133, 0.13154249380590197, 1.1220888743848247, -0.69208115450727459, 0.71345380353424326, -0.025609978877305602, -1.2892018669861094, -1.049615139966148], "features": [295, 211, -2, 132, 229, 268, -2, 219, 223, -2, -2, -2, -2, -2, -2], "children_left": [1, 3, -1, 5, 7, 11, -1, 13, 9, -1, -1, -1, -1, -1, -1]}, {"children_right": [2, 18, 4, 6, 12, 10, 8, -1, -1, -1, -1, 14, 16, -1, -1, -1, -1, -1, -1], "thresholds": [-0.14433756470680237, -1.1568459272384644, 1.1754822731018066, 0.950666606426239, 2.609182357788086, 0.3587101697921753, 0.25160735845565796, -2.0, -2.0, -2.0, -2.0, 1.0400617122650146, 1.9375660419464111, -2.0, -2.0, -2.0, -2.0, -2.0, -2.0], "values": [-6.6127000441548815e-05, -0.072421051694753699, 0.00067291523922866808, 0.0039261271302154259, -0.025704757422238968, -0.016574981815283454, 0.049899150020685311, 0.55785419391258673, 0.18054124326821328, -0.40615202690836649, 0.14472653075815511, -0.021419728359012319, -0.11066685062309979, -0.076592427416763212, -0.73994792703337775, -0.55426066102214366, -3.0721688006446151, 0.066278801554586098, -1.4511335125541047], "features": [118, 220, 229, 346, 214, 187, 186, -2, -2, -2, -2, 232, 199, -2, -2, -2, -2, -2, -2], "children_left": [1, 17, 3, 5, 11, 9, 7, -1, -1, -1, -1, 13, 15, -1, -1, -1, -1, -1, -1]}, {"children_right": [2, 18, 4, 12, 6, 10, 8, -1, -1, -1, -1, 14, 16, -1, -1, -1, -1, -1, -1], "thresholds": [-0.20206207036972046, 0.487062007188797, 3.116487979888916, 1.1754822731018066, 0.7356057167053223, 0.10000000149011612, 0.8234591484069824, -2.0, -2.0, -2.0, -2.0, 0.5, 0.5, -2.0, -2.0, -2.0, -2.0, -2.0, -2.0], "values": [-6.7599724333610006e-05, -0.072209252984858113, 0.0010636823245361003, 0.002327754287571605, -0.076618101913061273, 0.010624550212223022, -0.19061822655922259, -2.390771594170872, -0.88673345341031229, 0.62488747626512209, -1.4601472797847399, 0.0053682743176491944, -0.022536876860808127, 0.048432457959334041, 1.3116928709097424, -0.49523767604248914, -0.08904262960056393, -1.4552176065020299, -0.64515160419096684], "features": [325, 235, 148, 229, 345, 220, 205, -2, -2, -2, -2, 132, 198, -2, -2, -2, -2, -2, -2], "children_left": [1, 17, 3, 11, 5, 9, 7, -1, -1, -1, -1, 13, 15, -1, -1, -1, -1, -1, -1]}, {"children_right": [2, 10, 4, 16, 6, 8, -1, -1, -1, -1, 12, -1, 14, -1, -1, -1, 18, -1, -1], "thresholds": [-0.6541777849197388, -0.10000000149011612, 2.5080580711364746, 0.9629100561141968, 0.2443375587463379, 3.5, -2.0, -2.0, -2.0, -2.0, 0.2443375587463379, -2.0, 0.5, -2.0, -2.0, -2.0, -0.5303558707237244, -2.0, -2.0], "values": [-6.3706275492967905e-05, 0.017933795453400323, -0.0039643995847622989, -0.018085814335252574, 0.060887363452448183, 0.1070202528491815, 0.62395286844199949, 1.1700753938316357, 0.58590922898050379, -0.41266392239766675, 0.039680019543484664, 0.40170537966482617, 0.18664501002901801, -1.0634522486153615, 5.0858787756169948, -0.20175658564423882, 0.027214985710494813, 1.197397746497582, 0.066155965432484726], "features": [112, 235, 346, 181, 115, 0, -2, -2, -2, -2, 142, -2, 89, -2, -2, -2, 241, -2, -2], "children_left": [1, 9, 3, 15, 5, 7, -1, -1, -1, -1, 11, -1, 13, -1, -1, -1, 17, -1, -1]}, {"children_right": [2, 4, 14, 12, 6, 8, 10, -1, -1, -1, -1, -1, -1, 16, -1, 18, -1, -1, -1], "thresholds": [1.2991222143173218, -3.116487979888916, 0.45717573165893555, -0.10000000149011612, 0.5, 0.5, -1.802627444267273, -2.0, -2.0, -2.0, -2.0, -2.0, -2.0, 2.5570411682128906, -2.0, 2.8870651721954346, -2.0, -2.0, -2.0], "values": [-5.96679845888227e-05, 0.0019029926516498181, -0.025274916735903961, 0.2761705359668763, 0.00087842215117304263, 0.075614857011422523, -0.00044327850569802438, -0.16748605020016133, 2.0202563516990262, 1.1002698404136448, -0.020412877012143432, -1.126898648035674, 1.5185817177589096, -0.030951212665731961, 1.0039240773876916, -0.026310609600938756, -2.3047045458071698, -0.80943561016480459, 1.0580026670966673], "features": [256, 232, 73, 262, 257, 111, 235, -2, -2, -2, -2, -2, -2, 109, -2, 346, -2, -2, -2], "children_left": [1, 3, 13, 11, 5, 7, 9, -1, -1, -1, -1, -1, -1, 15, -1, 17, -1, -1, -1]}, {"children_right": [2, 4, 6, -1, 14, 18, 8, 10, 12, -1, -1, -1, -1, 16, -1, -1, -1, -1, -1], "thresholds": [-0.5, 0.40887564420700073, -0.794146716594696, -2.0, -0.4698230028152466, 0.5, 3.3538949489593506, 3.139004707336426, 0.5, -2.0, -2.0, -2.0, -2.0, -0.4260793924331665, -2.0, -2.0, -2.0, -2.0, -2.0], "values": [-5.4171510846198642e-05, 0.067018575390545745, -0.0012256369329068971, -1.1520231450730019, 0.26321639812237668, -0.022169730208041607, 0.00090010226789479235, 0.0022056333530290936, -0.073082839775000019, 0.029712937145617485, -1.3541968076465734, -0.19655771915446743, -1.4425618214908897, 0.30975446117682837, 0.61188776513000143, 2.1362019107075794, 1.0813362744514339, 0.21806165594398288, -0.81215684668754551], "features": [73, 345, 181, -2, 13, 143, 109, 277, 216, -2, -2, -2, -2, 1, -2, -2, -2, -2, -2], "children_left": [1, 3, 5, -1, 13, 17, 7, 9, 11, -1, -1, -1, -1, 15, -1, -1, -1, -1, -1]}, {"children_right": [2, -1, 4, 10, 6, -1, 8, -1, -1, 12, 14, -1, -1, -1, -1], "thresholds": [0.5, -2.0, -0.14433756470680237, 0.5, -0.8964002132415771, -2.0, -0.6277608275413513, -2.0, -2.0, 0.10000000149011612, -0.2917795181274414, -2.0, -2.0, -2.0, -2.0], "values": [-6.2874970353191239e-05, 0.99229118016765949, -0.00069346861364805959, -0.064697635425831998, -3.5693867371169421e-05, 0.8748223997436636, -0.00046696118581709961, 0.25553828633481473, -0.076070480089545395, -0.10531734927376767, -0.050570449752071797, -2.004820408089043, -0.72472326381373509, -1.1594712526769593, -1.1179013901810024], "features": [134, -2, 118, 149, 271, -2, 13, -2, -2, 232, 271, -2, -2, -2, -2], "children_left": [1, -1, 3, 9, 5, -1, 7, -1, -1, 11, 13, -1, -1, -1, -1]}, {"children_right": [2, 4, 16, 6, 10, 8, 18, -1, -1, 12, 14, -1, -1, -1, -1, -1, -1, -1, -1], "thresholds": [3.427633285522461, -0.5, 0.0033689734991639853, -0.45015931129455566, 1.1754822731018066, 1.416053295135498, 0.5, -2.0, -2.0, 0.3065904378890991, -0.10000000149011612, -2.0, -2.0, -2.0, -2.0, -2.0, -2.0, -2.0, -2.0], "values": [-6.1110395309740186e-05, -0.00056797543469840853, 0.1333832874968186, 0.059434350402549747, -0.0016200020919743235, 0.12426444445188101, -0.041104638699065464, 0.91998872950830912, -1.5694033358873067, 0.00099009254033141148, -0.023001386896097157, -0.56032050824495827, 0.15521144527191505, 0.23578356977863629, -0.29692974245988002, 0.99882013211090381, 0.75383522588580565, -1.1072986927836566, -1.0381789981283025], "features": [199, 72, 186, 13, 229, 214, 242, -2, -2, 345, 274, -2, -2, -2, -2, -2, -2, -2, -2], "children_left": [1, 3, 15, 5, 9, 7, 17, -1, -1, 11, 13, -1, -1, -1, -1, -1, -1, -1, -1]}, {"children_right": [2, 6, 4, 18, 14, -1, 8, 10, 12, -1, -1, -1, -1, -1, 16, -1, -1, -1, -1], "thresholds": [2.5080580711364746, 0.5, 0.6096746921539307, -0.5, 0.8234591484069824, -2.0, 0.817861795425415, -0.4621928930282593, 0.5, -2.0, -2.0, -2.0, -2.0, -2.0, 1.4663779735565186, -2.0, -2.0, -2.0, -2.0], "values": [-7.6251131469827536e-05, -0.010801152731664456, 0.057388071760200748, 0.096248482419903331, 0.030925960124588658, -0.99514780231911204, -0.0091147741251546861, -0.00022415028051547183, -0.048314949943043389, -1.1059543762382824, 0.04434626823296442, -0.5110386272941545, -0.11473609480102481, 1.0600193148768247, 0.022684296067787383, 0.63726932582093121, -0.97334554900855252, 1.1273369870849903, 0.8301886301853395], "features": [346, 125, 223, 189, 112, -2, 148, 259, 255, -2, -2, -2, -2, -2, 214, -2, -2, -2, -2], "children_left": [1, 5, 3, 17, 13, -1, 7, 9, 11, -1, -1, -1, -1, -1, 15, -1, -1, -1, -1]}, {"children_right": [2, 12, 4, 6, 14, 8, 10, -1, -1, -1, -1, -1, -1, 16, 18, -1, -1, -1, -1], "thresholds": [-0.2443375587463379, 0.5238581299781799, 1.7649147510528564, 0.6971367597579956, 0.5, 0.2443375587463379, -0.2108575701713562, -2.0, -2.0, -2.0, -2.0, -2.0, -2.0, 0.6898197531700134, -1.027740240097046, -2.0, -2.0, -2.0, -2.0], "values": [-5.6600874290134451e-05, -0.042548309692747879, 0.00026933185968499885, -0.0068594910448260297, 0.028770248742357722, -0.00085678709654020879, -0.041349557479129523, -0.076177925446098471, 0.26145768957219306, 0.6987598365387675, -0.64025963669073171, -1.035625589231814, -2.1141382135243956, 0.031978201850526626, 0.0054684843177424513, -0.40879669928357615, 0.61145459346231179, 0.98262243913824943, -0.11294768314655498], "features": [124, 345, 1, 241, 188, 241, 262, -2, -2, -2, -2, -2, -2, 345, 109, -2, -2, -2, -2], "children_left": [1, 11, 3, 5, 13, 7, 9, -1, -1, -1, -1, -1, -1, 15, 17, -1, -1, -1, -1]}, {"children_right": [2, -1, 4, 6, 10, 8, 16, -1, -1, 14, 12, -1, -1, -1, -1, -1, -1], "thresholds": [0.5, -2.0, -1.7135109901428223, -0.10000000149011612, -0.5548369884490967, -0.6152932643890381, -0.20206207036972046, -2.0, -2.0, 0.5844641923904419, -0.645138144493103, -2.0, -2.0, -2.0, -2.0, -2.0, -2.0], "values": [-4.3811500172459918e-05, 0.93399129742884113, -0.00063260527200288458, 0.049529522870543963, -0.0019030631624535918, 0.23301134781228425, -0.030008851190180808, -1.1171692727814937, 3.4028274300880716, -0.022240363079950382, 0.00091439791542648121, 1.5111283500911106, -0.015557229533612228, -0.30360474400866572, -1.3810222243931691, 0.026073475404388948, -0.58862747080307698], "features": [134, -2, 241, 220, 217, 115, 265, -2, -2, 205, 148, -2, -2, -2, -2, -2, -2], "children_left": [1, -1, 3, 5, 9, 7, 15, -1, -1, 13, 11, -1, -1, -1, -1, -1, -1]}, {"children_right": [2, 10, 4, -1, 6, -1, 8, -1, -1, 14, 12, -1, 18, -1, 16, -1, -1, -1, -1], "thresholds": [0.6152932643890381, 3.427633285522461, 0.5, -2.0, 0.42435839772224426, -2.0, -0.3182179033756256, -2.0, -2.0, -0.2108575701713562, 0.273861289024353, -2.0, 0.2443375587463379, -2.0, -0.8964002132415771, -2.0, -2.0, -2.0, -2.0], "values": [-7.9610315866462196e-05, 0.0035489669814764008, -0.013293394161325876, -0.3218580322331413, 0.070778732241125367, 0.0086756550281678318, 0.21731159689216797, -1.0512999587645728, 1.3030046509215696, 0.0045454756354587431, -0.074240822552702507, -0.27380152592193108, -0.31744209251635197, 1.2927252850583306, 0.0040593597281392982, 1.1354461781424467, 0.035384251424568143, -2.9382535484976731, -1.1775745955804997], "features": [220, 109, 264, -2, 345, -2, 181, -2, -2, 292, 70, -2, 226, -2, 271, -2, -2, -2, -2], "children_left": [1, 9, 3, -1, 5, -1, 7, -1, -1, 13, 11, -1, 17, -1, 15, -1, -1, -1, -1]}, {"children_right": [2, 4, 10, 6, -1, 8, -1, -1, -1, 16, 12, 14, -1, -1, -1, -1, 18, -1, -1], "thresholds": [0.5, 0.5, -1.147950291633606, 0.5, -2.0, 0.10000000149011612, -2.0, -2.0, -2.0, -2.5570411682128906, -1.1041377782821655, 0.5, -2.0, -2.0, -2.0, -2.0, 2.7384438514709473, -2.0, -2.0], "values": [-6.941401145694471e-05, 0.069091711334957909, -0.00097299227027608764, 0.14871389702212751, -0.7783607296878825, 0.10769174073337837, 1.354675176404107, 1.0605726039149934, -0.25441087314612343, -0.017545194638979522, 0.00061253031994666315, 0.29792667593049704, -0.0056777269522284273, 4.8540869422090029, -1.0062959813922063, 1.3546426671228802, -0.022615691280329028, -1.1596096721265294, 1.1824781448617534], "features": [212, 206, 91, 188, -2, 223, -2, -2, -2, 205, 91, 206, -2, -2, -2, -2, 214, -2, -2], "children_left": [1, 3, 9, 5, -1, 7, -1, -1, -1, 15, 11, 13, -1, -1, -1, -1, 17, -1, -1]}, {"children_right": [2, 4, 6, -1, -1, 12, 8, 10, 18, -1, -1, 16, 14, -1, -1, -1, -1, -1, -1], "thresholds": [-3.116487979888916, -0.10000000149011612, 0.10000000149011612, -2.0, -2.0, 0.09256117045879364, -0.41519615054130554, 1.2710585594177246, -0.9476776719093323, -2.0, -2.0, -0.026738548651337624, 3.080019950866699, -2.0, -2.0, -2.0, -2.0, -2.0, -2.0], "values": [-9.1861866605888917e-05, 0.24843787375992515, -0.00095300601489069605, -1.1060124191273, 1.3945563945728019, -0.001930993149927785, 0.024503457348807687, 0.068528304533454348, -0.036602792549044812, 0.18278646617049057, 5.3321995846225052, -0.014971826224176268, 0.0034360229460671434, 0.05370020202299166, -0.92691527330648382, -0.4314802856450819, 0.10324386504445196, 0.67785220180200512, -0.69506828079015281], "features": [232, 262, 142, -2, -2, 186, 187, 199, 220, -2, -2, 187, 109, -2, -2, -2, -2, -2, -2], "children_left": [1, 3, 5, -1, -1, 11, 7, 9, 17, -1, -1, 15, 13, -1, -1, -1, -1, -1, -1]}, {"children_right": [2, 4, 14, 6, 8, 12, -1, -1, 10, -1, -1, -1, -1, 16, -1, 18, -1, -1, -1], "thresholds": [0.9283261299133301, 0.5, 0.5, 0.5, -0.6322021484375, -0.9629100561141968, -2.0, -2.0, 0.224022775888443, -2.0, -2.0, -2.0, -2.0, 0.2463996410369873, -2.0, 0.6368218660354614, -2.0, -2.0, -2.0], "values": [-0.00010415507081165042, -0.0082983365829372817, 0.044227849445071694, 0.050414168108824833, -0.0095172610126217708, 0.10987637956312189, -1.2129694918305238, 0.87666457150918331, -0.010064042293667841, 0.036646086213916719, -0.29184094188290888, -1.0889003778870836, 0.88141113391913117, 0.032955976007949896, 0.70190689027186204, 0.059037474855948929, 0.43958693250601616, 0.7213650598293988, -0.15748412171938542], "features": [345, 74, 206, 200, 310, 88, -2, -2, 12, -2, -2, -2, -2, 115, -2, 112, -2, -2, -2], "children_left": [1, 3, 13, 5, 7, 11, -1, -1, 9, -1, -1, -1, -1, 15, -1, 17, -1, -1, -1]}, {"children_right": [2, 18, 4, 12, 6, 10, 8, -1, -1, -1, -1, 14, 16, -1, -1, -1, -1, -1, -1], "thresholds": [-1.3718374967575073, 2.197299003601074, 0.3929157853126526, 0.6152932643890381, 1.3356244564056396, 0.9629100561141968, -0.517836332321167, -2.0, -2.0, -2.0, -2.0, -0.1852644681930542, -1.319639801979065, -2.0, -2.0, -2.0, -2.0, -2.0, -2.0], "values": [-8.5112930394146106e-05, -0.030524766076577958, 0.0012438761522583421, 0.006678601911858404, -0.0083500212696859411, -0.048264295138924156, 0.035346115442256368, -1.6578014732162409, 0.42198183393886118, -0.31684034216394907, -1.4566952775205093, 0.01418877542286839, -0.013698686802194859, -0.28519931276165489, 0.42949264273352017, -1.6212148266422286, -0.11088380104446989, -0.45574968493553247, -1.7235255332293986], "features": [88, 223, 12, 115, 346, 112, 217, -2, -2, -2, -2, 346, 199, -2, -2, -2, -2, -2, -2], "children_left": [1, 17, 3, 11, 5, 9, 7, -1, -1, -1, -1, 13, 15, -1, -1, -1, -1, -1, -1]}, {"children_right": [2, 4, 16, 10, 6, 14, 8, -1, -1, -1, 12, -1, -1, -1, -1, -1, 18, -1, -1], "thresholds": [1.6255382299423218, 1.7649147510528564, 0.5, -0.8964002132415771, 2.5570411682128906, 0.20206207036972046, 1.319639801979065, -2.0, -2.0, -2.0, 0.2463996410369873, -2.0, -2.0, -2.0, -2.0, -2.0, 0.5, -2.0, -2.0], "values": [-8.5337469707883238e-05, -0.0012578496318736555, 0.032376208799164884, -0.007759013795158142, 0.026551306045307747, 0.034557211845235976, -0.067099979985505681, -0.19243822064731037, -2.4843938901838976, 0.80221601237032758, -0.0082455677926960031, 0.012324246730356933, -0.23066518372717426, 0.45722149766290587, -0.22273086502962097, -0.21183742128350094, 0.052010294408495319, 0.11410121263895553, 1.0697747302470704], "features": [223, 1, 219, 271, 148, 193, 115, -2, -2, -2, 91, -2, -2, -2, -2, -2, 230, -2, -2], "children_left": [1, 3, 15, 9, 5, 13, 7, -1, -1, -1, 11, -1, -1, -1, -1, -1, 17, -1, -1]}, {"children_right": [2, 8, 4, 6, -1, -1, -1, 10, 16, 14, 12, -1, -1, -1, -1, -1, 18, -1, -1], "thresholds": [-0.6277608275413513, 2.1703391075134277, -2.5570411682128906, 0.5, -2.0, -2.0, -2.0, 1.21632981300354, 0.6839396953582764, 0.6077784299850464, 1.3844373226165771, -2.0, -2.0, -2.0, -2.0, -2.0, 0.5773083567619324, -2.0, -2.0], "values": [-7.2217924639236898e-05, 0.025183751827706252, -0.0065751585854559131, 0.20444169974772863, -0.086849986255120026, -1.9620560898033439, 1.3335467587551126, 0.030184602548743854, -0.075711737000232232, 0.037811723251314246, -0.13522029779595712, -1.8672157577566042, 0.72981328949448576, 0.37400546023440723, 2.183965390494004, -0.29866160215481008, -0.26846136332427978, -1.3677494059249362, -3.2316978590798935], "features": [13, 148, 205, 239, -2, -2, -2, 235, 186, 193, 259, -2, -2, -2, -2, -2, 226, -2, -2], "children_left": [1, 7, 3, 5, -1, -1, -1, 9, 15, 13, 11, -1, -1, -1, -1, -1, 17, -1, -1]}, {"children_right": [2, 6, 4, 14, -1, 8, -1, 10, 12, -1, -1, -1, -1, -1, -1], "thresholds": [0.10000000149011612, 0.5, 0.5, 0.522443950176239, -2.0, 1.7649147510528564, -2.0, 2.5, 8.5, -2.0, -2.0, -2.0, -2.0, -2.0, -2.0], "values": [-7.4585320756264314e-05, -0.0005878512559737908, 0.084080877342401841, -0.048220289176200339, 1.7574268963582929, -0.00092083493474099949, 0.71143426865407211, -0.0069091472651775839, 0.02311723474591508, 0.0020135274096069753, -0.49459753240282261, 0.40308468345815085, -0.31044032640026609, -1.1153639432111484, -0.4264254677522038], "features": [133, 294, 204, 345, -2, 1, -2, 0, 0, -2, -2, -2, -2, -2, -2], "children_left": [1, 5, 3, 13, -1, 7, -1, 9, 11, -1, -1, -1, -1, -1, -1]}, {"children_right": [2, 4, 12, -1, 6, 10, 8, -1, -1, -1, -1, -1, 14, 16, -1, -1, -1], "thresholds": [0.5773497819900513, -0.6322021484375, -0.45444005727767944, -2.0, -3.116487979888916, -0.10000000149011612, -0.8234591484069824, -2.0, -2.0, -2.0, -2.0, -2.0, 1.172603964805603, -0.2443375587463379, -2.0, -2.0, -2.0], "values": [-6.2199686888891596e-05, -0.00071031516365852965, 0.073702408637219274, 0.8550844684683786, -0.0011298403998682104, 0.22890675141994815, -0.0019362443447040697, -0.66649433861603202, 0.02375431727384605, -1.0816072632025342, 1.3015813026653071, 1.0436032415763821, 0.027061115898507043, -0.0028900168249184318, 0.96734891613103946, 0.32106117713947224, -1.1901830464202077], "features": [193, 310, 214, -2, 232, 262, 232, -2, -2, -2, -2, -2, 217, 220, -2, -2, -2], "children_left": [1, 3, 11, -1, 5, 9, 7, -1, -1, -1, -1, -1, 13, 15, -1, -1, -1]}, {"children_right": [2, 4, 12, 6, -1, 10, 8, -1, -1, -1, -1, -1, 14, 18, 16, -1, -1, -1, -1], "thresholds": [-0.5, 0.5, -1.4371843338012695, 1.5, -2.0, 0.2443375587463379, 0.22670978307724, -2.0, -2.0, -2.0, -2.0, -2.0, 0.34835925698280334, 2.5, 0.6672919392585754, -2.0, -2.0, -2.0, -2.0], "values": [-6.1130701501262575e-05, -0.011030014994154527, 0.0011297572275829303, 0.05245951878520709, -0.27345142484783747, 0.014493371571505233, 0.089713472329255625, -1.2517044100456525, 1.3344042631261754, 1.1199934208077575, -1.1527017167690217, -1.5739022558784166, 0.0014852309551646218, -0.019899056221295276, 0.024382670192763099, 0.20564656923283223, -2.4767783286844574, -0.28760201219276571, -0.87899983982154672], "features": [231, 143, 139, 0, -2, 223, 12, -2, -2, -2, -2, -2, 346, 0, 193, -2, -2, -2, -2], "children_left": [1, 3, 11, 5, -1, 9, 7, -1, -1, -1, -1, -1, 13, 17, 15, -1, -1, -1, -1]}, {"children_right": [2, 4, 12, 16, 6, 8, 10, -1, -1, -1, -1, -1, 14, -1, -1, -1, 18, -1, -1], "thresholds": [1.7366254329681396, -0.6277608275413513, 0.4373689293861389, 0.2443375587463379, -1.9375660419464111, -0.10000000149011612, -2.5570411682128906, -2.0, -2.0, -2.0, -2.0, -2.0, 0.5, -2.0, -2.0, -2.0, 0.009157819673418999, -2.0, -2.0], "values": [-7.3043795815175896e-05, 0.00089231830061719934, -0.054159934932118521, 0.025550456861283887, -0.0050942836618460673, 0.11970896692989474, -0.006811323993557045, 0.20994208637056549, 1.3059622436340452, 1.0265216508385446, -0.09173925751675796, 0.16076742875388372, -0.14632918173870538, -0.55514540812376945, -2.1183427781040165, 0.2312583903917772, 0.14568185571233352, 3.2865903614387637, -1.0906866283075278], "features": [115, 13, 345, 142, 232, 148, 205, -2, -2, -2, -2, -2, 147, -2, -2, -2, 186, -2, -2], "children_left": [1, 3, 11, 15, 5, 7, 9, -1, -1, -1, -1, -1, 13, -1, -1, -1, 17, -1, -1]}, {"children_right": [2, 12, 4, 6, 16, 10, 8, -1, -1, -1, -1, 14, -1, -1, -1, -1, 18, -1, -1], "thresholds": [-0.2463996410369873, 0.14433756470680237, 1.1754822731018066, 0.2443375587463379, 0.5, -0.2877194881439209, 2.197299003601074, -2.0, -2.0, -2.0, -2.0, -3.0427498817443848, -2.0, -2.0, -2.0, -2.0, 0.7622983455657959, -2.0, -2.0], "values": [-7.4195412255641114e-05, -0.072759147945890001, 0.00078008822456537201, 0.003210429327750561, -0.021583621901779357, -0.0035389052738657506, 0.015190453540911046, 0.21928930245815992, -0.75953153029369891, 0.22358047359272404, -0.087217540231317822, -0.15196557586623141, -1.2342895058279402, -1.0055831314891126, -1.3381878658037434, -0.23422992605448209, -0.030468295919650456, -0.62310160916350377, 0.38649533199386765], "features": [325, 181, 235, 229, 89, 277, 109, -2, -2, -2, -2, 226, -2, -2, -2, -2, 181, -2, -2], "children_left": [1, 11, 3, 5, 15, 9, 7, -1, -1, -1, -1, 13, -1, -1, -1, -1, 17, -1, -1]}, {"children_right": [2, 6, 4, 14, 18, 8, -1, 10, 12, -1, -1, -1, -1, -1, 16, -1, -1, -1, -1], "thresholds": [1.5, 0.9629100561141968, 0.5, -0.10000000149011612, 0.5, -1.802627444267273, -2.0, 0.5, 0.523861289024353, -2.0, -2.0, -2.0, -2.0, -2.0, 0.5, -2.0, -2.0, -2.0, -2.0], "values": [-6.8677095143571603e-05, -0.0059089086138666043, 0.0074155137948926997, -0.0050690097330821004, 0.029466918728224836, -0.0082505741786463704, 0.61848445616604297, 0.101858153551199, -0.011446753310714358, 2.7338972750607407, 1.3174180527228656, -0.022416121832663755, -0.87427692240522326, -1.3483043423927104, -0.0036633414224206589, 0.32554974082248855, -0.1628309024015438, 0.16458103137943222, 0.62026733977547477], "features": [0, 70, 149, 106, 240, 199, -2, 128, 241, -2, -2, -2, -2, -2, 111, -2, -2, -2, -2], "children_left": [1, 5, 3, 13, 17, 7, -1, 9, 11, -1, -1, -1, -1, -1, 15, -1, -1, -1, -1]}, {"children_right": [2, 16, 4, 8, 6, 14, -1, 12, 10, -1, -1, -1, -1, -1, -1, 18, -1, -1, -1], "thresholds": [-0.71735680103302, -1.9375660419464111, 2.5460972785949707, 0.019033832475543022, 0.3652160167694092, -0.32491636276245117, -2.0, 1.7366254329681396, 0.5, -2.0, -2.0, -2.0, -2.0, -2.0, -2.0, -0.14433756470680237, -2.0, -2.0, -2.0], "values": [-8.3101095461299675e-05, 0.045037875820520122, -0.0031127836253740603, -0.012760269424559894, 0.050315855517191643, 0.11219397732164645, 0.5806426792205176, 0.0021007976063440416, -0.025477593977697371, -0.13396215059188921, -0.57497407062760952, -0.0082704443958740298, 1.1778550498641351, -0.85806936334081052, 1.0687410778048083, 0.20408601581652394, 0.32130144476141409, -1.2384883067972376, 2.0001971916165471], "features": [214, 241, 346, 12, 112, 148, -2, 112, 116, -2, -2, -2, -2, -2, -2, 109, -2, -2, -2], "children_left": [1, 15, 3, 7, 5, 13, -1, 11, 9, -1, -1, -1, -1, -1, -1, 17, -1, -1, -1]}, {"children_right": [2, 4, 10, 6, 8, -1, -1, -1, -1, 18, 12, 14, 16, -1, -1, -1, -1, -1, -1], "thresholds": [-0.20206207036972046, -1.0125207901000977, -0.10000000149011612, 0.5, -0.10000000149011612, -2.0, -2.0, -2.0, -2.0, 2.5, 0.5844888687133789, 1.3844373226165771, -0.7838307619094849, -2.0, -2.0, -2.0, -2.0, -2.0, -2.0], "values": [-5.8528291623756189e-05, -0.055565510324120534, 0.00081189884058413596, -0.18618225240902697, -0.036286197584449474, -1.0171118383647719, -3.5009561234008428, -1.2728951432673559, -0.3524338976124331, -0.10077400976292175, 0.0010972669271467758, 0.00068381381039701492, 0.1631375594835546, -0.00422588350276034, 0.74615318212004378, 1.3963013568820031, -1.1357307433340054, -1.1091482037492768, -1.2486216427644756], "features": [325, 187, 85, 111, 319, -2, -2, -2, -2, 0, 324, 211, 346, -2, -2, -2, -2, -2, -2], "children_left": [1, 3, 9, 5, 7, -1, -1, -1, -1, 17, 11, 13, 15, -1, -1, -1, -1, -1, -1]}, {"children_right": [2, 4, 8, 6, 14, 10, 16, -1, 12, -1, -1, 18, -1, -1, -1, -1, -1, -1, -1], "thresholds": [0.9103841185569763, 0.9037187099456787, 0.024647338315844536, 1.1754822731018066, 0.01522862259298563, 0.9629100561141968, 0.3313344717025757, -2.0, 0.5, -2.0, -2.0, 0.5, -2.0, -2.0, -2.0, -2.0, -2.0, -2.0, -2.0], "values": [-5.4584841302647811e-05, -0.0080758602403450865, 0.037427565838236969, -0.006886397603806587, -0.50029027471217846, -0.0031345572386820893, -0.06026665242026915, 1.5204928723474036, 0.031281584294831549, -0.078939272933255353, 0.37421866536664145, 0.0064640099670051571, 0.5384277624104028, -1.4266123998618596, -4.7114303285990111, -1.1595181346633388, -0.47354783360228087, 0.35061125523535613, -0.68242194287024383], "features": [345, 345, 12, 229, 1, 235, 181, -2, 149, -2, -2, 89, -2, -2, -2, -2, -2, -2, -2], "children_left": [1, 3, 7, 5, 13, 9, 15, -1, 11, -1, -1, 17, -1, -1, -1, -1, -1, -1, -1]}, {"children_right": [2, 8, 4, 12, 6, 10, -1, -1, 18, -1, -1, 14, 16, -1, -1, -1, -1, -1, -1], "thresholds": [-0.817861795425415, -1.9375660419464111, 0.9803844690322876, -0.517836332321167, 0.5, -0.5773497819900513, -2.0, -2.0, 0.5, -2.0, -2.0, -0.9281743764877319, 0.5, -2.0, -2.0, -2.0, -2.0, -2.0, -2.0], "values": [-3.4306748887898593e-05, -0.023071417178779544, 0.0014930253027719714, 0.0092348990374312573, -0.023414725705471179, -0.022054189653006564, -1.835326959436701, 0.93014588890485372, -0.029624132195933843, -0.79251067558631116, -0.15173320687823835, 0.023858735403944318, 0.0043223244594745832, 1.8763888816966245, 0.25180378982585333, -1.6510308068340991, 