/// The weights of individual elements of the FV.  These weights
// are output by data/ml/answer-train-gradboost.py as this:
//
// 266 answersets, 6191 answers
// + Cross-validation:
// (test) PERANS acc/prec/rcl/F1 = 0.976/0.677/0.850/0.753, @70 prec/rcl/F1 = 0.727/0.782/0.754, PERQ avail 1.000, any good = [0.916] MRR 0.895
// (test) PERANS acc/prec/rcl/F1 = 0.973/0.655/0.827/0.731, @70 prec/rcl/F1 = 0.697/0.759/0.727, PERQ avail 1.000, any good = [0.918] MRR 0.877
// (test) PERANS acc/prec/rcl/F1 = 0.977/0.690/0.820/0.749, @70 prec/rcl/F1 = 0.746/0.774/0.760, PERQ avail 1.000, any good = [0.924] MRR 0.885
// (test) PERANS acc/prec/rcl/F1 = 0.976/0.679/0.842/0.752, @70 prec/rcl/F1 = 0.780/0.774/0.777, PERQ avail 1.000, any good = [0.947] MRR 0.904
// (test) PERANS acc/prec/rcl/F1 = 0.976/0.683/0.827/0.748, @70 prec/rcl/F1 = 0.738/0.782/0.759, PERQ avail 1.000, any good = [0.927] MRR 0.890
// (test) PERANS acc/prec/rcl/F1 = 0.976/0.667/0.857/0.750, @70 prec/rcl/F1 = 0.722/0.820/0.768, PERQ avail 1.000, any good = [0.919] MRR 0.875
// (test) PERANS acc/prec/rcl/F1 = 0.976/0.675/0.842/0.749, @70 prec/rcl/F1 = 0.712/0.782/0.746, PERQ avail 1.000, any good = [0.931] MRR 0.887
// (test) PERANS acc/prec/rcl/F1 = 0.974/0.655/0.842/0.737, @70 prec/rcl/F1 = 0.734/0.767/0.750, PERQ avail 1.000, any good = [0.907] MRR 0.905
// (test) PERANS acc/prec/rcl/F1 = 0.973/0.633/0.857/0.728, @70 prec/rcl/F1 = 0.696/0.774/0.733, PERQ avail 1.000, any good = [0.942] MRR 0.924
// (test) PERANS acc/prec/rcl/F1 = 0.974/0.665/0.805/0.728, @70 prec/rcl/F1 = 0.803/0.737/0.769, PERQ avail 1.000, any good = [0.920] MRR 0.899
// (mean) PERANS acc/prec/rcl/F1 = 0.975/0.668/0.837/0.743, @70 prec/rcl/F1 = 0.736/0.775/0.754, PERQ avail 1.000, any good = [0.925] MRR 0.894
// (S.D.) PERANS acc/prec/rcl/F1 = 0.001/0.016/0.016/0.010, @70 prec/rcl/F1 = 0.033/0.020/0.015, PERQ avail 0.000, any good = [0.012] MRR 0.014
// + Full training set:
// training took 3 seconds
// (full) PERANS acc/prec/rcl/F1 = 0.972/0.609/0.977/0.750, @70 prec/rcl/F1 = 0.783/0.925/0.848, PERQ avail 1.000, any good = [0.934] MRR 0.968
// Full model is GradientBoostingClassifier(init=None, learning_rate=0.1, loss='deviance',               max_depth=3, max_features='sqrt', max_leaf_nodes=10,               min_samples_leaf=5, min_samples_split=10,               min_weight_fraction_leaf=0.0, n_estimators=200,               random_state=None, subsample=1.0, verbose=0,               warm_start=False)
//
{"prior": -0.64923124304404511, "learning_rate": 0.1, "labels": ["@occurences", "%occurences", "!occurences", "@resultRR", "%resultRR", "!resultRR", "@resultLogScore", "%resultLogScore", "!resultLogScore", "@passageLogScore", "%passageLogScore", "!passageLogScore", "@propertyScore", "%propertyScore", "!propertyScore", "@originPsg", "%originPsg", "!originPsg", "@originPsgFirst", "%originPsgFirst", "!originPsgFirst", "@originPsgByClueToken", "%originPsgByClueToken", "!originPsgByClueToken", "@originPsgByCluePhrase", "%originPsgByCluePhrase", "!originPsgByCluePhrase", "@originPsgByClueSV", "%originPsgByClueSV", "!originPsgByClueSV", "@originPsgByClueNE", "%originPsgByClueNE", "!originPsgByClueNE", "@originPsgByClueLAT", "%originPsgByClueLAT", "!originPsgByClueLAT", "@originPsgByClueSubject", "%originPsgByClueSubject", "!originPsgByClueSubject", "@originPsgByClueSubjectToken", "%originPsgByClueSubjectToken", "!originPsgByClueSubjectToken", "@originPsgByClueSubjectPhrase", "%originPsgByClueSubjectPhrase", "!originPsgByClueSubjectPhrase", "@originPsgByClueConcept", "%originPsgByClueConcept", "!originPsgByClueConcept", "@originPsgByConceptRR", "%originPsgByConceptRR", "!originPsgByConceptRR", "@originPsgByConceptScore", "%originPsgByConceptScore", "!originPsgByConceptScore", "@originPsgNP", "%originPsgNP", "!originPsgNP", "@originPsgNE", "%originPsgNE", "!originPsgNE", "@originPsgNPByLATSubj", "%originPsgNPByLATSubj", "!originPsgNPByLATSubj", "@originPsgBIO", "%originPsgBIO", "!originPsgBIO", "@originPsgSurprise", "%originPsgSurprise", "!originPsgSurprise", "@originDocTitle", "%originDocTitle", "!originDocTitle", "@originBingSnippet", "%originBingSnippet", "!originBingSnippet", "@originDBpOntology", "%originDBpOntology", "!originDBpOntology", "@originDBpONoClue", "%originDBpONoClue", "!originDBpONoClue", "@originDBpOClueLAT", "%originDBpOClueLAT", "!originDBpOClueLAT", "@originDBpOClueSubject", "%originDBpOClueSubject", "!originDBpOClueSubject", "@originDBpOClueSubjectToken", "%originDBpOClueSubjectToken", "!originDBpOClueSubjectToken", "@originDBpOClueConcept", "%originDBpOClueConcept", "!originDBpOClueConcept", "@originDBpOConceptRR", "%originDBpOConceptRR", "!originDBpOConceptRR", "@originDBpOConceptScore", "%originDBpOConceptScore", "!originDBpOConceptScore", "@originDBpProperty", "%originDBpProperty", "!originDBpProperty", "@originDBpPNoClue", "%originDBpPNoClue", "!originDBpPNoClue", "@originDBpPClueToken", "%originDBpPClueToken", "!originDBpPClueToken", "@originDBpPClueLAT", "%originDBpPClueLAT", "!originDBpPClueLAT", "@originDBpPClueSubject", "%originDBpPClueSubject", "!originDBpPClueSubject", "@originDBpPClueSubjectToken", "%originDBpPClueSubjectToken", "!originDBpPClueSubjectToken", "@originDBpPClueConcept", "%originDBpPClueConcept", "!originDBpPClueConcept", "@originDBpPConceptRR", "%originDBpPConceptRR", "!originDBpPConceptRR", "@originDBpPConceptScore", "%originDBpPConceptScore", "!originDBpPConceptScore", "@originFreebaseOntology", "%originFreebaseOntology", "!originFreebaseOntology", "@originFreebaseSpecific", "%originFreebaseSpecific", "!originFreebaseSpecific", "@originFBONoClue", "%originFBONoClue", "!originFBONoClue", "@originFBOClueToken", "%originFBOClueToken", "!originFBOClueToken", "@originFBOClueSV", "%originFBOClueSV", "!originFBOClueSV", "@originFBOClueLAT", "%originFBOClueLAT", "!originFBOClueLAT", "@originFBOClueSubject", "%originFBOClueSubject", "!originFBOClueSubject", "@originFBOClueSubjectToken", "%originFBOClueSubjectToken", "!originFBOClueSubjectToken", "@originFBOClueConcept", "%originFBOClueConcept", "!originFBOClueConcept", "@originFBOConceptRR", "%originFBOConceptRR", "!originFBOConceptRR", "@originFBOConceptScore", "%originFBOConceptScore", "!originFBOConceptScore", "@originConcept", "%originConcept", "!originConcept", "@originConceptBySubject", "%originConceptBySubject", "!originConceptBySubject", "@originConceptByLAT", "%originConceptByLAT", "!originConceptByLAT", "@originConceptByNE", "%originConceptByNE", "!originConceptByNE", "@originConceptRR", "%originConceptRR", "!originConceptRR", "@originConceptScore", "%originConceptScore", "!originConceptScore", "@originMultiple", "%originMultiple", "!originMultiple", "@psgDistClueToken", "%psgDistClueToken", "!psgDistClueToken", "@psgDistCluePhrase", "%psgDistCluePhrase", "!psgDistCluePhrase", "@psgDistClueSV", "%psgDistClueSV", "!psgDistClueSV", "@psgDistClueNE", "%psgDistClueNE", "!psgDistClueNE", "@psgDistClueLAT", "%psgDistClueLAT", "!psgDistClueLAT", "@psgDistClueSubject", "%psgDistClueSubject", "!psgDistClueSubject", "@psgDistClueSubjectToken", "%psgDistClueSubjectToken", "!psgDistClueSubjectToken", "@psgDistClueSubjectPhrase", "%psgDistClueSubjectPhrase", "!psgDistClueSubjectPhrase", "@psgDistClueConcept", "%psgDistClueConcept", "!psgDistClueConcept", "@psgDistConceptRR", "%psgDistConceptRR", "!psgDistConceptRR", "@psgDistConceptScore", "%psgDistConceptScore", "!psgDistConceptScore", "@bioScore", "%bioScore", "!bioScore", "@noTyCor", "%noTyCor", "!noTyCor", "@LATANone", "%LATANone", "!LATANone", "@spWordNet", "%spWordNet", "!spWordNet", "@LATQNoWordNet", "%LATQNoWordNet", "!LATQNoWordNet", "@LATANoWordNet", "%LATANoWordNet", "!LATANoWordNet", "@simpleScore", "%simpleScore", "!simpleScore", "@LATNE", "%LATNE", "!LATNE", "@LATDBpType", "%LATDBpType", "!LATDBpType", "@LATDBpWNType", "%LATDBpWNType", "!LATDBpWNType", "@LATQuantity", "%LATQuantity", "!LATQuantity", "@LATQuantityCD", "%LATQuantityCD", "!LATQuantityCD", "@LATWnInstance", "%LATWnInstance", "!LATWnInstance", "@LATDBpOntology", "%LATDBpOntology", "!LATDBpOntology", "@LATDBpProperty", "%LATDBpProperty", "!LATDBpProperty", "@LATFBOntology", "%LATFBOntology", "!LATFBOntology", "@tyCorSpQHit", "%tyCorSpQHit", "!tyCorSpQHit", "@tyCorSpAHit", "%tyCorSpAHit", "!tyCorSpAHit", "@tyCorSpNoHit", "%tyCorSpNoHit", "!tyCorSpNoHit", "@tyCorSpQAHit", "%tyCorSpQAHit", "!tyCorSpQAHit", "@tyCorSpMultiHit", "%tyCorSpMultiHit", "!tyCorSpMultiHit", "@tyCorANE", "%tyCorANE", "!tyCorANE", "@tyCorADBp", "%tyCorADBp", "!tyCorADBp", "@tyCorAQuantityCD", "%tyCorAQuantityCD", "!tyCorAQuantityCD", "@tyCorAWnInstance", "%tyCorAWnInstance", "!tyCorAWnInstance", "@tyCorADBpOntology", "%tyCorADBpOntology", "!tyCorADBpOntology", "@tyCorADBpProperty", "%tyCorADBpProperty", "!tyCorADBpProperty", "@tyCorAFBOntology", "%tyCorAFBOntology", "!tyCorAFBOntology", "@clOCMatchScore", "%clOCMatchScore", "!clOCMatchScore", "@clOCPrefixedScore", "%clOCPrefixedScore", "!clOCPrefixedScore", "@clOCPrefixingScore", "%clOCPrefixingScore", "!clOCPrefixingScore", "@clOCSuffixedScore", "%clOCSuffixedScore", "!clOCSuffixedScore", "@clOCSuffixingScore", "%clOCSuffixingScore", "!clOCSuffixingScore", "@clOCSubstredScore", "%clOCSubstredScore", "!clOCSubstredScore", "@clOCSubstringScore", "%clOCSubstringScore", "!clOCSubstringScore", "@clOCMetaMatchScore", "%clOCMetaMatchScore", "!clOCMetaMatchScore", "@clOMatchScore", "%clOMatchScore", "!clOMatchScore", "@clOPrefixedScore", "%clOPrefixedScore", "!clOPrefixedScore", "@clOPrefixingScore", "%clOPrefixingScore", "!clOPrefixingScore", "@clOSuffixedScore", "%clOSuffixedScore", "!clOSuffixedScore", "@clOSuffixingScore", "%clOSuffixingScore", "!clOSuffixingScore", "@clOSubstredScore", "%clOSubstredScore", "!clOSubstredScore", "@clOSubstringScore", "%clOSubstringScore", "!clOSubstringScore", "@clOMetaMatchScore", "%clOMetaMatchScore", "!clOMetaMatchScore", "@evdPrefixedScore", "%evdPrefixedScore", "!evdPrefixedScore", "@evdPrefixingScore", "%evdPrefixingScore", "!evdPrefixingScore", "@evdSuffixedScore", "%evdSuffixedScore", "!evdSuffixedScore", "@evdSuffixingScore", "%evdSuffixingScore", "!evdSuffixingScore", "@evdSubstredScore", "%evdSubstredScore", "!evdSubstredScore", "@evdSubstringScore", "%evdSubstringScore", "!evdSubstringScore", "@topAnswer", "%topAnswer", "!topAnswer", "@solrHitsEv", "%solrHitsEv", "!solrHitsEv", "@solrAHitsEv", "%solrAHitsEv", "!solrAHitsEv", "@solrHitsANormEv", "%solrHitsANormEv", "!solrHitsANormEv", "@solrMaxScoreEv", "%solrMaxScoreEv", "!solrMaxScoreEv", "@solrHitsMaxScoreEv", "%solrHitsMaxScoreEv", "!solrHitsMaxScoreEv", "@phase0Score", "%phase0Score", "!phase0Score", "@phase1Score", "%phase1Score", "!phase1Score"], "forest": [{"children_right": [2, 16, 4, 6, 10, 8, 12, -1, -1, -1, 14, -1, -1, -1, -1, 18, -1, -1, -1], "thresholds": [0.5847643613815308, 0.5, -0.5, 0.5, -0.8234591484069824, -0.27219659090042114, 0.03405135124921799, -2.0, -2.0, -2.0, -0.32897478342056274, -2.0, -2.0, -2.0, -2.0, 2.1180262565612793, -2.0, -2.0, -2.0], "values": [-9.0449853200712895e-17, -0.26648028119980477, 0.33259816562195443, 0.18428778237686286, 0.54945233145658301, 0.15508429355494729, 0.38390708083430991, -0.0026395787703874778, 1.1337304277082081, -1.5224472573839662, 0.55663012532942113, -1.5224472573839665, 1.8128861937956491, -1.5224472573839662, 2.484369286266352, -0.26256973748495527, -1.5224472573839662, -1.2063883069396304, -0.17222599466586619], "features": [381, 312, 132, 276, 253, 223, 222, -2, -2, -2, 109, -2, -2, -2, -2, 1, -2, -2, -2], "children_left": [1, 15, 3, 5, 9, 7, 11, -1, -1, -1, 13, -1, -1, -1, -1, 17, -1, -1, -1]}, {"children_right": [2, 6, 4, 14, 10, 8, 12, -1, 18, -1, -1, -1, -1, -1, 16, -1, -1, -1, -1], "thresholds": [0.5, 1.6255382299423218, 0.10000000149011612, -0.45746946334838867, 2.8157730102539062, 0.06604127585887909, 0.5, -2.0, 0.10000000149011612, -2.0, -2.0, -2.0, -2.0, -2.0, 1.6309680938720703, -2.0, -2.0, -2.0, -2.0], "values": [-0.00074439280126952607, 0.2145692609079913, -0.085363535899940612, -0.025423200834547105, -0.27958216438360106, 0.15172238462682061, 0.44689678541759253, -0.23840408858355625, 0.38395562788614096, -1.3925798381570298, 2.6561303901085864, 2.0784016337921187, -0.38410457828777406, -1.1543033722782308, -0.017758655121298008, -0.20144788108787104, 1.7768349672046526, 1.0023361997374094, 1.8296327753613353], "features": [179, 241, 256, 172, 382, 12, 131, -2, 100, -2, -2, -2, -2, -2, 13, -2, -2, -2, -2], "children_left": [1, 5, 3, 13, 9, 7, 11, -1, 17, -1, -1, -1, -1, -1, 15, -1, -1, -1, -1]}, {"children_right": [2, 6, 4, -1, 12, 8, 10, 18, -1, 14, 16, -1, -1, -1, -1, -1, -1, -1, -1], "thresholds": [0.5, 0.6152932643890381, 0.7284361124038696, -2.0, 2.1325533390045166, 0.9873629808425903, -0.4629100561141968, 4.7916412353515625, -2.0, -0.2443375587463379, -0.517836332321167, -2.0, -2.0, -2.0, -2.0, -2.0, -2.0, -2.0, -2.0], "values": [-0.0009757850764140711, 0.09075437938030835, -0.17428978813672341, -1.4070380510270484, 0.50810990015070956, 0.053013711732190855, 0.28807659668421765, -0.22662856567933001, 1.7306518791369996, -0.12368954701015208, 0.36860245047307216, 1.0917903253128458, 2.5804400579101752, -1.5343189171015776, 0.67900565553368986, 0.5174477688289929, 1.7380658235900912, -1.2448861217156364, -0.87573424184498783], "features": [14, 217, 385, -2, 385, 382, 268, 174, -2, 1, 100, -2, -2, -2, -2, -2, -2, -2, -2], "children_left": [1, 5, 3, -1, 11, 7, 9, 17, -1, 13, 15, -1, -1, -1, -1, -1, -1, -1, -1]}, {"children_right": [2, 4, 12, -1, 6, 10, 8, -1, -1, -1, -1, 18, 14, -1, 16, -1, -1, -1, -1], "thresholds": [0.47691673040390015, 0.14922261238098145, 0.5, -2.0, 1.5, 0.8581947684288025, -0.12893806397914886, -2.0, -2.0, -2.0, -2.0, -0.5217064023017883, -0.20206207036972046, -2.0, 0.8713770508766174, -2.0, -2.0, -2.0, -2.0], "values": [-0.0015383613573506487, -0.26748501063512486, 0.49034532299293476, -1.4098143413250617, -0.12668593022005717, -0.049254580740474709, -0.31510219135003997, 0.62096837477927525, -1.6232104767253848, -0.081771044590346703, -1.6768270855239833, 0.52674231637149893, 0.47509349229816816, 2.2005222995464297, 0.4599589330088813, 1.7364619134393493, 1.9202745990954178, 1.5728756491993439, 2.2313911379876252], "features": [384, 384, 261, -2, 0, 130, 1, -2, -2, -2, -2, 286, 256, -2, 178, -2, -2, -2, -2], "children_left": [1, 3, 11, -1, 5, 9, 7, -1, -1, -1, -1, 17, 13, -1, 15, -1, -1, -1, -1]}, {"children_right": [2, 10, 4, -1, 6, 8, 12, -1, -1, -1, 14, -1, -1, 16, 18, -1, -1, -1, -1], "thresholds": [0.06611847877502441, 0.5, 0.5, -2.0, 0.6368218660354614, 0.8596377968788147, -0.4629100561141968, -2.0, -2.0, -2.0, 0.5, -2.0, -2.0, 0.5866961479187012, 0.4911341071128845, -2.0, -2.0, -2.0, -2.0], "values": [-0.0020721653486535357, -0.13768404845017101, 0.12739413610218872, 1.3136495995351181, 0.044892790351058184, 0.01261482771361596, 0.22938561886849987, -0.37885981040692807, 1.2869923644255521, -0.20363887555387875, -0.17182676039348255, -0.26629081698509849, 1.3405548040037323, -0.19645093792249219, -0.105962116475324, -1.2266817684356828, 1.1866138224697149, -0.98532084877065529, 0.60661619272114831], "features": [12, 179, 179, -2, 217, 381, 268, -2, -2, -2, 240, -2, -2, 381, 381, -2, -2, -2, -2], "children_left": [1, 9, 3, -1, 5, 7, 11, -1, -1, -1, 13, -1, -1, 15, 17, -1, -1, -1, -1]}, {"children_right": [2, 4, 6, 10, 12, 8, 16, -1, -1, -1, -1, -1, 14, -1, -1, 18, -1, -1, -1], "thresholds": [0.5, 1.7661212682724, 1.2049963474273682, 0.8523674011230469, 0.5, 0.7284361124038696, 0.24397501349449158, -2.0, -2.0, -2.0, -2.0, -2.0, 2.8016610145568848, -2.0, -2.0, -0.10000000149011612, -2.0, -2.0, -2.0], "values": [-0.002097639305940222, 0.064799779378519898, -0.12849291500694743, -0.22391859143110007, 0.43417410730981948, -0.1958085665958465, 0.3359546326857486, -1.2707294331742784, 1.5710394304456696, -1.2279891126169691, -0.62237551680786141, 1.9351439756015738, 0.39830717306781344, 0.76810781404984851, 1.7282470678794153, 0.25457586730406828, 1.710312621105385, -1.4528355749281729, 1.2015674232304585], "features": [14, 385, 382, 382, 177, 385, 127, -2, -2, -2, -2, -2, 385, -2, -2, 355, -2, -2, -2], "children_left": [1, 3, 5, 9, 11, 7, 15, -1, -1, -1, -1, -1, 13, -1, -1, 17, -1, -1, -1]}, {"children_right": [2, 4, 12, -1, 6, 8, 10, -1, -1, -1, -1, 14, 16, -1, -1, -1, 18, -1, -1], "thresholds": [0.5, 0.5, 0.7067787051200867, -2.0, -0.36956101655960083, -0.2854565978050232, 1.5737545490264893, -2.0, -2.0, -2.0, -2.0, 0.9705169200897217, -0.2443375587463379, -2.0, -2.0, -2.0, -0.43141859769821167, -2.0, -2.0], "values": [-0.0022852951021581193, 0.058068279829682247, -0.11631670159083436, 0.80246830691818116, -0.0016357354576394757, -0.073455665835971504, 0.024376102708489653, 2.0512751038671508, -0.48760909138239794, 0.045371815098500259, 1.1224040637657191, -0.14388105282943664, -0.049983539958538735, -1.1645263082102957, 1.0100252806115197, -0.82014548331376669, 0.011854436550201056, -1.2653990369149593, 0.30363855451166372], "features": [131, 179, 175, -2, 178, 346, 262, -2, -2, -2, -2, 382, 271, -2, -2, -2, 76, -2, -2], "children_left": [1, 3, 11, -1, 5, 7, 9, -1, -1, -1, -1, 13, 15, -1, -1, -1, 17, -1, -1]}, {"children_right": [2, 4, 6, 10, 14, 18, 8, -1, -1, 12, -1, -1, -1, -1, 16, -1, -1, -1, -1], "thresholds": [1.6653798818588257, 0.47691673040390015, 0.945224404335022, 0.5, 0.5, 0.5, 0.5, -2.0, -2.0, 0.10000000149011612, -2.0, -2.0, -2.0, -2.0, 0.7590881586074829, -2.0, -2.0, -2.0, -2.0], "values": [-0.0022212596221317482, -0.015349820068444004, 0.21178525635080295, -0.20221721859662406, 0.36883601837513613, -0.24878388340856686, 0.32792552425870486, -1.3943288907726645, 1.4209972718423383, -0.21718410301677402, -1.1223551151417583, -1.1312258812048714, -1.4036624771867487, 1.4215162061964646, 0.39348088692646882, 1.7252231183360665, 1.4927510576468743, -1.2474880376058197, -1.5413983571299057], "features": [265, 384, 382, 260, 272, 129, 258, -2, -2, 133, -2, -2, -2, -2, 130, -2, -2, -2, -2], "children_left": [1, 3, 5, 9, 13, 17, 7, -1, -1, 11, -1, -1, -1, -1, 15, -1, -1, -1, -1]}, {"children_right": [2, 4, 10, 6, -1, 14, 8, -1, -1, -1, 12, 16, 18, -1, -1, -1, -1, -1, -1], "thresholds": [0.5, 0.5, -0.10000000149011612, -0.517836332321167, -2.0, 1.0604782104492188, 0.5773083567619324, -2.0, -2.0, -2.0, 0.5469056963920593, 0.32491636276245117, 1.21632981300354, -2.0, -2.0, -2.0, -2.0, -2.0, -2.0], "values": [-0.0022762874816245359, 0.030833340372500115, -0.11208020342028499, -0.0097772083735746407, 0.69441964044828863, -0.051621406103433513, 0.012976751432072303, -0.1045115514949789, 0.57888308957524293, -1.1287811195079338, -0.073851735674049818, -0.0038192428700552111, -0.15308234522626599, -0.33627082018769344, 0.72276486360649017, 0.10521173431535592, -1.2024227374841803, -1.2198984283074832, 0.016005978784220175], "features": [260, 99, 265, 256, -2, 217, 274, -2, -2, -2, 223, 268, 241, -2, -2, -2, -2, -2, -2], "children_left": [1, 3, 9, 5, -1, 13, 7, -1, -1, -1, 11, 15, 17, -1, -1, -1, -1, -1, -1]}, {"children_right": [2, 8, 4, 16, 6, -1, -1, -1, 10, 12, 14, -1, -1, -1, -1, -1, 18, -1, -1], "thresholds": [1.7508808374404907, -0.10000000149011612, 0.7408416867256165, 0.5485658645629883, 0.5, -2.0, -2.0, -2.0, 1.21632981300354, 0.9152103662490845, 0.8785276412963867, -2.0, -2.0, -2.0, -2.0, -2.0, 0.45717573165893555, -2.0, -2.0], "values": [-0.0021485709266178075, -0.16880667888230977, 0.3389183532512095, 0.38322789104635252, 0.3117674126020889, 1.4658757795334403, 1.3122348787858606, 0.26047066340527736, -0.17006759301312835, -0.16394700786071678, -0.22355561010424224, -1.0472915439488828, -0.41042150339343636, -1.2345637686688422, -1.7225158857587597, 1.8694306997929395, 0.36535975165704548, 1.5635992981144304, 1.1574945485044723], "features": [385, 319, 13, 381, 134, -2, -2, -2, 241, 12, 381, -2, -2, -2, -2, -2, 256, -2, -2], "children_left": [1, 7, 3, 15, 5, -1, -1, -1, 9, 11, 13, -1, -1, -1, -1, -1, 17, -1, -1]}, {"children_right": [2, 14, 4, 6, 10, 12, 8, -1, -1, -1, -1, -1, -1, 16, 18, -1, -1, -1, -1], "thresholds": [0.7476863861083984, -0.10000000149011612, 0.7388034462928772, 0.5, 0.10000000149011612, 0.9577880501747131, 0.5634610652923584, -2.0, -2.0, -2.0, -2.0, -2.0, -2.0, 0.3313344717025757, 0.8910844326019287, -2.0, -2.0, -2.0, -2.0], "values": [-0.0020937877929661482, -0.17197553761185638, 0.27400837380060827, 0.30035300445406554, 0.24565791783025132, 0.32148637423750914, 0.25114957088273182, -1.666964246247217, 1.3453492674303535, 1.1212164379021421, -1.5587511040685273, 1.5761557874295973, 1.276845216081129, -0.15793640128088485, -0.182374198983066, -1.0563345106898463, -1.2465308348069255, -1.13347613273284, -1.3728834864569297], "features": [385, 295, 241, 255, 166, 382, 384, -2, -2, -2, -2, -2, -2, 103, 265, -2, -2, -2, -2], "children_left": [1, 13, 3, 5, 9, 11, 7, -1, -1, -1, -1, -1, -1, 15, 17, -1, -1, -1, -1]}, {"children_right": [2, 4, 6, -1, 8, 12, 14, 10, -1, -1, -1, -1, -1, 16, 18, -1, -1, -1, -1], "thresholds": [0.560719907283783, 0.41732487082481384, 0.5, -2.0, 0.5, -0.9281743764877319, 0.5, 0.6669069528579712, -2.0, -2.0, -2.0, -2.0, -2.0, 0.585050106048584, 0.7394112348556519, -2.0, -2.0, -2.0, -2.0], "values": [-0.0021202945796732703, -0.14321412292532273, 0.28390115056373261, -0.88307894178335467, -0.17934819349386538, 0.31322618615232933, 0.26012655252599604, -0.22606774756351486, -1.126563184852726, -1.2813350150393923, -1.5379878380129282, 1.6039148930037213, 1.3069866251202726, 0.2526809381244039, 0.32479067333623357, 1.4148153259833838, 1.1924603261845854, 0.70631613888402989, 1.5677837323597963], "features": [384, 259, 134, -2, 179, 256, 260, 13, -2, -2, -2, -2, -2, 13, 384, -2, -2, -2, -2], "children_left": [1, 3, 5, -1, 7, 11, 13, 9, -1, -1, -1, -1, -1, 15, 17, -1, -1, -1, -1]}, {"children_right": [2, 4, 12, 6, -1, 8, 10, -1, -1, -1, -1, -1, 14, 18, 16, -1, -1, -1, -1], "thresholds": [0.5, 0.7692046761512756, -0.10000000149011612, 0.14922261238098145, -2.0, 0.003763365326449275, -0.10000000149011612, -2.0, -2.0, -2.0, -2.0, -2.0, 1.4098727703094482, 0.3937795162200928, -0.4181988537311554, -2.0, -2.0, -2.0, -2.0], "values": [-0.0019901642039122668, -0.028139209556007856, 0.06454615712474869, -0.13468350185671549, 1.1046520890872724, -0.14476432925880015, -0.031190122216531061, -1.1417268018595113, -1.207293401657823, -1.3137149526815233, -0.099486243693342025, -1.2739071209238129, 0.065894678800370601, -0.13776894916028551, 0.19425104465343943, 1.3326557636626548, 0.95975694237649201, -0.64777418513400142, -1.141277076658384], "features": [177, 385, 97, 384, -2, 12, 286, -2, -2, -2, -2, -2, 382, 133, 130, -2, -2, -2, -2], "children_left": [1, 3, 11, 5, -1, 7, 9, -1, -1, -1, -1, -1, 13, 17, 15, -1, -1, -1, -1]}, {"children_right": [2, 4, 6, 12, 8, 10, -1, -1, 16, 18, -1, -1, 14, -1, -1, -1, -1, -1, -1], "thresholds": [0.5, 2.5, -0.32491636276245117, 0.8655476570129395, 0.35137510299682617, 0.8323435187339783, -2.0, -2.0, 1.4371843338012695, 1.9375660419464111, -2.0, -2.0, 0.10000000149011612, -2.0, -2.0, -2.0, -2.0, -2.0, -2.0], "values": [-0.0019853963195329404, -0.028792139576204391, 0.016997574089979213, -0.059841162628237209, 0.12159992422333292, -0.057835680257245406, 0.33807444066809494, -1.1921964796638944, 0.20502427171127985, -0.081210649599142842, 1.0379191463176316, -0.59235684108289244, 0.1222856732653065, 1.0421045106951192, 0.12397001889299973, 1.127092879128456, 0.55492621254983765, -0.71089748120558116, 0.95220534911521437], "features": [261, 0, 178, 381, 382, 381, -2, -2, 178, 259, -2, -2, 217, -2, -2, -2, -2, -2, -2], "children_left": [1, 3, 5, 11, 7, 9, -1, -1, 15, 17, -1, -1, 13, -1, -1, -1, -1, -1, -1]}, {"children_right": [2, 4, 6, 8, 14, -1, 18, 12, 10, -1, -1, -1, -1, -1, 16, -1, -1, -1, -1], "thresholds": [0.5, 1.6255382299423218, -0.32491636276245117, 0.10000000149011612, 0.5, -2.0, -0.3158361315727234, 3.427633285522461, 0.8195573091506958, -2.0, -2.0, -2.0, -2.0, -2.0, 0.9704334139823914, -2.0, -2.0, -2.0, -2.0], "values": [-0.0018377508685931238, 0.02690894101347234, -0.056151446634097532, 0.011417393003657501, 0.12905520989935765, -0.89837438522069246, -0.018290072488178977, -0.0014842686094992134, 0.063429537674962053, -0.59157648172445676, 1.0762944042450124, -0.041548680421231873, 1.1242619257847049, 0.99931650961693796, 0.057763895973945774, -1.2855330065694126, 0.70074979208197596, -0.93722903518190714, 9.0475325934851947e-05], "features": [14, 241, 178, 100, 257, -2, 292, 247, 381, -2, -2, -2, -2, -2, 382, -2, -2, -2, -2], "children_left": [1, 3, 5, 7, 13, -1, 17, 11, 9, -1, -1, -1, -1, -1, 15, -1, -1, -1, -1]}, {"children_right": [2, 4, 8, 6, 14, 12, 10, 18, -1, -1, -1, -1, -1, 16, -1, -1, -1, -1, -1], "thresholds": [1.6242256164550781, 1.5059289932250977, -0.45698681473731995, 5.5, 2.5, 1.7320507764816284, 0.2764369249343872, 2.0177764892578125, -2.0, -2.0, -2.0, -2.0, -2.0, 0.9324342608451843, -2.0, -2.0, -2.0, -2.0, -2.0], "values": [-0.0016589096559887018, -0.028883947620358348, 0.14827009529979548, -0.034329038294171096, 0.10175333025871421, -0.047392224694060604, 0.13221731737662756, -0.10886006936316042, 0.92136883842229711, 1.0090532990285412, 0.37261223193458021, -0.35267717660945724, 0.87888507281451222, 0.067959843784897264, 1.0818168573844835, -1.2750629418732469, 0.82091174507589171, -1.2643851438874696, 0.36171512132809813], "features": [13, 262, 1, 0, 0, 331, 175, 382, -2, -2, -2, -2, -2, 382, -2, -2, -2, -2, -2], "children_left": [1, 3, 7, 5, 13, 11, 9, 17, -1, -1, -1, -1, -1, 15, -1, -1, -1, -1, -1]}, {"children_right": [2, 4, 6, 8, -1, 18, 14, 12, 10, -1, -1, -1, -1, -1, 16, -1, -1, -1, -1], "thresholds": [0.47691673040390015, 0.5, 0.5, 0.39803051948547363, -2.0, -0.38263142108917236, -0.8234591484069824, 0.10000000149011612, 1.5, -2.0, -2.0, -2.0, -2.0, -2.0, 0.36669793725013733, -2.0, -2.0, -2.0, -2.0], "values": [-0.0014541682774186794, -0.11351716318715767, 0.20581281164213711, -0.12838293119146885, -0.92539646139769705, 0.17746716397829057, 0.2328122377301651, -0.11110611068896088, -0.15154117530255259, -0.85046541022476085, -1.3613156745165425, -0.92529524109936323, -1.2001853830999238, 1.383347033899559, 0.22424250653878561, 1.6014239896893629, 1.0310057634884413, 1.1643085013113821, 0.99942464358561522], "features": [384, 260, 179, 381, -2, 241, 133, 256, 0, -2, -2, -2, -2, -2, 381, -2, -2, -2, -2], "children_left": [1, 3, 5, 7, -1, 17, 13, 11, 9, -1, -1, -1, -1, -1, 15, -1, -1, -1, -1]}, {"children_right": [2, 4, 6, 14, -1, 8, 18, 12, 10, -1, -1, -1, -1, -1, 16, -1, -1, -1, -1], "thresholds": [-0.32491636276245117, 0.47948265075683594, 2.3182477951049805, -0.7702847123146057, -2.0, 0.8742298483848572, 0.64433753490448, -0.3937795162200928, 4.232050895690918, -2.0, -2.0, -2.0, -2.0, -2.0, -0.7388034462928772, -2.0, -2.0, -2.0, -2.0], "values": [-0.0013935953609061553, -0.045340604796352969, 0.020923643756145568, -0.087141821872267405, 1.3003304341735786, 0.019504723374736462, 0.15384839212086726, -0.084905479049035018, 0.12610648688590176, 0.71070970236543829, -1.6331360460518627, -1.1597335119736867, -0.60883631387680281, -1.1469636362914459, -0.075788137739965178, 1.4261314069455553, -0.92131788463111719, -0.036658680376996912, 1.1818536448829078], "features": [178, 384, 139, 256, -2, 382, 256, 256, 178, -2, -2, -2, -2, -2, 256, -2, -2, -2, -2], "children_left": [1, 3, 5, 13, -1, 7, 17, 11, 9, -1, -1, -1, -1, -1, 15, -1, -1, -1, -1]}, {"children_right": [2, 4, 8, 6, 18, 16, 10, -1, 12, -1, -1, 14, -1, -1, -1, -1, -1, -1, -1], "thresholds": [4.5, 1.5033990144729614, 0.4838274121284485, 0.7424254417419434, -0.10000000149011612, 0.5, -0.3637317419052124, -2.0, 0.6138034462928772, -2.0, -2.0, 0.13214802742004395, -2.0, -2.0, -2.0, -2.0, -2.0, -2.0, -2.0], "values": [-0.0013429623432782076, -0.021758286968586556, 0.1147375108417385, -0.036732210178171389, 0.11774863052251698, -0.097568808453985106, 0.15673954789605923, -1.1801433557201937, 0.14627758384540998, 1.0792162512262944, 0.70842753366513711, 0.14855424234086187, -2.4573367463876368, -0.0033458324271693329, 1.0002877123678908, -1.0420369458449394, -0.960698230017485, -1.6442374766179506, 0.719973809374025], "features": [0, 1, 381, 385, 139, 129, 1, -2, 229, -2, -2, 13, -2, -2, -2, -2, -2, -2, -2], "children_left": [1, 3, 7, 5, 17, 15, 9, -1, 11, -1, -1, 13, -1, -1, -1, -1, -1, -1, -1]}, {"children_right": [2, 16, 4, 6, 8, 12, 14, 10, -1, -1, -1, -1, -1, -1, -1, 18, -1, -1, -1], "thresholds": [-0.523861289024353, 0.5, 0.8469921350479126, 0.10000000149011612, 4.6675801277160645, -0.5080145001411438, -0.7388034462928772, 0.10000000149011612, -2.0, -2.0, -2.0, -2.0, -2.0, -2.0, -2.0, 0.48965805768966675, -2.0, -2.0, -2.0], "values": [-0.0013307203070083303, -0.056195227186983852, 0.0087456999518363398, -0.061185151221616184, 0.1007685683513492, -0.045879664361564994, -0.090970726416244263, 0.094377003531728912, 1.1682633070272199, 0.66815098567146802, 0.41546002274915439, 0.65556315199905479, -0.50008289941589035, -0.46791194193198954, -0.91039947010076383, -0.040018182648714838, -1.0761638275783949, -1.1543274018334773, 1.0881155297683378], "features": [253, 131, 382, 130, 13, 301, 100, 262, -2, -2, -2, -2, -2, -2, -2, 384, -2, -2, -2], "children_left": [1, 15, 3, 5, 7, 11, 13, 9, -1, -1, -1, -1, -1, -1, -1, 17, -1, -1, -1]}, {"children_right": [2, 6, 4, 8, 10, -1, 16, 12, 14, -1, -1, -1, -1, -1, -1, 18, -1, -1, -1], "thresholds": [-0.32491636276245117, 0.3468073606491089, 0.6518145799636841, 3.5, 0.5, -2.0, 0.10000000149011612, 1.0604782104492188, 0.5, -2.0, -2.0, -2.0, -2.0, -2.0, -2.0, 0.7316628694534302, -2.0, -2.0, -2.0], "values": [-0.0012530897749473094, -0.03333740996347876, 0.015040019921339737, -0.091074021697023014, 0.16487595595191115, -0.97446774775626577, 0.19668277457986624, -0.080981888590419701, -0.19998767272645165, 1.156892100346167, 0.98238087110752292, -0.58648848017210919, -1.0648013117840438, -1.5610040185915413, -1.2313407408716832, 0.233184123148066, 0.91220199073847508, 1.0650140075889378, 2.1343406836088015], "features": [178, 384, 384, 0, 177, -2, 217, 241, 131, -2, -2, -2, -2, -2, -2, 133, -2, -2, -2], "children_left": [1, 5, 3, 7, 9, -1, 15, 11, 13, -1, -1, -1, -1, -1, -1, 17, -1, -1, -1]}, {"children_right": [2, 12, 4, 18, 6, 10, 8, -1, -1, -1, -1, -1, 14, 16, -1, -1, -1, -1, -1], "thresholds": [-0.1805787831544876, 0.517836332321167, -0.523861289024353, 4.3630781173706055, 0.5, 0.5, -0.6152932643890381, -2.0, -2.0, -2.0, -2.0, -2.0, -0.7068005800247192, 0.5, -2.0, -2.0, -2.0, -2.0, -2.0], "values": [-0.0011340202402329977, -0.034447197917656693, 0.0086830425867980548, -0.040864867836228808, 0.01521612069790107, 0.0027534784141175031, 0.029682177048611737, 1.5026372042038412, 0.18515712173657461, -0.5287666272229844, 0.11134397111993759, -0.72882498016840391, -0.011393917914195872, 0.034992498226156521, -0.68127030076138473, -0.65605586317118825, 0.73976250062431648, -0.98695697001171778, -0.24212611099532516], "features": [259, 241, 76, 174, 240, 218, 178, -2, -2, -2, -2, -2, 130, 276, -2, -2, -2, -2, -2], "children_left": [1, 11, 3, 17, 5, 9, 7, -1, -1, -1, -1, -1, 13, 15, -1, -1, -1, -1, -1]}, {"children_right": [2, 10, 4, 6, -1, 8, 18, -1, -1, -1, 12, 16, 14, -1, -1, -1, -1, -1, -1], "thresholds": [0.5, -0.2463996410369873, 3.427633285522461, 0.20206207036972046, -2.0, -0.8713770508766174, -1.6255382299423218, -2.0, -2.0, -2.0, 0.7582248449325562, -0.10000000149011612, 0.34111160039901733, -2.0, -2.0, -2.0, -2.0, -2.0, -2.0], "values": [-0.001056595204488805, -0.026633755015089085, 0.012480666842050977, 0.010097488314969262, 0.92137975307348974, -0.0010134442584563209, 0.04394657343111831, -0.73488547164844742, 0.044120983003558593, -0.87300197485707798, -0.0083848176680534191, -0.022392413608241263, 0.025955629283130638, -1.1011586756739928, 1.156656176156964, -0.99324123891960014, 0.19643365727128381, -0.56989827935470039, 0.39290910099180826], "features": [129, 76, 247, 256, -2, 241, 265, -2, -2, -2, 175, 295, 384, -2, -2, -2, -2, -2, -2], "children_left": [1, 9, 3, 5, -1, 7, 17, -1, -1, -1, 11, 15, 13, -1, -1, -1, -1, -1, -1]}, {"children_right": [2, 4, 14, 6, 10, -1, 8, -1, -1, -1, 12, -1, -1, 18, 16, -1, -1, -1, -1], "thresholds": [1.7849464416503906, 1.0712249279022217, 0.5, -0.3652160167694092, 0.41732487082481384, -2.0, -0.20206207036972046, -2.0, -2.0, -2.0, -0.6447792053222656, -2.0, -2.0, 0.11395345628261566, -1.8264787197113037, -2.0, -2.0, -2.0, -2.0], "values": [-0.00099390132901469954, -0.023836363237002039, 0.093327463199008948, -0.033302181834114784, 0.032206185341380866, -0.93811531679366544, -0.027096851776676693, -0.56575291332570044, -0.12339826796926343, 0.58633434586272692, 0.01783606163435264, -1.8240157997686195, 0.19305608961459877, 0.0050007692636885427, 0.098740207051983803, -2.582573521461947, 0.73193792711172245, -1.2595053898802586, 0.52887254828726393], "features": [1, 13, 218, 292, 259, -2, 271, -2, -2, -2, 217, -2, -2, 13, 133, -2, -2, -2, -2], "children_left": [1, 3, 13, 5, 9, -1, 7, -1, -1, -1, 11, -1, -1, 17, 15, -1, -1, -1, -1]}, {"children_right": [2, 4, 12, 6, -1, 8, 10, -1, -1, -1, -1, -1, 14, 16, 18, -1, -1, -1, -1], "thresholds": [1.8019126653671265, 1.224063515663147, 0.5, 5.244218349456787, -2.0, 1.101561427116394, 0.5, -2.0, -2.0, -2.0, -2.0, -2.0, 0.5, 0.5, 0.7590881586074829, -2.0, -2.0, -2.0, -2.0], "values": [-0.00090661367967469686, -0.065980083495859848, 0.13445139589673188, -0.06220971970364806, -1.1554543678448992, -0.071598166627080961, -0.038080095449063073, -0.81246221142354469, -1.1228292457846145, 0.0038247203819487541, -0.4893558061808958, 1.2872292591950909, 0.13177586409277739, 0.10235462577487317, 0.15924959497363736, 0.99194646728431601, 0.7926411376261806, 1.0038409769485435, 0.7933452824593068], "features": [385, 271, 248, 174, -2, 382, 258, -2, -2, -2, -2, -2, 101, 129, 271, -2, -2, -2, -2], "children_left": [1, 3, 11, 5, -1, 7, 9, -1, -1, -1, -1, -1, 13, 15, 17, -1, -1, -1, -1]}, {"children_right": [2, 16, 4, 10, 6, 8, -1, -1, -1, 14, 12, -1, -1, -1, -1, 18, -1, -1, -1], "thresholds": [-0.9432945251464844, 0.724984884262085, 0.5, 0.5, 2.7384438514709473, 1.9128708839416504, -2.0, -2.0, -2.0, 0.9450520277023315, -0.5401553511619568, -2.0, -2.0, -2.0, -2.0, -1.9084548950195312, -2.0, -2.0, -2.0], "values": [-0.00081385261329555486, -0.052768889519805302, 0.0037076930138036615, -0.017882101334823552, 0.014383382582208391, 0.012686007215573173, 0.7982761596483412, 0.072442962246461656, 0.54735051483698438, 0.095783222335222948, -0.020072559519411986, 0.14194547047950601, -0.76959225201105352, -1.1267972995684041, 1.0534451041458712, -0.042189126392329086, -1.0063081074838263, 0.51462170894585935, -0.73986598816706606], "features": [241, 381, 129, 137, 235, 130, -2, -2, -2, 382, 13, -2, -2, -2, -2, 223, -2, -2, -2], "children_left": [1, 15, 3, 9, 5, 7, -1, -1, -1, 13, 11, -1, -1, -1, -1, 17, -1, -1, -1]}, {"children_right": [2, 16, 4, 8, 6, 14, -1, 12, 10, -1, -1, -1, -1, -1, -1, -1, 18, -1, -1], "thresholds": [-0.32491636276245117, -0.1805787831544876, 0.6518145799636841, 0.19249936938285828, -0.2463996410369873, 0.32491636276245117, -2.0, 1.6562776565551758, 0.5595006942749023, -2.0, -2.0, -2.0, -2.0, -2.0, -2.0, -2.0, 2.2919280529022217, -2.0, -2.0], "values": [-0.0007556217060639426, -0.02137786510001758, 0.0097167982120405696, -0.072244979498433726, 0.12544907543644607, 0.18063696804668075, 0.92428110681344688, -0.058782375903042916, -0.089752986580180841, -1.0541723095958104, 0.59199920087889724, -0.47950751472344499, -1.8591833895062111, 1.2640707631072687, 0.95526635329766063, -0.7448389845964497, -0.01118325375201421, -0.66635493141872792, 1.1152471611986821], "features": [178, 259, 384, 175, 274, 103, -2, 13, 384, -2, -2, -2, -2, -2, -2, -2, 385, -2, -2], "children_left": [1, 15, 3, 7, 5, 13, -1, 11, 9, -1, -1, -1, -1, -1, -1, -1, 17, -1, -1]}, {"children_right": [2, 4, 10, 16, 6, 14, 8, -1, -1, 12, -1, -1, -1, -1, -1, 18, -1, -1, -1], "thresholds": [0.5, 5.5, 2.085474967956543, 0.5, -0.517836332321167, 0.5, 0.7409822344779968, -2.0, -2.0, 0.7284361124038696, -2.0, -2.0, -2.0, -2.0, -2.0, 0.15043781697750092, -2.0, -2.0, -2.0], "values": [-0.00066153149427829508, 0.0075985936229966003, -0.016268124574457005, -0.0062115784940372475, 0.070206671636634535, -0.049544946458978181, 0.077131785448288692, -1.6733206979166586, 0.98440213502101925, -0.017716662902133948, 0.85700251322496857, -0.966634089751363, 0.92682815430901366, -1.9110910020993563, 0.27854453902726267, -0.0023239928835183067, -0.21874005622945428, -0.0746638372992251, 0.34137185270358428], "features": [14, 0, 139, 249, 76, 264, 384, -2, -2, 385, -2, -2, -2, -2, -2, 172, -2, -2, -2], "children_left": [1, 3, 9, 15, 5, 13, 7, -1, -1, 11, -1, -1, -1, -1, -1, 17, -1, -1, -1]}, {"children_right": [2, 4, 8, 6, 10, 14, -1, -1, 16, -1, 12, -1, -1, -1, -1, 18, -1, -1, -1], "thresholds": [-0.10000000149011612, 0.7374399304389954, -0.645138144493103, 0.10000000149011612, 0.5, -0.5696508884429932, -2.0, -2.0, 0.5, -2.0, 3.0274786949157715, -2.0, -2.0, -2.0, -2.0, 1.9375660419464111, -2.0, -2.0, -2.0], "values": [-0.00060894889610574462, -0.014067291476168494, 0.0073089146285287539, -0.055893911954025821, 0.1223494934871935, -0.035074285950876111, -1.1152979314691298, -0.56101243355250741, 0.011388765489312542, 1.1071311626110907, 0.091307184095148264, -0.89981120025498074, 1.0857188618127884, -0.26419534108748177, -1.0838773365906809, 0.010666093405585749, 0.82845825050462474, 0.10756900220128852, -1.1556528704208295], "features": [271, 384, 178, 103, 99, 271, -2, -2, 330, -2, 385, -2, -2, -2, -2, 100, -2, -2, -2], "children_left": [1, 3, 7, 5, 9, 13, -1, -1, 15, -1, 11, -1, -1, -1, -1, 17, -1, -1, -1]}, {"children_right": [2, 4, 10, 6, -1, 18, 8, -1, -1, -1, 12, 14, 16, -1, -1, -1, -1, -1, -1], "thresholds": [1.1522576808929443, 5.5, 0.2463996410369873, 0.899563193321228, -2.0, 0.5, 6.61284065246582, -2.0, -2.0, -2.0, 0.7388034462928772, 0.5, 0.5, -2.0, -2.0, -2.0, -2.0, -2.0, -2.0], "values": [-0.00057175355782610642, -0.011153934208017875, 0.043491691340413328, -0.015712260851008415, 0.45568732421553071, -0.021359603448914299, 0.080428021920702975, 0.42858723892007511, 1.4736372145312628, 0.68603234543621727, 0.036583383316754141, 0.016548461994009781, 0.043968501164893099, -1.6946043485645548, 0.24190252465467313, 0.64089289138173489, 0.078813238659906623, -0.0095417995723244258, -0.27483086516727373], "features": [13, 0, 103, 381, -2, 227, 174, -2, -2, -2, 259, 167, 257, -2, -2, -2, -2, -2, -2], "children_left": [1, 3, 9, 5, -1, 17, 7, -1, -1, -1, 11, 13, 15, -1, -1, -1, -1, -1, -1]}, {"children_right": [2, 4, 16, 10, 6, -1, 8, -1, -1, 14, 12, -1, -1, -1, -1, -1, 18, -1, -1], "thresholds": [3.427633285522461, 0.3789103627204895, 0.5, -0.10000000149011612, 0.3679507076740265, -2.0, 0.45717573165893555, -2.0, -2.0, 0.7068005800247192, 0.26754242181777954, -2.0, -2.0, -2.0, -2.0, -2.0, -0.10000000149011612, -2.0, -2.0], "values": [-0.00050523609500019244, -0.0017047466903131973, 0.099585744122834247, -0.055271231711128445, 0.091420896349540356, 1.2408993736494895, 0.084108739555478373, 0.75639877470927608, 0.56314857801503004, -0.043064653530753741, -0.062157291516340293, -0.82263140740001028, -1.2969935141373365, -0.62455295381367004, -1.1129640704928356, -1.0491289403162476, 0.12428199726692071, 1.0093200310481483, -0.084741185641003886], "features": [247, 384, 129, 289, 381, -2, 241, -2, -2, 130, 384, -2, -2, -2, -2, -2, 178, -2, -2], "children_left": [1, 3, 15, 9, 5, -1, 7, -1, -1, 13, 11, -1, -1, -1, -1, -1, 17, -1, -1]}, {"children_right": [2, 4, 12, 18, 6, 10, 8, -1, -1, -1, -1, -1, 14, 16, -1, -1, -1, -1, -1], "thresholds": [2.8264129161834717, 0.09256117045879364, -0.6071946620941162, 0.5, 0.5, -0.21320071816444397, 0.5844641923904419, -2.0, -2.0, -2.0, -2.0, -2.0, 2.6493570804595947, -0.10000000149011612, -2.0, -2.0, -2.0, -2.0, -2.0], "values": [-0.00051228931139324526, -0.0059959449903188959, 0.061743133426116696, -0.020257203666497366, 0.00052109991999783965, 0.015229750484372468, -0.0080654611531283445, 0.0081636659511550198, -0.29807691881982196, -1.0647185993554835, 0.15332882927193825, -0.8068335448001378, 0.064573261302333984, -0.031845903795546721, 0.93936114225615752, -3.6683945745618822, 0.40791551860473857, -0.096185519044195394, -0.37706955751857163], "features": [13, 222, 262, 236, 164, 259, 271, -2, -2, -2, -2, -2, 382, 292, -2, -2, -2, -2, -2], "children_left": [1, 3, 11, 17, 5, 9, 7, -1, -1, -1, -1, -1, 13, 15, -1, -1, -1, -1, -1]}, {"children_right": [2, 12, 4, 6, 16, 8, 10, -1, -1, -1, -1, -1, 14, -1, 18, -1, -1, -1, -1], "thresholds": [-0.10000000149011612, -0.8035330176353455, 1.7320507764816284, 3.116487979888916, 0.7261899709701538, 0.7447862029075623, 0.8910844326019287, -2.0, -2.0, -2.0, -2.0, -2.0, -0.5, -2.0, 0.5, -2.0, -2.0, -2.0, -2.0], "values": [-0.00044760015005202358, -0.011765581514650379, 0.0062110378869973133, 0.0045879487703456116, 0.13592367412271988, 0.0057019910963602913, -0.090028333903011681, -0.81502998438344132, 0.58170471793742629, -0.36104120289477593, -1.9331540181193203, -0.80599208554562429, -0.0066305925540651369, -1.0341196645302579, -0.00073470085867476792, 0.39064815612117748, 1.057958221555138, 0.20802565053597152, -0.061405583544399546], "features": [271, 274, 247, 178, 223, 385, 265, -2, -2, -2, -2, -2, 102, -2, 293, -2, -2, -2, -2], "children_left": [1, 11, 3, 5, 15, 7, 9, -1, -1, -1, -1, -1, 13, -1, 17, -1, -1, -1, -1]}, {"children_right": [2, 4, -1, 12, 6, 8, 10, -1, -1, -1, -1, 16, 14, -1, -1, -1, -1], "thresholds": [4.232050895690918, 0.5, -2.0, 0.5, 0.08876091986894608, 0.8208706974983215, 4.232050895690918, -2.0, -2.0, -2.0, -2.0, -0.10206207633018494, 0.1805787831544876, -2.0, -2.0, -2.0, -2.0], "values": [-0.00044672871251643856, -0.00085733130505741999, 0.73583329718934376, 0.069637720693239771, -0.0018196318810739355, -0.017268671290686301, 0.015606334198684093, -0.40883714014846212, 0.95552207520735288, 0.15703027569049249, -1.2682188108901287, -0.012654689308530408, 0.13105687452698409, 1.0028349313983884, -1.1350233707112294, -1.0429586497841066, -0.038777813028657147], "features": [139, 248, -2, 240, 12, 381, 178, -2, -2, -2, -2, 295, 259, -2, -2, -2, -2], "children_left": [1, 3, -1, 11, 5, 7, 9, -1, -1, -1, -1, 15, 13, -1, -1, -1, -1]}, {"children_right": [2, 18, 4, 12, 6, 8, 10, -1, -1, -1, -1, 14, 16, -1, -1, -1, -1, -1, -1], "thresholds": [-0.8035330176353455, -0.5, -0.8910844326019287, 0.5, 0.7262192964553833, 3.5, 0.6763305068016052, -2.0, -2.0, -2.0, -2.0, 0.1614200919866562, 1.1486260890960693, -2.0, -2.0, -2.0, -2.0, -2.0, -2.0], "values": [-0.00039923940107211575, -0.035158778371139697, 0.0017760891169480769, -0.039804852363829246, 0.0035438250594849716, -0.038848574665711483, 0.093081977072482155, -0.42275398031975198, -1.5497095691861842, 0.98939023124690373, 0.804982581271664, 0.065568429820248908, -0.058125442775238984, -1.0867075751456188, 1.0399729184885675, -1.1160353027505405, 0.17583316908113658, -1.0838252486630868, -0.62820271707157149], "features": [262, 267, 268, 251, 384, 0, 130, -2, -2, -2, -2, 384, 13, -2, -2, -2, -2, -2, -2], "children_left": [1, 17, 3, 11, 5, 7, 9, -1, -1, -1, -1, 13, 15, -1, -1, -1, -1, -1, -1]}, {"children_right": [2, 12, 4, 6, 8, 18, -1, -1, 10, -1, -1, -1, 14, -1, 16, -1, -1, -1, -1], "thresholds": [-0.9432945251464844, 0.9848460555076599, 0.08876091986894608, -0.5401553511619568, 0.5, 0.5, -2.0, -2.0, -0.2917795181274414, -2.0, -2.0, -2.0, -1.9375660419464111, -2.0, 0.5474635362625122, -2.0, -2.0, -2.0, -2.0], "values": [-0.00032987987878539893, -0.031625654171591036, 0.0023937303778091726, -0.011878129322681676, 0.01782392710551884, 0.010567637285249091, -0.37491898432897336, 0.73937237557651747, 0.016405311530035355, 0.24005782361507602, 0.033580857283089516, -1.0235281793922915, 0.006662834272766675, 1.0068356482419907, -0.02290186150116354, -1.1019196992637936, 0.66056655843502643, 0.4185026869710709, -0.013314787621244249], "features": [241, 175, 12, 13, 248, 272, -2, -2, 250, -2, -2, -2, 241, -2, 103, -2, -2, -2, -2], "children_left": [1, 11, 3, 5, 7, 17, -1, -1, 9, -1, -1, -1, 13, -1, 15, -1, -1, -1, -1]}, {"children_right": [2, 4, 8, 6, 18, -1, -1, 16, 10, 14, 12, -1, -1, -1, -1, -1, -1, -1, -1], "thresholds": [-0.523861289024353, -0.28616735339164734, -1.7366254329681396, 0.5, 1.5737545490264893, -2.0, -2.0, 0.25220799446105957, -0.009494783356785774, 5.5, -0.4939750134944916, -2.0, -2.0, -2.0, -2.0, -2.0, -2.0, -2.0, -2.0], "values": [-0.00031135506818296603, -0.022405441278929971, 0.0037464467887018196, 0.10470655632830801, -0.025979144413591594, -1.0636362873408587, 1.1388659810609079, -0.070052235725121911, 0.0043320845105649054, -0.007172068387173971, 0.013433976319614656, 2.631708016136709, 0.11910014640802627, -0.18475672003940283, 0.55437649645064202, -1.053615669455376, -1.548145847189313, -0.57258039067971522, -1.371810307439038], "features": [253, 346, 133, 276, 250, -2, -2, 385, 223, 0, 76, -2, -2, -2, -2, -2, -2, -2, -2], "children_left": [1, 3, 7, 5, 17, -1, -1, 15, 9, 13, 11, -1, -1, -1, -1, -1, -1, -1, -1]}, {"children_right": [2, 4, 10, 6, -1, 8, 16, -1, -1, 12, -1, 14, 18, -1, -1, -1, -1, -1, -1], "thresholds": [1.5033990144729614, 0.6322776079177856, 0.5, -0.20206207036972046, -2.0, -0.41732487082481384, 0.5, -2.0, -2.0, 1.9375660419464111, -2.0, -1.9375660419464111, 0.010542242787778378, -2.0, -2.0, -2.0, -2.0, -2.0, -2.0], "values": [-0.00029252981832588072, -0.010699492657161989, 0.03901999930587851, -0.011175174112090153, 1.0518374889887461, -0.022693402571687192, -0.0037863562240044567, -0.64136568431641305, -0.16283441512959348, 0.039866387033345448, -1.9628802136082413, 0.040749791050092653, -0.12534012730157479, -2.1712960396051804, 0.47690698358128508, -0.0011433215013994667, -0.16405395736722403, -1.0768272043274252, -1.2717932130542402], "features": [1, 360, 303, 265, -2, 250, 99, -2, -2, 256, -2, 133, 384, -2, -2, -2, -2, -2, -2], "children_left": [1, 3, 9, 5, -1, 7, 15, -1, -1, 11, -1, 13, 17, -1, -1, -1, -1, -1, -1]}, {"children_right": [2, 4, -1, 8, 6, 14, 16, 12, 10, -1, -1, -1, -1, -1, -1, -1, -1], "thresholds": [0.6322776079177856, 2.560511827468872, -2.0, -0.20206207036972046, 0.7878424525260925, 0.7388034462928772, 0.5, 1.0604782104492188, 0.9629100561141968, -2.0, -2.0, -2.0, -2.0, -2.0, -2.0, -2.0, -2.0], "values": [-0.00026194907622901283, -0.00058447335250156414, 0.97261736991362546, -0.012014779047201166, 0.064776297734311261, -0.5636849988681939, 0.075263615470741715, -0.024915811876433661, -0.008895612384911461, -0.066492497997138453, -1.0456312160064956, -0.3250902438344076, -0.82808416990094613, -3.5704738224118651, -2.4444896673071943, 1.0374467549081647, 0.91418590104145769], "features": [360, 382, -2, 301, 384, 265, 164, 241, 100, -2, -2, -2, -2, -2, -2, -2, -2], "children_left": [1, 3, -1, 7, 5, 13, 15, 11, 9, -1, -1, -1, -1, -1, -1, -1, -1]}, {"children_right": [2, 16, 4, 10, 6, -1, 8, -1, -1, 14, 12, -1, -1, -1, -1, 18, -1, -1, -1], "thresholds": [-0.4629100561141968, -0.2166760265827179, 0.7476863861083984, 0.5, -1.21632981300354, -2.0, 0.9031357765197754, -2.0, -2.0, 0.5, -0.5, -2.0, -2.0, -2.0, -2.0, 0.0, -2.0, -2.0, -2.0], "values": [-0.00020100778569299114, -0.038172116210152221, 0.00033256408244901938, -0.039673003702871086, 0.063957001415421919, 1.5549169713992712, 0.062538627147755307, 0.57962191714222988, 0.44291603558923803, -0.016879203084209007, -0.047686648207765192, -0.70270145533385875, -1.0909564259417179, -1.0284618894041786, -0.1694147189796765, -0.034581856568182544, -1.2530237399581052, -1.0249140253013596, -1.0688578522851435], "features": [229, 385, 385, 104, 103, -2, 178, -2, -2, 224, 132, -2, -2, -2, -2, 130, -2, -2, -2], "children_left": [1, 15, 3, 9, 5, -1, 7, -1, -1, 13, 11, -1, -1, -1, -1, 17, -1, -1, -1]}, {"children_right": [2, 4, 6, -1, -1, 14, 8, 10, 12, -1, -1, -1, -1, 18, 16, -1, -1, -1, -1], "thresholds": [-0.9432945251464844, -0.10000000149011612, -1.0131232738494873, -2.0, -2.0, 0.9803844690322876, 5.5, 0.7447862029075623, 0.8429182767868042, -2.0, -2.0, -2.0, -2.0, 0.2463996410369873, 0.10000000149011612, -2.0, -2.0, -2.0, -2.0], "values": [-0.00024003409625516142, -0.025185636882980939, 0.0019309331075337355, 1.0120231786689922, -0.706453875458812, -0.025444521038210821, 0.0030744495758553759, -0.0016536317373666274, 0.034101107383020239, -0.71702908596049675, 0.48278419448217486, -1.0564503284524689, 0.58833325434238259, -0.0080153404518712203, -0.09504324943866721, -0.45313918670659648, -2.4600905762587559, -1.0689240629560344, 0.39758375800106027], "features": [241, 355, 175, -2, -2, 253, 0, 385, 382, -2, -2, -2, -2, 274, 262, -2, -2, -2, -2], "children_left": [1, 3, 5, -1, -1, 13, 7, 9, 11, -1, -1, -1, -1, 17, 15, -1, -1, -1, -1]}, {"children_right": [2, 16, 4, 12, 6, 8, 10, -1, -1, -1, -1, -1, 14, -1, -1, -1, 18, -1, -1], "thresholds": [-0.9432945251464844, 0.5, -0.523861289024353, -0.8552958965301514, 0.9122723937034607, 3.427633285522461, -0.8910844326019287, -2.0, -2.0, -2.0, -2.0, -2.0, 3.3736510276794434, -2.0, -2.0, -2.0, -0.10000000149011612, -2.0, -2.0], "values": [-0.00025315519965124223, -0.02271989224590926, 0.0017020811488377785, -0.018438149426506165, 0.0048445011307186835, -0.0058510590323799325, 0.048230139899537276, -0.088460670231113439, 0.59756225897513338, -0.58009589000369421, 0.72030025977541257, -2.9057631121544536, -0.017372783191401869, -0.60061097904197469, 0.77692527806129141, -0.60021850315719483, 0.026413799728879351, -1.0178222100572381, 0.83269727029679974], "features": [241, 300, 253, 313, 381, 247, 268, -2, -2, -2, -2, -2, 13, -2, -2, -2, 307, -2, -2], "children_left": [1, 15, 3, 11, 5, 7, 9, -1, -1, -1, -1, -1, 13, -1, -1, -1, 17, -1, -1]}, {"children_right": [2, 4, 6, 14, -1, 8, 18, 10, 12, -1, -1, -1, -1, 16, -1, -1, -1, -1, -1], "thresholds": [-0.523861289024353, 3.0914814472198486, 0.9245744943618774, 2.0246949195861816, -2.0, 1.21632981300354, 0.5, 2.5710272789001465, -0.31389933824539185, -2.0, -2.0, -2.0, -2.0, 2.7003543376922607, -2.0, -2.0, -2.0, -2.0, -2.0], "values": [-0.00021321319470698176, -0.015317570153807969, 0.0025608543603420761, -0.019558570499661324, 1.1068023134075877, 0.00034091085155560212, 0.035800166185085761, -0.0010848712086180402, 0.027517265638629843, -0.14184432538761774, 0.73665670086545221, -1.166079409728072, 0.51569554031643272, -0.022038068723932613, 0.63167120405298149, -1.1027728681652857, 0.8820845952394909, 0.61552453471994195, 0.11048772605963332], "features": [76, 382, 12, 130, -2, 103, 240, 382, 1, -2, -2, -2, -2, 385, -2, -2, -2, -2, -2], "children_left": [1, 3, 5, 13, -1, 7, 17, 9, 11, -1, -1, -1, -1, 15, -1, -1, -1, -1, -1]}, {"children_right": [2, 4, 12, 6, -1, 8, 10, -1, -1, -1, -1, 14, -1, 16, -1, -1, -1], "thresholds": [1.9375660419464111, 3.7936034202575684, 0.30348849296569824, 0.9122723937034607, -2.0, 2.7316031455993652, 0.916922926902771, -2.0, -2.0, -2.0, -2.0, -1.157087802886963, -2.0, -0.3937795162200928, -2.0, -2.0, -2.0], "values": [-0.00019071436636770834, 0.00022992284504508829, -0.032480059616586079, -0.00019932929124023548, 0.83639173996514804, -0.0077481199808815413, 0.039534299986678886, -0.42191291898977307, 0.89369197804676248, 1.1421207005451435, 0.52868892948166446, -0.027305028003060665, -1.1599140651209623, -0.026262697259587586, -1.0520520150929573, -1.0207683467705497, -1.0316779802237621], "features": [256, 271, 127, 381, -2, 385, 381, -2, -2, -2, -2, 259, -2, 178, -2, -2, -2], "children_left": [1, 3, 11, 5, -1, 7, 9, -1, -1, -1, -1, 13, -1, 15, -1, -1, -1]}, {"children_right": [2, 4, 18, 6, 8, 10, 14, 16, 12, -1, -1, -1, -1, -1, -1, -1, -1, -1, -1], "thresholds": [2.681849479675293, -0.5401553511619568, 0.5, 1.49680495262146, 0.5, 0.2720266580581665, -0.5, -1.9375660419464111, 0.2108575701713562, -2.0, -2.0, -2.0, -2.0, -2.0, -2.0, -2.0, -2.0, -2.0, -2.0], "values": [-0.00014000001021613012, -0.007149397655330572, 0.043396507222066893, 0.012035451000718518, -0.013826750059621636, 0.017591966291095881, -0.10144752007842817, -0.0071243138489385377, -0.038106286710169288, 0.047653283650307368, 0.62102022293030334, -0.57017144249995344, 0.49760764016564596, -1.2857999241695526, -1.0568331256956596, 0.66045019070492328, -0.11902330323161529, 0.93635382545143775, 0.65536560756742734], "features": [382, 13, 128, 223, 177, 223, 132, 241, 220, -2, -2, -2, -2, -2, -2, -2, -2, -2, -2], "children_left": [1, 3, 17, 5, 7, 9, 13, 15, 11, -1, -1, -1, -1, -1, -1, -1, -1, -1, -1]}, {"children_right": [2, 4, 18, 12, 6, 8, 10, -1, -1, -1, -1, 16, 14, -1, -1, -1, -1, -1, -1], "thresholds": [4.949489593505859, -0.523861289024353, 0.5, -0.10000000149011612, 0.9150086641311646, -0.5401553511619568, -0.3791908025741577, -2.0, -2.0, -2.0, -2.0, -0.35503050684928894, 3.3736510276794434, -2.0, -2.0, -2.0, -2.0, -2.0, -2.0], "values": [-0.0001120670940343368, 0.00027286153414859168, -0.11173516074082296, -0.013828107678252457, 0.002873224525494968, -0.0050522932879509264, 0.038150006679874914, 0.2560158839839915, -0.20874421501978807, -0.63460876065654281, 0.67930448839822943, 0.0073389560160719517, -0.016660522663327876, -0.7614501630643582, 0.9435825730693933, 0.93160131221321074, -0.1216305450583452, -1.1006326412736036, -1.4796601131331328], "features": [127, 76, 270, 310, 381, 13, 1, -2, -2, -2, -2, 346, 13, -2, -2, -2, -2, -2, -2], "children_left": [1, 3, 17, 11, 5, 7, 9, -1, -1, -1, -1, 15, 13, -1, -1, -1, -1, -1, -1]}, {"children_right": [2, 4, 16, 6, 12, 8, 10, -1, -1, -1, -1, -1, 14, -1, -1, -1, 18, -1, -1], "thresholds": [0.5, 1.6299803256988525, -1.5737545490264893, -0.8234591484069824, 1.2326527833938599, 0.1760513335466385, 0.08553662896156311, -2.0, -2.0, -2.0, -2.0, -2.0, -0.6077784299850464, -2.0, -2.0, -2.0, 2.139235258102417, -2.0, -2.0], "values": [-9.3526440570533369e-05, -0.010157181143297002, 0.0018252418863122009, -0.0076299846404006199, -0.078324330322127905, 0.039934895572068599, -0.015554469245942679, -1.0320053396560214, 2.6689996491269556, -0.74714167178572533, 0.16090322785935182, -1.0441521437202628, -0.14424397609113715, -3.200257118383838, -0.40500519658885398, -0.91359740446214777, 0.0023199014287352193, -0.4025097809327205, 0.7062720800615141], "features": [218, 178, 130, 241, 382, 384, 12, -2, -2, -2, -2, -2, 217, -2, -2, -2, 385, -2, -2], "children_left": [1, 3, 15, 5, 11, 7, 9, -1, -1, -1, -1, -1, 13, -1, -1, -1, 17, -1, -1]}, {"children_right": [2, 18, 4, 6, 10, 8, 14, -1, -1, 12, 16, -1, -1, -1, -1, -1, -1, -1, -1], "thresholds": [-1.2779526710510254, -0.3937795162200928, -1.0131232738494873, -0.20631927251815796, 0.5, 1.9375660419464111, 0.6971367597579956, -2.0, -2.0, -0.8035330176353455, -0.3952847123146057, -2.0, -2.0, -2.0, -2.0, -2.0, -2.0, -2.0, -2.0], "values": [-6.2822715126345866e-05, -0.018832526172231835, 0.0011370568949168388, -0.026063987834975454, 0.0023108552708068103, 0.0027412526787816004, -0.046716746775572214, 0.25751329577391102, -3.6502609240564494, 0.0017969365869293986, 0.048631709816935507, -0.40194086070250823, 0.046668669702612936, -0.88785500953376795, -1.5572318174564435, -1.1269777460142412, 0.69256847728047122, -1.0545592511332096, -1.025171565080516], "features": [103, 178, 175, 301, 135, 250, 133, -2, -2, 274, 295, -2, -2, -2, -2, -2, -2, -2, -2], "children_left": [1, 17, 3, 5, 9, 7, 13, -1, -1, 11, 15, -1, -1, -1, -1, -1, -1, -1, -1]}, {"children_right": [2, 4, 12, -1, 6, 8, 10, -1, -1, -1, -1, 18, 14, 16, -1, -1, -1, -1, -1], "thresholds": [1.045454502105713, 0.5, 1.5, -2.0, -0.8611871004104614, 0.5882042050361633, 0.5, -2.0, -2.0, -2.0, -2.0, -0.12290970981121063, 0.021079346537590027, -0.29165512323379517, -2.0, -2.0, -2.0, -2.0, -2.0], "values": [-6.4460834133837661e-05, 0.00020150363936547467, -0.03407181826350044, 0.61219393571586689, -1.3816190191718338e-05, -0.0096892924193729083, 0.0012000041368363285, -0.49535721628073603, 0.41699345046047714, 0.046314942824551224, -0.057456403172406786, -0.020764175484135974, -0.041464953140925145, -0.037298551966270133, -1.0815944444864229, -1.0396617320820629, -1.05068013766577, -1.0193603321958111, -1.0378713855240691], "features": [298, 332, 0, -2, 130, 381, 177, -2, -2, -2, -2, 103, 384, 385, -2, -2, -2, -2, -2], "children_left": [1, 3, 11, -1, 5, 7, 9, -1, -1, -1, -1, 17, 13, 15, -1, -1, -1, -1, -1]}, {"children_right": [2, 6, 4, 14, 18, 8, -1, 12, 10, -1, -1, -1, -1, -1, 16, -1, -1, -1, -1], "thresholds": [2.697056293487549, 2.2973082065582275, 3.302119255065918, 3.0128445625305176, 0.5060757398605347, 0.7068005800247192, -2.0, -0.5401553511619568, 0.3937795162200928, -2.0, -2.0, -2.0, -2.0, -2.0, 0.32897478342056274, -2.0, -2.0, -2.0, -2.0], "values": [-6.0353351991308919e-05, -0.0055931296681393534, 0.034711796951905141, -0.62480287042542826, 0.045538859935449573, -0.0053864934303198388, -2.9804073769796355, -0.0010777183836452211, -0.019178482045412237, -0.0995360976478077, -0.77605992783862421, 0.18436664989021997, -0.13153455071732947, -6.7872526715508759, -0.537442324881795, -1.9276533470195607, -4.4989174671520082, 0.98197438521018221, 0.87464289289663155], "features": [382, 103, 385, 382, 223, 130, -2, 13, 100, -2, -2, -2, -2, -2, 259, -2, -2, -2, -2], "children_left": [1, 5, 3, 13, 17, 7, -1, 11, 9, -1, -1, -1, -1, -1, 15, -1, -1, -1, -1]}, {"children_right": [2, 4, 16, 6, 10, 14, 8, -1, -1, -1, 12, -1, -1, -1, -1, 18, -1, -1, -1], "thresholds": [-0.5401553511619568, 1.21632981300354, 0.5469056963920593, 0.18907025456428528, 0.6839396953582764, 0.5, -0.7286180257797241, -2.0, -2.0, -2.0, 0.10000000149011612, -2.0, -2.0, -2.0, -2.0, 1.9375660419464111, -2.0, -2.0, -2.0], "values": [-1.7325921344859802e-05, 0.012382388947376909, -0.0038418657156899178, 0.016564531386539363, -0.041247963708290536, -0.035403650999903065, 0.12664971777248019, 6.5134487049693028, 0.8542544687501642, 0.20743626663073264, -0.09361065505656202, -1.4219016213773652, -0.4632736382141347, -1.0673661218816088, -1.0243001879575895, -0.0078972129069401539, 0.05925670152906997, -0.15054457350304343, 0.85220636740811873], "features": [13, 265, 223, 384, 222, 260, 274, -2, -2, -2, 217, -2, -2, -2, -2, 217, -2, -2, -2], "children_left": [1, 3, 15, 5, 9, 13, 7, -1, -1, -1, 11, -1, -1, -1, -1, 17, -1, -1, -1]}, {"children_right": [2, 4, 8, 6, -1, -1, -1, 16, 10, 12, 14, -1, -1, -1, -1, 18, -1, -1, -1], "thresholds": [-0.4920791983604431, 0.8441162705421448, -0.4621928930282593, 1.0968711376190186, -2.0, -2.0, -2.0, 0.6971367597579956, 0.5, -0.8035330176353455, 0.10000000149011612, -2.0, -2.0, -2.0, -2.0, 2.0246949195861816, -2.0, -2.0, -2.0], "values": [-7.1678271234411478e-05, 0.053262947799023262, -0.00043262836936430813, 0.08918566403636638, -1.8938590387728398, -1.0541289881381353, 1.4311025356830371, -0.014027299405361805, 0.00097747123004210032, 0.00046861091173531219, 0.04896066710559048, -0.61639603609952842, 0.022461018263085553, 0.21086528716789407, 0.77970323504498074, -0.023046079120541654, -0.19178388784790151, -0.76878422777339062, -2.8760469572279392], "features": [139, 241, 295, 13, -2, -2, -2, 235, 135, 262, 103, -2, -2, -2, -2, 76, -2, -2, -2], "children_left": [1, 3, 7, 5, -1, -1, -1, 15, 9, 11, 13, -1, -1, -1, -1, 17, -1, -1, -1]}, {"children_right": [2, 4, 6, 14, -1, 8, 12, 18, 10, -1, -1, -1, -1, -1, 16, -1, -1, -1, -1], "thresholds": [-0.22332988679409027, 2.510444164276123, 3.116487979888916, -0.2805787920951843, -2.0, 4.731793403625488, 3.022355079650879, 1.0604782104492188, -0.7207897305488586, -2.0, -2.0, -2.0, -2.0, -2.0, 2.7986507415771484, -2.0, -2.0, -2.0, -2.0], "values": [-6.9988758116987069e-05, -0.0063774577772416317, 0.0027249540457460648, -0.016986934674867483, 0.67346666356531004, 0.0036740573847519331, -0.056304400154126112, -0.0081586696701870503, 0.012168229041517355, -0.54442581127812739, 0.21115087741276745, -1.5028797151560003, 0.65757031759475448, -0.27039192406796908, -0.034259635183150824, -0.49689717132401851, -3.9409523053866082, -0.17778080998497825, 0.37272603741552895], "features": [292, 382, 178, 178, -2, 174, 382, 103, 382, -2, -2, -2, -2, -2, 295, -2, -2, -2, -2], "children_left": [1, 3, 5, 13, -1, 7, 11, 17, 9, -1, -1, -1, -1, -1, 15, -1, -1, -1, -1]}, {"children_right": [2, 18, 4, 6, 10, 8, 14, -1, -1, 12, 16, -1, -1, -1, -1, -1, -1, -1, -1], "thresholds": [-0.8611871004104614, -0.10000000149011612, 0.6152932643890381, 1.21632981300354, 0.5, 0.148698091506958, 0.6763305068016052, -2.0, -2.0, 1.5053503513336182, 0.5, -2.0, -2.0, -2.0, -2.0, -2.0, -2.0, -2.0, -2.0], "values": [-6.4670843596743055e-05, -0.0091158511535961075, 0.0010713555009914781, 0.0034604704765084948, -0.0072167287867921362, 0.0044793715688902546, -0.058336331533656388, -1.0499895203063045, 0.48962278280478022, -0.021547035788384079, 0.0062834919131364965, -0.66232721862411559, 0.50175963628055908, -0.6013050175154836, -1.7801657120954517, -0.30297332908578528, 0.30368788518069112, -0.81327112071365104, 0.087653942324888809], "features": [130, 295, 277, 133, 177, 384, 130, -2, -2, 1, 251, -2, -2, -2, -2, -2, -2, -2, -2], "children_left": [1, 17, 3, 5, 9, 7, 13, -1, -1, 11, 15, -1, -1, -1, -1, -1, -1, -1, -1]}, {"children_right": [2, 4, 14, 6, 12, 10, 8, -1, -1, -1, -1, -1, -1, -1, 16, -1, 18, -1, -1], "thresholds": [2.7316031455993652, 3.276721477508545, 3.165839672088623, 1.7102422714233398, 6.209623336791992, 0.9432945251464844, 0.9136359691619873, -2.0, -2.0, -2.0, -2.0, -2.0, -2.0, -2.0, 0.5, -2.0, 0.45717573165893555, -2.0, -2.0], "values": [-0.00011278234127499125, -0.017679429343035166, 0.05174910983363705, -0.01702617845707417, -0.21710368566851129, -0.010548382216732034, -0.15076154564316549, -1.5302327621702692, -0.3807002644466364, -0.141437907405186, -0.82732963831032957, -2.3555524520512585, -1.0256084089253343, 0.36432691917109739, 0.056335257532096845, 1.010113903900633, 0.04636067824696976, 1.0126645710938518, 0.82705417630943301], "features": [385, 265, 385, 382, 174, 253, 381, -2, -2, -2, -2, -2, -2, -2, 240, -2, 130, -2, -2], "children_left": [1, 3, 13, 5, 11, 9, 7, -1, -1, -1, -1, -1, -1, -1, 15, -1, 17, -1, -1]}, {"children_right": [2, 12, 4, 6, -1, 8, 10, -1, -1, -1, -1, -1, 14, 18, 16, -1, -1, -1, -1], "thresholds": [0.686886727809906, -0.20206207036972046, 3.7936034202575684, 0.8020049333572388, -2.0, 1.9375660419464111, 0.5, -2.0, -2.0, -2.0, -2.0, -2.0, 0.2916666865348816, 1.1041377782821655, 0.41732487082481384, -2.0, -2.0, -2.0, -2.0], "values": [-6.2147590907587292e-05, 0.0020574223753230618, -0.0072916621927426109, -0.0087927564694294854, 1.0332674542280402, -0.044504217558637427, 0.038599940749531637, -0.49009383738298118, -2.0037485727129147, 0.62762434297578351, 0.91230410550275565, -1.1073949947529518, 0.0027155727219012791, -0.017925670941813215, 0.004025330328924776, 0.1546078418058611, -0.094798850521937747, -0.20506587420639064, -2.2479932558470876], "features": [271, 361, 265, 384, -2, 262, 257, -2, -2, -2, -2, -2, 171, 250, 259, -2, -2, -2, -2], "children_left": [1, 11, 3, 5, -1, 7, 9, -1, -1, -1, -1, -1, 13, 17, 15, -1, -1, -1, -1]}, {"children_right": [2, 4, 16, 12, 6, 8, 10, -1, -1, -1, -1, 14, -1, -1, -1, 18, -1, -1, -1], "thresholds": [0.9152103662490845, -0.0036030979827046394, 0.5, 2.707313060760498, -0.5401553511619568, -0.8234591484069824, 0.8308254480361938, -2.0, -2.0, -2.0, -2.0, -0.29003044962882996, -2.0, -2.0, -2.0, 5.396686553955078, -2.0, -2.0, -2.0], "values": [-4.9081051518349367e-05, -0.0015123771584465602, 0.024690720200110521, -0.0076309297257744152, 0.00346437334373101, 0.01986833554303612, -0.0010536024108473957, 1.4865457900786145, 0.055608508843531648, 0.12150109050946989, -0.25809145303697201, -0.0082219855840258947, 0.83207627930346395, -0.69927634942242478, 0.031771154462960041, 0.02675961849508799, -0.36740810217865644, 0.54377820040763658, -0.31305048234128208], "features": [12, 223, 126, 361, 13, 241, 241, -2, -2, -2, -2, 1, -2, -2, -2, 174, -2, -2, -2], "children_left": [1, 3, 15, 11, 5, 7, 9, -1, -1, -1, -1, 13, -1, -1, -1, 17, -1, -1, -1]}, {"children_right": [2, 14, 4, 6, 10, -1, 8, -1, -1, -1, 12, -1, -1, 16, -1, 18, -1, -1, -1], "thresholds": [0.7476863861083984, 1.5, 0.5, 0.017463689669966698, -1.21632981300354, -2.0, 0.7261859178543091, -2.0, -2.0, -2.0, 0.20316927134990692, -2.0, -2.0, 0.5, -2.0, 0.8234591484069824, -2.0, -2.0, -2.0], "values": [-5.8857863738924482e-05, -0.021488985835792965, 0.03477069070530369, 0.016253495472139032, 0.051306862070408819, 0.95063439448787812, 0.0017642376199251473, -1.2932635267005419, 0.45703395820907422, 1.1798915013027083, 0.049078866624954691, 0.56413888161361692, 0.31285444481861385, -0.015599550685032663, -1.0599330726853082, -0.011648348339127406, -1.0750285667896249, -0.28599448546657202, -1.1273757742898796], "features": [385, 0, 179, 12, 103, -2, 384, -2, -2, -2, 12, -2, -2, 294, -2, 268, -2, -2, -2], "children_left": [1, 13, 3, 5, 9, -1, 7, -1, -1, -1, 11, -1, -1, 15, -1, 17, -1, -1, -1]}, {"children_right": [2, 12, 4, 16, 6, 8, 10, -1, -1, -1, -1, -1, 14, -1, -1, -1, 18, -1, -1], "thresholds": [0.5, -0.10000000149011612, -0.16037489473819733, -0.10000000149011612, 0.5, -0.6368218660354614, 0.5, -2.0, -2.0, -2.0, -2.0, -2.0, 0.5, -2.0, -2.0, -2.0, -0.36956101655960083, -2.0, -2.0], "values": [-8.4625227375576236e-05, 0.021657227525726391, -0.00037979579014502498, -0.022931764301194361, 0.026878409957162515, 0.054865535276069188, 0.017638133779466859, 1.1464530723218376, 0.38009892738013173, 0.16370098164921901, 0.45233682186767854, -1.6499508614238976, 0.033299525373594353, 0.054724812926770304, 0.76635467207468611, -1.0246376453411701, -0.026138933520296361, -1.0164962553027417, -0.75670918873159798], "features": [248, 346, 385, 292, 273, 268, 131, -2, -2, -2, -2, -2, 264, -2, -2, -2, 259, -2, -2], "children_left": [1, 11, 3, 15, 5, 7, 9, -1, -1, -1, -1, -1, 13, -1, -1, -1, 17, -1, -1]}, {"children_right": [2, 4, 18, 6, 10, 8, 16, -1, -1, 14, 12, -1, -1, -1, -1, -1, -1, -1, -1], "thresholds": [-0.645138144493103, 0.5, 0.5, 0.7890198230743408, 0.5, -0.8234591484069824, -0.10000000149011612, -2.0, -2.0, 4.241300582885742, 3.4765233993530273, -2.0, -2.0, -2.0, -2.0, -2.0, -2.0, -2.0, -2.0], "values": [-0.0001211695457409631, 0.013230640770011104, -0.004093842769161706, 0.028279035952185106, -0.00025157763704952783, 0.05336783565725204, -0.044618788723734065, -0.23773450894590581, 1.1523337069464943, 0.010978304262557692, -0.018877550554424041, -0.86933511124313201, 1.0695434800086945, 1.3628980601403737, 0.013928605067721837, 0.030391374243664039, -1.3616284427464329, -0.080770043785044238, 0.37124804030733505], "features": [241, 273, 246, 13, 278, 262, 346, -2, -2, 174, 385, -2, -2, -2, -2, -2, -2, -2, -2], "children_left": [1, 3, 17, 5, 9, 7, 15, -1, -1, 13, 11, -1, -1, -1, -1, -1, -1, -1, -1]}, {"children_right": [2, 4, -1, 10, 6, 14, 8, -1, -1, 16, 12, -1, -1, -1, -1, -1, -1], "thresholds": [0.5824985504150391, 3.116487979888916, -2.0, 0.5, 0.6839396953582764, 0.6074303984642029, 0.5, -2.0, -2.0, 0.5, -0.523861289024353, -2.0, -2.0, -2.0, -2.0, -2.0, -2.0], "values": [-0.00012538079014789272, -0.00025909023723930694, 1.0225107181975686, 0.00022717578036440028, -0.043599130589437332, -0.016128787525287035, -0.10571288132789942, -0.056003208527287997, -2.1891256490804274, -0.014656694498102828, 0.00067370017290988764, -0.39917890664409544, 0.041530053219344047, -0.13589112464377781, -1.0939459425651674, -0.32606765734306614, 0.1347043153188173], "features": [345, 178, -2, 143, 222, 175, 101, -2, -2, 255, 76, -2, -2, -2, -2, -2, -2], "children_left": [1, 3, -1, 9, 5, 13, 7, -1, -1, 15, 11, -1, -1, -1, -1, -1, -1]}, {"children_right": [2, 14, 4, 6, 10, -1, 8, -1, -1, 12, -1, -1, -1, -1, 16, 18, -1, -1, -1], "thresholds": [0.14922261238098145, -0.10000000149011612, 0.6671422719955444, -0.5, 3.161600112915039, -2.0, 0.6971367597579956, -2.0, -2.0, 3.116487979888916, -2.0, -2.0, -2.0, -2.0, 0.022723529487848282, -0.1805787831544876, -2.0, -2.0, -2.0], "values": [-0.00011470458770905192, -0.025185452301038854, 0.03276475391243782, 0.19960951416796796, 0.0073877988411167692, -1.2206620965444823, 0.20320098708987022, 1.691495682673565, 0.91842802656153044, -0.0002736656406964426, 0.77836267923570313, 0.0078838491347701101, -2.2918441343352853, -1.0265917564440101, -0.031034877562348594, -0.017491400610179814, -1.0507779272714657, -1.0130078948740426, -1.0266441842116205], "features": [384, 292, 382, 79, 382, -2, 241, -2, -2, 178, -2, -2, -2, -2, 384, 103, -2, -2, -2], "children_left": [1, 13, 3, 5, 9, -1, 7, -1, -1, 11, -1, -1, -1, -1, 15, 17, -1, -1, -1]}, {"children_right": [2, 16, 4, 12, 6, 8, 10, -1, -1, -1, -1, -1, 14, -1, -1, -1, 18, -1, -1], "thresholds": [-0.5, 0.14433756470680237, -0.20206207036972046, -3.116487979888916, -0.8910844326019287, -0.32491636276245117, 0.645138144493103, -2.0, -2.0, -2.0, -2.0, -2.0, 0.9125949740409851, -2.0, -2.0, -2.0, -0.10000000149011612, -2.0, -2.0], "values": [-0.0001731523234702574, -0.019583958774908952, 9.9609275813625304e-05, -0.0079574414496079195, 0.0021592880497510055, -0.023815046216838751, 0.0037473554655441418, 0.24727480620865155, -0.88521954701310424, 0.10599962937243261, -0.15902731890901819, -2.3685119399657864, -0.0075703867984782671, -0.50150132650067658, 0.49513870920277631, -1.049676035084224, -0.012883386165980924, -1.0105144554474188, -1.1858056538806758], "features": [228, 100, 301, 259, 268, 277, 277, -2, -2, -2, -2, -2, 381, -2, -2, -2, 277, -2, -2], "children_left": [1, 15, 3, 11, 5, 7, 9, -1, -1, -1, -1, -1, 13, -1, -1, -1, 17, -1, -1]}, {"children_right": [2, 16, 4, 10, 6, 14, 8, -1, -1, -1, 12, -1, -1, -1, -1, -1, 18, -1, -1], "thresholds": [-0.44024962186813354, 0.4646579623222351, 0.41732487082481384, 0.5, 0.6612870693206787, 0.5, 1.4859800338745117, -2.0, -2.0, -2.0, -0.3652160167694092, -2.0, -2.0, -2.0, -2.0, -2.0, 0.42861223220825195, -2.0, -2.0], "values": [-0.00015903000922385562, -0.017285893890033231, 0.00080952963268019623, 0.0034158570166669586, -0.0032318853591981685, -0.033900250027622626, 0.031591158470114442, 0.67305709730377139, 0.15441961705381568, 0.65860713003840121, 0.0028559679771042899, -0.59844184233135789, 0.088773986651630651, -0.74501953042117508, -0.8039522838001677, -0.58976905495975684, -0.042221730722829302, -0.50542855906934958, -2.1713374221436963], "features": [172, 1, 259, 137, 384, 177, 253, -2, -2, -2, 217, -2, -2, -2, -2, -2, 262, -2, -2], "children_left": [1, 15, 3, 9, 5, 13, 7, -1, -1, -1, 11, -1, -1, -1, -1, -1, 17, -1, -1]}, {"children_right": [2, 16, 4, 6, 10, 8, -1, -1, -1, 14, 12, -1, -1, -1, -1, -1, 18, -1, -1], "thresholds": [-0.10000000149011612, 0.26148927211761475, 0.5000038743019104, -0.5844641923904419, 0.5, -1.0400617122650146, -2.0, -2.0, -2.0, 2.197299003601074, -0.13956663012504578, -2.0, -2.0, -2.0, -2.0, -2.0, 0.5536621809005737, -2.0, -2.0], "values": [-0.00014198794745621238, -0.0068917212330321768, 0.0017243705801694863, 0.004932094778034868, -0.0061223918286085182, 0.020541778541823884, -0.032723646025021674, -0.64598550527863519, 0.63888606182033381, -0.013593923922178322, 0.0018610670049898199, -1.0470177780214978, 0.53895034091279537, -0.11006980311096907, -0.65216921908448522, -0.42409411434869992, 0.0037203572065052778, -1.3149310016955038, 0.44180045231623444], "features": [286, 12, 12, 241, 266, 241, -2, -2, -2, 262, 385, -2, -2, -2, -2, -2, 384, -2, -2], "children_left": [1, 15, 3, 5, 9, 7, -1, -1, -1, 13, 11, -1, -1, -1, -1, -1, 17, -1, -1]}, {"children_right": [2, 10, 4, 6, 18, 8, -1, -1, -1, 12, -1, 16, 14, -1, -1, -1, -1, -1, -1], "thresholds": [0.7388034462928772, 1.152872085571289, 3.6391220092773438, 0.5, 0.7070894837379456, 0.8647958636283875, -2.0, -2.0, -2.0, 0.5548369884490967, -2.0, -0.20206207036972046, 0.5844641923904419, -2.0, -2.0, -2.0, -2.0, -2.0, -2.0], "values": [-0.0001405089127731861, 0.0015745620733112048, -0.0070878081516517226, -0.0088827113071620317, 0.034540654893800385, -0.052275036063026921, -0.1283690059703658, -4.190878903555034, 0.42863763950485112, 0.0013573509129196717, 0.84176067044920033, -0.00027632860040430185, 0.016800860987459081, 1.4249814692805112, 0.17368632119398161, -1.2030717566533025, 0.006195297054414131, 1.0634471224702324, -0.18585361363454017], "features": [271, 136, 223, 293, 133, 1, -2, -2, -2, 271, -2, 361, 271, -2, -2, -2, -2, -2, -2], "children_left": [1, 9, 3, 5, 17, 7, -1, -1, -1, 11, -1, 15, 13, -1, -1, -1, -1, -1, -1]}, {"children_right": [2, 18, 4, 6, 10, 8, 16, -1, -1, 14, 12, -1, -1, -1, -1, -1, -1, -1, -1], "thresholds": [-0.4621928930282593, 1.319639801979065, 1.1041377782821655, -0.5401553511619568, -0.2656053900718689, 0.2443375587463379, -0.10000000149011612, -2.0, -2.0, -0.4623175263404846, 0.5548369884490967, -2.0, -2.0, -2.0, -2.0, -2.0, -2.0, -2.0, -2.0], "values": [-0.00012616367466477361, -0.0092588286261298895, 0.00082765974734267886, 0.0038723438132845485, -0.014272321237152304, 0.019107063790825898, -0.00095426706846472604, 0.25308531981328314, 2.0622196252845941, 0.01150591209327973, -0.026521895209028607, -0.64744822893904064, -0.0017273557024640672, -0.23212266663995429, 0.66410103617051019, -0.43194423026451351, 0.015287551145799235, -0.53398298650440945, 0.18256671125831261], "features": [295, 265, 241, 13, 265, 229, 217, -2, -2, 223, 235, -2, -2, -2, -2, -2, -2, -2, -2], "children_left": [1, 17, 3, 5, 9, 7, 15, -1, -1, 13, 11, -1, -1, -1, -1, -1, -1, -1, -1]}, {"children_right": [2, 14, 4, 6, 10, 8, -1, -1, -1, -1, 12, -1, -1, 16, -1, -1, 18, -1, -1], "thresholds": [0.09256117045879364, 4.949489593505859, -0.6368218660354614, 0.7377843856811523, -0.10000000149011612, -0.8952847123146057, -2.0, -2.0, -2.0, -2.0, -0.99484783411026, -2.0, -2.0, 0.6016526222229004, -2.0, -2.0, -0.5, -2.0, -2.0], "values": [-0.00011749236649976225, -0.0051885700900797882, 0.0020781947923424523, 0.034497707604220877, 0.00039997101736945434, 0.11116614004468889, -0.57818753117013921, 1.9460746156683755, 0.16305085518176449, -0.26983678676485523, 0.0018126614661478099, 0.20850594280029686, -0.032385666125148475, -0.0048708393452472683, -2.8062484700984975, -0.63351895633474886, 0.048314391452288434, 1.0133576313929664, 0.51717383853600052], "features": [222, 304, 262, 381, 262, 13, -2, -2, -2, -2, 175, -2, -2, 384, -2, -2, 267, -2, -2], "children_left": [1, 13, 3, 5, 9, 7, -1, -1, -1, -1, 11, -1, -1, 15, -1, -1, 17, -1, -1]}, {"children_right": [2, 4, 12, 14, 6, 8, 10, -1, -1, -1, -1, -1, -1, 18, 16, -1, -1, -1, -1], "thresholds": [1.319639801979065, 4.722943305969238, 1.4371843338012695, 1.3718374967575073, 0.2035667896270752, 1.0898282527923584, -0.4920791983604431, -2.0, -2.0, -2.0, -2.0, -2.0, -2.0, -0.6672919392585754, -0.32491636276245117, -2.0, -2.0, -2.0, -2.0], "values": [-0.00011811086505300749, 0.00069098651522599489, -0.010532192608447342, -0.004734729294667687, 0.0051568678994941691, -0.012919952765134898, 0.010929492000494138, -1.025369163808342, 0.77284006893471502, 0.76366350598314892, 0.13413874086713962, -0.059660946815002697, -0.41281158121814521, -0.0058678598020435232, 0.0059755863995045897, 0.93138512768491377, -0.03874836437786288, -0.85807967214497038, -0.12535297712422094], "features": [274, 174, 241, 235, 381, 385, 139, -2, -2, -2, -2, -2, -2, 268, 277, -2, -2, -2, -2], "children_left": [1, 3, 11, 13, 5, 7, 9, -1, -1, -1, -1, -1, -1, 17, 15, -1, -1, -1, -1]}, {"children_right": [2, 4, 18, 6, 12, 8, 10, -1, -1, -1, -1, 14, 16, -1, -1, -1, -1, -1, -1], "thresholds": [4.6675801277160645, 2.9546658992767334, 1.1983685493469238, 1.7135109901428223, 0.5, 1.7692387104034424, 1.529193639755249, -2.0, -2.0, -2.0, -2.0, 0.7580780982971191, 0.517836332321167, -2.0, -2.0, -2.0, -2.0, -2.0, -2.0], "values": [-0.00011548749175231087, -0.0010195423495760708, 0.021461346224870829, -0.011561450082734759, 0.042344383234742211, -0.0099444441544148145, -0.072100641574218735, -0.10274379255642796, -1.1914930213727137, -0.80374377877430336, -2.7052733714112973, 0.038798786335195116, 0.081179811029910454, 0.90915201360412246, 0.72892530615165219, 0.84213136282571111, 1.1068822010503563, 1.0313118313207321, 0.97834321600269991], "features": [13, 385, 1, 130, 260, 382, 259, -2, -2, -2, -2, 384, 277, -2, -2, -2, -2, -2, -2], "children_left": [1, 3, 17, 5, 11, 7, 9, -1, -1, -1, -1, 13, 15, -1, -1, -1, -1, -1, -1]}, {"children_right": [2, 4, 6, -1, 12, 8, 14, 10, -1, -1, -1, -1, -1, 18, 16, -1, -1, -1, -1], "thresholds": [0.5, 0.6077784299850464, -0.20206207036972046, -2.0, 0.5, 3.415639877319336, -0.10000000149011612, 2.676882028579712, -2.0, -2.0, -2.0, -2.0, -2.0, 0.4629100561141968, -0.25213709473609924, -2.0, -2.0, -2.0, -2.0], "values": [-7.0809641197344805e-05, 0.013342573200855233, -0.00025291168222811502, -0.65813684686754315, 0.040674955339247296, -0.007187934424832584, 0.0015745165974802536, -0.01032970452159271, 0.85249891254698329, -0.30561705154588686, -4.0684970342621387, 0.040977614689862281, 0.79357176400636942, -0.033709966591241154, 0.0017203903009179026, -1.0354238056569383, 0.26506657780768228, -1.0107106723272938, -1.2007594620314592], "features": [248, 241, 301, -2, 270, 13, 151, 127, -2, -2, -2, -2, -2, 76, 385, -2, -2, -2, -2], "children_left": [1, 3, 5, -1, 11, 7, 13, 9, -1, -1, -1, -1, -1, 17, 15, -1, -1, -1, -1]}, {"children_right": [2, 12, 4, 6, -1, 8, 10, -1, -1, -1, -1, 16, 14, -1, 18, -1, -1, -1, -1], "thresholds": [0.14922261238098145, 0.5, 0.5, 0.377706378698349, -2.0, 0.5, -0.6541777849197388, -2.0, -2.0, -2.0, -2.0, -0.32491636276245117, -0.5, -2.0, 0.2253698706626892, -2.0, -2.0, -2.0, -2.0], "values": [-9.7797205382033211e-05, -0.019064117436536712, 0.024775906047161241, 0.014024332063734242, 0.29185219263061302, 0.23854836052093467, 0.00027862992594324977, 2.1829223648603922, 0.88723998976987051, -0.661295657812079, 0.12932928537603242, -0.015303275552436778, -0.024356892091864677, -1.0127021226779069, -0.027814295219976633, -1.0162450690181177, -1.0300152839099477, -1.0331723222335147, -1.0494455954222379], "features": [384, 162, 101, 381, -2, 234, 250, -2, -2, -2, -2, 178, 102, -2, 382, -2, -2, -2, -2], "children_left": [1, 11, 3, 5, -1, 7, 9, -1, -1, -1, -1, 15, 13, -1, 17, -1, -1, -1, -1]}, {"children_right": [2, 4, -1, 12, 6, 8, 10, -1, -1, -1, -1, -1, 14, -1, -1], "thresholds": [0.5824985504150391, -0.8910844326019287, -2.0, -0.10000000149011612, 0.6495611071586609, -0.6368218660354614, 0.5, -2.0, -2.0, -2.0, -2.0, -2.0, 0.9233835935592651, -2.0, -2.0], "values": [-0.00013954022463057389, -0.00026025517557554215, 1.0178968727189648, -0.020422539774789288, 0.00078927791299390347, 0.0040777084484785418, -0.0066769149376930915, 0.7682436530579132, 0.043355138760993964, 0.6884896996109986, -0.16044843076151186, -1.1873633244099056, -0.019978568212989621, -0.42443701271007489, -1.4978837070125894], "features": [345, 268, -2, 358, 235, 268, 170, -2, -2, -2, -2, -2, 381, -2, -2], "children_left": [1, 3, -1, 11, 5, 7, 9, -1, -1, -1, -1, -1, 13, -1, -1]}, {"children_right": [2, 6, 4, -1, -1, 14, 8, 10, 12, -1, -1, -1, -1, 18, 16, -1, -1, -1, -1], "thresholds": [1.21632981300354, 0.5, -0.10000000149011612, -2.0, -2.0, -1.21632981300354, 0.2981976270675659, 1.1041377782821655, 1.5, -2.0, -2.0, -2.0, -2.0, -0.10000000149011612, 0.5, -2.0, -2.0, -2.0, -2.0], "values": [-0.00012811742817913125, 0.00060752694999335801, -0.014328600805997188, -3.8188071929786216, -0.38517751768783387, -0.0030293998837993578, 0.001976952354561736, 0.0061227143497009995, -0.0059647997488440612, 0.20779171622951631, -0.29330937678959673, -0.31344494885914753, 0.1075115291356508, 0.042188036027834268, -0.0044724013559329029, 0.0051111743451133698, -0.62858738743133025, -1.074265442939373, 0.82138731844289181], "features": [133, 179, 268, -2, -2, 133, 103, 241, 0, -2, -2, -2, -2, 271, 101, -2, -2, -2, -2], "children_left": [1, 5, 3, -1, -1, 13, 7, 9, 11, -1, -1, -1, -1, 17, 15, -1, -1, -1, -1]}, {"children_right": [2, 4, 12, 6, 8, -1, -1, 10, -1, -1, -1, -1, 14, 16, 18, -1, -1, -1, -1], "thresholds": [8.5, -0.40798091888427734, -0.32491636276245117, -0.49505412578582764, 4.847405433654785, -2.0, -2.0, 4.232050895690918, -2.0, -2.0, -2.0, -2.0, 5.670955657958984, 0.5, 4.853806018829346, -2.0, -2.0, -2.0, -2.0], "values": [-0.00011508262237690932, 0.00046522909587285539, -0.012971979042023818, 0.030352991115298048, 0.00035527058979907436, 0.75473398859180429, -1.0775795522490377, 0.00023030575695733672, 0.90970996547301819, 0.00077855715078521594, 1.0104166007852893, 0.27114636073380982, -0.015904115470474586, -0.029675155692270423, 0.013910044248856562, -1.7892416904267443, -0.536016987673679, 0.14485342162437345, 0.86715901754264813], "features": [0, 346, 76, 382, 331, -2, -2, 265, -2, -2, -2, -2, 174, 240, 1, -2, -2, -2, -2], "children_left": [1, 3, 11, 5, 7, -1, -1, 9, -1, -1, -1, -1, 13, 15, 17, -1, -1, -1, -1]}, {"children_right": [2, 4, 8, 6, 18, -1, 14, -1, 10, 12, 16, -1, -1, -1, -1, -1, -1, -1, -1], "thresholds": [-0.10000000149011612, 0.7068005800247192, -0.1692287027835846, -0.10000000149011612, -0.523861289024353, -2.0, 0.5, -2.0, -0.6071946620941162, -0.7033793926239014, 1.665375828742981, -2.0, -2.0, -2.0, -2.0, -2.0, -2.0, -2.0, -2.0], "values": [-0.00010056197134543964, 0.003603583134969693, -0.0076004120266257632, 0.0090876922269475403, -0.0065726532806083954, -0.16012026523867895, 0.018055177284902944, -0.35040150286446098, 0.0013540456390100457, 0.062945812114317629, -0.0021795045696867553, 1.3702861919998288, -0.26344113685303466, 0.357437980557341, 0.16980643010950905, -0.11626118473730003, 0.49412743167511325, -1.0340240938438412, -0.06230426721525046], "features": [127, 130, 1, 265, 253, -2, 255, -2, 268, 382, 223, -2, -2, -2, -2, -2, -2, -2, -2], "children_left": [1, 3, 7, 5, 17, -1, 13, -1, 9, 11, 15, -1, -1, -1, -1, -1, -1, -1, -1]}, {"children_right": [2, 8, 4, 6, -1, -1, -1, 10, 12, 18, -1, 16, 14, -1, -1, -1, -1, -1, -1], "thresholds": [0.7374399304389954, -1.2189006805419922, -0.10000000149011612, 2.5077362060546875, -2.0, -2.0, -2.0, 1.450502634048462, 0.9432945251464844, 0.1299547553062439, -2.0, 3.5, 1.8107852935791016, -2.0, -2.0, -2.0, -2.0, -2.0, -2.0], "values": [-9.4621425682426483e-05, -0.013164014650469185, 0.03156295059831056, 0.051962056834445394, 0.52256388135376541, 0.86188844260550457, 0.12052174930649884, -0.029771749767980128, -0.012467471825314574, -0.016007670926021213, -2.3954997599507841, -0.010034992980302608, -0.03362284620603842, -0.72907004298248956, -1.3205012866636352, -0.15353283777479015, -1.3534201097781973, -1.0177067313519292, -1.1962259585044739], "features": [384, 175, 133, 223, -2, -2, -2, 385, 76, 385, -2, 0, 385, -2, -2, -2, -2, -2, -2], "children_left": [1, 7, 3, 5, -1, -1, -1, 9, 11, 17, -1, 15, 13, -1, -1, -1, -1, -1, -1]}, {"children_right": [2, 4, 12, 6, -1, 8, 10, -1, -1, -1, -1, -1, 14, 16, 18, -1, -1, -1, -1], "thresholds": [0.9629100561141968, 0.325391948223114, -0.10000000149011612, 0.20370131731033325, -2.0, 0.45983773469924927, -0.10000000149011612, -2.0, -2.0, -2.0, -2.0, -2.0, 0.9963351488113403, -0.4621928930282593, -0.10000000149011612, -2.0, -2.0, -2.0, -2.0], "values": [-6.7761438072704851e-05, 0.0029182871621658028, -0.0098584879236763897, 0.0027212419525913978, 0.70318455530440149, -0.0082419610428726767, 0.0084190045802749001, -1.023992475635052, 0.94947578024153501, 0.30834675693677832, -0.0013424552361040562, -3.0836874766298341, -0.009159341342091348, -0.021299216043639109, 0.0049050120245435992, 0.364024790899448, -0.45505440383606305, -0.98758931805892558, 0.11999660529186118], "features": [241, 220, 328, 381, -2, 384, 178, -2, -2, -2, -2, -2, 13, 178, 166, -2, -2, -2, -2], "children_left": [1, 3, 11, 5, -1, 7, 9, -1, -1, -1, -1, -1, 13, 15, 17, -1, -1, -1, -1]}, {"children_right": [2, 4, 12, 10, 6, -1, 8, -1, -1, -1, -1, 14, 16, -1, -1, 18, -1, -1, -1], "thresholds": [-0.10000000149011612, -0.25213709473609924, 0.10000000149011612, 0.5, -0.5, -2.0, 0.2981976270675659, -2.0, -2.0, -2.0, -2.0, 3.247220516204834, -0.10000000149011612, -2.0, -2.0, -0.3801004886627197, -2.0, -2.0, -2.0], "values": [-7.0824811044680307e-05, 0.0030412166450365882, -0.0063718318225232272, -0.014398986273927826, 0.017734195810358764, 0.72364265058477861, 0.014389244150100903, 0.42600871273738844, 0.041325744390277919, -1.030634876177311, -1.0091401676761769, -0.0116026012605332, 0.00092853464539805787, -0.32295203639208098, 1.0584159426447799, 0.012164614020261021, -0.12670471745231102, 0.82860638295552569, 0.11173803663943886], "features": [127, 385, 217, 260, 267, -2, 103, -2, -2, -2, -2, 385, 298, -2, -2, 313, -2, -2, -2], "children_left": [1, 3, 11, 9, 5, -1, 7, -1, -1, -1, -1, 13, 15, -1, -1, 17, -1, -1, -1]}, {"children_right": [2, 18, 4, 6, 8, 10, 14, 12, 16, -1, -1, -1, -1, -1, -1, -1, -1, -1, -1], "thresholds": [-0.4621928930282593, 0.09545454382896423, -0.5401553511619568, 1.1239359378814697, 0.9029743671417236, -0.6368218660354614, -0.6971367597579956, 0.2108575701713562, -0.5773497819900513, -2.0, -2.0, -2.0, -2.0, -2.0, -2.0, -2.0, -2.0, -2.0, -2.0], "values": [-7.8763231371721835e-05, -0.0063218283303178319, 0.00057326788420497391, 0.0069843062530066929, -0.0014615674122037735, 0.01525643427062881, -0.033704532406673031, -0.0063755182883644072, 0.017120026822378929, 0.85637583088260227, 0.19740344872842158, -0.22194889713691601, 0.2231110012665338, -0.19388168992427107, -0.47888380016171983, -1.2539164143601222, 0.39130177940696442, 0.51099822451625243, -0.3388333846772888], "features": [295, 171, 13, 241, 381, 262, 130, 172, 262, -2, -2, -2, -2, -2, -2, -2, -2, -2, -2], "children_left": [1, 17, 3, 5, 7, 9, 13, 11, 15, -1, -1, -1, -1, -1, -1, -1, -1, -1, -1]}, {"children_right": [2, 18, 4, 10, 6, 14, 8, -1, -1, 16, 12, -1, -1, -1, -1, -1, -1, -1, -1], "thresholds": [-0.24588802456855774, 0.8713770508766174, -0.5401553511619568, 0.2443375587463379, 0.7825830578804016, -0.6218916177749634, 3.427633285522461, -2.0, -2.0, 0.5, 0.6013628244400024, -2.0, -2.0, -2.0, -2.0, -2.0, -2.0, -2.0, -2.0], "values": [-6.9426796261484532e-05, -0.0061136386843369927, 0.00065167629916625482, 0.0067208675703879488, -0.0012862507203562053, 0.0020625322372571308, -0.0094098654746153539, -0.16219228491272669, -2.5618462075346562, 0.0045299992344520531, 0.045121657940077151, 1.4023182115792789, -3.4289408229007852, 0.70848752440367546, -0.0031126960040100669, 0.12940684689843673, -0.19151489660177326, -0.27548534013688858, 0.12595748596778578], "features": [307, 277, 13, 229, 241, 178, 250, -2, -2, 249, 381, -2, -2, -2, -2, -2, -2, -2, -2], "children_left": [1, 17, 3, 9, 5, 13, 7, -1, -1, 15, 11, -1, -1, -1, -1, -1, -1, -1, -1]}, {"children_right": [2, 4, 6, 8, 16, 12, -1, 10, -1, -1, -1, 14, -1, -1, -1, -1, 18, -1, -1], "thresholds": [1.4166667461395264, 3.165839672088623, -0.07596612721681595, 0.9432945251464844, 0.20206207036972046, 0.5, -2.0, 0.224022775888443, -2.0, -2.0, -2.0, 0.7142613530158997, -2.0, -2.0, -2.0, -2.0, 0.009482736699283123, -2.0, -2.0], "values": [-6.4347994979581852e-05, 0.00064680400352749433, -0.010594365428502022, -0.0072100075793691465, 0.034068861293119208, -0.053234867200303022, 0.068798699897869797, -0.0049470217891337039, -0.6542309567935457, 0.026506066633168981, -0.22405611947008924, -0.13456254218322639, -0.78245660065431288, -1.1278751219238008, -1.4799553403664891, 0.93826684622970757, 0.022542468389145736, 1.0831378506862315, 0.61434025676046455], "features": [262, 385, 13, 253, 100, 14, -2, 12, -2, -2, -2, 385, -2, -2, -2, -2, 12, -2, -2], "children_left": [1, 3, 5, 7, 15, 11, -1, 9, -1, -1, -1, 13, -1, -1, -1, -1, 17, -1, -1]}, {"children_right": [2, 4, 12, 6, -1, 10, 8, -1, -1, -1, -1, -1, -1], "thresholds": [4.996157169342041, 1.7366254329681396, 0.10000000149011612, 1.0400617122650146, -2.0, -0.10000000149011612, 1.21632981300354, -2.0, -2.0, -2.0, -2.0, -2.0, -2.0], "values": [-3.7503488086585888e-05, 6.3834735571023714e-05, -0.076112952473047044, -0.00021311422594805343, 0.94223613475361734, 0.00066687596520589008, -0.023690866856365376, -0.027861958129282813, -0.91666743418154983, -0.12971851450623417, 0.043510886525994753, -2.4894249201372736, -1.0222232488590932], "features": [304, 268, 274, 268, -2, 286, 241, -2, -2, -2, -2, -2, -2], "children_left": [1, 3, 11, 5, -1, 9, 7, -1, -1, -1, -1, -1, -1]}, {"children_right": [2, 4, 10, -1, 6, 12, 8, -1, -1, 18, 14, -1, -1, -1, 16, -1, -1, -1, -1], "thresholds": [1.529193639755249, 0.14922261238098145, 0.8808047771453857, -2.0, -0.6368218660354614, 0.5, 0.16175226867198944, -2.0, -2.0, 0.3937795162200928, 0.5, -2.0, -2.0, -2.0, 0.6808778047561646, -2.0, -2.0, -2.0, -2.0], "values": [-3.3171694677649949e-05, 0.0012724044422001968, -0.0089697437866817636, -1.0241859181986004, 0.023295421745317235, 0.15104307565362121, 0.021463348627957204, 2.6710777997437298, 0.19849175958597562, -0.020045066167157417, 0.030341720103160372, 1.4899431602772377, 0.26426201061967636, -0.35320549859685013, 0.064432669939693155, -0.1730947978443938, 1.1186078093152794, -0.79587828768251656, -0.060251212699724666], "features": [250, 384, 381, -2, 103, 234, 384, -2, -2, 133, 278, -2, -2, -2, 175, -2, -2, -2, -2], "children_left": [1, 3, 9, -1, 5, 11, 7, -1, -1, 17, 13, -1, -1, -1, 15, -1, -1, -1, -1]}, {"children_right": [2, 14, 4, 8, 6, -1, -1, 12, 10, -1, -1, -1, -1, 16, -1, 18, -1, -1, -1], "thresholds": [0.5052359700202942, 3.0549263954162598, 1.60005521774292, 0.5, 0.5, -2.0, -2.0, 0.517836332321167, 1.2227318286895752, -2.0, -2.0, -2.0, -2.0, 3.4700822830200195, -2.0, 0.5, -2.0, -2.0, -2.0], "values": [-8.2190871298757343e-05, 0.0017720423607909467, -0.0066086487579020171, -0.0044928839123084046, -0.083218540061681057, -2.5465897358310752, -0.66690586825986664, -0.0027137989488208026, -0.036618235573577143, -0.21723578989551728, -0.66614086751969437, 0.0152980557311267, -0.34412761356439364, 0.0019016214360090512, -1.5372519914777305, -0.0054359830655148168, 0.98433994505442057, -0.14108761113424828, -5.4909863646293662], "features": [12, 361, 127, 276, 272, -2, -2, 217, 382, -2, -2, -2, -2, 385, -2, 138, -2, -2, -2], "children_left": [1, 13, 3, 7, 5, -1, -1, 11, 9, -1, -1, -1, -1, 15, -1, 17, -1, -1, -1]}, {"children_right": [2, 18, 4, 6, 10, 8, 16, -1, -1, 12, 14, -1, -1, -1, -1, -1, -1, -1, -1], "thresholds": [-0.646452784538269, -0.030965115875005722, 0.2463996410369873, -0.5, -0.10000000149011612, 0.10000000149011612, 0.5, -2.0, -2.0, 9.0, 4.232050895690918, -2.0, -2.0, -2.0, -2.0, -2.0, -2.0, -2.0, -2.0], "values": [-5.4713818477128937e-05, -0.013121058911350037, 0.00047302397155289639, 0.0025027921916191635, -0.003356335697106934, 0.015965987199058163, 0.0010978587070927704, 0.34064136080889923, -0.66537782792158806, -0.0093985964245443913, 0.0006502032264645521, -0.19389460310633616, -3.1774618513492721, 0.034193010832230232, -5.4962305834102043, -2.2971720746572668, 0.025744824307143341, -0.53413820710929183, -0.83270348935051575], "features": [172, 1, 217, 267, 133, 217, 305, -2, -2, 0, 250, -2, -2, -2, -2, -2, -2, -2, -2], "children_left": [1, 17, 3, 5, 9, 7, 15, -1, -1, 11, 13, -1, -1, -1, -1, -1, -1, -1, -1]}, {"children_right": [2, 16, 4, 6, 12, 10, 8, -1, -1, -1, -1, -1, 14, -1, -1, 18, -1, -1, -1], "thresholds": [-0.6622205972671509, 2.707313060760498, 0.7924400568008423, 1.6737940311431885, -0.7286180257797241, 0.3832831382751465, 1.5737545490264893, -2.0, -2.0, -2.0, -2.0, -2.0, -0.6392596960067749, -2.0, -2.0, -0.25219660997390747, -2.0, -2.0, -2.0], "values": [-4.9608705448077676e-05, 0.0049769177591998271, -0.0012401539771641692, -0.01336260582164959, 0.026935928188874907, -0.0098693862906249607, -0.16390895994932764, -1.5592944768698012, -2.6294041444190666, -0.067251946966929488, -0.38921846175390812, -0.93870005299303827, 0.027835070806266342, 1.094536165045592, 0.62384240972763139, 0.005931269915172321, -1.234191519382102, -1.0252723118740428, 0.51732823406745954], "features": [223, 178, 384, 13, 271, 12, 250, -2, -2, -2, -2, -2, 259, -2, -2, 385, -2, -2, -2], "children_left": [1, 15, 3, 5, 11, 9, 7, -1, -1, -1, -1, -1, 13, -1, -1, 17, -1, -1, -1]}, {"children_right": [2, 12, 4, -1, 6, 8, 10, -1, -1, -1, -1, 14, -1, 16, 18, -1, -1, -1, -1], "thresholds": [-0.523861289024353, 15.5, 0.14922261238098145, -2.0, 0.6096746921539307, 0.6971367597579956, 0.5, -2.0, -2.0, -2.0, -2.0, -1.6265947818756104, -2.0, -1.663501262664795, 0.6706841588020325, -2.0, -2.0, -2.0, -2.0], "values": [-3.4117656665512716e-05, -0.0047440507058445474, 0.00083090906996441752, -1.0228998107314085, 0.017678341140219364, 0.026769497902636614, 0.0015224761044370487, 0.34853285373257625, -0.014355237709973804, -0.13061407080806209, 0.18634614233404642, -0.0044253811673928391, -1.6697893117253038, 0.015113520856727193, -0.00586611570286297, -1.0039896436472615, 0.76186909826365401, -1.0804243952567274, 0.49754792896191929], "features": [76, 0, 384, -2, 259, 268, 272, -2, -2, -2, -2, 223, -2, 223, 384, -2, -2, -2, -2], "children_left": [1, 11, 3, -1, 5, 7, 9, -1, -1, -1, -1, 13, -1, 15, 17, -1, -1, -1, -1]}, {"children_right": [2, 12, 4, 6, -1, 10, 8, -1, -1, -1, -1, 18, 14, 16, -1, -1, -1, -1, -1], "thresholds": [0.9629100561141968, -0.5401553511619568, 1.166483998298645, 0.5, -2.0, 0.5, 0.09102336317300797, -2.0, -2.0, -2.0, -2.0, 0.5, -0.4920791983604431, -0.10000000149011612, -2.0, -2.0, -2.0, -2.0, -2.0], "values": [-6.4154432875473811e-05, 0.00076845198453336463, -0.0068330782375077654, -0.016266206219248017, 0.42175350741420997, -0.011737486711772393, -0.11354642116577969, -1.0526225486819298, -3.650894344843004, -0.44990180263017437, -1.1565400684937677, 0.0080212099712154063, -0.0011533632220939078, 0.067707275198764613, -0.04204549553691074, 0.72359077258155846, -1.0134988690033622, 0.54660524921566267, 0.030814714344359964], "features": [256, 13, 1, 288, -2, 129, 12, -2, -2, -2, -2, 101, 139, 301, -2, -2, -2, -2, -2], "children_left": [1, 11, 3, 5, -1, 9, 7, -1, -1, -1, -1, 17, 13, 15, -1, -1, -1, -1, -1]}, {"children_right": [2, 4, 14, 8, 6, 10, -1, 12, -1, -1, -1, -1, -1, 18, 16, -1, -1, -1, -1], "thresholds": [0.5, 0.6919667720794678, 9.5, -0.10000000149011612, 0.8569146990776062, 0.5, -2.0, 0.10660035908222198, -2.0, -2.0, -2.0, -2.0, -2.0, -0.5401553511619568, -0.6971367597579956, -2.0, -2.0, -2.0, -2.0], "values": [-5.846495275780943e-05, -0.0051696949813076626, 0.0011365943750075689, -0.0022044372291145932, -0.052616147230439572, -0.11204660999593744, 0.40976353894225942, 0.066694613929216592, -0.17647540779044363, -1.8236940670903894, -2.0293184640719621, 0.73144736601712734, 1.1281875689644782, 0.0016484692092744373, -0.025326440594416636, -3.2890820895843236, -0.35883840653134053, 0.18965550934045985, -0.023151530615375344], "features": [128, 12, 0, 328, 384, 261, -2, 7, -2, -2, -2, -2, -2, 13, 250, -2, -2, -2, -2], "children_left": [1, 3, 13, 7, 5, 9, -1, 11, -1, -1, -1, -1, -1, 17, 15, -1, -1, -1, -1]}, {"children_right": [2, 4, 18, 10, 6, 16, 8, -1, -1, 12, 14, -1, -1, -1, -1, -1, -1, -1, -1], "thresholds": [0.7262192964553833, -0.10000000149011612, -0.2463996410369873, -0.4920791983604431, 2.3182477951049805, -0.5, 0.8987723588943481, -2.0, -2.0, 0.5, 5.096808433532715, -2.0, -2.0, -2.0, -2.0, -2.0, -2.0, -2.0, -2.0], "values": [-5.4430146892765732e-05, -0.0090726872685097711, 0.021318491679647566, -0.0052070283554248283, -0.017110182559995218, -0.014917402938674098, -0.18223424307226269, -1.0952516842508404, -2.1862045407217838, 0.067786657426554556, -0.0059756739148960659, -2.6675133257659538, 0.93357977171532935, -0.43985339976154386, 0.14458033547308757, 0.076496988507717273, -0.3918740143705019, 0.7370746745125818, 0.44882806812189002], "features": [384, 127, 262, 139, 265, 267, 385, -2, -2, 236, 174, -2, -2, -2, -2, -2, -2, -2, -2], "children_left": [1, 3, 17, 9, 5, 15, 7, -1, -1, 11, 13, -1, -1, -1, -1, -1, -1, -1, -1]}, {"children_right": [2, 4, 14, 10, 6, 18, 8, -1, -1, 16, 12, -1, -1, -1, -1, -1, -1, -1, -1], "thresholds": [2.9546658992767334, 1.8875503540039062, 0.6971367597579956, 0.224022775888443, 2.545612096786499, 1.0400617122650146, 0.5, -2.0, -2.0, 0.5, -0.6368218660354614, -2.0, -2.0, -2.0, -2.0, -2.0, -2.0, -2.0, -2.0], "values": [-4.1551097462683685e-05, -0.006562154828508391, 0.022075945854536747, -0.0052676087180816246, -0.052417746834912932, -0.037793979375358951, -0.20233238374834589, -1.0912348670205305, -9.2426286943046989, -0.00051568207191621696, -0.015264456385877612, 0.20462883183341748, -0.26624648608766088, 0.76024102920904768, 0.52452086797767628, -0.22193596576565897, 0.14642817424552471, -0.80488644405012366, -1.1381565185027853], "features": [385, 289, 178, 12, 1, 241, 128, -2, -2, 242, 274, -2, -2, -2, -2, -2, -2, -2, -2], "children_left": [1, 3, 13, 9, 5, 17, 7, -1, -1, 15, 11, -1, -1, -1, -1, -1, -1, -1, -1]}, {"children_right": [2, 8, 4, -1, 6, -1, -1, 10, 16, 14, 12, -1, -1, -1, -1, -1, 18, -1, -1], "thresholds": [2.7384438514709473, 0.3929157853126526, 1.9375660419464111, -2.0, 1.3844373226165771, -2.0, -2.0, -0.4920791983604431, -0.10000000149011612, 0.5, 0.14922261238098145, -2.0, -2.0, -2.0, -2.0, -2.0, 1.1315968036651611, -2.0, -2.0], "values": [-1.6651758847577282e-05, -0.00043785568330968093, 0.037624096644576999, 0.85140474260004995, -0.054147752164681782, 0.32468684285664018, -6.6438765334751801, 0.0020331667540877296, -0.0050050120205458563, 0.055135677432616867, 0.0016949371862888815, -1.0154925325796993, 0.3421375939778119, -2.6301432343820061, 0.83908607851810491, 0.022807323731836086, -0.0094208968798450247, -0.20458050044584092, 0.67896428474616577], "features": [235, 12, 250, -2, 277, -2, -2, 139, 178, 236, 384, -2, -2, -2, -2, -2, 100, -2, -2], "children_left": [1, 7, 3, -1, 5, -1, -1, 9, 15, 13, 11, -1, -1, -1, -1, -1, 17, -1, -1]}, {"children_right": [2, 4, 18, 6, 10, 14, 8, -1, -1, 16, 12, -1, -1, -1, -1, -1, -1, -1, -1], "thresholds": [-0.38263142108917236, -0.14433756470680237, 0.5, 0.2109253704547882, -0.23463724553585052, 0.10000000149011612, -0.9259984493255615, -2.0, -2.0, 0.5, 0.32491636276245117, -2.0, -2.0, -2.0, -2.0, -2.0, -2.0, -2.0, -2.0], "values": [-2.7347796217822774e-05, 0.0057154512428235016, -0.0034981438297072478, -0.0013558955264132441, 0.0098116075496448366, -0.012847252312652767, 0.032856185214178456, 0.91658846754895673, 0.007089736774114749, -0.013993430658279384, 0.013148743602483342, 0.063613047345940213, 0.62845257757344641, -1.0327727632809776, -1.0089438696174247, -0.43954794539330688, -0.93443686853503083, -0.29807265037955971, -0.050367063881665806], "features": [241, 274, 128, 384, 307, 133, 13, -2, -2, 129, 235, -2, -2, -2, -2, -2, -2, -2, -2], "children_left": [1, 3, 17, 5, 9, 13, 7, -1, -1, 15, 11, -1, -1, -1, -1, -1, -1, -1, -1]}, {"children_right": [2, 4, 14, 10, 6, 8, 18, -1, -1, 12, -1, -1, -1, 16, -1, -1, -1, -1, -1], "thresholds": [0.6000064611434937, 0.9960430860519409, 1.4371843338012695, 0.5844641923904419, -0.3308033049106598, 0.5949748754501343, -0.33869266510009766, -2.0, -2.0, 0.2463996410369873, -2.0, -2.0, -2.0, 1.5408401489257812, -2.0, -2.0, -2.0, -2.0, -2.0], "values": [-3.1056156938502689e-05, -0.00060768737242307836, 0.010981267266704382, 0.0031429021215756353, -0.0079048258377632241, -0.043651969514199557, -0.0026091628283368786, -1.3396026363340852, 0.52717731811659851, 0.006044372845147878, -1.0248127206998301, 0.29292215976964769, -0.2888962126261469, 0.017970719716073742, -0.98800421760373613, -1.1067069410547001, 0.68020830061930193, 0.1721994752406614, -0.11040202848283814], "features": [172, 382, 130, 277, 1, 384, 277, -2, -2, 217, -2, -2, -2, 385, -2, -2, -2, -2, -2], "children_left": [1, 3, 13, 9, 5, 7, 17, -1, -1, 11, -1, -1, -1, 15, -1, -1, -1, -1, -1]}, {"children_right": [2, 4, 16, 6, 10, 14, 8, -1, -1, 12, 18, -1, -1, -1, -1, -1, -1, -1, -1], "thresholds": [1.1041377782821655, 0.8614338636398315, 0.7388034462928772, 0.8910844326019287, 3.5, 2.3182477951049805, 1.0400617122650146, -2.0, -2.0, 0.4083601236343384, -0.32491636276245117, -2.0, -2.0, -2.0, -2.0, -2.0, -2.0, -2.0, -2.0], "values": [-3.6822419682411586e-05, 0.0018297256406793793, -0.0082663146630097481, 0.0040231128193642602, -0.0095203205596652626, 0.0016510562317373708, 0.032130363271580212, 