/// The weights of individual elements of the FV.  These weights
// are output by data/ml/answer-train-gradboost.py as this:
//
// 1152 answersets, 403249 answers
// + Cross-validation:
// (test) PERANS acc/prec/rcl/F1 = 0.901/0.175/0.511/0.260, @70 prec/rcl/F1 = 0.319/0.281/0.299, PERQ avail 1.000, any good = [0.679] MRR 0.556
// (test) PERANS acc/prec/rcl/F1 = 0.900/0.170/0.504/0.254, @70 prec/rcl/F1 = 0.307/0.281/0.294, PERQ avail 1.000, any good = [0.634] MRR 0.535
// (test) PERANS acc/prec/rcl/F1 = 0.906/0.181/0.496/0.265, @70 prec/rcl/F1 = 0.317/0.275/0.294, PERQ avail 1.000, any good = [0.649] MRR 0.528
// (test) PERANS acc/prec/rcl/F1 = 0.892/0.174/0.527/0.261, @70 prec/rcl/F1 = 0.315/0.288/0.301, PERQ avail 1.000, any good = [0.683] MRR 0.558
// (test) PERANS acc/prec/rcl/F1 = 0.903/0.175/0.489/0.257, @70 prec/rcl/F1 = 0.317/0.263/0.287, PERQ avail 1.000, any good = [0.664] MRR 0.539
// (test) PERANS acc/prec/rcl/F1 = 0.907/0.174/0.481/0.256, @70 prec/rcl/F1 = 0.305/0.258/0.280, PERQ avail 1.000, any good = [0.634] MRR 0.504
// (test) PERANS acc/prec/rcl/F1 = 0.898/0.169/0.510/0.254, @70 prec/rcl/F1 = 0.300/0.283/0.291, PERQ avail 1.000, any good = [0.654] MRR 0.529
// (test) PERANS acc/prec/rcl/F1 = 0.908/0.182/0.474/0.263, @70 prec/rcl/F1 = 0.316/0.271/0.292, PERQ avail 1.000, any good = [0.642] MRR 0.520
// (test) PERANS acc/prec/rcl/F1 = 0.901/0.176/0.491/0.259, @70 prec/rcl/F1 = 0.314/0.276/0.294, PERQ avail 1.000, any good = [0.670] MRR 0.534
// (test) PERANS acc/prec/rcl/F1 = 0.903/0.173/0.476/0.254, @70 prec/rcl/F1 = 0.303/0.262/0.281, PERQ avail 1.000, any good = [0.627] MRR 0.509
// (mean) PERANS acc/prec/rcl/F1 = 0.902/0.175/0.496/0.258, @70 prec/rcl/F1 = 0.311/0.274/0.291, PERQ avail 1.000, any good = [0.654] MRR 0.531
// (S.D.) PERANS acc/prec/rcl/F1 = 0.005/0.004/0.016/0.004, @70 prec/rcl/F1 = 0.007/0.010/0.007, PERQ avail 0.000, any good = [0.019] MRR 0.017
// + Full training set:
// training took 208 seconds
// (full) PERANS acc/prec/rcl/F1 = 0.899/0.195/0.635/0.299, @70 prec/rcl/F1 = 0.360/0.376/0.368, PERQ avail 1.000, any good = [0.708] MRR 0.578
// Full model is GradientBoostingClassifier(init=None, learning_rate=0.1, loss='deviance',               max_depth=3, max_features='sqrt', max_leaf_nodes=10,               min_samples_leaf=5, min_samples_split=10,               min_weight_fraction_leaf=0.0, n_estimators=200,               random_state=None, subsample=1.0, verbose=0,               warm_start=False)
//
{"prior": -0.65861597448606024, "learning_rate": 0.1, "labels": ["@occurences", "%occurences", "!occurences", "@resultRR", "%resultRR", "!resultRR", "@resultLogScore", "%resultLogScore", "!resultLogScore", "@passageLogScore", "%passageLogScore", "!passageLogScore", "@propertyScore", "%propertyScore", "!propertyScore", "@originPsg", "%originPsg", "!originPsg", "@originPsgFirst", "%originPsgFirst", "!originPsgFirst", "@originPsgByClueToken", "%originPsgByClueToken", "!originPsgByClueToken", "@originPsgByCluePhrase", "%originPsgByCluePhrase", "!originPsgByCluePhrase", "@originPsgByClueSV", "%originPsgByClueSV", "!originPsgByClueSV", "@originPsgByClueNE", "%originPsgByClueNE", "!originPsgByClueNE", "@originPsgByClueLAT", "%originPsgByClueLAT", "!originPsgByClueLAT", "@originPsgByClueSubject", "%originPsgByClueSubject", "!originPsgByClueSubject", "@originPsgByClueSubjectToken", "%originPsgByClueSubjectToken", "!originPsgByClueSubjectToken", "@originPsgByClueSubjectPhrase", "%originPsgByClueSubjectPhrase", "!originPsgByClueSubjectPhrase", "@originPsgByClueConcept", "%originPsgByClueConcept", "!originPsgByClueConcept", "@originPsgByConceptRR", "%originPsgByConceptRR", "!originPsgByConceptRR", "@originPsgByConceptScore", "%originPsgByConceptScore", "!originPsgByConceptScore", "@originPsgNP", "%originPsgNP", "!originPsgNP", "@originPsgNE", "%originPsgNE", "!originPsgNE", "@originPsgNPByLATSubj", "%originPsgNPByLATSubj", "!originPsgNPByLATSubj", "@originPsgBIO", "%originPsgBIO", "!originPsgBIO", "@originPsgSurprise", "%originPsgSurprise", "!originPsgSurprise", "@originDocTitle", "%originDocTitle", "!originDocTitle", "@originBingSnippet", "%originBingSnippet", "!originBingSnippet", "@originDBpOntology", "%originDBpOntology", "!originDBpOntology", "@originDBpONoClue", "%originDBpONoClue", "!originDBpONoClue", "@originDBpOClueLAT", "%originDBpOClueLAT", "!originDBpOClueLAT", "@originDBpOClueSubject", "%originDBpOClueSubject", "!originDBpOClueSubject", "@originDBpOClueSubjectToken", "%originDBpOClueSubjectToken", "!originDBpOClueSubjectToken", "@originDBpOClueConcept", "%originDBpOClueConcept", "!originDBpOClueConcept", "@originDBpOConceptRR", "%originDBpOConceptRR", "!originDBpOConceptRR", "@originDBpOConceptScore", "%originDBpOConceptScore", "!originDBpOConceptScore", "@originDBpProperty", "%originDBpProperty", "!originDBpProperty", "@originDBpPNoClue", "%originDBpPNoClue", "!originDBpPNoClue", "@originDBpPClueToken", "%originDBpPClueToken", "!originDBpPClueToken", "@originDBpPClueLAT", "%originDBpPClueLAT", "!originDBpPClueLAT", "@originDBpPClueSubject", "%originDBpPClueSubject", "!originDBpPClueSubject", "@originDBpPClueSubjectToken", "%originDBpPClueSubjectToken", "!originDBpPClueSubjectToken", "@originDBpPClueConcept", "%originDBpPClueConcept", "!originDBpPClueConcept", "@originDBpPConceptRR", "%originDBpPConceptRR", "!originDBpPConceptRR", "@originDBpPConceptScore", "%originDBpPConceptScore", "!originDBpPConceptScore", "@originFreebaseOntology", "%originFreebaseOntology", "!originFreebaseOntology", "@originFreebaseSpecific", "%originFreebaseSpecific", "!originFreebaseSpecific", "@originFBONoClue", "%originFBONoClue", "!originFBONoClue", "@originFBOClueToken", "%originFBOClueToken", "!originFBOClueToken", "@originFBOClueSV", "%originFBOClueSV", "!originFBOClueSV", "@originFBOClueLAT", "%originFBOClueLAT", "!originFBOClueLAT", "@originFBOClueSubject", "%originFBOClueSubject", "!originFBOClueSubject", "@originFBOClueSubjectToken", "%originFBOClueSubjectToken", "!originFBOClueSubjectToken", "@originFBOClueConcept", "%originFBOClueConcept", "!originFBOClueConcept", "@originFBOConceptRR", "%originFBOConceptRR", "!originFBOConceptRR", "@originFBOConceptScore", "%originFBOConceptScore", "!originFBOConceptScore", "@originConcept", "%originConcept", "!originConcept", "@originConceptBySubject", "%originConceptBySubject", "!originConceptBySubject", "@originConceptByLAT", "%originConceptByLAT", "!originConceptByLAT", "@originConceptByNE", "%originConceptByNE", "!originConceptByNE", "@originConceptRR", "%originConceptRR", "!originConceptRR", "@originConceptScore", "%originConceptScore", "!originConceptScore", "@originMultiple", "%originMultiple", "!originMultiple", "@psgDistClueToken", "%psgDistClueToken", "!psgDistClueToken", "@psgDistCluePhrase", "%psgDistCluePhrase", "!psgDistCluePhrase", "@psgDistClueSV", "%psgDistClueSV", "!psgDistClueSV", "@psgDistClueNE", "%psgDistClueNE", "!psgDistClueNE", "@psgDistClueLAT", "%psgDistClueLAT", "!psgDistClueLAT", "@psgDistClueSubject", "%psgDistClueSubject", "!psgDistClueSubject", "@psgDistClueSubjectToken", "%psgDistClueSubjectToken", "!psgDistClueSubjectToken", "@psgDistClueSubjectPhrase", "%psgDistClueSubjectPhrase", "!psgDistClueSubjectPhrase", "@psgDistClueConcept", "%psgDistClueConcept", "!psgDistClueConcept", "@psgDistConceptRR", "%psgDistConceptRR", "!psgDistConceptRR", "@psgDistConceptScore", "%psgDistConceptScore", "!psgDistConceptScore", "@bioScore", "%bioScore", "!bioScore", "@noTyCor", "%noTyCor", "!noTyCor", "@LATANone", "%LATANone", "!LATANone", "@spWordNet", "%spWordNet", "!spWordNet", "@LATQNoWordNet", "%LATQNoWordNet", "!LATQNoWordNet", "@LATANoWordNet", "%LATANoWordNet", "!LATANoWordNet", "@simpleScore", "%simpleScore", "!simpleScore", "@LATNE", "%LATNE", "!LATNE", "@LATDBpType", "%LATDBpType", "!LATDBpType", "@LATDBpWNType", "%LATDBpWNType", "!LATDBpWNType", "@LATQuantity", "%LATQuantity", "!LATQuantity", "@LATQuantityCD", "%LATQuantityCD", "!LATQuantityCD", "@LATWnInstance", "%LATWnInstance", "!LATWnInstance", "@LATDBpOntology", "%LATDBpOntology", "!LATDBpOntology", "@LATDBpProperty", "%LATDBpProperty", "!LATDBpProperty", "@LATFBOntology", "%LATFBOntology", "!LATFBOntology", "@tyCorSpQHit", "%tyCorSpQHit", "!tyCorSpQHit", "@tyCorSpAHit", "%tyCorSpAHit", "!tyCorSpAHit", "@tyCorSpNoHit", "%tyCorSpNoHit", "!tyCorSpNoHit", "@tyCorSpQAHit", "%tyCorSpQAHit", "!tyCorSpQAHit", "@tyCorSpMultiHit", "%tyCorSpMultiHit", "!tyCorSpMultiHit", "@tyCorANE", "%tyCorANE", "!tyCorANE", "@tyCorADBp", "%tyCorADBp", "!tyCorADBp", "@tyCorAQuantityCD", "%tyCorAQuantityCD", "!tyCorAQuantityCD", "@tyCorAWnInstance", "%tyCorAWnInstance", "!tyCorAWnInstance", "@tyCorADBpOntology", "%tyCorADBpOntology", "!tyCorADBpOntology", "@tyCorADBpProperty", "%tyCorADBpProperty", "!tyCorADBpProperty", "@tyCorAFBOntology", "%tyCorAFBOntology", "!tyCorAFBOntology", "@clOCMatchScore", "%clOCMatchScore", "!clOCMatchScore", "@clOCPrefixedScore", "%clOCPrefixedScore", "!clOCPrefixedScore", "@clOCPrefixingScore", "%clOCPrefixingScore", "!clOCPrefixingScore", "@clOCSuffixedScore", "%clOCSuffixedScore", "!clOCSuffixedScore", "@clOCSuffixingScore", "%clOCSuffixingScore", "!clOCSuffixingScore", "@clOCSubstredScore", "%clOCSubstredScore", "!clOCSubstredScore", "@clOCSubstringScore", "%clOCSubstringScore", "!clOCSubstringScore", "@clOCMetaMatchScore", "%clOCMetaMatchScore", "!clOCMetaMatchScore", "@clOMatchScore", "%clOMatchScore", "!clOMatchScore", "@clOPrefixedScore", "%clOPrefixedScore", "!clOPrefixedScore", "@clOPrefixingScore", "%clOPrefixingScore", "!clOPrefixingScore", "@clOSuffixedScore", "%clOSuffixedScore", "!clOSuffixedScore", "@clOSuffixingScore", "%clOSuffixingScore", "!clOSuffixingScore", "@clOSubstredScore", "%clOSubstredScore", "!clOSubstredScore", "@clOSubstringScore", "%clOSubstringScore", "!clOSubstringScore", "@clOMetaMatchScore", "%clOMetaMatchScore", "!clOMetaMatchScore", "@evdPrefixedScore", "%evdPrefixedScore", "!evdPrefixedScore", "@evdPrefixingScore", "%evdPrefixingScore", "!evdPrefixingScore", "@evdSuffixedScore", "%evdSuffixedScore", "!evdSuffixedScore", "@evdSuffixingScore", "%evdSuffixingScore", "!evdSuffixingScore", "@evdSubstredScore", "%evdSubstredScore", "!evdSubstredScore", "@evdSubstringScore", "%evdSubstringScore", "!evdSubstringScore", "@topAnswer", "%topAnswer", "!topAnswer", "@solrHitsEv", "%solrHitsEv", "!solrHitsEv", "@solrAHitsEv", "%solrAHitsEv", "!solrAHitsEv", "@solrHitsANormEv", "%solrHitsANormEv", "!solrHitsANormEv", "@solrMaxScoreEv", "%solrMaxScoreEv", "!solrMaxScoreEv", "@solrHitsMaxScoreEv", "%solrHitsMaxScoreEv", "!solrHitsMaxScoreEv", "@phase0Score", "%phase0Score", "!phase0Score", "@phase1Score", "%phase1Score", "!phase1Score", "@questionClassABBR", "%questionClassABBR", "!questionClassABBR", "@questionClassDESC", "%questionClassDESC", "!questionClassDESC", "@questionClassENTY", "%questionClassENTY", "!questionClassENTY", "@questionClassHUM", "%questionClassHUM", "!questionClassHUM", "@questionClassLOC", "%questionClassLOC", "!questionClassLOC", "@questionClassNUM", "%questionClassNUM", "!questionClassNUM"], "forest": [{"children_right": [2, 10, 4, 6, 12, 8, -1, -1, -1, 18, 16, 14, -1, -1, -1, -1, -1, -1, -1], "thresholds": [0.5, 0.5, 1.6582536697387695, 0.5, -0.21808823943138123, 0.5, -2.0, -2.0, -2.0, 0.5, -0.08486983180046082, -0.02463323250412941, -2.0, -2.0, -2.0, -2.0, -2.0, -2.0, -2.0], "values": [-5.4350267302764651e-14, 0.25717436369282326, -0.061644644330330171, -0.090048003138738675, 0.30012025875799098, -0.099596934016198055, 1.4415963159296235, -0.52953460937175711, 1.1984143346479348, 0.20247324691400331, 0.48816083781688452, 0.3894858723478084, 0.64401622163624817, 1.1223702782024476, 2.1213632852727464, 1.06082995179388, 2.3806527875588874, -0.29340808441861349, 0.93951503751684606], "features": [74, 264, 313, 285, 70, 270, -2, -2, -2, 299, 262, 337, -2, -2, -2, -2, -2, -2, -2], "children_left": [1, 9, 3, 5, 11, 7, -1, -1, -1, 17, 15, 13, -1, -1, -1, -1, -1, -1, -1]}, {"children_right": [2, 10, 4, 6, -1, 8, 12, -1, -1, 14, -1, -1, -1, 18, 16, -1, -1, -1, -1], "thresholds": [-0.03245528042316437, 0.5, 0.7495096325874329, 0.75, -2.0, 0.0010003955103456974, 0.5, -2.0, -2.0, 0.5, -2.0, -2.0, -2.0, -0.38394695520401, 0.808701753616333, -2.0, -2.0, -2.0, -2.0], "values": [-0.00024910264805418422, -0.13262262242892534, 0.07085188272251669, 0.041543442120295496, 1.5961375994856231, -0.033097249074994201, 0.12907923459475043, 0.65278318442881966, -0.35909692280199423, -0.15866127031973967, 0.47877076819348446, 1.1615271880714744, 0.33313062847237151, -0.0059396160061431511, -0.18080857674373907, -0.93243626375203403, 0.14005345197524785, 0.5967064684914275, -0.25111614931756177], "features": [55, 261, 277, 207, -2, 6, 194, -2, -2, 71, -2, -2, -2, 265, 166, -2, -2, -2, -2], "children_left": [1, 9, 3, 5, -1, 7, 11, -1, -1, 13, -1, -1, -1, 17, 15, -1, -1, -1, -1]}, {"children_right": [2, 8, 4, -1, 6, 14, 16, 12, 10, -1, -1, -1, 18, -1, -1, -1, -1, -1, -1], "thresholds": [-0.012850116938352585, 1.497866153717041, 0.5, -2.0, -0.22032681107521057, -0.07757413387298584, 0.5, 0.5, 1.3697549104690552, -2.0, -2.0, -2.0, -0.13245786726474762, -2.0, -2.0, -2.0, -2.0, -2.0, -2.0], "values": [-0.00041384698018382445, -0.080134291382908701, 0.13301597406117202, 1.6708888078658712, 0.094595476144031562, 0.16837588137374135, -0.036607556712432383, -0.1257540966478578, -0.0081722481888918518, -0.26760803904012442, 1.0912906398816298, 0.6359552960437983, -0.15192456644654481, 2.9043341924327262, 0.67619388877546238, 0.84343944929462655, -0.34808873442609806, -0.94200278262564996, -0.44416669037165746], "features": [337, 210, 314, -2, 70, 97, 266, 263, 274, -2, -2, -2, 16, -2, -2, -2, -2, -2, -2], "children_left": [1, 7, 3, -1, 5, 13, 15, 11, 9, -1, -1, -1, 17, -1, -1, -1, -1, -1, -1]}, {"children_right": [2, 10, 4, 6, 16, -1, 8, -1, -1, -1, 12, -1, 14, -1, -1, 18, -1, -1, -1], "thresholds": [-0.2061472237110138, 0.0012666131369769573, 0.25160735845565796, 0.5, 1.6882121562957764, -2.0, 0.5, -2.0, -2.0, -2.0, 0.5, -2.0, 1.545929080748465e-06, -2.0, -2.0, 0.5, -2.0, -2.0, -2.0], "values": [-0.00055911308972233457, -0.11679065785929804, 0.062039919594138529, 0.026854327477382034, 0.28614954085500011, 1.1990263808142303, 0.0084389701670385883, -0.10554873202412292, 1.2284890027995388, 0.49180317673298413, -0.14177318345851581, 0.141167268113563, -0.15194764419087639, -0.75253189002626319, -0.0003355294343915975, 0.22937540226092498, 1.4776281545910874, 1.7113132549953136, 0.65014728758048546], "features": [217, 6, 222, 338, 250, -2, 312, -2, -2, -2, 302, -2, 195, -2, -2, 74, -2, -2, -2], "children_left": [1, 9, 3, 5, 15, -1, 7, -1, -1, -1, 11, -1, 13, -1, -1, 17, -1, -1, -1]}, {"children_right": [2, 4, 6, 12, 8, -1, -1, 14, 10, -1, -1, 16, 18, -1, -1, -1, -1, -1, -1], "thresholds": [0.09256117045879364, 0.19992253184318542, 0.5, 0.09558238089084625, 0.5, -2.0, -2.0, 0.5, 7.1174445110955276e-06, -2.0, -2.0, 0.5, -0.3174210786819458, -2.0, -2.0, -2.0, -2.0, -2.0, -2.0], "values": [-0.00062800416197468013, -0.030588569527557005, 0.21663652242936943, -0.084472991486755314, 0.042848398940638639, 0.22617329673977668, 1.2685154790613553, 0.086500170015756606, -0.039328647609490154, 0.66896401988102738, -0.40498906226663961, -0.13302191501506089, -0.033210346236289809, -0.11435063125627783, 0.55648544518872789, 0.015991093350613529, -0.75756321587700237, 0.72590745788454847, -0.2175015953373077], "features": [222, 211, 54, 16, 197, -2, -2, 218, 231, -2, -2, 71, 70, -2, -2, -2, -2, -2, -2], "children_left": [1, 3, 5, 11, 7, -1, -1, 13, 9, -1, -1, 15, 17, -1, -1, -1, -1, -1, -1]}, {"children_right": [2, 12, 4, 8, 6, 14, -1, 10, 18, -1, -1, 16, -1, -1, -1, -1, -1, -1, -1], "thresholds": [0.5, 0.7495096325874329, 0.75, 0.5, 2.0836448669433594, 0.9981981515884399, -2.0, 0.011340673081576824, 1.326191782951355, -2.0, -2.0, 0.03405135124921799, -2.0, -2.0, -2.0, -2.0, -2.0, -2.0, -2.0], "values": [-0.00066773194918351431, 0.18820357925747883, -0.045940148049609539, -0.084398617711852683, 0.057493700676577865, 0.0099531431016462359, 1.1858919243002215, -0.097747355733721453, 0.15391355569207202, -0.6257032856728707, 0.021641784991708133, 0.16521461511766905, 1.3993188296970387, 0.35990112602016849, -0.17675257296166627, 0.56763818113561793, 1.1551323183499012, 0.41311479974527632, 1.2572367390869061], "features": [74, 277, 207, 312, 196, 211, -2, 231, 31, -2, -2, 195, -2, -2, -2, -2, -2, -2, -2], "children_left": [1, 11, 3, 7, 5, 13, -1, 9, 17, -1, -1, 15, -1, -1, -1, -1, -1, -1, -1]}, {"children_right": [2, 14, 4, 6, 8, 10, 12, 18, 16, -1, -1, -1, -1, -1, -1, -1, -1, -1, -1], "thresholds": [0.5, 0.5, 0.04490956664085388, 0.0010003955103456974, 0.09256117045879364, -0.08154125511646271, 0.5, -0.14138691127300262, 3.1132683753967285, -2.0, -2.0, -2.0, -2.0, -2.0, -2.0, -2.0, -2.0, -2.0, -2.0], "values": [-0.00070789178333643206, 0.23829580810592721, -0.022868796118025739, -0.052680212928026937, 0.12404318444971105, 0.12499200013661665, -0.089352655861067914, 0.048659171110255015, 0.23003079129258525, 0.27771557381592188, 0.88129823192891699, 0.024618226247007952, -0.48154467646162663, 1.0710530824430766, 0.14624840143075546, 0.73618063507634945, 1.2076699071591186, 1.7500330433286879, 0.18877200441984354], "features": [314, 11, 231, 6, 222, 274, 275, 112, 174, -2, -2, -2, -2, -2, -2, -2, -2, -2, -2], "children_left": [1, 13, 3, 5, 7, 9, 11, 17, 15, -1, -1, -1, -1, -1, -1, -1, -1, -1, -1]}, {"children_right": [2, 4, 18, 6, 8, 12, 14, 10, 16, -1, -1, -1, -1, -1, -1, -1, -1, -1, -1], "thresholds": [0.03405135124921799, -0.012850116938352585, -0.13943317532539368, 0.09256117045879364, -0.04969051480293274, 0.02500000037252903, 0.5, -0.14107730984687805, 0.5157017707824707, -2.0, -2.0, -2.0, -2.0, -2.0, -2.0, -2.0, -2.0, -2.0, -2.0], "values": [-0.00071295102084303159, -0.024630083943176229, 0.19761858242208388, -0.076027642309627788, 0.072583871170042544, -0.10285184735141488, 0.11770219840229443, 0.23064031632383319, 0.040886820511931328, 2.4261364881989387, 0.77456537800017555, -0.89907753549849756, -0.35561790339306931, 0.22522035858193595, 1.2446659533037494, -0.032824898421989247, 0.35232911016704077, 0.0279938738373567, 0.8752078643121125], "features": [195, 337, 25, 222, 325, 3, 72, 118, 9, -2, -2, -2, -2, -2, -2, -2, -2, -2, -2], "children_left": [1, 3, 17, 5, 7, 11, 13, 9, 15, -1, -1, -1, -1, -1, -1, -1, -1, -1, -1]}, {"children_right": [2, 4, 14, 6, 8, -1, 12, 18, 10, -1, -1, -1, -1, 16, -1, -1, -1, -1, -1], "thresholds": [2.201716423034668, -0.012850116938352585, 0.5, 0.5, 0.5, -2.0, 0.0010003955103456974, -0.08992384374141693, 0.5, -2.0, -2.0, -2.0, -2.0, -0.2422962188720703, -2.0, -2.0, -2.0, -2.0, -2.0], "values": [-0.0007425502775291723, -0.019842820589661452, 0.21660409498259556, -0.071254927367845597, 0.072789255856274646, 0.90486573302722628, -0.079421002272360583, 0.27395754232601988, 0.052515514477923485, 1.0202204366997902, 0.13614662239909003, 0.17877094423107015, -0.47902898216536749, 0.072681766938012413, 0.95327601498228842, 1.4607942615968426, -0.14740613962273855, 1.6485326453881046, 0.99861481758547499], "features": [313, 337, 54, 287, 308, -2, 6, 292, 263, -2, -2, -2, -2, 193, -2, -2, -2, -2, -2], "children_left": [1, 3, 13, 5, 7, -1, 11, 17, 9, -1, -1, -1, -1, 15, -1, -1, -1, -1, -1]}, {"children_right": [2, 4, 10, -1, 6, 8, 12, -1, -1, 14, -1, -1, -1, 16, 18, -1, -1, -1, -1], "thresholds": [0.5, 0.5, 1.993740200996399, -2.0, 2.0612831115722656, 0.03405135124921799, -0.8666635751724243, -2.0, -2.0, -0.06458441913127899, -2.0, -2.0, -2.0, 0.03405135124921799, 0.3604126572608948, -2.0, -2.0, -2.0, -2.0], "values": [-0.00072910368997468214, -0.034535948592375618, 0.14030916363667134, 0.5378900869535802, -0.04953831926363015, -0.062284531806853047, 0.15447981948281808, -0.36712495805785733, 0.83486845630766737, 0.13429929811613997, 1.6813160257139885, 1.3031929716653632, 0.54054988182749042, 0.12007760315859151, 0.20802842396132645, 0.40551261171021807, 0.8485143514065252, 0.62513957128579278, 1.589089865048837], "features": [72, 263, 61, -2, 307, 192, 163, -2, -2, 7, -2, -2, -2, 195, 213, -2, -2, -2, -2], "children_left": [1, 3, 9, -1, 5, 7, 11, -1, -1, 13, -1, -1, -1, 15, 17, -1, -1, -1, -1]}, {"children_right": [2, 8, 4, 6, -1, 10, 12, 14, -1, -1, -1, -1, -1, 18, 16, -1, -1, -1, -1], "thresholds": [0.5, 0.5, 0.5, -0.012850116938352585, -2.0, 0.5, 0.044547341763973236, -0.012850116938352585, -2.0, -2.0, -2.0, -2.0, -2.0, -0.4480311870574951, -0.13726213574409485, -2.0, -2.0, -2.0, -2.0], "values": [-0.00070532072222603988, -0.076222041500722065, 0.0399658557775628, 0.021933063082858032, 0.80768343588549196, -0.031504424372960152, 0.10875504082757262, -0.08739940310648861, 0.54701418611936115, -0.24469238599904722, 0.3335053875055915, 0.33856022362207122, 0.85230956743452391, -0.10797937113102428, -0.040462069896889767, 1.511425816052882, -0.26600527523496537, -0.86145066278649252, -0.433713351640448], "features": [218, 312, 312, 337, -2, 276, 231, 262, -2, -2, -2, -2, -2, 259, 121, -2, -2, -2, -2], "children_left": [1, 7, 3, 5, -1, 9, 11, 13, -1, -1, -1, -1, -1, 17, 15, -1, -1, -1, -1]}, {"children_right": [2, 6, 4, 8, 14, 18, -1, 12, 10, -1, -1, -1, -1, 16, -1, -1, -1, -1, -1], "thresholds": [0.5, 1.8580145835876465, 0.75, -0.08345191180706024, 2.350569725036621, -0.25962400436401367, -2.0, -0.14395111799240112, 2.2353315353393555, -2.0, -2.0, -2.0, -2.0, 3.079209327697754, -2.0, -2.0, -2.0, -2.0, -2.0], "values": [-0.00068920688925736364, 0.11369298416173375, -0.019179644821797442, -0.054733340230712135, 0.056330586392407865, 0.043262732316787601, 0.87991526296540434, 0.18350713934823534, -0.058758882312541207, -0.35931318173899651, 0.46367201088251786, 2.222946874676162, -0.63377512289668225, 0.043648776020958222, 0.74177039914279541, 0.12850262498443679, 1.0767203715280935, 0.70305116756365327, 0.038334799069492151], "features": [266, 262, 207, 97, 190, 166, -2, 43, 313, -2, -2, -2, -2, 301, -2, -2, -2, -2, -2], "children_left": [1, 5, 3, 7, 13, 17, -1, 11, 9, -1, -1, -1, -1, 15, -1, -1, -1, -1, -1]}, {"children_right": [2, 14, 4, 10, 6, 8, -1, -1, -1, 12, -1, -1, -1, -1, 16, -1, 18, -1, -1], "thresholds": [-0.2061472237110138, 0.5, -0.04233337566256523, 2.60337495803833, 1.0833594799041748, 2.2602128982543945, -2.0, -2.0, -2.0, -0.24488797783851624, -2.0, -2.0, -2.0, -2.0, 0.5, -2.0, -0.07440762221813202, -2.0, -2.0], "values": [-0.00065293922414764386, -0.065771166791573799, 0.034417902033868804, -0.016952951650371178, 0.063783027296989647, 0.040693916111612508, 0.88839311163575885, 0.08417233571604496, 0.85245416615678471, -0.026196888384663383, 0.94261647294672846, 0.20019338234317652, -0.32523228263184745, 0.34927758847579748, -0.074926807932134076, 1.1252994876039129, -0.084518490102524602, -0.35900015470442065, -0.95271287444966168], "features": [217, 302, 28, 337, 262, 313, -2, -2, -2, 70, -2, -2, -2, -2, 338, -2, 58, -2, -2], "children_left": [1, 13, 3, 9, 5, 7, -1, -1, -1, 11, -1, -1, -1, -1, 15, -1, 17, -1, -1]}, {"children_right": [2, 4, 14, 6, 10, -1, 8, -1, -1, 12, -1, -1, -1, 16, -1, 18, -1, -1, -1], "thresholds": [0.5, 0.011540716513991356, -0.018505830317735672, 0.5, 1.4261542558670044, -2.0, 0.5, -2.0, -2.0, 0.5, -2.0, -2.0, -2.0, 0.22286203503608704, -2.0, -0.04489115998148918, -2.0, -2.0, -2.0], "values": [-0.00062044034365536305, -0.028787456330963856, 0.11688910963282481, -0.065898770838352425, 0.044942002648923604, 0.29299841790563302, -0.075149410825840757, -0.44372892255917512, 0.33052328681654525, 0.031449688165875206, 0.67536649021625816, 0.82260598097673876, 0.085437394792130139, 0.077854200413958144, 0.67376253813792064, 0.037973044762972481, 0.98571579234414752, -0.0091656779126126839, 0.40509819128136848], "features": [72, 231, 337, 314, 34, -2, 306, -2, -2, 308, -2, -2, -2, 223, -2, 262, -2, -2, -2], "children_left": [1, 3, 13, 5, 9, -1, 7, -1, -1, 11, -1, -1, -1, 15, -1, 17, -1, -1, -1]}, {"children_right": [2, 12, 4, 18, 6, 8, 10, -1, -1, -1, -1, -1, 14, -1, 16, -1, -1, -1, -1], "thresholds": [-0.04233337566256523, -0.25071895122528076, -0.012850116938352585, 2.0340042114257812, -0.04068632796406746, -0.1679595708847046, 0.5, -2.0, -2.0, -2.0, -2.0, -2.0, -0.3763975501060486, -2.0, 0.31782758235931396, -2.0, -2.0, -2.0, -2.0], "values": [-0.00059816676312005057, -0.043394425501089788, 0.025524087004724215, -0.039385270341720006, 0.086043588683839434, -0.0077279644058643121, 0.1338855450588019, -0.23024208618876518, 0.6888145567749302, 1.2757121980734218, 0.50675101457996519, -0.51964013842910395, -0.018623750106265248, -0.65155091983171554, 0.00052099214411879206, -0.23958543081947073, 0.1594548624542666, -0.25326433996753955, 0.2719005919207606], "features": [28, 13, 337, 7, 340, 241, 302, -2, -2, -2, -2, -2, 127, -2, 16, -2, -2, -2, -2], "children_left": [1, 11, 3, 17, 5, 7, 9, -1, -1, -1, -1, -1, 13, -1, 15, -1, -1, -1, -1]}, {"children_right": [2, 16, 4, 10, 6, 8, -1, -1, -1, 14, 12, -1, -1, -1, -1, 18, -1, -1, -1], "thresholds": [0.5, 0.11876191943883896, -0.21362456679344177, 0.5, 0.5, -0.25910884141921997, -2.0, -2.0, -2.0, 0.8012323975563049, 0.0015235146274790168, -2.0, -2.0, -2.0, -2.0, 0.5, -2.0, -2.0, -2.0], "values": [-0.00057603725956437927, -0.055475509802702917, 0.028991270676121773, -0.0077509044645107652, 0.069265029617802537, 0.046515495966160531, 0.6514612525033987, 0.11318321676255966, 0.52563733354923747, 0.072738573334060211, -0.020158687135215018, 0.33943056166540475, -0.21074039240544132, 0.10335146496850912, 0.99076334131219512, -0.032935364884918182, -0.51758276849871709, -0.044062898265147483, -0.84798369085367287], "features": [218, 229, 46, 263, 264, 250, -2, -2, -2, 163, 6, -2, -2, -2, -2, 57, -2, -2, -2], "children_left": [1, 15, 3, 9, 5, 7, -1, -1, -1, 13, 11, -1, -1, -1, -1, 17, -1, -1, -1]}, {"children_right": [2, 10, 4, 6, -1, 16, 8, -1, -1, 12, -1, 18, 14, -1, -1, -1, -1, -1, -1], "thresholds": [-0.012850116938352585, 4.485875129699707, 2.6112992763519287, -0.14138691127300262, -2.0, -0.035223498940467834, 0.5, -2.0, -2.0, 0.0015105854254215956, -2.0, 2.300459384918213, 1.5271111726760864, -2.0, -2.0, -2.0, -2.0, -2.0, -2.0], "values": [-0.00054821295003488688, -0.03948148595621994, 0.06461524278211099, 0.043948285354950996, 0.99912174993208935, 0.39348600156655766, 0.035256573299349857, -0.1407117495860174, 0.2799772089731371, -0.044832413092666792, 0.65987791494503911, 0.048512632097373463, -0.059167944570503277, -0.41383783461458984, 0.16870907083098943, 1.8335324437513527, -0.99684431852115218, 0.14814198425085018, 1.0100220728498492], "features": [337, 214, 337, 118, -2, 322, 218, -2, -2, 6, -2, 271, 274, -2, -2, -2, -2, -2, -2], "children_left": [1, 9, 3, 5, -1, 15, 7, -1, -1, 11, -1, 17, 13, -1, -1, -1, -1, -1, -1]}, {"children_right": [2, 10, 4, 6, 14, -1, 8, -1, -1, 12, 18, -1, -1, 16, -1, -1, -1, -1, -1], "thresholds": [0.5, -0.0029140545520931482, 0.5, -0.6140044927597046, 1.544895887374878, -2.0, -0.4678290784358978, -2.0, -2.0, 0.5, 0.5, -2.0, -2.0, 0.26938652992248535, -2.0, -2.0, -2.0, -2.0, -2.0], "values": [-0.00052749408787709936, 0.092810708375831719, -0.022900642836620445, -0.031494963954266354, 0.18179292593935201, 0.56269543774285946, -0.043000307894906241, -0.54071029518301683, -0.12237519532577992, 0.058451134111995033, 0.16012701214419833, 1.3764731254143336, 0.21476464858730954, 0.1374825110292989, 1.2149699729633849, 0.10617828342730437, 0.99804844336490262, 0.71775545241450744, -2.1030490041500802], "features": [74, 223, 336, 166, 9, -2, 259, -2, -2, 62, 339, -2, -2, 6, -2, -2, -2, -2, -2], "children_left": [1, 9, 3, 5, 13, -1, 7, -1, -1, 11, 17, -1, -1, 15, -1, -1, -1, -1, -1]}, {"children_right": [2, 4, 16, 12, 6, 10, 8, -1, -1, -1, -1, -1, 14, -1, -1, 18, -1, -1, -1], "thresholds": [0.5, 0.5, -0.28719744086265564, 0.5, 0.75, -0.26324033737182617, 0.03405135124921799, -2.0, -2.0, -2.0, -2.0, -2.0, 7.5902180671691895, -2.0, -2.0, 0.5493061542510986, -2.0, -2.0, -2.0], "values": [-0.00049527255402405693, -0.012368769562079013, 0.12755950683085801, 0.10662457283759705, -0.025536874290824334, -0.04599308236755157, 0.021469704347050939, -0.037495652014902119, 0.5610396795009599, 0.64504452554069569, -0.27476525452673095, 0.91752218699146149, 0.072245055072259645, 0.24642478300563642, 1.356004617183582, 0.080962404713673108, 0.7218251744251124, 0.50809245977241368, -0.33276890933298042], "features": [312, 263, 127, 74, 207, 43, 195, -2, -2, -2, -2, -2, 292, -2, -2, 174, -2, -2, -2], "children_left": [1, 3, 15, 11, 5, 9, 7, -1, -1, -1, -1, -1, 13, -1, -1, 17, -1, -1, -1]}, {"children_right": [2, 12, 4, 6, 10, 8, -1, -1, -1, 18, -1, -1, 14, 16, -1, -1, -1, -1, -1], "thresholds": [0.5, -0.08693099766969681, 1.05560302734375, 2.1740660667419434, -0.3065935969352722, -0.36919060349464417, -2.0, -2.0, -2.0, 0.5, -2.0, -2.0, 0.5, 0.397771418094635, -2.0, -2.0, -2.0, -2.0, -2.0], "values": [-0.00045203716640662705, 0.11485676834610277, -0.011143701810491617, -0.029146511921902377, 0.069227185562482391, -0.03559558615274392, 0.87871346874233636, 0.018210237072376716, -0.51476719508573987, 0.041662839415494111, 0.46116747549471221, -0.43514703670891863, 0.12235168893616108, 0.1423153702940767, 0.035627887470734233, 0.77613951717035656, 0.3134775867794064, 0.10566847282262977, 0.59467332686115626], "features": [314, 343, 73, 337, 250, 73, -2, -2, -2, 273, -2, -2, 402, 133, -2, -2, -2, -2, -2], "children_left": [1, 11, 3, 5, 9, 7, -1, -1, -1, 17, -1, -1, 13, 15, -1, -1, -1, -1, -1]}, {"children_right": [2, 4, 10, 6, -1, -1, 8, -1, -1, 18, 12, 14, 16, -1, -1, -1, -1, -1, -1], "thresholds": [-0.21233147382736206, 3.285015106201172, -0.6140044927597046, 0.5, -2.0, -2.0, -0.30399876832962036, -2.0, -2.0, 2.8866634368896484, 0.5, 2.7025859355926514, 2.022733211517334, -2.0, -2.0, -2.0, -2.0, -2.0, -2.0], "values": [-0.00043476215052267071, -0.02756556965135603, 0.03517224353405099, -0.034368263612053321, 0.66138565371777325, 0.30271574112210786, -0.041438098493185471, 0.63196396015785228, -0.24916581199171303, 0.12612842479169398, 0.025313678242937988, 0.043417596414245842, -0.047619303079240963, 0.15181039232405885, 1.0940459896576056, -0.43169598699577483, 0.87052367728278424, 0.38364113055358112, 1.2677660231972077], "features": [46, 262, 166, 314, -2, -2, 280, -2, -2, 205, 402, 337, 247, -2, -2, -2, -2, -2, -2], "children_left": [1, 3, 9, 5, -1, -1, 7, -1, -1, 17, 11, 13, 15, -1, -1, -1, -1, -1, -1]}, {"children_right": [2, 4, 12, 6, 16, 10, 8, -1, -1, -1, -1, -1, 14, -1, -1, 18, -1, -1, -1], "thresholds": [0.03405135124921799, 1.0362448692321777, -0.047905340790748596, -0.015496892854571342, 2.0124611854553223, -0.30844545364379883, 0.5, -2.0, -2.0, -2.0, -2.0, -2.0, -0.15898284316062927, -2.0, -2.0, -0.05018963664770126, -2.0, -2.0, -2.0], "values": [-0.00040115229047514507, -0.011936970562110053, 0.15381849367260875, -0.027391150443914623, 0.058363694672066771, -0.074499252367447963, -0.0099231473582968247, -0.61720760908199335, 0.0081061484036277897, -0.1182409830333695, -0.67586719060060507, 0.085281070849291929, 0.18826971089899103, 1.1251527570513413, 0.33778385047504028, 0.061417413353032926, -1.6761955843742307, 0.031677412677070471, 0.49224649108910695], "features": [192, 73, 334, 316, 322, 58, 59, -2, -2, -2, -2, -2, 253, -2, -2, 262, -2, -2, -2], "children_left": [1, 3, 11, 5, 15, 9, 7, -1, -1, -1, -1, -1, 13, -1, -1, 17, -1, -1, -1]}, {"children_right": [2, 8, 4, -1, 6, 18, -1, 10, 14, 12, 16, -1, -1, -1, -1, -1, -1, -1, -1], "thresholds": [-0.011684922501444817, 1.0245411396026611, -0.012850116938352585, -2.0, 2.882017135620117, 0.05576923489570618, -2.0, -0.4465523958206177, 1.965825080871582, -0.2202991098165512, 0.5, -2.0, -2.0, -2.0, -2.0, -2.0, -2.0, -2.0, -2.0], "values": [-0.00038135230821910877, -0.034694257165746881, 0.019619747906566815, -0.086570927503621636, 0.074290258311810131, 0.056452351438866052, 1.1410530610404883, -0.054457769125108767, 0.043336385089562349, 0.21760281287992764, -0.062661860158419611, 1.7123401671508884, -0.63451616084660367, 0.34137091385101415, -0.61667962479117489, -0.43472830186528078, 0.074648158968254275, 0.23427671221576432, 1.6619561622813419], "features": [328, 10, 337, -2, 193, 12, -2, 283, 19, 43, 72, -2, -2, -2, -2, -2, -2, -2, -2], "children_left": [1, 7, 3, -1, 5, 17, -1, 9, 13, 11, 15, -1, -1, -1, -1, -1, -1, -1, -1]}, {"children_right": [2, 4, 10, 14, 6, 8, -1, -1, -1, 12, 18, -1, -1, -1, 16, -1, -1, -1, -1], "thresholds": [2.092187401103729e-07, 0.5, -0.010515253059566021, -0.15085217356681824, 0.5, 0.3460167348384857, -2.0, -2.0, -2.0, 0.4166666865348816, -0.06778331100940704, -2.0, -2.0, -2.0, -0.016529489308595657, -2.0, -2.0, -2.0, -2.0], "values": [-0.00035634409615764264, -0.012902219506993884, 0.070560030109516961, 0.10517459069754943, -0.019109601162563081, -0.02415387196853791, 0.80106756857066019, -0.19876577078719895, 0.30109755331530358, 0.0072550863524883935, 0.096755588643599205, -0.19597289628105483, 0.41131640022957916, 0.85990215926054192, 0.057382683174423139, -0.22643170639192581, 0.5287324788658555, -0.60876430352024014, 0.46287913631088529], "features": [195, 308, 334, 214, 330, 223, -2, -2, -2, 48, 82, -2, -2, -2, 340, -2, -2, -2, -2], "children_left": [1, 3, 9, 13, 5, 7, -1, -1, -1, 11, 17, -1, -1, -1, 15, -1, -1, -1, -1]}, {"children_right": [2, 4, 6, 12, 8, 18, -1, 10, -1, -1, -1, 14, 16, -1, -1, -1, -1, -1, -1], "thresholds": [0.559117317199707, -1.134690761566162, 0.09256117045879364, -0.4585246443748474, 3.2479772567749023, 5.002270698547363, -2.0, 2.671018600463867, -2.0, -2.0, -2.0, -0.04663470387458801, -0.1972392499446869, -2.0, -2.0, -2.0, -2.0, -2.0, -2.0], "values": [-0.00033442425249358571, -0.020436274544094912, 0.037807738177009421, 0.028005425745520819, -0.035154306832810574, 0.023302786888523382, 0.59678581154670474, -0.040875475388336413, 0.49545032807103556, -0.26121334174171773, 0.57423947023224431, 0.1511098378495471, 0.0091634150049711531, 2.0311241299311193, 0.29582080682366207, 2.7930407246624775, 0.02256322424624595, 0.085770867346821322, 0.88197608413909467], "features": [208, 67, 222, 265, 262, 214, -2, 193, -2, -2, -2, 82, 334, -2, -2, -2, -2, -2, -2], "children_left": [1, 3, 5, 11, 7, 17, -1, 9, -1, -1, -1, 13, 15, -1, -1, -1, -1, -1, -1]}, {"children_right": [2, 4, 14, 6, 10, 8, 18, -1, -1, 16, 12, -1, -1, -1, -1, -1, -1, -1, -1], "thresholds": [2.190998077392578, -0.2188841551542282, 0.75, 0.7523908019065857, -0.18307077884674072, -0.4297913908958435, -0.5, -2.0, -2.0, -0.07173949480056763, -0.8223047852516174, -2.0, -2.0, -2.0, -2.0, -2.0, -2.0, -2.0, -2.0], "values": [-0.00031861459265374113, -0.0080162153749236392, 0.11554815879703105, 0.026453287367033364, -0.051666468525703092, 0.03823349284060127, -0.095249204039821275, 0.74140190902512226, 0.12215924765304317, 0.019595342380839244, -0.056954507567616712, 0.035105018383970815, -0.48837433944339437, 0.39170905598611189, 0.83194961023636727, -0.60585122481716525, 0.27490178351614336, -0.74612584586690411, -0.18199040274953213], "features": [262, 70, 171, 58, 64, 247, 216, -2, -2, 289, 172, -2, -2, -2, -2, -2, -2, -2, -2], "children_left": [1, 3, 13, 5, 9, 7, 17, -1, -1, 15, 11, -1, -1, -1, -1, -1, -1, -1, -1]}, {"children_right": [2, 4, 10, 6, 18, 8, 16, -1, -1, 14, 12, -1, -1, -1, -1, -1, -1, -1, -1], "thresholds": [0.7354072332382202, 2.2602128982543945, 1.576026439666748, 0.5, -0.4211868643760681, 0.5, 0.29589638113975525, -2.0, -2.0, 0.5, -0.5, -2.0, -2.0, -2.0, -2.0, -2.0, -2.0, -2.0, -2.0], "values": [-0.00032136275747326071, -0.016099402400194824, 0.055276420502068657, -0.025278962086328186, 0.088149322168009636, -0.033189713700222272, 0.088478455763224745, 3.0055794772709152, -0.18729632483576752, 0.032957231957306536, 0.10973491541562524, -0.038641162110021846, 0.67496345100056587, 0.44893336464789302, 0.042379521713507187, 0.66012868406867287, 0.17236554802794857, 0.15885016434832305, 0.56001944931457825], "features": [6, 313, 178, 300, 259, 140, 103, -2, -2, 401, 216, -2, -2, -2, -2, -2, -2, -2, -2], "children_left": [1, 3, 9, 5, 17, 7, 15, -1, -1, 13, 11, -1, -1, -1, -1, -1, -1, -1, -1]}, {"children_right": [2, 4, 10, 12, 6, -1, 8, -1, -1, 14, 16, -1, -1, -1, -1, -1, 18, -1, -1], "thresholds": [-0.08936956524848938, -0.061021942645311356, -0.33088386058807373, 0.5, -0.08056517690420151, -2.0, 2.6694703102111816, -2.0, -2.0, -0.0633135661482811, -0.6149202585220337, -2.0, -2.0, -2.0, -2.0, -2.0, 1.5062001943588257, -2.0, -2.0], "values": [-0.00029936173417499065, -0.01074682269299748, 0.072019511174638298, -0.06888392994696306, 0.0016390509715827725, 1.3171010622013695, -0.0016097747775686956, -0.04492690858814026, 0.72113279280094511, 0.15078711718148227, 0.047305482738132648, -0.46350070872622912, 0.47302021984818171, 0.88459867522504587, 0.08867304284505903, 0.96466857332814748, 0.038077848023403429, 0.10731923207302965, 0.68184746039668964], "features": [307, 22, 223, 69, 85, -2, 193, -2, -2, 127, 73, -2, -2, -2, -2, -2, 277, -2, -2], "children_left": [1, 3, 9, 11, 5, -1, 7, -1, -1, 13, 15, -1, -1, -1, -1, -1, 17, -1, -1]}, {"children_right": [2, 4, 16, 6, 10, 8, 14, -1, -1, 12, -1, -1, -1, -1, -1, 18, -1, -1, -1], "thresholds": [2.684030532836914, 0.5, 0.5, 0.5, 3.991166591644287, 0.5, -0.3677939772605896, -2.0, -2.0, 2.0124611854553223, -2.0, -2.0, -2.0, -2.0, -2.0, 0.5, -2.0, -2.0, -2.0], "values": [-0.0002786226066651752, -0.0074804904554908094, 0.11165428423240747, -0.020449900596813383, 0.049409861525861846, -0.026471624273058932, 0.1254881633769071, -0.17624902309602497, 0.22611019288381159, 0.039928521792851807, 0.94447678713720218, 0.18855446030881801, -1.6408841148705502, -0.24762197986019752, 0.69426569378440905, 0.098025950332138678, 1.2738477809424924, 0.497663318746843, -1.3071909428669595], "features": [301, 72, 165, 336, 214, 270, 22, -2, -2, 322, -2, -2, -2, -2, -2, 297, -2, -2, -2], "children_left": [1, 3, 15, 5, 9, 7, 13, -1, -1, 11, -1, -1, -1, -1, -1, 17, -1, -1, -1]}, {"children_right": [2, 4, 16, 6, 10, 8, 14, -1, -1, 12, -1, -1, -1, -1, -1, 18, -1, -1, -1], "thresholds": [0.5, 0.5, 1.4127864837646484, 0.5, 3.3343746662139893, -0.8341591954231262, 0.75, -2.0, -2.0, 2.085282325744629, -2.0, -2.0, -2.0, -2.0, -2.0, -0.0599222257733345, -2.0, -2.0, -2.0], "values": [-0.00025846189692253362, -0.0065136085228871795, 0.11226417952048809, -0.016565013506227837, 0.044094578848003406, -0.024736056614287724, 0.075801322743925689, 0.1983284468483956, -0.19977353890117419, 0.018807872528381221, 0.58444928862580459, 0.013891264032821029, 0.44626610324978405, 0.13660876444942677, 0.52477672303166611, 0.090272247798780375, 0.89597421451080272, 0.0016931208476256227, 0.55049496624343186], "features": [336, 273, 34, 312, 262, 208, 207, -2, -2, 241, -2, -2, -2, -2, -2, 61, -2, -2, -2], "children_left": [1, 3, 15, 5, 9, 7, 13, -1, -1, 11, -1, -1, -1, -1, -1, 17, -1, -1, -1]}, {"children_right": [2, 4, 14, 8, 6, 18, 12, -1, 10, -1, -1, -1, -1, 16, -1, -1, -1, -1, -1], "thresholds": [-0.10494969040155411, -0.012850116938352585, 0.8012323975563049, 0.5, -0.06495741009712219, -0.08143796026706696, -0.12277232110500336, -2.0, 2.582379102706909, -2.0, -2.0, -2.0, -2.0, 0.5, -2.0, -2.0, -2.0, -2.0, -2.0], "values": [-0.00023492287083979579, -0.011187442111162176, 0.062398576611205146, -0.032129238344032814, 0.023817863960341974, -0.010726660285069189, 0.058184712853131836, -0.78560577215659477, -0.022648991922538476, -0.1603464054356743, 0.83698636027173812, 1.1250077655136461, 0.22288372518294355, 0.053269878789791586, 1.2054521121894275, -0.21221728832416836, 0.37994777531641483, -0.96407540600907649, -0.0093571406359390756], "features": [301, 337, 166, 134, 262, 202, 202, -2, 331, -2, -2, -2, -2, 404, -2, -2, -2, -2, -2], "children_left": [1, 3, 13, 7, 5, 17, 11, -1, 9, -1, -1, -1, -1, 15, -1, -1, -1, -1, -1]}, {"children_right": [2, 4, 12, 6, 18, 10, 8, -1, -1, -1, -1, -1, 14, -1, 16, -1, -1, -1, -1], "thresholds": [0.5, 2.190998077392578, -0.23774945735931396, 0.5, 0.75, 0.5, -0.11412136256694794, -2.0, -2.0, -2.0, -2.0, -2.0, -0.06896555423736572, -2.0, 0.02500000037252903, -2.0, -2.0, -2.0, -2.0], "values": [-0.00023632025703035274, -0.006174063055184152, 0.085801357088096622, -0.012462323517055717, 0.087185465996451023, 0.037978576518133765, -0.023525233460662716, -0.48237217786448439, -0.062265762105633095, -1.7668081173746206, 0.17986500417250806, 1.1625109672240221, 0.064641553559840734, 0.81619652769907891, 0.029822309487496052, -0.5516713881576667, 0.22312584697721194, 0.27090428878245365, 0.71146147777705382], "features": [306, 262, 280, 74, 171, 335, 22, -2, -2, -2, -2, -2, 319, -2, 3, -2, -2, -2, -2], "children_left": [1, 3, 11, 5, 17, 9, 7, -1, -1, -1, -1, -1, 13, -1, 15, -1, -1, -1, -1]}, {"children_right": [2, 4, 10, 6, 18, -1, 8, -1, -1, -1, 12, 16, 14, -1, -1, -1, -1, -1, -1], "thresholds": [2.882017135620117, 2.6112992763519287, 0.10027468204498291, -0.37097400426864624, 1.4123303890228271, -2.0, 0.044547341763973236, -2.0, -2.0, -2.0, -0.013010073453187943, -0.07289400696754456, 0.5, -2.0, -2.0, -2.0, -2.0, -2.0, -2.0], "values": [-0.00022562011183970275, -0.0059668583949736009, 0.12439425095971597, -0.010930497784333195, 0.13271176401565746, -0.58141986475685725, -0.0044021671780561629, -0.08247403570921133, 0.22826390982301287, -0.1573209357370263, 0.14187655863960563, -0.0038038555254538121, 0.15555982633212634, 0.81068731899079038, -1.8107620235670168, -1.031583823602217, 0.46452801905182806, 0.55210653479128557, 1.658288656925206], "features": [193, 337, 103, 76, 169, -2, 231, -2, -2, -2, 121, 304, 339, -2, -2, -2, -2, -2, -2], "children_left": [1, 3, 9, 5, 17, -1, 7, -1, -1, -1, 11, 15, 13, -1, -1, -1, -1, -1, -1]}, {"children_right": [2, 12, 4, 6, -1, 8, 10, -1, -1, -1, -1, 14, -1, 18, 16, -1, -1, -1, -1], "thresholds": [0.5, 0.5, 0.5, -0.2683987617492676, -2.0, -0.2701365351676941, 0.5, -2.0, -2.0, -2.0, -2.0, -0.2681322991847992, -2.0, -0.016529489308595657, -0.06812040507793427, -2.0, -2.0, -2.0, -2.0], "values": [-0.00020710823171923428, 0.036399516300539156, -0.012397066212365694, -0.018754530927087284, 0.25729000819962805, 0.014206130300140072, -0.034548237633242919, 0.017916099447702713, 1.0488530692707039, -0.22196434589567207, 0.54192648825248302, 0.04798266400372117, -0.08728883880801025, 0.0035664699335322433, 0.089784613324641563, 0.34738375606077071, 1.0134198568685671, -0.37901351553562035, 0.16550297268092715], "features": [401, 255, 312, 196, -2, 196, 330, -2, -2, -2, -2, 127, -2, 340, 298, -2, -2, -2, -2], "children_left": [1, 11, 3, 5, -1, 7, 9, -1, -1, -1, -1, 13, -1, 17, 15, -1, -1, -1, -1]}, {"children_right": [2, 12, 4, 6, 14, 10, 8, -1, -1, -1, -1, -1, -1, 18, 16, -1, -1, -1, -1], "thresholds": [-0.010515253059566021, -0.6501131057739258, 2.163076877593994, 0.5, -0.11840280890464783, -0.10494969040155411, -0.07757413387298584, -2.0, -2.0, -2.0, -2.0, -2.0, -2.0, 2.5505831241607666, -0.2312282919883728, -2.0, -2.0, -2.0, -2.0], "values": [-0.00019779241877824775, -0.06821677586175677, 0.0057955484002271433, -0.00017794001272255637, 0.093721095335667887, 0.012930734639458506, -0.050920916319307868, 1.3321724523851177, -0.36406423145042538, 0.005078804250242647, 0.37673553639422847, -0.076024402876764652, -0.69704592143724953, 0.035907876411933062, 0.12952256394479264, 1.4298397451420992, 0.47334578279295075, 0.030254111176527879, 0.66170764132919513], "features": [157, 175, 307, 402, 232, 301, 94, -2, -2, -2, -2, -2, -2, 190, 280, -2, -2, -2, -2], "children_left": [1, 11, 3, 5, 13, 9, 7, -1, -1, -1, -1, -1, -1, 17, 15, -1, -1, -1, -1]}, {"children_right": [2, 6, 4, 12, -1, 8, 18, 10, 16, -1, -1, -1, 14, -1, -1, -1, -1, -1, -1], "thresholds": [-0.17910650372505188, -0.07457447797060013, 0.7376062273979187, 0.0012666131369769573, -2.0, -0.44178110361099243, 0.5, -0.06511987000703812, -0.051852643489837646, -2.0, -2.0, -2.0, 0.5, -2.0, -2.0, -2.0, -2.0, -2.0, -2.0], "values": [-0.00019011044778740878, -0.018991792827970838, 0.025981265432018015, 0.012332912754419004, 0.39724507809930459, -0.035703776779007164, 0.010236734287686108, 0.045587671551453018, -0.047536088981447018, 1.3232485655312258, 0.073424960299101574, 0.28442085925426341, -0.0023846769131394305, 0.10403263302890955, -0.58742670357811944, 0.23391691284878269, -0.31051656845407821, 0.070914204706587297, -0.68255071745492324], "features": [313, 274, 6, 6, -2, 247, 297, 94, 142, -2, -2, -2, 402, -2, -2, -2, -2, -2, -2], "children_left": [1, 5, 3, 11, -1, 7, 17, 9, 15, -1, -1, -1, 13, -1, -1, -1, -1, -1, -1]}, {"children_right": [2, 4, 6, 8, 16, 14, -1, 12, 10, -1, -1, -1, -1, -1, -1, 18, -1, -1, -1], "thresholds": [1.05560302734375, 3.008815050125122, 3.121279001235962, 0.5, -0.363270103931427, -0.002989534754306078, -2.0, 7.353940010070801, 0.5, -2.0, -2.0, -2.0, -2.0, -2.0, -2.0, -0.017834410071372986, -2.0, -2.0, -2.0], "values": [-0.00018381583795120445, -0.0099404395127118857, 0.040621159867479856, -0.015059026818037481, 0.09083123097636496, 0.048284404267883795, -0.81343149856467811, -0.020039603121909992, 0.061430605992377478, 0.98172431019133921, 0.081953350651926216, -0.12044476817331538, 2.4315916496667622, 0.11636172301948378, 0.45705850955919725, 0.21411985805369269, 0.29534432211655703, -0.15329091699308645, 1.3121924221325401], "features": [73, 307, 298, 69, 277, 223, -2, 142, 401, -2, -2, -2, -2, -2, -2, 334, -2, -2, -2], "children_left": [1, 3, 5, 7, 15, 13, -1, 11, 9, -1, -1, -1, -1, -1, -1, 17, -1, -1, -1]}, {"children_right": [2, 10, 4, 12, 6, 8, 16, -1, -1, 18, -1, 14, -1, -1, -1, -1, -1, -1, -1], "thresholds": [0.5, 2.4919896125793457, -0.012850116938352585, 9.886852264404297, -0.1189587265253067, -0.2819363474845886, -0.039934705942869186, -2.0, -2.0, -0.10437089949846268, -2.0, -0.3112117052078247, -2.0, -2.0, -2.0, -2.0, -2.0, -2.0, -2.0], "values": [-0.00016957818862733322, -0.072366992373843031, 0.0077135667433000333, -0.010215987428121168, 0.036239832208536743, 0.021692775534239331, 0.10881732179542032, 0.37236065049488148, -0.034699522935893234, -0.099800951992210507, 0.32339387294453259, -0.011745123719672068, 1.617970737550442, 0.63007752104152426, -0.10582550254683738, 0.72158086822704715, 0.20579719201080629, -0.90472632653258089, -0.51530897880110071], "features": [59, 1, 337, 295, 307, 70, 310, -2, -2, 295, -2, 70, -2, -2, -2, -2, -2, -2, -2], "children_left": [1, 9, 3, 11, 5, 7, 15, -1, -1, 17, -1, 13, -1, -1, -1, -1, -1, -1, -1]}, {"children_right": [2, 4, 10, 6, -1, 8, 12, -1, -1, 14, -1, -1, -1, 16, 18, -1, -1, -1, -1], "thresholds": [0.5, 4.485875129699707, -0.20338407158851624, 2.461873769760132, -2.0, 0.5, 1.7744817733764648, -2.0, -2.0, -0.24149852991104126, -2.0, -2.0, -2.0, 0.7919539213180542, -0.5385499000549316, -2.0, -2.0, -2.0, -2.0], "values": [-0.0001622547213397194, -0.0054421163797269611, 0.072354303632118422, -0.0089691626841483709, 0.58567916042813262, -0.012880657014454618, 0.069868888357255132, 0.2807169894105998, -0.11264685617222582, 0.11059053798602314, -0.14540179105656859, 0.40531552584731206, -0.77110914819709131, 0.058511352119744897, 0.16478188525903031, 0.17238842328945828, 1.2385212916216619, -0.38719328331907582, 0.85621801256607299], "features": [300, 214, 70, 271, -2, 314, 247, -2, -2, 130, -2, -2, -2, 166, 160, -2, -2, -2, -2], "children_left": [1, 3, 9, 5, -1, 7, 11, -1, -1, 13, -1, -1, -1, 15, 17, -1, -1, -1, -1]}, {"children_right": [2, 4, 6, 14, 8, -1, 12, 10, -1, -1, -1, 18, -1, -1, 16, -1, -1, -1, -1], "thresholds": [-0.06905064731836319, -0.30048927664756775, -0.016529489308595657, -0.23373670876026154, 2.684030532836914, -2.0, 0.5, 2.610647678375244, -2.0, -2.0, -2.0, -0.10931450128555298, -2.0, -2.0, -0.15450355410575867, -2.0, -2.0, -2.0, -2.0], "values": [-0.00014539924009396529, 0.0060652648543084607, -0.055881172875607017, 0.082836102476308335, -0.0053840623605202398, -0.72744739011878357, 0.032268314325149809, -0.011113110022820855, 0.37258564683492346, -0.078687541320392046, 0.48072464976805179, 0.081509392447712353, -0.64734299893842995, 0.58292912167526911, 0.048880279141350791, 0.52809148691714147, 0.071107788941870836, 0.98284335435171355, 0.18123409167567228], "features": [247, 70, 280, 256, 301, -2, 99, 331, -2, -2, -2, 181, -2, -2, 280, -2, -2, -2, -2], "children_left": [1, 3, 5, 13, 7, -1, 11, 9, -1, -1, -1, 17, -1, -1, 15, -1, -1, -1, -1]}, {"children_right": [2, 4, 16, 6, 10, 14, 8, -1, -1, 12, -1, -1, -1, -1, -1, 18, -1, -1, -1], "thresholds": [2.092187401103729e-07, 1.1406670808792114, 1.8591408729553223, 0.5, 0.5, -0.8100425004959106, -0.010515253059566021, -2.0, -2.0, -0.1477770209312439, -2.0, -2.0, -2.0, -2.0, -2.0, 0.49484947323799133, -2.0, -2.0, -2.0], "values": [-0.00014823117901589683, -0.0063797457681956243, 0.059178886544370285, -0.015439039684804777, 0.034784005904449279, -0.028045116243391552, 0.021857138329254174, -0.99320872347167, 0.20540974010336163, 0.0097309121485461853, 0.50284360466587741, 0.32951489553213009, -0.23794470908825327, 0.045477526796785413, -0.19715220137505352, 0.048692847206211025, 1.0700345991902511, 0.55774775183783576, 0.13356619164486544], "features": [189, 175, 192, 399, 177, 211, 157, -2, -2, 64, -2, -2, -2, -2, -2, 16, -2, -2, -2], "children_left": [1, 3, 15, 5, 9, 13, 7, -1, -1, 11, -1, -1, -1, -1, -1, 17, -1, -1, -1]}, {"children_right": [2, 16, 4, 6, 10, 14, 8, -1, -1, 12, -1, -1, -1, -1, -1, -1, 18, -1, -1], "thresholds": [-0.6140044927597046, -0.06233787164092064, -0.25071895122528076, -0.034048013389110565, 3.5921926498413086, -0.19600088894367218, -0.22291141748428345, -2.0, -2.0, 0.6786208748817444, -2.0, -2.0, -2.0, -2.0, -2.0, -2.0, 0.9490443468093872, -2.0, -2.0], "values": [-0.00014654880945585202, 0.069100588689522319, -0.0056446351396256377, -0.031921140745881336, 0.0069080904862376521, -0.070351441909581772, 0.014313187190728806, 0.40015769533819284, -0.21112251657441883, 0.0093496783237518293, -0.82253582730960473, 0.093322619398826676, -0.35127672421815592, -0.58543927422112063, -0.2003552439396169, -0.48147317936556677, 0.079917577613917476, 0.42759248439614511, -0.60472544977807541], "features": [166, 25, 13, 262, 298, 313, 70, -2, -2, 58, -2, -2, -2, -2, -2, -2, 220, -2, -2], "children_left": [1, 15, 3, 5, 9, 13, 7, -1, -1, 11, -1, -1, -1, -1, -1, -1, 17, -1, -1]}, {"children_right": [2, 4, 6, 18, 12, 8, -1, 16, 10, -1, -1, 14, -1, -1, -1, -1, -1, -1, -1], "thresholds": [-0.015496892854571342, -0.22011664509773254, 1.993740200996399, 0.928382396697998, 0.18818098306655884, -0.6549700498580933, -2.0, -0.651008129119873, 0.5, -2.0, -2.0, 2.710543155670166, -2.0, -2.0, -2.0, -2.0, -2.0, -2.0, -2.0], "values": [-0.00015013513400572993, -0.032496884799778615, 0.010040370092385759, 0.036496722932743836, -0.057439882849805488, 0.0079238859233378648, 0.93334567782252431, -0.035331676119063314, 0.014127264906140921, -0.00099839789119308682, 0.31545989739942465, -0.021596496558622048, -0.71879670545389618, -0.063182771401758972, -1.2491197285342495, -0.092689106241926875, -0.68059744656430987, 0.077566709512506493, 0.58757016363176529], "features": [316, 70, 61, 163, 7, 46, -2, 49, 399, -2, -2, 73, -2, -2, -2, -2, -2, -2, -2], "children_left": [1, 3, 5, 17, 11, 7, -1, 15, 9, -1, -1, 13, -1, -1, -1, -1, -1, -1, -1]}, {"children_right": [2, 6, 4, 18, 8, -1, 12, -1, 10, -1, -1, 14, 16, -1, -1, -1, -1, -1, -1], "thresholds": [-0.17910650372505188, -0.08345191180706024, 0.5, 0.36373376846313477, 0.7820650339126587, -2.0, 0.5, -2.0, -0.2750196158885956, -2.0, -2.0, 0.5, 0.5, -2.0, -2.0, -2.0, -2.0, -2.0, -2.0], "values": [-0.00015835600633234102, -0.015255552224958563, 0.020856486653990532, -0.05977220296596425, 0.028610504772816112, 0.69422685506439985, -0.017743064029119762, 0.083871472696139232, 0.069159719005994116, 0.85156725991000193, 0.25419571262097168, -0.0091556571939291603, -0.05404516386293598, -0.010433356272629054, -0.43823103704323413, -0.44195381032962783, 0.20106908250785935, -0.88940898042463423, 0.042161277458939633], "features": [313, 91, 248, 55, 175, -2, 402, -2, 190, -2, -2, 57, 264, -2, -2, -2, -2, -2, -2], "children_left": [1, 5, 3, 17, 7, -1, 11, -1, 9, -1, -1, 13, 15, -1, -1, -1, -1, -1, -1]}, {"children_right": [2, 10, 4, 6, 12, 8, -1, -1, -1, 14, 18, -1, -1, 16, -1, -1, -1, -1, -1], "thresholds": [-0.2993645966053009, 1.2816267013549805, 2.3665122985839844, 6.132716178894043, 1.8315870761871338, -0.14157046377658844, -2.0, -2.0, -2.0, 1.5433725118637085, -0.3963479995727539, -2.0, -2.0, -0.17128917574882507, -2.0, -2.0, -2.0, -2.0, -2.0], "values": [-0.00016157754688663351, 0.063143393523478086, -0.0095259911264244379, -0.014839734477562205, 0.053882456728043496, -0.01663896158650615, 1.1657281735111895, 0.81597915360904927, -0.10698958886414926, 0.055063348952183871, 0.16278130767475041, 0.17903965175493183, 0.59757180445468761, 0.050141365359651829, 0.79615574973618597, -0.084681326426778447, 0.36283498554635202, 1.0281275783163826, 0.34531326919958516], "features": [70, 211, 313, 13, 52, 109, -2, -2, -2, 337, 235, -2, -2, 64, -2, -2, -2, -2, -2], "children_left": [1, 9, 3, 5, 11, 7, -1, -1, -1, 13, 17, -1, -1, 15, -1, -1, -1, -1, -1]}, {"children_right": [2, 4, 16, 10, 6, -1, 8, -1, -1, 12, 14, -1, -1, -1, -1, -1, 18, -1, -1], "thresholds": [2.882017135620117, 1.116102933883667, -0.9255558252334595, -0.1477770209312439, 0.5, -2.0, 0.5, -2.0, -2.0, 0.5, 1.9050216674804688, -2.0, -2.0, -2.0, -2.0, -2.0, 0.5, -2.0, -2.0], "values": [-0.00014453706192901492, -0.0044186260947555057, 0.092629251091724346, -0.012142677698721053, 0.029243369200806391, -1.6785797569217547, 0.032301368156603581, -0.9224204002173676, 0.17466595912896773, 0.0068619343844644664, -0.024970545722597569, -0.48953270052151321, 0.089741224843206513, -0.17830470643331217, 0.40437027884152121, 0.95490403008087033, 0.064366090794580513, 0.43405161306320961, -1.1463880581154164], "features": [193, 73, 172, 64, 335, -2, 299, -2, -2, 59, 34, -2, -2, -2, -2, -2, 402, -2, -2], "children_left": [1, 3, 15, 9, 5, -1, 7, -1, -1, 11, 13, -1, -1, -1, -1, -1, 17, -1, -1]}, {"children_right": [2, 4, 10, -1, 6, 8, -1, -1, -1, 18, 12, 16, 14, -1, -1, -1, -1, -1, -1], "thresholds": [2.092187401103729e-07, 0.5, -0.39136189222335815, -2.0, 2.641247272491455, -0.05309942364692688, -2.0, -2.0, -2.0, -0.010515253059566021, -1.0671674013137817, 0.25160735845565796, -0.7659462690353394, -2.0, -2.0, -2.0, -2.0, -2.0, -2.0], "values": [-0.00013465890086423112, -0.0054446002273239738, 0.050418623077523886, -0.27843478516617187, 0.0039710928260684661, -0.00043340704740517876, 0.52218363442782034, -0.29552945025143201, 0.050240432764589643, 0.116534734198684, 0.039935649088191867, -0.075294964653732185, 0.050980620001860592, -0.6919661109139229, 0.29399689422611003, -0.5821385509445427, 1.1862250601409761, -0.4094223212959503, 0.68891159649901557], "features": [189, 404, 127, -2, 337, 22, -2, -2, -2, 151, 217, 192, 235, -2, -2, -2, -2, -2, -2], "children_left": [1, 3, 9, -1, 5, 7, -1, -1, -1, 17, 11, 15, 13, -1, -1, -1, -1, -1, -1]}, {"children_right": [2, 4, 12, 10, 6, 8, -1, -1, -1, -1, 18, 14, 16, -1, -1, -1, -1, -1, -1], "thresholds": [0.044547341763973236, -0.8341591954231262, 0.5, -0.8598035573959351, 2.616218090057373, -0.9215434193611145, -2.0, -2.0, -2.0, -2.0, 0.0225897915661335, 2.8117575645446777, 2.878139019012451, -2.0, -2.0, -2.0, -2.0, -2.0, -2.0], "values": [-0.00012761541314851147, -0.0082414663146443395, 0.041004477099645914, 0.037882125624955264, -0.017226900174756178, -0.02375287980255826, 0.20021825625778192, 1.3293557994296894, -0.14982316298529247, 0.13395818008329891, 0.17571310579639829, 0.04946553337565518, -0.1390424050506153, 0.12733647550359373, 0.43043064432494921, -1.1003642407824412, 0.39657029784495995, 0.85557296279721429, 3.628465592694738], "features": [231, 208, 297, 208, 205, 28, -2, -2, -2, -2, 12, 6, 193, -2, -2, -2, -2, -2, -2], "children_left": [1, 3, 11, 9, 5, 7, -1, -1, -1, -1, 17, 13, 15, -1, -1, -1, -1, -1, -1]}, {"children_right": [2, 4, 16, 6, 12, 8, 10, -1, -1, -1, -1, -1, 14, -1, -1, 18, -1, -1, -1], "thresholds": [0.6786208748817444, 3.1292922496795654, 2.1674890518188477, 0.5071943998336792, -0.5, 0.3460167348384857, 0.0029730121605098248, -2.0, -2.0, -2.0, -2.0, -2.0, 1.4949735403060913, -2.0, -2.0, -0.2261965274810791, -2.0, -2.0, -2.0], "values": [-0.00012791875970735562, 0.0060012486284833711, -0.056261611639490484, 0.0033854645502605922, 0.12708318221275167, 0.00072166579830810075, 0.15955990089239508, -0.032645347810228889, 0.28836342299118939, 0.13154454439757349, 1.037610656063862, 1.1728790545167, 0.09110743801869757, 0.18115075644659132, 1.0269579004519367, -0.063791595625001543, 0.25238584369594919, -0.65041179069274857, -0.31095435919027065], "features": [58, 331, 28, 213, 216, 223, 231, -2, -2, -2, -2, -2, 34, -2, -2, 193, -2, -2, -2], "children_left": [1, 3, 15, 5, 11, 7, 9, -1, -1, -1, -1, -1, 13, -1, -1, 17, -1, -1, -1]}, {"children_right": [2, 10, 4, 6, 16, 8, 14, -1, -1, -1, 12, -1, 18, -1, -1, -1, -1, -1, -1], "thresholds": [-0.6140044927597046, 1.9282398223876953, 0.5, 4.485875129699707, -0.256631076335907, 3.2521767616271973, -0.058163974434137344, -2.0, -2.0, -2.0, -0.091179259121418, -2.0, 0.20584478974342346, -2.0, -2.0, -2.0, -2.0, -2.0, -2.0], "values": [-0.00011997071991857021, 0.056745970587086081, -0.004635014458107877, -0.0025902648165236882, -0.13285127215350531, -0.0052201415154585866, 0.089938299683852738, -0.049822691752178266, 0.42871497434070305, 0.17287427351002385, 0.17018856609126301, 1.7786661972010083, 0.13965299187030514, 0.034829140332463364, 0.69457883388297603, 1.2718729410393455, -0.78983858788290473, -0.21832170701565445, 1.031904627745696], "features": [166, 307, 297, 214, 187, 262, 37, -2, -2, -2, 187, -2, 103, -2, -2, -2, -2, -2, -2], "children_left": [1, 9, 3, 5, 15, 7, 13, -1, -1, -1, 11, -1, 17, -1, -1, -1, -1, -1, -1]}, {"children_right": [2, 10, 4, 12, 6, 8, 16, -1, -1, -1, 18, -1, 14, -1, -1, -1, -1, -1, -1], "thresholds": [-0.2089235931634903, -0.22195014357566833, -0.7071532011032104, -0.18881580233573914, 7.385749816894531, 0.5, -0.3986542820930481, -2.0, -2.0, -2.0, -0.0041962964460253716, -2.0, 0.12996596097946167, -2.0, -2.0, -2.0, -2.0, -2.0, -2.0], "values": [-0.00010480427306013816, 0.040998662261236801, -0.0060570439370319007, 0.089361900353994439, -0.0084905226566754644, -0.0022987615639286328, -0.078486309002171434, -0.34133752003336015, 0.021090679226182973, -0.037674999254255624, 0.061990524283522482, -0.7876280279115383, 0.11446630584315495, 1.0000593663503243, 0.048682271132643985, -0.91218724549003893, -0.28395788484022716, 0.18921948626609347, 0.4734319648619838], "features": [280, 313, 247, 22, 174, 59, 46, -2, -2, -2, 193, -2, 7, -2, -2, -2, -2, -2, -2], "children_left": [1, 9, 3, 11, 5, 7, 15, -1, -1, -1, 17, -1, 13, -1, -1, -1, -1, -1, -1]}, {"children_right": [2, 4, 10, 6, 8, -1, -1, 18, -1, 14, 12, -1, -1, 16, -1, -1, -1, -1, -1], "thresholds": [-0.21233147382736206, -0.24054710566997528, 0.5, -0.08318941295146942, -0.40553027391433716, -2.0, -2.0, -0.2912171185016632, -2.0, 0.5, 0.5182929635047913, -2.0, -2.0, 2.5, -2.0, -2.0, -2.0, -2.0, -2.0], "values": [-0.00011013379295096334, -0.014044460227445604, 0.018180827710740616, 0.014797906984101937, -0.030876497635932008, 0.024086612989700953, 0.77765366572511796, 0.0095978759704316123, -0.30634410543249296, 0.028236857146703934, -0.027574104806809219, -0.45704100014857174, 0.096155666176983845, 0.031550160401567329, -0.69569639554974494, 0.12406780963829736, 0.53807309993074115, 1.331492789518919, 0.017111152476772366], "features": [52, 196, 402, 301, 238, -2, -2, 286, -2, 297, 220, -2, -2, 0, -2, -2, -2, -2, -2], "children_left": [1, 3, 9, 5, 7, -1, -1, 17, -1, 13, 11, -1, -1, 15, -1, -1, -1, -1, -1]}, {"children_right": [2, 4, 18, 6, 12, 8, 10, -1, -1, -1, -1, 14, 16, -1, -1, -1, -1, -1, -1], "thresholds": [1.570013403892517, 4.522334098815918, 0.5, 0.5, -0.13477137684822083, 3.5921926498413086, 0.3670399487018585, -2.0, -2.0, -2.0, -2.0, 2.5, 0.5, -2.0, -2.0, -2.0, -2.0, -2.0, -2.0], "values": [-0.00011095211644106005, 0.00075662631288372049, -0.26859662631481285, -0.0017694829292272754, 0.08867821826590061, 0.0059818365201895693, -0.034562215585146078, 0.045720096305329881, -0.80598284810521237, -0.30300497524090642, 0.35983306822133865, 0.14231668541171372, 0.035283710809246367, 0.47056573520183737, 1.3032149248890645, -0.02853668190556299, 0.63654796425884119, -2.2011086419341339, -1.3556804721315399], "features": [322, 214, 266, 402, 58, 298, 223, -2, -2, -2, -2, 0, 30, -2, -2, -2, -2, -2, -2], "children_left": [1, 3, 17, 5, 11, 7, 9, -1, -1, -1, -1, 13, 15, -1, -1, -1, -1, -1, -1]}, {"children_right": [2, 4, 12, 6, -1, 10, 8, -1, -1, -1, -1, -1, 14, 16, 18, -1, -1, -1, -1], "thresholds": [0.03405135124921799, 1.4475648403167725, -0.12719185650348663, -1.134690761566162, -2.0, 9.37320327758789, 0.5, -2.0, -2.0, -2.0, -2.0, -2.0, 0.5, -0.1126440167427063, 0.25160735845565796, -2.0, -2.0, -2.0, -2.0], "values": [-0.00010720185531009925, -0.0040896740606525036, 0.053133534007879422, -0.0081458770556511184, 0.25028371426937679, 0.02942428308175209, -0.016878354060279661, 0.58295350344560903, -0.11354864493564878, 0.15467801568677642, 2.1248061605674828, -0.82378241671474073, 0.060095962351883518, -0.10480313852398057, 0.069556924672656353, 1.2767473835390142, -0.93030529694394803, 0.50419328543380371, 0.22878277060618077], "features": [192, 10, 334, 67, -2, 13, 71, -2, -2, -2, -2, -2, 404, 118, 195, -2, -2, -2, -2], "children_left": [1, 3, 11, 5, -1, 9, 7, -1, -1, -1, -1, -1, 13, 15, 17, -1, -1, -1, -1]}, {"children_right": [2, 4, 18, 8, 6, 14, 16, 12, 10, -1, -1, -1, -1, -1, -1, -1, -1, -1, -1], "thresholds": [1.993740200996399, -0.07440762221813202, 0.5, -0.40052300691604614, 5.595315456390381, 0.5, 1.8591408729553223, 0.1645490676164627, 0.5, -2.0, -2.0, -2.0, -2.0, -2.0, -2.0, -2.0, -2.0, -2.0, -2.0], "values": [-0.00010156770097686999, -0.0016015403439394932, 0.16374530180513855, 0.0038276107266973633, -0.049984250355696098, -0.069327013404223009, 0.082066439117778806, 0.025801724001384699, -0.0088892324008601874, 0.036823812876834082, -0.36513995917136599, -0.16617432076203781, 0.22056892185498891, -0.35168126950305673, -0.92716250133624456, 0.68055226310023653, -0.28584904634042896, -2.2102660739606463, 0.82264226664101403], "features": [61, 58, 326, 73, 232, 246, 204, 6, 5, -2, -2, -2, -2, -2, -2, -2, -2, -2, -2], "children_left": [1, 3, 17, 7, 5, 13, 15, 11, 9, -1, -1, -1, -1, -1, -1, -1, -1, -1, -1]}, {"children_right": [2, 18, 4, 6, 12, 10, 8, -1, -1, -1, -1, 16, 14, -1, -1, -1, -1, -1, -1], "thresholds": [0.5, -0.0816834419965744, 2.7025859355926514, -0.30048927664756775, -0.22717410326004028, 0.5, 4.198212623596191, -2.0, -2.0, -2.0, -2.0, 0.5, -0.05309942364692688, -2.0, -2.0, -2.0, -2.0, -2.0, -2.0], "values": [-0.00010591129811198158, -0.25246823666965651, 0.00078442861772452398, -0.003036049480206996, 0.09424727940923984, 0.047511043447800709, -0.010383465329833268, -0.080796674568531138, 0.68240727217203445, 0.14688082620700127, 0.45008966652487092, -0.072572448668929881, 0.10568142007089669, 0.11825309792484727, 0.58421554340245496, -0.6263952408944321, 0.92551222709277892, 0.52498726799239348, -1.4387725715563173], "features": [341, 91, 337, 70, 283, 162, 70, -2, -2, -2, -2, 39, 22, -2, -2, -2, -2, -2, -2], "children_left": [1, 17, 3, 5, 11, 9, 7, -1, -1, -1, -1, 15, 13, -1, -1, -1, -1, -1, -1]}, {"children_right": [2, 10, 4, -1, 6, 18, 8, -1, -1, -1, 12, 16, 14, -1, -1, -1, -1, -1, -1], "thresholds": [-0.37972021102905273, 0.5, -0.2497006058692932, -2.0, -0.010515253059566021, -0.37038248777389526, -0.09829473495483398, -2.0, -2.0, -2.0, -0.14157046377658844, -0.04319342225790024, 0.5, -2.0, -2.0, -2.0, -2.0, -2.0, -2.0], "values": [-9.982397036385029e-05, -0.017175621864958284, 0.012841654305088658, -0.27097693236549303, 0.017408876990192248, -0.068831051568947407, 0.022138243317844003, 0.36629302169689604, 0.070101437667415473, 0.52119139885250665, -0.019688098977469065, 0.13518459033095692, -0.02253423491920405, 0.34539556348143313, -0.15750887531187602, 1.1804747782699592, -0.87551674408847546, 0.49924715114384122, -0.64108093865893701], "features": [160, 332, 325, -2, 157, 205, 310, -2, -2, -2, 109, 94, 338, -2, -2, -2, -2, -2, -2], "children_left": [1, 9, 3, -1, 5, 17, 7, -1, -1, -1, 11, 15, 13, -1, -1, -1, -1, -1, -1]}, {"children_right": [2, 4, 12, -1, 6, 10, 8, -1, -1, -1, -1, 14, -1, 16, 18, -1, -1, -1, -1], "thresholds": [2.482025146484375, 0.5, 3.34975004196167, -2.0, 0.5, -0.016529489308595657, -0.967217743396759, -2.0, -2.0, -2.0, -2.0, 0.5, -2.0, 0.5, -0.45976904034614563, -2.0, -2.0, -2.0, -2.0], "values": [-9.5731446277459671e-05, -0.0035124710013797501, 0.079219518506334713, 0.81251159689042141, -0.0049867576902356912, 0.086350046519826945, -0.0072135092975117963, 1.3172779679263107, -0.048245699514164145, 0.085884008157767033, 0.63062148751018687, 0.052714604448644876, 0.66308776885950738, 0.024144735700215483, 0.12682251773417882, 0.17808378228996946, -0.67137892123452436, 0.20032465827035922, 0.99284627580319029], "features": [337, 62, 210, -2, 332, 340, 28, -2, -2, -2, -2, 399, -2, 177, 208, -2, -2, -2, -2], "children_left": [1, 3, 11, -1, 5, 9, 7, -1, -1, -1, -1, 13, -1, 15, 17, -1, -1, -1, -1]}, {"children_right": [2, 8, 4, 6, -1, 12, 14, 10, 16, -1, -1, -1, -1, -1, -1, 18, -1, -1, -1], "thresholds": [-0.255328893661499, -0.39179426431655884, 0.7354072332382202, -0.8341591954231262, -2.0, -0.8678893446922302, 0.22268939018249512, -0.1321077048778534, 0.5, -2.0, -2.0, -2.0, -2.0, -2.0, -2.0, -0.2288810908794403, -2.0, -2.0, -2.0], "values": [-8.3979293168473252e-05, -0.028055718704908132, 0.0076284441600863919, -0.0031442897224912675, 0.25042100450058336, 0.049224085084563662, -0.011357380339660064, 0.024090355614356376, -0.044687693542663026, 1.1825784366640109, 0.014682489918033366, 0.18475220694638148, 0.98778433176685931, -0.10153785105633326, 0.33167170779660293, -0.049599880900057965, 0.36701951077697781, -0.4418279212949498, -0.1500916190745181], "features": [307, 265, 6, 208, -2, 211, 79, 112, 63, -2, -2, -2, -2, -2, -2, 301, -2, -2, -2], "children_left": [1, 7, 3, 5, -1, 11, 13, 9, 15, -1, -1, -1, -1, -1, -1, 17, -1, -1, -1]}, {"children_right": [2, 18, 4, 6, 8, 14, 10, 12, 16, -1, -1, -1, -1, -1, -1, -1, -1, -1, -1], "thresholds": [0.5, -0.24099597334861755, 0.5608208179473877, -0.2188841551542282, -0.07527121901512146, -0.5, 0.5, -0.32106316089630127, 0.7495096325874329, -2.0, -2.0, -2.0, -2.0, -2.0, -2.0, -2.0, -2.0, -2.0, -2.0], "values": [-8.1885105168952234e-05, -0.043598909914805167, 0.0046696841504909438, -0.0071694763421096064, 0.029085707309283081, 0.014670361647538325, -0.027737519075089839, -0.0055701704485090252, 0.046751923174155149, -0.25388483779355087, 0.22145786513044552, -0.44888194020528543, 0.046382430151704276, -0.040220427575693815, 0.17549681216413671, 0.19876539759767523, 0.73517748045286579, -0.49327012629977551, -0.13806164821672556], "features": [59, 49, 208, 70, 331, 219, 33, 130, 277, -2, -2, -2, -2, -2, -2, -2, -2, -2, -2], "children_left": [1, 17, 3, 5, 7, 13, 9, 11, 15, -1, -1, -1, -1, -1, -1, -1, -1, -1, -1]}, {"children_right": [2, 4, 12, 6, 14, 10, 8, -1, -1, -1, -1, 16, -1, -1, -1, -1, 18, -1, -1], "thresholds": [0.07733796536922455, 2.482025146484375, 0.5, -0.21574923396110535, -0.17179812490940094, -0.34194204211235046, 0.5, -2.0, -2.0, -2.0, -2.0, 0.5, -2.0, -2.0, -2.0, -2.0, -0.5319606065750122, -2.0, -2.0], "values": [-8.2359380572136659e-05, -0.0016994721900003994, 0.14692909238511379, -0.0048771466628729377, 0.071229025775821048, 0.033712396072692372, -0.0099948295040770928, -0.061352043911160087, 2.4695398781827267, 0.41751577404765888, 0.089999987349489316, 0.230118472916886, 0.3328227588029421, -0.31069261574751128, 0.40100663376695928, -0.060067626753676856, 0.26793478721765912, 1.8379103886594408, 0.37713758535767145], "features": [12, 337, 261, 280, 199, 277, 138, -2, -2, -2, -2, 269, -2, -2, -2, -2, 211, -2, -2], "children_left": [1, 3, 11, 5, 13, 9, 7, -1, -1, -1, -1, 15, -1, -1, -1, -1, 17, -1, -1]}, {"children_right": [2, 4, 10, 6, 18, 8, -1, -1, -1, -1, 12, 14, 16, -1, -1, -1, -1, -1, -1], "thresholds": [4.522334098815918, 3.5921926498413086, -0.058163974434137344, 1.570013403892517, -0.39907777309417725, 0.17418666183948517, -2.0, -2.0, -2.0, -2.0, 0.5, -0.03171807527542114, -0.5358413457870483, -2.0, -2.0, -2.0, -2.0, -2.0, -2.0], "values": [-7.7637427906454006e-05, -0.0022932590490739591, 0.077206787426947546, -0.00052937044232100321, -0.12552398146001437, 0.00025937774678121844, -1.3640269078575382, 0.0055886654730354099, -1.3653589731952398, 0.13792808111251093, 0.10121177422021636, 0.13235617040579287, 0.049837426269494632, -0.029334012465801002, 0.82336192895601457, -2.0466343869221939, 0.41951019161700759, -1.128844800779661, -0.48692064911392152], "features": [214, 298, 37, 322, 259, 304, -2, -2, -2, -2, 276, 34, 52, -2, -2, -2, -2, -2, -2], "children_left": [1, 3, 9, 5, 17, 7, -1, -1, -1, -1, 11, 13, 15, -1, -1, -1, -1, -1, -1]}, {"children_right": [2, 18, 4, 6, 10, 16, 8, -1, -1, 14, 12, -1, -1, -1, -1, -1, -1, -1, -1], "thresholds": [-1.0715761184692383, 1.8434512615203857, 8.416248321533203, 0.5, 1.8591408729553223, 1.5, 1.116102933883667, -2.0, -2.0, -0.39880597591400146, 0.5, -2.0, -2.0, -2.0, -2.0, -2.0, -2.0, -2.0, -2.0], "values": [-7.5538766663975476e-05, 0.3021809169688856, -0.00074630782046578319, -0.0015141973815677328, 0.24317824764685983, -0.21077537557541509, -0.00063018975040655414, -0.044206451843757127, 0.13073162414573178, 0.1775537370601106, 0.46761093282408472, 2.6163906498938574, 0.61912867490173285, -1.9546600227342719, 0.89830503959962971, -0.95281329810020643, -1.5143864272263117, 1.4490712439805313, 0.86737087951512881], "features": [28, 175, 325, 305, 186, 0, 73, -2, -2, 130, 74, -2, -2, -2, -2, -2, -2, -2, -2], "children_left": [1, 17, 3, 5, 9, 15, 7, -1, -1, 13, 11, -1, -1, -1, -1, -1, -1, -1, -1]}, {"children_right": [2, 4, 16, 6, 12, 8, 10, -1, -1, -1, -1, 14, 18, -1, -1, -1, -1, -1, -1], "thresholds": [3.3343746662139893, 2.092187401103729e-07, 5.893237590789795, -0.3065935969352722, -0.4121463894844055, -0.11812512576580048, 7.240052223205566, -2.0, -2.0, -2.0, -2.0, -0.2725519835948944, 2.881505012512207, -2.0, -2.0, -2.0, -2.0, -2.0, -2.0], "values": [-7.1426086433955835e-05, -0.0032886792044852691, 0.07508413875527413, -0.0098948469542073109, 0.02261941588757373, -0.020020325536041373, 0.012284932439856337, -0.17345909122211653, 0.11250168974610376, 0.093449987725292963, -0.60078894755234358, 0.054769044858374014, 0.0073430572649847564, -0.67561436615741732, 0.30036648900024537, 0.47438832100682909, -0.46720302297778726, 0.017883608269996423, 0.66272538796981906], "features": [262, 204, 280, 250, 238, 301, 210, -2, -2, -2, -2, 337, 31, -2, -2, -2, -2, -2, -2], "children_left": [1, 3, 15, 5, 11, 7, 9, -1, -1, -1, -1, 13, 17, -1, -1, -1, -1, -1, -1]}, {"children_right": [2, 4, 12, 6, -1, 10, 8, -1, -1, -1, -1, 18, 14, -1, 16, -1, -1, -1, -1], "thresholds": [2.882017135620117, 4.179427146911621, -0.04012066125869751, 0.5, -2.0, 1.05560302734375, 0.12409704923629761, -2.0, -2.0, -2.0, -2.0, -0.7112288475036621, -0.04576515406370163, -2.0, 0.5, -2.0, -2.0, -2.0, -2.0], "values": [-6.7311407575859828e-05, -0.0029841533110158218, 0.063245939848794605, -0.0052752857333945866, 0.41203677121611576, -0.0087697264920308729, 0.055177518925914541, -0.020391264056189809, 0.63508942001673607, -0.097057539636939333, 0.093790228752648377, -0.031066631823532628, 0.092544573410607581, -0.47916011748671622, 0.10718062297983812, -1.1390877309630612, 0.74909155598245658, 0.70679259875392531, -0.36838925353869906], "features": [193, 301, 328, 69, -2, 73, 268, -2, -2, -2, -2, 211, 109, -2, 404, -2, -2, -2, -2], "children_left": [1, 3, 11, 5, -1, 9, 7, -1, -1, -1, -1, 17, 13, -1, 15, -1, -1, -1, -1]}, {"children_right": [2, 16, 4, 8, 6, 12, -1, 10, 14, -1, -1, -1, -1, -1, -1, 18, -1, -1, -1], "thresholds": [-0.7071532011032104, -0.06014740467071533, -0.26238781213760376, -0.09081662446260452, 1.497866153717041, 2.8416237831115723, -2.0, -0.5973528623580933, 0.08614620566368103, -2.0, -2.0, -2.0, -2.0, -2.0, -2.0, -0.013883533887565136, -2.0, -2.0, -2.0], "values": [-6.0537625164229805e-05, 0.081654506358282544, -0.0022321702614821006, 0.014256305461419374, -0.010573119319356727, -0.020633106312208441, 0.1217146295256183, 0.061276923338097485, 0.0026118934617395842, -0.37504013634559319, 0.40566389723170293, -0.14554199176211485, 0.63727452552263419, -0.082977969508570726, 0.14541594993390966, 0.19974105807391551, 0.28565829471617721, 0.11357734307797371, 1.7100861374983893], "features": [247, 322, 196, 304, 51, 259, -2, 31, 229, -2, -2, -2, -2, -2, -2, 328, -2, -2, -2], "children_left": [1, 15, 3, 7, 5, 11, -1, 9, 13, -1, -1, -1, -1, -1, -1, 17, -1, -1, -1]}, {"children_right": [2, 4, 10, 6, 12, 8, 18, -1, -1, -1, 16, -1, 14, -1, -1, -1, -1, -1, -1], "thresholds": [0.5, 0.3460167348384857, 2.3173866271972656, 2.482025146484375, 0.5, 2.8117575645446777, -0.15653398633003235, -2.0, -2.0, -2.0, -0.09180285036563873, -2.0, 1.9530680179595947, -2.0, -2.0, -2.0, -2.0, -2.0, -2.0], "values": [-6.2248505361054115e-05, 0.0043136315214078536, -0.040138541082194154, -0.00028633913936235318, 0.043574672501348971, -0.0035695623289935105, 0.068277704598565303, -0.048068895405899807, 0.24760074682670283, -0.37529269786718594, 0.041081385856781047, 0.34944397752297129, 0.0072559502521826191, -0.11252982017947538, 0.71287971540675432, -0.41444781065526187, 0.45928584482425, 0.33886092913809229, -2.4531556253330269], "features": [57, 223, 1, 337, 56, 6, 58, -2, -2, -2, 274, -2, 100, -2, -2, -2, -2, -2, -2], "children_left": [1, 3, 9, 5, 11, 7, 17, -1, -1, -1, 15, -1, 13, -1, -1, -1, -1, -1, -1]}, {"children_right": [2, 4, 10, 6, 18, 8, -1, -1, -1, -1, 12, 14, 16, -1, -1, -1, -1, -1, -1], "thresholds": [2.092187401103729e-07, 0.7791476249694824, -0.967217743396759, 9.110061645507812, -0.050921641290187836, 0.5, -2.0, -2.0, -2.0, -2.0, 0.8022613525390625, 0.25160735845565796, 0.292896032333374, -2.0, -2.0, -2.0, -2.0, -2.0, -2.0], "values": [-5.6389071903329019e-05, -0.0058393988354950186, 0.022273398339384663, -0.0064939590647089818, 0.41923437015401249, -0.0071892283614559908, 0.99101613886656736, -0.35794905783682296, -0.012921720620561405, 1.4601887653209982, 0.020988616264279735, -0.020081606974791198, 0.042100781962528415, 0.052042834037176224, -0.41426759351375581, 0.31778380181805699, 0.110906511176057, 3.6282979177572523, 1.520779668066758], "features": [204, 12, 28, 289, 82, 248, -2, -2, -2, -2, 208, 195, 103, -2, -2, -2, -2, -2, -2], "children_left": [1, 3, 9, 5, 17, 7, -1, -1, -1, -1, 11, 13, 15, -1, -1, -1, -1, -1, -1]}, {"children_right": [2, 16, 4, 10, 6, 8, -1, -1, -1, 14, 12, -1, -1, -1, -1, 18, -1, -1, -1], "thresholds": [-0.8422777056694031, -0.0453847236931324, 0.7354072332382202, -0.010515253059566021, 1.628652572631836, 1.8451080322265625, -2.0, -2.0, -2.0, 1.6131091117858887, 2.6247270107269287, -2.0, -2.0, -2.0, -2.0, 0.5, -2.0, -2.0, -2.0], "values": [-5.5367587330844313e-05, 0.031013753243529656, -0.0054302800453119417, -0.013260359603259239, 0.020764655935405742, 0.027043540198454608, -0.46419449615492586, 0.040581344733653109, 0.40499084632561422, -0.028239358471995886, -0.0018707216988478213, -0.04063530986015735, 0.94627768414286406, -0.21719508774990376, 0.55288491609600787, 0.057115221752078844, 0.019495917962557601, 0.74688849165882421, 0.2040581192619009], "features": [208, 304, 6, 334, 166, 19, -2, -2, -2, 40, 259, -2, -2, -2, -2, 167, -2, -2, -2], "children_left": [1, 15, 3, 9, 5, 7, -1, -1, -1, 13, 11, -1, -1, -1, -1, 17, -1, -1, -1]}, {"children_right": [2, 12, 4, 6, 10, 8, 16, -1, -1, 14, 18, -1, -1, -1, -1, -1, -1, -1, -1], "thresholds": [-0.967217743396759, -0.11042605340480804, 2.092187401103729e-07, 2.9767706394195557, 0.5052540302276611, -0.14157046377658844, 0.09157386422157288, -2.0, -2.0, 0.5, -0.560254693031311, -2.0, -2.0, -2.0, -2.0, -2.0, -2.0, -2.0, -2.0], "values": [-5.9967364656300344e-05, 0.21099212196110717, -0.0008039929269858904, -0.0049238429761503466, 0.038309438100430172, -0.0068030724660805954, 0.096589444241469896, 0.70248681341211006, -0.046957674378007783, 0.028296169947201615, 0.12081523549308455, -1.5825125107629314, 1.1690184963697441, 0.16160016573653055, -1.2332663189901718, 0.75577166685225838, -0.086088909801676994, -0.076072463635247084, 0.75864878428891191], "features": [28, 304, 189, 256, 133, 109, 229, -2, -2, 303, 256, -2, -2, -2, -2, -2, -2, -2, -2], "children_left": [1, 11, 3, 5, 9, 7, 15, -1, -1, 13, 17, -1, -1, -1, -1, -1, -1, -1, -1]}, {"children_right": [2, 12, 4, 6, 14, 8, 10, -1, -1, -1, -1, 16, -1, -1, -1, -1, 18, -1, -1], "thresholds": [0.5, 0.5, 0.5, 1.8800334930419922, -0.08056517690420151, -0.6973692774772644, 0.5, -2.0, -2.0, -2.0, -2.0, -0.14138691127300262, -2.0, -2.0, -2.0, -2.0, 0.5, -2.0, -2.0], "values": [-5.6421438199994493e-05, -0.23624827490069886, 0.00060832798547374143, 0.0012719851724365232, -0.21062515495769651, -0.0015272962581038129, 0.058477194255254862, 0.27247006362788528, -0.02943288854744993, 0.1547182374785617, 0.56238994719919955, -0.20370380965773838, -1.9942084436353913, 0.61076360124087825, -1.3462938173776353, 0.47093820268579134, -0.21295929800207219, -1.2728186024039752, -1.8367967101804217], "features": [335, 273, 339, 34, 85, 166, 194, -2, -2, -2, -2, 124, -2, -2, -2, -2, 336, -2, -2], "children_left": [1, 11, 3, 5, 13, 7, 9, -1, -1, -1, -1, 15, -1, -1, -1, -1, 17, -1, -1]}, {"children_right": [2, 12, 4, 6, -1, 8, 10, -1, -1, -1, -1, 14, 18, 16, -1, -1, -1, -1, -1], "thresholds": [-0.17910650372505188, 0.32182490825653076, 0.5, -0.18906670808792114, -2.0, -0.10114233195781708, -0.08769302815198898, -2.0, -2.0, -2.0, -2.0, 2.882017135620117, -0.28510552644729614, -0.5395618677139282, -2.0, -2.0, -2.0, -2.0, -2.0], "values": [-5.4724917193555067e-05, -0.011034416070238778, 0.015228674642485729, 0.0115121422239776, 0.46811027386611309, 0.025216075954176406, -0.028597132559488724, -0.016253404670672537, 0.31133299238980983, 0.35614689955782608, -0.35767488702496814, -0.0063357610603207081, -0.036768245177049554, -0.0089019150453728008, 0.39297953883544751, -0.21420836923609485, 0.024467481265503598, -1.4764353856758339, -0.21144568294955318], "features": [313, 268, 69, 70, -2, 232, 322, -2, -2, -2, -2, 193, 280, 235, -2, -2, -2, -2, -2], "children_left": [1, 11, 3, 5, -1, 7, 9, -1, -1, -1, -1, 13, 17, 15, -1, -1, -1, -1, -1]}, {"children_right": [2, 12, 4, 6, 10, -1, 8, -1, -1, 14, -1, -1, 16, -1, -1, -1, 18, -1, -1], "thresholds": [-0.28958195447921753, 0.5, 1.342994213104248, -0.1713777482509613, -0.38398173451423645, -2.0, 0.5, -2.0, -2.0, 0.2285763919353485, -2.0, -2.0, -0.18750755488872528, -2.0, -2.0, -2.0, 0.5, -2.0, -2.0], "values": [-5.799200004228157e-05, 0.034017352192728972, -0.0068565220808236294, -0.012126731612934575, 0.02617819815817542, 0.85841786676932663, -0.013524049949074447, -0.11408755313572477, 0.26952941647373407, 0.075503448790172595, -0.0062023660404938652, 0.37332279951671926, 0.016645786356070728, 0.35413078240274076, 1.5552617785701623, 0.99228619651707906, 0.012451992470103451, 0.44398421037497954, 0.0035879600128782881], "features": [70, 173, 49, 304, 73, -2, 69, -2, -2, 79, -2, -2, 292, -2, -2, -2, 29, -2, -2], "children_left": [1, 11, 3, 5, 9, -1, 7, -1, -1, 13, -1, -1, 15, -1, -1, -1, 17, -1, -1]}, {"children_right": [2, 4, 6, -1, 14, 8, 18, 10, 12, -1, -1, -1, -1, 16, -1, -1, -1, -1, -1], "thresholds": [0.5, -0.07563770562410355, -0.17885294556617737, -2.0, 0.5, -0.06779037415981293, -0.20892895758152008, -0.06797000765800476, -1.1650590896606445, -2.0, -2.0, -2.0, -2.0, 0.553176999092102, -2.0, -2.0, -2.0, -2.0, -2.0], "values": [-5.7412190540321617e-05, -0.024749715952741981, 0.0058196284413958741, 1.081447707154463, -0.032221266857919144, -0.0076249051869001338, 0.024193718036208865, -0.012599362313546905, 0.069818172477686499, -0.03130053874680018, -0.62577219629939917, 1.7855640716769992, 0.29338956686928019, -0.035432866333613797, 1.096492528093298, -0.44625454776874196, -0.03374270308401147, 0.19310475189892023, 0.016134666081217539], "features": [404, 85, 313, -2, 294, 64, 259, 247, 208, -2, -2, -2, -2, 220, -2, -2, -2, -2, -2], "children_left": [1, 3, 5, -1, 13, 7, 17, 9, 11, -1, -1, -1, -1, 15, -1, -1, -1, -1, -1]}, {"children_right": [2, 16, 4, 10, 6, 14, 8, -1, -1, -1, 12, -1, -1, -1, -1, 18, -1, -1, -1], "thresholds": [0.5, 0.5, -0.05349051207304001, -0.32968640327453613, -0.4356544017791748, -0.3749985694885254, 0.5, -2.0, -2.0, -2.0, -0.24144262075424194, -2.0, -2.0, -2.0, -2.0, -0.223898246884346, -2.0, -2.0, -2.0], "values": [-6.063433818335912e-05, -0.037119601979989883, 0.0039857877704874934, -0.025534487385785037, 0.010359367686057842, 0.038945740103003619, 0.0021517418013449075, 0.19066375455835724, -0.031109240203479292, -0.33250657297928743, 0.015363769146455914, -0.32937487363956924, 0.3476579848199009, 0.38153087252767665, 0.084190580439357135, 0.057542907825806067, -0.2771432565848041, -0.92732696513605239, 0.6505452841330841], "features": [59, 41, 316, 250, 274, 256, 401, -2, -2, -2, 10, -2, -2, -2, -2, 223, -2, -2, -2], "children_left": [1, 15, 3, 9, 5, 13, 7, -1, -1, -1, 11, -1, -1, -1, -1, 17, -1, -1, -1]}, {"children_right": [2, 4, 16, 12, 6, 10, 8, -1, -1, -1, -1, 18, 14, -1, -1, -1, -1, -1, -1], "thresholds": [1.8149986267089844, -0.05309942364692688, -0.01817881315946579, 0.032982341945171356, -0.255328893661499, -0.0816834419965744, 0.5, -2.0, -2.0, -2.0, -2.0, 0.5, -0.5555781126022339, -2.0, -2.0, -2.0, -2.0, -2.0, -2.0], "values": [-6.2980956238025865e-05, 0.0012972259013886117, -0.1003193977903146, -0.02645011469066097, 0.0075113223034446236, -0.022194586527883822, 0.016584437388874298, -0.14728751737473306, 0.14498675900693425, 1.0019408696323857, -0.15334915376996286, 0.0099664056347433128, -0.039070868089699257, 0.49420695767068695, -0.35167841506105307, -1.0028995416641018, -0.057311069870886577, 0.0013554750347262237, 0.91816418525457144], "features": [166, 22, 328, 6, 307, 91, 404, -2, -2, -2, -2, 69, 160, -2, -2, -2, -2, -2, -2], "children_left": [1, 3, 15, 11, 5, 9, 7, -1, -1, -1, -1, 17, 13, -1, -1, -1, -1, -1, -1]}, {"children_right": [2, 4, 18, 6, 12, 8, 10, -1, -1, -1, -1, 16, 14, -1, -1, -1, -1, -1, -1], "thresholds": [9.886852264404297, 7.385749816894531, -0.1071285828948021, 0.5, -0.038278572261333466, 0.9342044591903687, -1.3532555103302002, -2.0, -2.0, -2.0, -2.0, 0.5373519659042358, -0.09996587038040161, -2.0, -2.0, -2.0, -2.0, -2.0, -2.0], "values": [-6.666819050102509e-05, -0.0008151415119593263, 0.21247146262799615, 0.0025008035342460205, -0.038211671927594552, 0.0033836165697804445, -0.15480199940193612, -0.033899487414782173, 0.24711603365744789, -1.3700970352225479, -0.49712755049632257, -0.1168584485952311, -0.031661897207574063, -0.70323080317638897, -0.080923846967233773, -1.113148873170273, 0.4041189254424491, 1.1650526242375483, 0.75021388280101009], "features": [295, 174, 232, 294, 151, 172, 67, -2, -2, -2, -2, 103, 325, -2, -2, -2, -2, -2, -2], "children_left": [1, 3, 17, 5, 11, 7, 9, -1, -1, -1, -1, 15, 13, -1, -1, -1, -1, -1, -1]}, {"children_right": [2, 10, 4, 6, -1, -1, 8, -1, -1, 12, 14, -1, 18, -1, 16, -1, -1, -1, -1], "thresholds": [-0.677560567855835, -1.5326664447784424, 0.5, 0.5, -2.0, -2.0, 6.789693832397461, -2.0, -2.0, 0.07011273503303528, -0.05884940177202225, -2.0, -0.10944737493991852, -2.0, 4.158761024475098, -2.0, -2.0, -2.0, -2.0], "values": [-6.9256717218735359e-05, -0.036091322037108818, 0.0040042613839424805, 0.0026960730499549809, 0.72106567116004372, -0.55299628170325399, 0.0041998382686523512, 0.019338453505407891, 0.90263693474702755, 0.061021515909722969, -0.041019029244508891, -0.76485097020306603, 0.20141769755599667, -0.57926895701031378, -0.017953960213032045, -0.26740473129988129, 0.37427669217648679, -0.72348122999497488, 1.850782852010064], "features": [46, 217, 60, 299, -2, -2, 292, -2, -2, 229, 319, -2, 310, -2, 210, -2, -2, -2, -2], "children_left": [1, 9, 3, 5, -1, -1, 7, -1, -1, 11, 13, -1, 17, -1, 15, -1, -1, -1, -1]}, {"children_right": [2, 4, 18, 6, 10, 8, 16, -1, -1, 12, 14, -1, -1, -1, -1, -1, -1, -1, -1], "thresholds": [3.285015106201172, -0.06371510028839111, -0.1921236515045166, 0.5, 0.3084384500980377, 1.8797919750213623, -0.2405344843864441, -2.0, -2.0, -0.051941610872745514, -0.39512890577316284, -2.0, -2.0, -2.0, -2.0, -2.0, -2.0, -2.0, -2.0], "values": [-6.9195309721123251e-05, -0.0027646693094425141, 0.061666136918269235, -0.0073021785320896287, 0.033181625441123748, -0.0030567797954223928, -0.049083881648541619, -0.027903101903939912, 0.83418029386688397, 0.0051253945763995515, 0.050465299988345549, 0.93790986144709132, -0.10719016350443948, 0.57463995294580827, 0.13558641806045887, -0.70188217442709422, -0.21409871811937714, -4.3949657912214857, 0.36110714475036149], "features": [262, 307, 61, 57, 16, 169, 277, -2, -2, 319, 265, -2, -2, -2, -2, -2, -2, -2, -2], "children_left": [1, 3, 17, 5, 9, 7, 15, -1, -1, 11, 13, -1, -1, -1, -1, -1, -1, -1, -1]}, {"children_right": [2, 4, 16, 6, 10, 14, 8, -1, -1, 12, -1, -1, -1, -1, -1, -1, 18, -1, -1], "thresholds": [0.5, 0.4174421429634094, 0.901164174079895, -0.967217743396759, 3.057058095932007, -0.03325950354337692, -0.16886243224143982, -2.0, -2.0, 1.1878635883331299, -2.0, -2.0, -2.0, -2.0, -2.0, -2.0, 2.4088191986083984, -2.0, -2.0], "values": [-6.7672245779089665e-05, -0.0010934017692560687, 0.11197608546550802, 0.0062364899096464029, -0.020286277350612069, 0.20079702491798984, 0.0053193009376318384, 0.078290595861103193, -0.04092191316357606, -0.019563124513292424, -1.5472992283912095, -0.21263778612317394, 0.15995608309096362, 0.13724287580299993, 1.1196967759288521, 0.82217471990839119, 0.059797580969340229, 0.47639447091408554, -0.76623979973564771], "features": [60, 133, 9, 28, 6, 322, 196, -2, -2, 10, -2, -2, -2, -2, -2, -2, 337, -2, -2], "children_left": [1, 3, 15, 5, 9, 13, 7, -1, -1, 11, -1, -1, -1, -1, -1, -1, 17, -1, -1]}, {"children_right": [2, 4, 16, 10, 6, -1, 8, -1, -1, 12, 14, -1, -1, -1, -1, -1, 18, -1, -1], "thresholds": [0.7791476249694824, -0.9237673282623291, -0.2131713330745697, -0.2884652316570282, 0.5, -2.0, -0.012850116938352585, -2.0, -2.0, -0.7623099088668823, 0.5329924821853638, -2.0, -2.0, -2.0, -2.0, -2.0, 0.07564042508602142, -2.0, -2.0], "values": [-6.2849069805078026e-05, -0.00051720249028052562, 0.36261032249597003, 0.02881103072953272, -0.0047524006965054457, -1.3421580896470386, -0.0041053746815481488, -0.096908672504544352, 0.055728541724337284, 0.015410262376749936, 0.072954901552399504, 1.6324835526259756, 0.066302045091508638, 0.50806540008586887, -0.13742899632286618, -0.87688147968874164, 0.42188081078324013, 2.3893797735979039, 0.89680518708654755], "features": [12, 172, 181, 247, 323, -2, 271, -2, -2, 34, 133, -2, -2, -2, -2, -2, 232, -2, -2], "children_left": [1, 3, 15, 9, 5, -1, 7, -1, -1, 11, 13, -1, -1, -1, -1, -1, 17, -1, -1]}, {"children_right": [2, 4, 16, 10, 6, 8, -1, -1, -1, 12, 14, -1, -1, -1, -1, -1, 18, -1, -1], "thresholds": [5.849041938781738, -0.22407996654510498, -0.04629100486636162, 0.6653436422348022, 0.17418666183948517, -0.255328893661499, -2.0, -2.0, -2.0, -0.1407470554113388, 0.5, -2.0, -2.0, -2.0, -2.0, -2.0, 0.5, -2.0, -2.0], "values": [-6.2065108967057067e-05, -0.0016370880344578191, 0.077451751194154997, -0.094419347022892994, -0.00049490568317509225, 0.00022402895170227718, -1.2059050737987955, -0.1356990906524555, 0.039836619985165141, -0.065963572475994978, -0.21301974438943058, 0.89641633632812245, -0.49684862537181995, 0.91807783339539817, -1.3983261416617805, 0.16104163862866264, 0.10017208945949438, 0.69411594460640391, 0.38348853132605309], "features": [214, 214, 31, 4, 304, 307, -2, -2, -2, 304, 41, -2, -2, -2, -2, -2, 276, -2, -2], "children_left": [1, 3, 15, 9, 5, 7, -1, -1, -1, 11, 13, -1, -1, -1, -1, -1, 17, -1, -1]}, {"children_right": [2, 4, 12, 6, 18, 8, 10, -1, -1, -1, -1, -1, 14, -1, 16, -1, -1, -1, -1], "thresholds": [4.179427146911621, 3.5921926498413086, -0.2366742491722107, 0.5, -0.4092065691947937, 0.044547341763973236, -0.1294144093990326, -2.0, -2.0, -2.0, -2.0, -2.0, -0.3800967335700989, -2.0, 0.5, -2.0, -2.0, -2.0, -2.0], "values": [-5.9296263277723525e-05, -0.0022552189788534386, 0.07355091081911766, -0.00094114347255433136, -0.090064702132866298, -0.0027041375802499658, 0.066587392814227916, -0.048729445083744084, 0.12989077083543904, 0.037668733478311997, 0.71758729670750498, 0.80229776706928868, 0.051182719312610932, 0.69561695546308355, -0.0025760717206578824, -0.82882477065225235, 0.15757391684804589, 0.024726023174832717, -0.7711402732701943], "features": [301, 298, 193, 330, 31, 231, 64, -2, -2, -2, -2, -2, 73, -2, 66, -2, -2, -2, -2], "children_left": [1, 3, 11, 5, 17, 7, 9, -1, -1, -1, -1, -1, 13, -1, 15, -1, -1, -1, -1]}, {"children_right": [2, 4, 18, 6, 8, 16, 12, 10, 14, -1, -1, -1, -1, -1, -1, -1, -1, -1, -1], "thresholds": [0.5, -0.10494969040155411, -0.29667598009109497, -1.9609434604644775, -0.4721248745918274, -0.32149600982666016, -0.010515253059566021, -0.3112950623035431, 0.8049750328063965, -2.0, -2.0, -2.0, -2.0, -2.0, -2.0, -2.0, -2.0, -2.0, -2.0], "values": [-5.5505168414245472e-05, 0.00055453362416719163, -0.18884152263640933, -0.0043648849873193117, 0.028799884564834465, -0.055135364997779039, -0.00036929593119343704, 0.10876718883599475, 0.01519441075065012, 0.87042878222184039, -0.09444935383068398, -0.3148698057021066, 0.015574903135598174, 0.054016732014890656, 0.68414541750125912, 0.30107536140540303, -0.47374124190748418, -0.067648540801239235, -1.3689914046907763], "features": [321, 301, 166, 133, 274, 70, 145, 247, 166, -2, -2, -2, -2, -2, -2, -2, -2, -2, -2], "children_left": [1, 3, 17, 5, 7, 15, 11, 9, 13, -1, -1, -1, -1, -1, -1, -1, -1, -1, -1]}, {"children_right": [2, 4, 18, 12, 6, 8, 10, -1, -1, -1, -1, 16, 14, -1, -1, -1, -1, -1, -1], "thresholds": [2.970226526260376, 0.22912931442260742, 0.5, -0.5340896844863892, -0.06755401939153671, 0.2540820837020874, 2.611046314239502, -2.0, -2.0, -2.0, -2.0, -0.10531840473413467, -0.07440762221813202, -2.0, -2.0, -2.0, -2.0, -2.0, -2.0], "values": [-5.9013639190793033e-05, -0.0016837966066276483, 0.076183203887495443, -0.0044883587960813098, 0.046484183062403851, 0.1309890344778715, -0.0025270336844044174, 1.283727006937323, 0.22579421740606118, -0.15561319731064532, 1.9580166207185112, -0.020889554545091286, 0.0049716407349946635, 0.069701312768522414, -0.21618121598797768, -0.44362625571739206, -0.076013373410940596, 0.43443266318599144, -0.74556135319872474], "features": [331, 79, 324, 235, 325, 79, 127, -2, -2, -2, -2, 340, 58, -2, -2, -2, -2, -2, -2], "children_left": [1, 3, 17, 11, 5, 7, 9, -1, -1, -1, -1, 15, 13, -1, -1, -1, -1, -1, -1]}, {"children_right": [2, 4, 6, 12, 8, 14, -1, -1, 10, -1, -1, 18, -1, -1, 16, -1, -1, -1, -1], "thresholds": [-0.06537383794784546, -0.23539292812347412, 0.14698177576065063, -0.4664861261844635, -0.22873498499393463, -0.3778899312019348, -2.0, -2.0, -0.2830394506454468, -2.0, -2.0, 0.5, -2.0, -2.0, -0.20661430060863495, -2.0, -2.0, -2.0, -2.0], "values": [-6.1138368699363856e-05, -0.011279124879610308, 0.01199746599886488, -0.046959176114399176, 0.0041000612802707384, 0.0017665975921956497, 0.27383144485703736, 0.4666935097821997, -0.0020525134202203938, 0.55345603372728003, -0.053715773535069303, 0.062770478839001789, -0.33913258284146047, 0.54563563037504847, -0.00064745305808976768, 0.090167204689364053, -0.22910400162215522, 0.82681603220386479, -0.14172530596454616], "features": [262, 301, 52, 223, 301, 313, -2, -2, 286, -2, -2, 197, -2, -2, 70, -2, -2, -2, -2], "children_left": [1, 3, 5, 11, 7, 13, -1, -1, 9, -1, -1, 17, -1, -1, 15, -1, -1, -1, -1]}, {"children_right": [2, 4, 18, 12, 6, 8, 10, -1, -1, -1, -1, 16, 14, -1, -1, -1, -1, -1, -1], "thresholds": [0.7679082751274109, 0.5, -0.1396576166152954, -0.20143195986747742, 0.5, -0.14185771346092224, 2.229146718978882, -2.0, -2.0, -2.0, -2.0, -0.07940742373466492, -0.0599222257733345, -2.0, -2.0, -2.0, -2.0, -2.0, -2.0], "values": [-6.3892174825239955e-05, 0.00053390708102897283, -0.1695070538587691, 0.046132323565912819, -0.0019974570761106202, 0.034144276815690919, -0.0055056488800841732, 0.4570048873156442, -0.016683857965796006, -0.050193659511374757, 0.30314551274845597, 0.1506166154663359, 0.02623633445089231, 0.50870741420822974, -0.064225115649602788, 1.372070926768701, 0.36399072974786884, 1.0535637334157331, -1.2735004759280273], "features": [340, 71, 109, 286, 314, 193, 337, -2, -2, -2, -2, 325, 322, -2, -2, -2, -2, -2, -2], "children_left": [1, 3, 17, 11, 5, 7, 9, -1, -1, -1, -1, 15, 13, -1, -1, -1, -1, -1, -1]}, {"children_right": [2, 4, 12, 6, 10, 18, 8, -1, -1, -1, -1, 14, 16, -1, -1, -1, -1, -1, -1], "thresholds": [0.8565611243247986, 4.198212623596191, -0.3834495544433594, 0.004807692486792803, 0.47256842255592346, 3.721534490585327, 0.5506385564804077, -2.0, -2.0, -2.0, -2.0, 0.19549813866615295, -0.10096205025911331, -2.0, -2.0, -2.0, -2.0, -2.0, -2.0], "values": [-6.13282054304664e-05, -0.0056878979974391911, 0.0248512797941003, -0.0081225586172074503, 0.091340228429980561, 0.00024950166585903242, -0.029339996690101088, -0.63521551110689012, -0.08909067087125308, 1.1961718245499959, 0.22579779527705721, 0.091954101758477402, 0.015854699855707432, 0.21542308690301606, 1.1829864170163622, -0.41640160511217084, 0.17498966421933831, -0.0053356557076388277, 0.84703983042847675], "features": [163, 70, 277, 171, 220, 34, 175, -2, -2, -2, -2, 79, 340, -2, -2, -2, -2, -2, -2], "children_left": [1, 3, 11, 5, 9, 17, 7, -1, -1, -1, -1, 13, 15, -1, -1, -1, -1, -1, -1]}, {"children_right": [2, 4, 12, 6, 14, 8, 10, -1, -1, -1, -1, 18, -1, -1, 16, -1, -1, -1, -1], "thresholds": [2.9767706394195557, 1.6131091117858887, -0.24063444137573242, 2.882017135620117, -0.10700169205665588, -0.14927682280540466, 0.5, -2.0, -2.0, -2.0, -2.0, -0.06512920558452606, -2.0, -2.0, -0.26322776079177856, -2.0, -2.0, -2.0, -2.0], "values": [-7.2502724183503086e-05, -0.0014778946089986766, 0.079745320606826667, -0.0030950993603340968, 0.089898111792007199, -0.0054499749145011604, 0.046908295222453447, 1.2497511308946969, -0.035815520107283033, 0.21359977319873502, 1.1618439009979398, 0.15771661311265631, 0.15235410497585541, 0.30502571915914517, 0.16162365297665354, 1.6654628785584582, 0.64056445879003043, 1.8064605279602777, 0.53546669757591736], "features": [100, 40, 1, 193, 199, 244, 387, -2, -2, -2, -2, 322, -2, -2, 190, -2, -2, -2, -2], "children_left": [1, 3, 11, 5, 13, 7, 9, -1, -1, -1, -1, 17, -1, -1, 15, -1, -1, -1, -1]}, {"children_right": [2, 4, 16, 6, 8, 12, 10, 14, -1, -1, -1, -1, -1, -1, -1, -1, 18, -1, -1], "thresholds": [0.4318656325340271, 1.877258539199829, -0.135299950838089, -0.6318605542182922, -0.13338693976402283, 2.6925182342529297, -0.4270499348640442, -0.5, -2.0, -2.0, -2.0, -2.0, -2.0, -2.0, -2.0, -2.0, 0.30275335907936096, -2.0, -2.0], "values": [-6.9411500100488124e-05, -0.0033840933212608525, 0.032387495332469762, -0.004636674442035596, 0.08854110438354644, 0.085020560562380179, -0.0064195658424261856, 0.4026892431854881, 0.36983828741761304, 0.095527041287844186, -0.068990971596257181, 0.3230726700823115, 1.3570015114800931, 4.2196889691485904, 0.15049672048664609, -0.05047266308643214, 0.051693050594570016, 0.3014335452358905, -1.5926177624139419], "features": [28, 169, 187, 73, 199, 70, 265, 216, -2, -2, -2, -2, -2, -2, -2, -2, 310, -2, -2], "children_left": [1, 3, 15, 5, 7, 11, 9, 13, -1, -1, -1, -1, -1, -1, -1, -1, 17, -1, -1]}, {"children_right": [2, 12, 4, 6, -1, 8, 10, -1, -1, -1, -1, 16, 14, -1, -1, -1, 18, -1, -1], "thresholds": [-0.7591840028762817, 0.11345259845256805, 3.721534490585327, -0.06371510028839111, -2.0, -0.9223074913024902, -0.28454387187957764, -2.0, -2.0, -2.0, -2.0, -0.01625640131533146, 0.268049955368042, -2.0, -2.0, -2.0, 0.1364639550447464, -2.0, -2.0], "values": [-7.1399744686501807e-05, 0.088529897406943003, -0.0013628952705528837, -0.0021741751977444952, 0.74722096637482693, -0.0056943595861519295, 0.026055490192671081, 0.70774053690046956, -0.04203864211130099, 0.34860144565658957, -0.0062986825915097907, 0.15269810842385018, 0.016516637339225773, -0.75718826338512069, 0.48753961406723406, 0.52938317214162522, 0.21942270264586866, 0.55263966763376127, 1.5130638565512127], "features": [247, 7, 34, 307, -2, 37, 241, -2, -2, -2, -2, 319, 16, -2, -2, -2, 79, -2, -2], "children_left": [1, 11, 3, 5, -1, 7, 9, -1, -1, -1, -1, 15, 13, -1, -1, -1, 17, -1, -1]}, {"children_right": [2, 4, 16, 6, 12, 10, 8, -1, -1, -1, -1, 14, -1, -1, -1, -1, 18, -1, -1], "thresholds": [1.6131091117858887, 0.5, -0.5581207275390625, -0.16870087385177612, 3.215083122253418, -0.4005001485347748, 1.35079026222229, -2.0, -2.0, -2.0, -2.0, 5.595315456390381, -2.0, -2.0, -2.0, -2.0, 1.5387616157531738, -2.0, -2.0], "values": [-6.6384472948761229e-05, -0.001484152458789727, 0.080976958588473993, 0.0017877326696875788, -0.031888185474281426, 0.012158885580060752, -0.011140599122809855, -0.13781850156600681, 0.21596075853570179, -0.80973645878827194, 0.075725571713448889, -0.034628894158581974, 0.99173431982331395, -0.32043445912292029, 0.3896872002321623, 1.1915915010276608, 0.06034900173844332, 0.79747469482866828, 0.15380502009610655], "features": [40, 57, 19, 196, 25, 25, 52, -2, -2, -2, -2, 232, -2, -2, -2, -2, 37, -2, -2], "children_left": [1, 3, 15, 5, 11, 9, 7, -1, -1, -1, -1, 13, -1, -1, -1, -1, 17, -1, -1]}, {"children_right": [2, 4, 12, 6, -1, 10, 8, -1, -1, -1, -1, 14, -1, 16, 18, -1, -1, -1, -1], "thresholds": [0.3460167348384857, 4.430010795593262, 0.4543007016181946, -0.3135083317756653, -2.0, -0.2991417646408081, 0.5, -2.0, -2.0, -2.0, -2.0, 0.5, -2.0, -0.183667853474617, -0.2471020221710205, -2.0, -2.0, -2.0, -2.0], "values": [-6.483425569352104e-05, -0.0039842315868667735, 0.026526777886361055, -0.0056796409899424888, 0.69020064688189786, -0.023755177215181708, 6.8989754578023263e-06, 0.27639632623887472, -0.022856871585255002, 0.33128053814232727, -0.2131571940073678, -0.0032643452611552698, 0.26480733005100704, -0.014621188800513812, 0.10812884214628281, 0.17188512004318984, -0.2326679337479815, 0.74079966233125827, -0.62652953090045205], "features": [223, 70, 55, 130, -2, 70, 302, -2, -2, -2, -2, 294, -2, 34, 58, -2, -2, -2, -2], "children_left": [1, 3, 11, 5, -1, 9, 7, -1, -1, -1, -1, 13, -1, 15, 17, -1, -1, -1, -1]}, {"children_right": [2, 6, 4, 18, 8, 12, -1, -1, 10, -1, -1, 14, 16, -1, -1, -1, -1, -1, -1], "thresholds": [0.8565611243247986, 8.46945571899414, -0.23435764014720917, 0.38454872369766235, -0.04477754980325699, -0.5450624227523804, -2.0, -2.0, -0.4540560245513916, -2.0, -2.0, -0.09464225172996521, 0.004608349874615669, -2.0, -2.0, -2.0, -2.0, -2.0, -2.0], "values": [-6.145290214293404e-05, -0.0048647883389032788, 0.021206143031038384, -0.017025490752561632, 0.039387476738995543, -0.0056142730944270065, 0.99812558462942813, -0.61096928761877234, 0.046149699974025585, 0.56726226897508814, 0.14684216521443622, -0.039685118747482984, -0.0027777893353556336, 1.7578713761173561, -0.43713220196460617, -0.045538897943475362, 0.10516417813039571, -0.050230183949408119, -0.90880662413867119], "features": [163, 325, 307, 268, 118, 133, -2, -2, 31, -2, -2, 142, 222, -2, -2, -2, -2, -2, -2], "children_left": [1, 5, 3, 17, 7, 11, -1, -1, 9, -1, -1, 13, 15, -1, -1, -1, -1, -1, -1]}, {"children_right": [2, 4, 12, 6, 16, 8, 10, -1, -1, -1, -1, 14, -1, -1, -1, -1, 18, -1, -1], "thresholds": [0.05605541914701462, 1.6244726181030273, -0.2714610993862152, 0.5, 0.5, -3.4188790321350098, -0.10682830214500427, -2.0, -2.0, -2.0, -2.0, 0.5, -2.0, -2.0, -2.0, -2.0, -0.1908063292503357, -2.0, -2.0], "values": [-6.5805447263789303e-05, -0.0014570066498574734, 0.10763718506555749, -3.2050979380810798e-05, -0.079586649477465674, 0.0027231034423861864, -0.060860057240540562, 0.89663655184042401, 